2539 128
836 0.30362526 -0.24768671 -0.14308475 -0.3664981 -0.0069382875 0.039908443 0.41941285 0.345766 -0.33449933 0.24885602 0.49807686 0.12431352 -0.16325302 0.07759006 -0.42064446 0.46148613 -0.106875 0.5076162 -0.24155164 -0.049122453 0.13559386 0.10587224 -0.06807886 0.35941678 -0.0221267 0.11232191 0.13768278 -0.5971864 0.38079622 0.18064494 -0.014194876 0.6127597 -0.12841047 -0.12348006 0.34972006 -0.0039322865 -0.41851735 0.009905631 0.10360531 -0.051593013 -0.14742853 -0.017782094 -0.2586936 0.052808847 -0.37833434 0.011955742 0.0020334092 -0.15310077 -0.024258118 -0.34784493 -0.113732815 -0.52084523 -0.20162532 -0.3691742 -0.19645199 0.09439883 -0.120825976 0.42657542 0.11575604 -0.008445542 -0.18963963 -0.02430503 -0.9108219 -0.22442408 -0.16682453 -0.26728323 0.5455806 0.14467718 0.18677421 -0.17924984 0.22927502 0.20882402 -0.30029202 -0.20794095 -0.0722533 -0.40035096 0.40603262 -0.42084667 0.06619742 -0.06813245 -0.3071675 -0.030812334 0.3309845 0.30669028 -0.0735473 -0.06623244 0.274512 -0.75510645 -0.29117548 0.2950463 0.08352072 0.20345557 -0.10709101 -0.09169651 0.016023628 0.017717782 -0.07764001 -0.1415718 0.10646542 -0.17857029 -0.43850535 0.014403565 0.46434557 0.35975042 -0.40435556 0.39964637 -0.6951625 0.19362499 -0.31234372 0.34101272 0.28733635 0.0068199113 -0.35947838 0.053116634 0.07424055 -0.01568226 -0.66920125 0.39300904 -0.23688658 -0.11448139 -0.3551738 0.026114376 0.08063093 -0.22078544 -0.040697925 0.5442994 0.26323906 0.08529301
932 0.33702612 -0.24949647 -0.037567984 -0.3716578 0.03173267 -0.14148171 0.35720718 0.5106179 -0.43153054 0.12904115 0.47284892 0.18461774 -0.15316612 0.11221018 -0.4345114 0.24066453 -0.19879279 0.6157366 -0.17343049 -0.16061164 0.13745466 0.06593762 0.03887376 0.33470008 -0.09240641 0.15494458 0.11175924 -0.5147092 0.34646925 -0.080086775 -0.015760494 0.5407842 -0.041326217 -0.11800532 0.30579415 0.024755578 -0.54046285 0.16919273 0.12916443 -0.043745335 -0.22298338 0.08283556 -0.14614853 0.06934785 -0.2631289 0.04042596 0.02850868 -0.10528996 0.1272352 -0.21514876 -0.027089728 -0.4755551 -0.20740801 -0.37092707 -0.28253275 0.073881775 -0.09498449 0.35186931 0.12185569 0.22090046 -0.35090345 -0.057990488 -0.80466133 -0.2889328 -0.09209552 -0.23276712 0.37156475 0.24313276 0.13773845 -0.090225674 0.16647641 0.2697427 -0.20172153 -0.16603565 -0.01130307 -0.24745554 0.28523257 -0.48704705 0.10784487 -0.018825367 -0.21898295 -0.051228706 0.31198645 0.19517007 -0.17400704 -0.21455422 0.21628122 -0.71255964 -0.20705892 0.25440356 0.063078426 0.109442934 -0.21112381 -0.092113025 0.07129506 -0.08713248 -0.015480102 -0.26870278 0.15361317 0.06919668 -0.43666884 0.18571438 0.578152 0.39351818 -0.28393131 0.3276758 -0.69984776 0.3527666 -0.23194525 0.3975627 0.21346572 -0.0305318 -0.38272756 0.12555017 -0.041758336 -0.028245592 -0.57191926 0.23338254 -0.40606898 0.023060925 -0.3166817 -0.064534344 -0.006646725 -0.2303578 0.024712496 0.4878518 0.2412819 0.07951213
2041 0.09039129 -0.06745458 -0.15591347 0.02196534 -0.44150248 -0.028575016 0.33535725 0.9214276 0.1038702 0.10815082 0.65256196 0.57385224 -0.43518642 -0.14982489 -0.21428083 -0.389368 -0.4325008 0.011218321 -0.1146793 -0.1862907 0.3075307 0.51884246 -0.0005293154 0.2577746 -0.32626948 -0.26599565 0.27484217 -0.7973903 0.32579744 0.61246747 -0.294253 0.74219507 -0.054340944 -0.2854043 -0.046328213 0.07530212 -0.20249076 0.28146577 -0.19629177 0.29215446 -0.10365799 0.090654954 -0.056076407 -0.04596138 0.4072482 0.29517096 0.036624674 -0.2908516 -0.12577046 -0.5508341 0.17871927 -0.28987235 -0.7539486 -0.41668352 -0.0107650235 0.0096413 0.18131872 0.15002039 -0.2313278 0.17947964 -0.26806268 -0.07538358 -0.5415693 -0.12522332 -0.3515347 -0.38025898 0.53188866 -0.40017083 0.3726342 -0.1916172 0.028645504 -0.3933098 -0.46825248 -0.15001345 0.42620748 -0.12589392 0.4548809 -0.46014616 -0.37086755 0.4573685 -0.20898893 -0.018360214 -0.6662424 0.014348754 -0.49961066 -0.07312489 -0.30284518 -0.71691436 -0.020171085 0.05692184 0.3902139 -0.10579094 -0.54067 -0.2759532 -0.26823202 -0.06506029 0.19714518 0.23118836 -0.052026033 -0.14608638 -0.039576754 -0.017542763 0.7993601 0.28186297 -0.6306029 0.95801014 -0.63231283 0.08981587 -0.6321896 -0.2364769 0.18527251 0.3966626 -0.39136556 0.057092767 -0.21228172 0.35774964 -0.818643 -0.26754737 -0.4395643 -0.55893797 -0.026505427 -0.49564502 -0.22821072 0.086309694 -0.2515368 0.76603127 0.21008673 -0.1576997
322 0.53431517 -0.061214622 0.03480722 -0.04657552 -0.00915715 0.04446942 0.45012334 0.85899216 -0.43638048 -0.47767586 0.19617826 0.30204543 -0.28597838 -0.009995521 0.47765905 0.17949636 -0.10488095 0.6902789 0.06403501 -0.3127077 0.30478793 0.26299927 -0.18785876 0.15974234 -0.26295045 0.18358123 0.394311 -0.3830162 0.55798143 -0.05774679 -0.09530657 0.5800736 -0.0532929 -0.045018382 0.03347692 -0.32685727 -0.1535238 -0.1153564 -0.13394201 -0.30862853 -0.1747005 0.45871317 -0.43899664 -0.3773032 0.38078365 -0.15501723 0.13869645 -0.0699026 -0.27286568 -0.38720444 -0.042911794 -0.5641682 0.10841557 -0.3777437 0.2394925 0.12989748 -0.4135426 0.16514613 0.6233509 0.4524879 0.038729776 -0.15966262 -0.30914298 -0.25967023 -0.27545935 -0.18068723 0.17361018 0.32043886 0.09795765 -0.44466332 0.07550852 -0.022533044 0.16237557 0.13842924 0.45683035 -0.32522488 0.46691296 -0.6736774 0.23080929 0.13632764 -0.5247019 0.1814373 -0.3064167 0.25817773 -0.2685389 -0.42891455 0.2719428 -0.45039254 -0.24104062 0.17929663 -0.38542253 0.28009197 -0.23154388 0.116336405 0.22480552 -0.7241094 0.27975377 -0.21839437 -0.16142032 -0.0039518 0.2444713 -0.20938413 -0.15462126 0.5176069 -0.3292405 0.020320538 -0.27914205 -0.18609725 0.16088451 0.7547216 0.06572028 -0.095088154 -0.39838222 0.26946226 0.1618965 0.6597862 -0.22558458 0.56674236 -0.24398515 -0.2629172 -0.20278396 -0.5730892 0.39958763 0.35608405 0.009427375 0.50819737 -0.1270233 -0.065685496
578 0.532809 -0.08992735 -0.010904589 -0.16423346 -0.030839656 -0.026786393 0.3816239 0.878227 -0.37084863 -0.4440865 0.31386808 0.282414 -0.17085986 0.12480438 0.25163123 0.25529078 -0.1541727 0.5257578 0.12112423 -0.2654863 0.36150122 0.26394856 -0.058308654 0.28290358 -0.2554 0.30650508 0.25729376 -0.39464155 0.39728168 -0.117665574 0.05506213 0.6731545 -0.10239923 -0.19891955 0.06771433 -0.1753349 -0.23696476 -0.1476336 -0.1552362 -0.47772422 -0.10453262 0.49767476 -0.36389598 -0.22503142 0.39013204 -0.21556784 0.04021842 0.17963347 -0.2548335 -0.40391818 0.1476998 -0.57697296 0.06402509 -0.47557727 0.36283714 0.012866817 -0.21353115 0.14324763 0.4775721 0.25958928 -0.013717944 -0.1350382 -0.27329192 -0.40050796 -0.24510904 -0.09733206 0.27291924 0.44260815 0.23781641 -0.47989944 0.07850092 0.1575601 0.0660173 -0.13436776 0.35858828 -0.10940842 0.4831995 -0.7273823 0.073320605 0.20810051 -0.40190205 0.07234698 -0.1533787 0.15747873 -0.09226047 -0.58975357 0.32652205 -0.43813744 -0.31687406 0.18979663 -0.23526949 0.012045108 -0.27580267 0.082428746 0.13932566 -0.56268686 0.36829382 -0.43625346 -0.0006018845 -0.23370023 0.01618088 -0.05866564 0.16014226 0.40810448 -0.31872144 0.019537829 -0.263208 0.009493959 0.25287688 0.9071214 -0.006611646 -0.16196 -0.3115482 0.46637115 0.14138147 0.38151944 -0.2081764 0.66004986 -0.30285197 -0.12679598 -0.3964426 -0.57272243 0.30212435 0.091142535 0.08746794 0.44591478 -0.13297302 -0.25687817
581 0.6464541 -0.1390032 0.0036375395 -0.21485811 -0.06522963 0.013288038 0.44559425 0.8324715 -0.39567652 -0.4160295 0.32818884 0.15513088 -0.11655967 0.073119454 0.41240343 0.24664252 -0.21109362 0.43668142 0.021471733 -0.30318648 0.31341916 0.22229485 0.04141773 0.2341135 -0.21940987 0.1442008 0.25022587 -0.4744654 0.44484422 -0.03684403 0.10305344 0.67112136 -0.07562984 -0.06332808 0.002873772 -0.27017447 -0.24249177 -0.23774652 -0.1340945 -0.5520303 0.05853463 0.33224064 -0.368698 -0.066088334 0.3731516 -0.22544841 -0.1915806 0.17384623 -0.31918246 -0.35273394 0.07478654 -0.69827366 0.031607874 -0.44908288 0.34964645 0.05559582 -0.28223795 0.25060105 0.4984298 0.26362896 0.022181263 -0.2595452 -0.32537568 -0.38334975 -0.26694417 -0.009663226 0.26381636 0.45114043 0.31153995 -0.53600353 -0.035712153 0.16750851 0.041675586 -0.16947758 0.49218267 -0.1111182 0.3489451 -0.8344529 0.029537339 0.25148427 -0.3666379 0.0030811303 -0.11547509 0.20564635 -0.0038135725 -0.47605774 0.3644198 -0.28610024 -0.44323993 0.16367659 -0.22029716 -0.026627593 -0.22522298 -0.014761763 0.08407528 -0.47413 0.3084827 -0.40696627 0.041544605 -0.14266579 -0.012778292 -0.18731977 0.15989743 0.35480997 -0.34389526 0.03152548 -0.21942213 -0.06572484 0.2869611 0.71517515 -0.09641345 -0.091450214 -0.26395252 0.45744613 0.03032254 0.3129321 -0.12608993 0.60799694 -0.2202475 -0.2540882 -0.26394397 -0.510908 0.40291828 0.042009093 -0.033934746 0.49255022 -0.115978405 -0.3225955
321 0.5793058 0.058441933 0.11393506 -0.23467635 0.016982948 0.049616206 0.37275344 0.9835108 -0.4124986 -0.40213418 0.11282474 0.37937403 -0.328208 -0.015124783 0.48357877 0.092130154 0.094693184 0.5869936 0.0020365538 -0.36918354 0.24991052 0.37808987 -0.16505164 0.18459156 -0.35960242 0.12842117 0.45058888 -0.35343373 0.64313394 -0.047415204 -0.049229413 0.57137996 -0.010288107 -0.061937265 0.031492986 -0.44288984 -0.1936296 -0.093303055 -0.12862536 -0.15506257 -0.21546103 0.46375057 -0.44499564 -0.3642375 0.44583 -0.08855891 0.11949344 -0.10867196 -0.22093894 -0.42019427 -0.05537556 -0.46077314 0.090574786 -0.39356935 0.249472 0.20000847 -0.51143336 0.1784451 0.62735415 0.5144028 0.10624344 -0.17446563 -0.25593233 -0.20039487 -0.36820635 -0.20710759 0.23401321 0.2165676 0.0851201 -0.49113673 0.1256706 -0.059278414 -0.054599665 0.062063083 0.55099857 -0.2881103 0.48621717 -0.5147138 0.26850927 0.06398563 -0.6237218 0.20303097 -0.3736506 0.21844062 -0.33385646 -0.27148074 0.16194431 -0.3229349 -0.20465222 0.22477198 -0.44336244 0.2942382 -0.19558793 0.084791355 0.2475852 -0.70185155 0.23314272 -0.25006264 -0.16416968 0.05490033 0.26819524 -0.12191428 -0.08143326 0.59545 -0.37724167 0.10035955 -0.25326908 -0.06620769 0.13944471 0.6172375 0.18572216 -0.14753039 -0.49612626 0.27897754 0.0748522 0.6891876 -0.2397788 0.42612344 -0.17670643 -0.223377 -0.1985457 -0.64763117 0.3864229 0.28936452 -0.05971654 0.56141394 -0.16890942 0.04557306
2056 0.11653 -0.010636676 -0.23147176 0.028680854 -0.43294525 -0.0138118 0.32352546 0.83530784 0.16164681 0.22534464 0.5937102 0.5461388 -0.4102449 -0.12294163 -0.2524417 -0.5385512 -0.37303025 0.04361261 -0.11257594 -0.11827309 0.20362456 0.51498103 0.19105321 0.25592062 -0.3015754 -0.3900398 0.19980928 -0.8313995 0.296045 0.66158557 -0.32479388 0.7637039 -0.074566014 -0.31727445 -0.11124076 0.090577185 -0.28660643 0.35008055 -0.1874741 0.21910302 -0.19768044 0.14095506 -0.06424726 0.045115866 0.35089248 0.2482776 -0.08948485 -0.22969665 -0.146877 -0.5830324 0.2011077 -0.3114112 -0.90807146 -0.37534574 -0.13582337 -0.025081286 0.14833172 0.19762832 -0.1770918 0.15950741 -0.18853626 -0.23948959 -0.5568529 -0.135736 -0.40611967 -0.40487015 0.6757785 -0.47177616 0.42682883 -0.1929846 -0.023503188 -0.4444851 -0.54371953 -0.2705132 0.4232756 -0.20458052 0.36014873 -0.34773934 -0.3536432 0.53736544 -0.14611119 -0.057189632 -0.57606083 0.022561852 -0.42707235 -0.06829528 -0.4027451 -0.76811886 -0.1068072 0.021930072 0.3635229 -0.14586312 -0.5561095 -0.283128 -0.24671577 0.02948018 0.12287125 0.19158705 0.052396066 -0.034816023 -0.08199335 0.032829855 0.77433604 0.19611125 -0.75497615 1.0292794 -0.65050006 0.058183257 -0.66627383 -0.28477997 0.078650095 0.46204823 -0.33941826 0.08020933 -0.15519513 0.3254204 -0.8321737 -0.22008093 -0.43243325 -0.6646616 -0.010851413 -0.49904457 -0.2250902 0.050549332 -0.3546074 0.8016424 0.22023414 -0.12447021
771 0.6969713 0.10369659 0.12119385 -0.23954529 0.01889553 0.088049755 0.44066265 0.9128752 -0.46447912 -0.45426723 0.13020684 0.18364601 -0.54392004 -0.017403696 0.50083995 -0.032219965 0.049832612 0.5447133 0.13400643 -0.40191463 0.35142004 0.4175474 -0.19169888 0.38241988 -0.29737455 0.038922623 0.56375587 -0.4891448 0.65325356 0.09588058 0.021110777 0.43197674 0.06846254 0.105421625 -0.016482081 -0.5893384 -0.24096644 -0.15359728 0.00503215 -0.04591193 -0.15012245 0.4441166 -0.5201809 -0.39889643 0.4332483 -0.10083368 -0.01696499 -0.1019221 -0.20029032 -0.5293002 -0.031351857 -0.39575046 0.2117107 -0.43134987 0.18912536 0.07070827 -0.6908393 0.19218574 0.753149 0.5865504 -0.069407076 -0.09793564 -0.23697405 -0.37440237 -0.43235075 -0.15259238 0.33516273 0.22936828 0.07506776 -0.2921111 0.03187072 -0.15576337 0.28520593 -0.09472731 0.5839614 -0.4848375 0.3712167 -0.436464 0.21017687 0.20020063 -0.50938725 0.2877622 -0.3946607 0.008323089 -0.24500255 -0.20175618 0.23090886 -0.31130463 -0.3717607 0.18995623 -0.21826081 0.3678553 -0.14477432 0.00024584282 0.20819479 -0.5607976 0.28087205 -0.0338135 -0.16205111 -0.15583012 0.39077514 -0.08311006 0.00040881085 0.65267974 -0.4041523 0.17846684 -0.03903604 0.06606074 -0.01575042 0.6431211 0.32489583 -0.12291326 -0.50900024 0.0784293 0.14704855 0.9036822 -0.23135151 0.32246804 -0.27950907 -0.29466194 -0.010515396 -0.7519797 0.38003322 0.3842975 -0.011400317 0.39021885 -0.10000472 0.27751952
411 0.626189 -0.1489877 0.1394252 -0.22624274 -0.017366959 -0.029744063 0.12570794 0.83248156 -0.4326862 -0.59676087 0.22749493 0.2004196 -0.1460358 0.09821933 0.30874416 0.25589043 -0.20920543 0.4991931 0.12174623 -0.30217367 0.3502897 0.3034333 0.061636977 0.35172886 -0.39145494 0.22171484 0.1195788 -0.48105446 0.21763043 -0.05098282 0.06768794 0.70081806 -0.07714281 -0.18920909 0.19172253 -0.049903337 -0.36044368 -0.07827863 -0.19164027 -0.5670987 -0.20677426 0.47727624 -0.4074377 -0.17116648 0.3619631 -0.22014199 -0.09047561 0.22186917 -0.25398776 -0.30005297 0.10307542 -0.58535427 -0.018069198 -0.4384439 0.37098324 0.020578604 -0.12239526 0.0736006 0.5166107 0.41060007 -0.124039315 -0.27268532 -0.23857363 -0.43382213 -0.34272623 -0.10459972 0.3090968 0.48884043 0.22574058 -0.37848222 0.043748315 -0.026113486 0.0333777 -0.26909512 0.4108184 -0.120932855 0.35742316 -0.50077325 -0.07002533 0.3941971 -0.284364 -0.009590751 -0.20688106 0.2008538 0.0076182443 -0.46150738 0.35410377 -0.4407253 -0.35932457 0.1989062 -0.16339181 -0.092465 -0.2655454 0.05543622 0.02297641 -0.57302654 0.15864827 -0.47283491 -0.028137553 -0.13067485 0.13286987 -0.045939863 0.2571665 0.32127684 -0.31781697 0.030480474 -0.06744325 0.108062506 0.14145903 0.7510425 -0.053133618 -0.0060494575 -0.3569591 0.54966784 0.13665138 0.22482389 -0.3723239 0.5863413 -0.4489822 0.024473805 -0.32998896 -0.4365911 0.38094765 0.046045598 0.10693524 0.579422 0.077452265 -0.18622304
323 0.5107166 0.01941799 0.05773031 -0.06446354 0.016352827 0.031188266 0.44110847 0.82954705 -0.41570243 -0.4855574 0.1873663 0.2662114 -0.1349019 0.095260054 0.4986655 0.41719326 0.025476927 0.72127444 0.0052365186 -0.25125754 0.3101795 0.31307983 -0.13817933 0.2093309 -0.24795702 0.23810016 0.404303 -0.22288257 0.5392778 -0.027191415 -0.14236245 0.68515414 -0.13666329 -0.14905563 0.04575645 -0.29742932 -0.10988714 -0.06951403 -0.14681688 -0.2652056 -0.21632145 0.48334092 -0.40959895 -0.29405424 0.30523685 -0.08657814 0.3705932 -0.047912005 -0.1812304 -0.31914032 0.008135449 -0.57229996 0.1101836 -0.27670702 0.16512743 0.2680091 -0.30767253 0.1399596 0.57905453 0.49311438 0.052188758 -0.1007457 -0.30143782 -0.15172127 -0.2343813 -0.21719842 0.047116768 0.28128442 0.11351576 -0.60221535 0.13810074 0.053562287 0.055659324 0.21705528 0.46994057 -0.37553084 0.48492557 -0.5915074 0.22259742 0.06551252 -0.48104298 0.162828 -0.30118912 0.3313293 -0.39477193 -0.39199045 0.22751154 -0.43112695 -0.17801195 0.14529333 -0.45391455 0.3209393 -0.2602344 0.024903048 0.16796304 -0.7506249 0.09950362 -0.3397928 -0.2534353 0.02428887 0.16129479 -0.19532192 -0.15137778 0.542937 -0.3601291 -0.028144706 -0.29005393 -0.2416503 0.1165573 0.59120667 0.10668802 -0.116085306 -0.42968208 0.30765954 0.11444815 0.6790225 -0.24346627 0.6135028 -0.2610788 -0.2863249 -0.24595521 -0.5495527 0.3694916 0.35699335 0.03614456 0.42640755 -0.14814486 -0.12400414
67 0.6856031 -0.20141238 0.042681996 -0.2751089 0.15423635 -0.01932124 0.37960565 0.0553979 -0.24094449 0.13642877 0.10825572 0.1988356 -0.17773174 0.18272041 -0.51928335 0.25254786 -0.31031108 0.56044656 -0.18193968 -0.18855622 0.09380663 0.0102911955 -0.16638888 0.21437998 -0.0654437 -0.005510585 0.068460494 -0.36942163 0.28960666 -0.083922826 -0.2324124 0.20699784 -0.18525338 -0.029037012 0.33135274 0.024367953 -0.5147714 -0.07321674 0.00735721 0.053724874 -0.26311603 -0.14282162 0.016675007 0.08984575 -0.15569426 0.34552848 0.049800854 0.054590203 0.078337885 -0.3643243 -0.1387598 -0.49702987 -0.09178824 -0.048011802 -0.045525167 -0.123274766 0.06835378 0.30292192 0.15128689 -0.20469165 -0.03679569 -0.13784616 -0.8581582 -0.33120635 -0.23824786 -0.27790916 0.70721513 2.3810924e-05 -0.11301287 -0.17744938 0.05605383 0.24372965 -0.3489763 -0.32465875 0.092700854 -0.5589675 0.4742554 -0.13644332 0.14227082 -0.062338475 -0.2374565 -0.04937838 0.16034189 0.47955367 -0.17719612 0.036106057 0.18016422 -0.8137126 -0.29818523 0.44591218 -0.07656373 0.20179664 0.047432948 0.04711798 0.32324103 0.08388734 0.029986057 -0.12936367 -0.10147073 0.24825811 -0.14236876 0.056903243 0.07416015 0.48838562 -0.36092174 0.32054007 -0.7167755 0.010269714 -0.016554102 0.21277276 0.29007396 -0.10383529 -0.52395535 0.047880713 0.15321133 0.16256696 -0.76954377 -0.116949774 -0.19013199 -0.0312323 -0.21019769 0.07046332 0.2763491 -0.19265151 -0.39519787 0.6384382 0.13601431 0.15465188
1023 0.49589536 0.13966973 -0.0051390943 -0.12879103 -0.010642151 0.17071138 0.5111626 0.81774825 -0.42142645 -0.5432675 0.27763623 0.27315244 -0.16091996 0.0075523183 0.47543624 0.20762254 0.081475064 0.6090117 0.0053157317 -0.3118091 0.14907138 0.35146308 -0.3032153 0.16284357 -0.36379588 0.2214006 0.25922418 -0.35852477 0.52277786 -0.065626085 -0.1933928 0.573227 0.053313002 -0.16956735 0.016139787 -0.30849904 -0.12896863 -0.16864978 -0.2602993 -0.2383477 -0.12313531 0.614232 -0.37811738 -0.3572654 0.47674626 -0.10331109 0.20246701 -0.06486548 -0.28968826 -0.4073539 -0.047333162 -0.63330984 0.22955982 -0.3049279 0.37582213 0.17580763 -0.53483456 -0.07320561 0.56940025 0.404383 -0.04303644 -0.09883079 -0.26579753 -0.100547954 -0.15274426 -0.28783804 0.108909816 0.11523134 0.13432243 -0.34057623 0.26303422 -0.07850079 0.0882274 0.32415846 0.49974182 -0.34635475 0.5804038 -0.45726338 0.38688192 -0.009507223 -0.57057637 0.07880481 -0.39469668 0.14962989 -0.26554602 -0.34464422 0.20967823 -0.20934534 -0.19081669 0.22740963 -0.44568095 0.32119772 -0.1680833 -0.00874482 0.24172439 -0.60146 0.17338519 -0.2804497 -0.27962178 0.020582711 0.32154772 -0.24604473 -0.08567176 0.42653054 -0.40964022 0.0302646 -0.3892018 -0.2462455 0.05822639 0.65474695 0.035320308 -0.25907937 -0.446886 0.13921426 0.0957974 0.89750576 -0.31584728 0.46253455 -0.17353372 -0.20974849 -0.19284917 -0.40496182 0.31117648 0.41445318 0.08998087 0.55472267 -0.13823016 0.09884588
166 0.410873 0.04305346 -0.087615006 -0.013483046 0.022848243 -0.06774192 0.5383433 0.87980074 -0.3719012 -0.46461734 0.25163537 0.46539798 -0.23771214 0.044078313 0.46316078 0.16207953 -0.031261574 0.7440055 0.070078805 -0.27777246 0.36733812 0.31692392 -0.25037602 0.1635501 -0.3229842 0.14045888 0.37656313 -0.32043484 0.5769142 0.012984577 -0.25251415 0.6307591 -0.09125996 -0.07532641 0.07024729 -0.21866713 -0.032862794 0.013428613 -0.19626018 -0.40756977 -0.16926198 0.45614612 -0.3829847 -0.29858726 0.23557018 -0.23384465 0.2644296 0.011316 -0.15828525 -0.3804354 0.0057206624 -0.68955296 -0.061755303 -0.27906242 0.31019932 0.13703917 -0.4294408 0.15788247 0.5495822 0.32189986 0.083753414 -0.13741328 -0.27769738 -0.13960999 -0.2512029 -0.2643378 0.20957425 0.1846102 0.18884057 -0.44008493 0.053551618 -0.01691553 -0.021281535 0.17292663 0.5085206 -0.1353401 0.37336794 -0.60886407 0.13853341 0.085096896 -0.48722067 0.16337036 -0.3398205 0.2646725 -0.38247472 -0.40472317 0.23674433 -0.5310198 -0.2005014 0.12261666 -0.38034895 0.27236724 -0.30379018 0.15478234 0.18787292 -0.707289 0.1420767 -0.2648994 -0.04910963 -0.08127878 0.1273395 -0.123601936 -0.0515197 0.4922158 -0.41162854 0.0364546 -0.2956262 -0.15319502 0.22837943 0.70237213 0.001400791 -0.09760013 -0.42803985 0.19264606 0.34104106 0.69846296 -0.25202408 0.59182256 -0.32456383 -0.18823974 -0.25393265 -0.5037812 0.4561706 0.38348794 -0.043634742 0.52270514 -0.07272892 -0.16730316
2039 0.084946446 0.054676346 -0.27192998 0.044107873 -0.38317722 -0.041370265 0.43318772 0.73481077 0.13506222 0.19463708 0.5414872 0.5778293 -0.17163602 0.0010169051 -0.25781092 -0.64930767 -0.20373109 0.076488234 -0.21260023 -0.06885405 0.1290512 0.51955163 0.2116793 0.10450379 -0.21968834 -0.4127016 0.14115877 -0.79889023 0.31422508 0.47122476 -0.34003368 0.6675024 -0.14844447 -0.36896133 -0.053239413 0.19342642 -0.3064001 0.34703678 -0.28527296 0.28179055 -0.14790995 0.20765543 0.026243817 0.08886549 0.42581183 0.18031321 -0.19225352 -0.14972411 -0.12582089 -0.5228542 0.1778148 -0.19699569 -0.8925956 -0.3100454 -0.20684767 -0.0013170264 0.2400261 0.17956038 -0.09692237 0.06296552 -0.17466047 -0.25750202 -0.3791969 -0.09485392 -0.47654024 -0.43579033 0.800721 -0.4957206 0.41462097 -0.27270946 -0.0008427637 -0.38736713 -0.5145007 -0.23973945 0.40743765 -0.06789721 0.31434965 -0.30649406 -0.30823553 0.44654247 -0.19211335 -0.09011837 -0.48603833 0.010001875 -0.3570593 -0.08537552 -0.47113603 -0.7813583 -0.024958445 0.017258752 0.31446826 -0.16489474 -0.48428583 -0.25512818 -0.22780773 0.03260434 0.121568106 0.13063936 0.100981645 -0.061999545 -0.09323351 0.017112242 0.62749624 0.19176339 -0.77113336 0.8741436 -0.6578622 0.07771117 -0.58138126 -0.13148668 0.018666482 0.3732039 -0.30079567 0.05939537 -0.16305034 0.28885984 -0.67405605 -0.26800728 -0.40388706 -0.64921534 0.0975876 -0.42354378 -0.18767825 -0.08292153 -0.41264087 0.75692767 0.06884944 -0.01837361
791 0.5671649 -0.26534253 -0.092697 -0.26419437 -0.004649677 0.03356565 0.54125065 0.32423508 -0.062613025 0.3134459 0.33056906 -0.08471777 -0.10055794 0.2901166 -0.4294445 0.0719797 -0.18619326 0.45208627 -0.037567653 -0.1767017 -0.022301123 0.081041835 -0.06519626 0.25766695 -0.10909013 -0.009422086 0.21889895 -0.39284998 0.364395 0.039550245 -0.033037074 0.36740634 -0.19441748 -0.03508227 0.34022668 -0.11409613 -0.71116114 -0.050561223 -0.020207336 0.17174669 -0.29443273 -0.038648695 -0.12286015 0.2284681 -0.16277844 0.1425857 0.046600487 0.045349605 0.06558955 -0.30259633 -0.12976138 -0.25323465 -0.18551587 -0.32375938 -0.4539325 -0.029051144 0.0014203476 0.28481355 0.10985581 -0.03444508 -0.1845864 -0.13614258 -0.7963832 -0.39981267 -0.058235366 -0.22882281 0.90722173 0.040066767 -0.07104116 -0.3004801 0.02701743 0.16032825 -0.38700473 -0.19700775 0.07663271 -0.73142254 0.4427297 -0.30506247 0.104945235 -0.015531148 -0.21139418 -0.14657061 0.12959239 0.2300133 0.026041497 -0.19376765 0.17190495 -0.9778645 -0.30230054 0.282094 0.028999193 0.21645135 -0.09165764 -0.07465695 0.23397806 0.007646539 0.057548832 -0.10207291 0.11154282 0.15451723 -0.42179465 0.22702102 0.34526467 0.38774303 -0.5026475 0.5090071 -0.6172549 -0.048957005 -0.29709625 0.39120147 0.15415004 0.019961994 -0.34572944 0.08229721 0.013511619 -0.04092398 -0.60577476 0.09303498 -0.16477247 -0.24924432 -0.2307293 -0.16238616 0.051708646 -0.25247934 -0.3702291 0.39731967 0.08381187 0.2732809
68 0.7235111 -0.15343605 -0.07800152 -0.27390346 0.100062616 -0.0039226892 0.5167182 0.24558352 -0.25708884 0.2841092 0.41051763 0.10284152 0.10514134 0.2839742 -0.35188562 0.22455339 -0.22389397 0.5042655 -0.19390823 -0.16028817 0.0035762363 0.016011812 -0.1407917 0.27310213 0.21781267 -0.11887412 0.31819764 -0.4592751 0.43161768 0.08350407 0.111743525 0.5242243 -0.396367 -0.038744166 0.48559496 -0.02544949 -0.8281098 -0.12038317 -0.08720068 0.373313 -0.12819146 0.13277484 -0.0168507 0.05529506 -0.08320675 0.18622255 -0.0751555 0.07762606 -0.017745923 0.07468151 -0.027136447 -0.27708766 0.023301285 -0.23806597 -0.4575165 0.09556803 0.0020433308 0.14811908 0.14258462 -0.119115464 -0.10075077 -0.12073973 -0.57400286 -0.33317125 -0.16354555 -0.19806305 0.9730377 -0.024854291 -0.29203373 -0.41427323 0.093977645 0.20821624 -0.48080787 -0.04346859 0.06916676 -0.75885665 0.55348927 -0.13960506 -0.1198252 -0.0077282344 -0.4570942 -0.24179383 -0.11987665 0.47037804 -0.011562704 -0.06678959 0.21315372 -1.1001656 -0.53908914 0.30015513 0.06566354 0.119202755 0.074210204 0.03506391 0.19411469 0.12470327 -0.028734973 0.107973576 -0.029753203 -0.06264181 -0.40437424 -0.06500603 0.16099232 0.39526668 -0.33837533 0.36607063 -0.6695662 -0.048329428 -0.06454705 0.4453063 0.16237448 -0.037718225 -0.30574912 0.092507444 0.28728622 0.04215813 -0.5936852 -0.04983714 -0.102482684 -0.11349343 -0.117255636 -0.08586202 0.27596268 -0.13678633 -0.59849787 0.5012842 -0.08256687 0.3116669
83 0.68076766 -0.20931566 0.15371066 0.06202882 0.0018540347 0.043458905 0.028421076 1.0032729 -0.6485207 -0.31161928 0.037674043 0.12612343 -0.87977755 -0.25641733 0.13288803 -0.18634467 -0.3315528 0.2741153 0.17902751 -0.28452054 0.49485186 0.28865704 0.014614095 0.67556274 0.06587892 -0.19669747 0.67793435 -0.37926665 0.19626468 0.2186421 0.20759706 0.5226139 0.34428108 0.045873035 -0.0443031 -0.3324901 -0.12157315 -0.027027804 0.3770018 -0.08850888 -0.36692008 0.20245779 -0.5855347 -0.26468801 0.28584796 -0.19526824 -0.07951897 -0.28740418 -0.3232512 -0.42496404 -0.011749276 -0.46408525 0.05219403 -0.36596745 0.23813859 -0.25243157 -0.6528662 0.30251405 0.5120128 0.58996356 0.012954451 -0.30544463 -0.2991712 -0.45438153 -0.5644176 -0.14458315 0.26637778 0.14702666 0.088114165 -0.027393823 -0.11719118 -0.32615983 0.25313264 -0.03549551 0.13894667 -0.37265748 0.06001724 -0.39458784 -0.099279046 0.6992875 -0.3179215 0.27500048 -0.36636797 0.07469992 -0.22501478 -0.05198913 0.46954468 -0.23618259 -0.5139304 -0.066847324 0.018712634 0.2004723 -0.25651535 0.038613316 -0.0045865416 -0.13633977 0.3734799 0.06558018 -0.24349771 -0.12212694 0.19430682 -0.33581948 0.05658054 0.53022784 -0.12627406 0.36389527 -0.04378771 0.24659005 0.1261499 0.21731582 0.36424989 0.21146727 -0.5470327 0.43095022 0.28205338 0.5839916 -0.24304424 0.41877794 -0.33767658 -0.24218313 0.19891325 -0.83669364 0.2741719 0.40407583 -0.24591948 0.55474114 0.31367713 -0.031509236
209 0.4739398 -0.11947569 0.12757127 -0.21826446 -0.18115972 -0.046594854 0.24721533 0.8542014 -0.4599248 -0.56230474 0.18263794 0.093058646 -0.13031779 0.10407931 0.3379601 0.35219264 -0.21630561 0.52514803 -0.032734606 -0.32837194 0.3215769 0.24286133 -0.076205485 0.34194192 -0.21308666 0.18729876 0.15100041 -0.4710028 0.28951576 -0.09626421 0.0026733356 0.6083945 -0.15210293 -0.13532628 0.10609015 -0.020696187 -0.33125615 -0.2049929 -0.07793597 -0.5573181 -0.12328935 0.44687822 -0.2984574 -0.17852041 0.36068526 -0.29351324 -0.13063237 0.16260354 -0.24917094 -0.23392205 0.16692933 -0.58948576 0.047215827 -0.32641292 0.081793465 0.23543954 -0.24969135 -0.04446278 0.4257734 0.45159638 -0.15238696 -0.23889136 -0.3000159 -0.3447561 -0.20574833 -0.04791492 0.24742453 0.4284574 0.20987445 -0.35134307 0.04693296 0.051616803 0.15778694 0.1732746 0.35888374 -0.2670066 0.4819311 -0.6495263 0.104338914 0.33419016 -0.24515212 -0.11613441 0.04596951 0.04030262 -0.07319608 -0.56760424 0.3897722 -0.5174786 -0.23388031 0.16845086 -0.08494433 -0.058673352 -0.29808775 0.057651345 0.11804743 -0.52227855 0.1840603 -0.523389 -0.112793274 -0.1953164 0.0027871348 -0.21294296 0.19471495 0.22493622 -0.30035174 -0.020671196 -0.32672808 0.01926725 0.2709769 0.7420195 -0.12662683 -0.2606183 -0.20295814 0.5847047 0.01672406 0.1325801 -0.13840255 0.70577663 -0.47901067 -0.0017185262 -0.41658962 -0.4438495 0.29495656 0.03238946 0.07543009 0.45624796 -0.14427157 -0.33399937
926 0.45338017 -0.19802834 -0.198939 -0.097538754 -0.10105582 0.021615546 0.42339805 0.3546938 -0.035977267 0.32487968 0.36949202 0.111550346 0.070369914 0.31904817 -0.3612877 -0.11990136 -0.11516105 0.5224988 0.034259968 -0.08686805 -0.048074998 0.078066275 -0.0027466444 0.13618425 0.07298349 -0.221805 0.2922256 -0.4514993 0.3975995 0.14856935 0.1448493 0.44174173 -0.42176953 -0.1623351 0.40053365 0.027167862 -0.74833417 0.06650446 -0.10316265 0.5287763 -0.15912761 0.30289057 -0.07574476 0.21236084 -0.09833119 0.12816434 -0.05021191 0.09690051 -0.07981236 -0.2514575 -0.040387042 -0.0458301 -0.3367908 -0.3181893 -0.6599177 0.07177995 0.08319932 0.2514763 0.023098033 -0.03379032 -0.25429168 -0.16936228 -0.39420033 -0.33482417 -0.20583023 -0.33193257 1.036161 -0.11101729 -0.18352793 -0.4729919 0.055149253 0.029454034 -0.28818116 -0.038883355 0.019731594 -0.754925 0.5003378 -0.276262 -0.086216554 0.086180694 -0.15328543 -0.3292729 -0.08288321 0.23224264 0.14139454 -0.195654 0.0026231303 -1.1607751 -0.29478648 0.20362781 0.11239597 0.18095303 -0.052260615 -0.01034142 0.073763564 0.082132936 0.11143466 0.054938853 -0.025519421 0.042365506 -0.45156905 -0.061652202 0.14432387 0.36867002 -0.5383114 0.5571922 -0.66403073 -0.0013348772 -0.2700424 0.35539946 0.16892302 0.15412374 -0.15160438 0.18407671 0.08716127 -0.0626516 -0.54290754 0.08877056 -0.24630821 -0.3958621 0.00928056 -0.1816864 0.084645666 -0.19992338 -0.49666655 0.43215793 0.017292628 0.39184183
2152 0.08261125 0.08289262 -0.17081067 0.0934208 -0.46664682 0.03070742 0.2819476 0.6858166 0.18154702 0.17803119 0.5006672 0.6390939 -0.35444415 -0.1672832 -0.22650343 -0.5960519 -0.27675217 -0.000173543 -0.13921301 -0.12380917 0.20166942 0.5445182 0.15599571 0.13270941 -0.2146163 -0.4490414 0.18242197 -0.8242104 0.28856236 0.6577819 -0.46073508 0.6703666 -0.13266174 -0.31235793 -0.121122696 0.11572918 -0.20676889 0.29816878 -0.23708864 0.21258381 -0.15213355 0.065836035 -0.020558175 0.041910216 0.40713072 0.36530867 -0.105095565 -0.17111503 -0.20313191 -0.5687056 0.15833454 -0.31967664 -0.8879873 -0.2963346 -0.13842036 0.035570126 0.20295334 0.10289188 -0.17213339 0.107130766 -0.14130768 -0.2654193 -0.4940475 -0.06677322 -0.43008485 -0.41221738 0.72249484 -0.57937825 0.41058326 -0.18849866 -0.010719046 -0.4162276 -0.48564303 -0.22674283 0.4457573 -0.15049192 0.3892518 -0.30046278 -0.21047316 0.5221233 -0.15514907 -0.067559384 -0.55944383 -0.030000804 -0.60601914 -0.0068078376 -0.47259894 -0.7215969 -0.01239307 0.08228277 0.31650963 -0.09525265 -0.4802833 -0.3287131 -0.2452839 0.038087014 0.16085926 0.21713743 0.03425422 -0.017214103 -0.0745827 -0.02524406 0.63200027 0.09676655 -0.8049856 1.0106046 -0.6439079 0.02644739 -0.6642939 -0.35591078 0.13316041 0.3941159 -0.3311597 0.08508391 -0.14411251 0.33018726 -0.81181276 -0.32471055 -0.44138813 -0.6787351 0.012266087 -0.49709618 -0.27371842 0.099278554 -0.407261 0.8453946 0.083282486 -0.14229989
175 0.5174802 -0.023688633 0.4188088 0.06812866 -0.034604102 0.18332087 0.03275815 0.47568822 -0.4876491 -0.45430854 -0.14572018 0.28258118 -0.23548298 -0.20864911 0.17005421 0.11063809 0.16597226 0.56521 0.110626094 -0.09599834 0.36517432 0.36680767 -0.20849317 0.351483 -0.34722227 -0.004966177 0.2168578 -0.06539577 0.47547773 -0.12035134 -0.47786537 0.4962218 -0.024456266 -0.31868625 0.4327771 -0.3634809 -0.2864435 -0.12476778 -0.14851162 -0.34125423 -0.24157517 0.2744369 -0.5378263 -0.015096189 -0.09686641 0.1671616 -0.14866096 -0.031040872 -0.1834731 -0.37480298 -0.17581102 -0.7135944 0.05937162 -0.3275287 0.22709046 -0.24080795 -0.4703941 0.07830967 0.57811344 0.39061695 -0.32612833 -0.38628736 -0.24221978 0.03604669 -0.8507974 -0.5619548 0.62603796 0.31051123 0.05887917 -0.33161417 0.18939131 0.07829399 0.08761587 -0.55710226 0.35424018 -0.41721144 0.45642117 0.2869591 0.09814183 0.037479486 -0.6179392 -0.06633297 -0.17216489 0.4010089 -0.3826123 -0.1724439 0.2608367 -0.3669166 -0.24536234 0.3544955 -0.6922211 0.0758829 -0.027502561 -0.0047327457 0.27537292 -0.62874305 0.28491002 -0.44656995 -0.31741872 0.08413172 0.29748243 0.015265662 -0.2886801 0.51991355 -0.4592353 0.14662994 -0.22394575 0.40202922 -0.18465096 0.64453095 0.2850719 -0.08197969 -0.45564112 0.6353281 0.04734583 0.30627212 -0.23129821 0.23671445 -0.43328315 0.21834932 -0.41158077 -0.45327935 0.33494002 0.122491635 -0.2501935 0.88130164 0.018792689 0.115818664
1139 0.7401801 -0.04435178 0.17938435 -0.081147976 -0.14606307 0.14845103 -0.015138712 0.6406006 -0.3178903 -0.6895872 -0.05279942 -0.031419862 -0.22898854 -0.019967183 0.2468761 0.19534953 -0.035606988 0.35180864 0.37061557 0.035073694 0.44892392 0.30437368 0.23854935 0.45868552 -0.5620264 -0.011206579 0.054759655 -0.4485329 0.038658757 0.14189169 -0.08329868 0.69284236 -0.022393 -0.3466364 0.11450978 -0.10105801 -0.37646392 -0.11865725 -0.20157531 -0.46118894 -0.17271857 0.5828362 -0.5819034 -0.0073344833 0.22174096 0.055256415 -0.11438077 0.20746715 -0.11297194 -0.3626663 0.11504579 -0.47746572 -0.027158946 -0.2950041 0.44361323 0.051908657 -0.09468983 0.0073437975 0.51443946 0.38045344 -0.1946382 -0.43955553 -0.18040809 -0.53523403 -0.5061844 -0.35331473 0.5115976 0.29769325 0.1269588 -0.47792274 0.120454274 0.016142352 0.3578219 -0.5769497 0.25903463 -0.4393522 0.3180924 0.167042 -0.1658116 0.6072711 -0.059844196 -0.13322984 -0.08427799 0.13569324 -0.03854737 -0.32600555 0.1632767 -0.2066129 -0.42476076 0.21158913 -0.38162726 0.05739036 -0.31570986 -0.14923735 -0.044518705 -0.43226546 0.043926924 -0.49628246 -0.034514096 0.0056420006 0.45098898 0.03605304 -0.052176666 0.19786394 -0.51460946 0.09065966 0.18485428 -0.05086309 -0.04390786 0.4883209 0.16573794 0.042654555 -0.396451 0.59865254 0.15379365 0.34644225 -0.48531964 0.5226938 -0.38635573 -0.12634584 -0.15073654 -0.40641686 0.31833696 0.02890157 0.058506537 0.732858 0.2688542 0.03586664
877 0.8040136 -0.2098606 0.13720852 -0.08913214 -0.0062638177 0.0074705007 -0.14594518 0.77970195 -0.5446288 -0.66310537 0.23065187 0.13843818 -0.33556008 -0.036640305 0.10063509 0.20283966 -0.2517716 0.566616 0.26716128 -0.23114572 0.44277033 0.30403855 0.121048816 0.3735694 -0.5128673 -0.025555046 0.12020988 -0.41396293 0.021908343 0.059055395 0.05058502 0.70162517 -0.06947373 -0.23705196 0.31426024 -0.07414603 -0.3453571 0.011409944 -0.04256272 -0.5464004 -0.20182177 0.62529474 -0.5585405 -0.055929765 0.20644419 -0.11614246 -0.044112943 0.13922681 -0.30219162 -0.5690929 -0.08910653 -0.4138564 -0.015987797 -0.33053648 0.48866218 -0.13266623 -0.13258734 0.05084485 0.41064015 0.42081866 -0.18502313 -0.5343795 -0.25004628 -0.5650827 -0.44687915 -0.28674388 0.44174305 0.47058007 0.21485917 -0.28632012 0.12337026 -0.18920608 0.24474303 -0.46676978 0.24616705 -0.3243776 0.2734794 -0.14341442 -0.15323173 0.74032634 -0.16030206 -0.046899647 -0.19714135 0.26158565 0.08672765 -0.3100536 0.36400878 -0.3876114 -0.37377834 0.3339247 -0.274493 -0.1185703 -0.23404874 0.056426924 -0.16831565 -0.46642902 0.24146035 -0.42067292 -0.2870589 0.11174137 0.23781551 -0.13221663 0.16366857 0.34845087 -0.37721372 0.12830667 -0.023221243 0.096957795 -0.10138904 0.3290542 0.14598879 0.3590364 -0.49266258 0.54068327 0.17067032 0.25590298 -0.5162586 0.45799306 -0.45760074 0.038317606 -0.120049 -0.210734 0.4666361 0.1654734 -0.018267933 0.8057652 0.3811669 0.015636701
148 0.49104655 -0.18290478 0.06777404 -0.16722292 0.06525137 -0.0044669183 0.32632405 0.39349192 -0.42553905 0.03251758 0.7271234 -0.041307155 0.070974916 0.31247056 -0.2116016 0.42500585 -0.11764597 0.4039511 -0.12294929 -0.26287863 0.08387486 0.15697159 -0.24938634 0.48943564 0.16171275 0.23666899 0.20165323 -0.34058958 0.39787236 0.077009834 0.03700179 0.6468241 -0.39496452 -0.15755484 0.45896354 0.05865212 -0.57261723 -0.0054326355 0.0589226 0.095524296 -0.20394412 0.2445673 -0.15520328 -0.043469165 -0.17629066 0.07589937 0.1396757 0.13119406 -0.054014347 0.04001882 0.029265175 -0.45632818 0.0059946966 -0.24883297 -0.19846128 -0.101985805 -0.14716005 0.33116472 0.014276755 -0.055834595 -0.25154096 -0.088963084 -0.6928821 -0.19807267 0.007499596 -0.16673124 0.503898 0.25086707 0.055009183 -0.2438834 0.28035077 0.0628869 -0.33713335 -0.06477033 0.031748347 -0.36948293 0.40903324 -0.38925874 -0.05211365 -0.32078105 -0.6202604 -0.08654375 0.07039884 0.12625808 -0.14124744 -0.10235304 0.2748382 -0.9866339 -0.30691898 0.25753894 0.26273307 0.2263497 -0.020870276 -0.00022088029 0.135189 -0.01382493 -0.05921772 0.086921886 -0.019610995 -0.2358985 -0.39306614 0.18022975 0.39626765 0.5150677 -0.28955737 0.4880624 -0.7582719 0.21587226 -0.31924072 0.29732263 0.16130446 0.059736002 -0.4769062 -0.025834184 0.10906188 0.026151393 -0.5243458 0.13461605 -0.36439398 0.18291578 -0.46037868 0.07365117 0.04156537 0.013466342 -0.21120116 0.24975026 0.01936273 0.13556485
495 0.44242883 -0.19089836 -0.13083982 -0.3890732 -0.019304482 0.0255564 0.48831826 0.53153247 -0.3829407 0.17329632 0.44270918 0.04587859 0.044054534 0.13069928 -0.27647054 0.37568575 -0.18432315 0.6005554 -0.2180427 -0.07838128 0.032737758 0.09111391 0.07614881 0.19173457 -0.11143923 0.183362 0.18653458 -0.4309153 0.36234573 0.08228236 0.03417305 0.6676802 -0.19179092 -0.100145996 0.27520323 0.032888662 -0.47171208 0.050105896 0.13498089 -0.04225604 -0.3772259 0.24352627 -0.13010287 0.11764754 -0.30345914 0.026300255 0.033770747 -0.10489991 0.028844023 -0.39071015 -0.02200627 -0.54464835 -0.26411903 -0.39706263 -0.29935545 -0.006916311 -0.079453774 0.2694553 0.1435093 -0.0028435101 -0.1507162 -0.05325341 -0.86503565 -0.3940745 -0.019892322 -0.20765902 0.60697 0.03610941 0.07589239 -0.32496396 0.17257853 0.06701026 -0.29810163 0.0637352 -0.067372896 -0.37828714 0.33940712 -0.41035533 0.09315463 -0.0038125876 -0.2342659 -0.09661626 0.3845974 0.30428633 -0.052120227 -0.19752173 0.17879501 -0.82406074 -0.12230398 0.21520425 0.101022966 0.43624488 -0.30077368 -0.05270686 0.14497541 -0.008837375 -0.08058837 -0.11403798 0.29346675 -0.07317551 -0.5410085 0.08139781 0.5002656 0.39829025 -0.4208725 0.5259146 -0.84745646 0.12763743 -0.114790544 0.38212416 0.14076373 -0.031149019 -0.33382213 0.12898463 -0.014646824 0.024945708 -0.60812664 0.3204463 -0.3079153 -0.014982799 -0.39754847 -0.1596936 0.04945826 -0.077729 -0.008637246 0.5159551 0.25144488 0.010499876
2089 0.16907406 -0.02208297 -0.13536759 0.06729861 -0.37366268 -0.051942818 0.40876004 0.85359246 0.15030095 0.079056345 0.5787101 0.62399024 -0.35338005 -0.15011132 -0.13916501 -0.5464187 -0.31591737 0.048861895 -0.11128932 -0.2372378 0.3069759 0.4940456 0.036857624 0.19130993 -0.27515882 -0.40232304 0.2350737 -0.8503853 0.26032698 0.60231525 -0.36781347 0.7165138 -0.13342342 -0.3303423 -0.1591768 0.0045756106 -0.15199813 0.31189942 -0.20131171 0.25708675 -0.1722014 0.10944412 -0.054564793 0.11580003 0.38062194 0.279493 -0.0032552194 -0.22538482 -0.179344 -0.52002937 0.14166468 -0.34553164 -0.8247274 -0.3052411 -0.16293941 0.06482958 0.16451818 0.14169443 -0.18492794 0.23651847 -0.18084027 -0.24768367 -0.479529 -0.011027499 -0.32644773 -0.39399064 0.5903409 -0.43901807 0.36631414 -0.21194056 0.07909621 -0.43325174 -0.46433672 -0.18368444 0.52690226 -0.085774735 0.41279128 -0.38393593 -0.32279062 0.44460556 -0.16696762 -0.03918726 -0.6988861 0.058814123 -0.4934734 -0.12827092 -0.34770203 -0.7097781 -0.12832709 0.08775979 0.26564246 -0.11079863 -0.4749616 -0.31698006 -0.25266814 -0.06837384 0.15609138 0.21375746 0.022173798 -0.07404705 -0.06039396 0.0031461425 0.7552486 0.23711604 -0.7597022 0.8928407 -0.61986995 0.07501454 -0.61347646 -0.2174603 0.12403762 0.33997235 -0.31461552 0.10550166 -0.109598234 0.43756083 -0.8135188 -0.29356033 -0.4569637 -0.5610446 0.0003639497 -0.46945015 -0.15854172 0.13087897 -0.36775735 0.73786855 0.21279384 -0.12175912
704 0.59170043 -0.11084161 0.47923496 -0.045823798 -0.18366522 0.25773275 -0.16270283 0.46289158 -0.52174836 -0.54928917 -0.16287465 0.28087008 -0.22660048 -0.19901814 0.20434278 0.28610867 0.27767497 0.5660396 0.053227402 -0.18202873 0.3113293 0.3073542 -0.20296983 0.33632433 -0.36985672 0.047092482 0.13231164 -0.11749814 0.45774963 -0.1278749 -0.42167544 0.37392294 -0.2601071 -0.28659174 0.39124364 -0.38232484 -0.38528302 -0.1261257 -0.12442503 -0.25205976 -0.17469339 0.34648898 -0.4123745 -0.022742763 -0.052617863 0.29485515 -0.14669722 -0.006179387 -0.32223848 -0.5157697 -0.28535792 -0.68536395 0.068473786 -0.18306664 0.17719808 -0.19687758 -0.3932925 0.082702905 0.44763324 0.4601951 -0.25098035 -0.42984337 -0.39498582 0.07116945 -0.93491143 -0.545919 0.46818957 0.4014207 0.167289 -0.49707982 0.27143964 -0.021187091 0.13389462 -0.54415315 0.4313108 -0.5328206 0.49476564 0.26980495 0.1896217 0.08984383 -0.5779092 -0.057947583 -0.040563703 0.4005825 -0.3440877 -0.14251927 0.26201487 -0.31424966 -0.2096839 0.44078508 -0.59940755 0.19296405 0.03723214 -0.18469948 0.2707962 -0.57841694 0.24357891 -0.44375157 -0.5157692 0.1897614 0.2831316 -0.009031434 -0.24634434 0.6672223 -0.52917 0.2567858 -0.29088816 0.3393406 -0.22254024 0.38138407 0.38769704 -0.034031264 -0.42498508 0.77866834 -0.20052524 0.28690237 -0.30441993 0.14714466 -0.35254014 0.16434294 -0.36104044 -0.41312706 0.38155186 0.22366221 -0.22614093 0.89540815 0.008195408 0.16670653
70 0.2560496 -0.2948168 -0.12192577 -0.18894929 -0.047916014 -0.02523212 0.36673307 0.5072168 -0.46999937 0.15501757 0.52583575 0.05620296 -0.06385709 0.044697344 -0.38343212 0.4820446 -0.17622216 0.561221 -0.089197226 -0.0700621 0.12606892 0.15645131 -0.077456936 0.2971555 0.012854585 0.15098345 0.25484222 -0.46962172 0.37588838 0.06402999 -0.03470089 0.6481347 -0.13633044 -0.08434612 0.3253079 -0.045597754 -0.43446764 -0.02155113 0.19609448 -0.07731794 -0.20212415 0.23612875 -0.21438529 -0.06886966 -0.3431014 0.052681137 0.08027313 -0.08479905 0.027992208 -0.1955632 -0.06465829 -0.41279912 -0.18345776 -0.4471204 -0.28764555 0.09979344 -0.098156504 0.4821741 0.13751303 0.04884159 -0.36026353 -0.050188787 -0.8805816 -0.37435818 -0.1356382 -0.26366323 0.3983339 0.3477144 0.16842294 -0.2756244 0.1940251 0.23982382 -0.19170868 -0.13635021 -0.1383855 -0.3458112 0.45230898 -0.49449804 0.054374237 -0.17506573 -0.3649281 0.02433708 0.35735694 0.12322488 -0.20841558 -0.17790905 0.18051809 -0.87883997 -0.23143536 0.19598068 0.1748046 0.22231366 -0.17020413 -0.055902738 -0.044607922 -0.08534867 -0.08771343 -0.030679371 0.21169288 -0.19614868 -0.4640509 0.18350935 0.41509703 0.42707506 -0.3498921 0.43794098 -0.71785146 0.18201591 -0.3978307 0.39647216 0.28537995 0.0331159 -0.41203022 0.001535435 -0.06889359 0.022341687 -0.4872782 0.2475164 -0.37697095 0.03406212 -0.4803181 0.010899617 -0.010004293 -0.099844 0.038499206 0.43125874 0.16301231 0.067139424
43 0.5194693 -0.103645205 0.045800917 0.07160489 -0.13970381 0.049720086 0.07968759 0.9873674 -0.5873965 -0.3534593 0.22413455 0.34616494 -0.84119725 -0.03468958 0.12577732 -0.2951958 -0.11875431 0.36267912 0.3007022 -0.32399294 0.47745177 0.25107095 -0.26946625 0.41708753 -0.16232565 -0.11899285 0.5526521 -0.4202587 0.4563985 0.22784014 0.088649064 0.36828837 0.21022439 0.039170913 0.04927315 -0.4277752 -0.06843127 0.050678015 0.20669723 0.15394258 -0.35111403 0.18446593 -0.4830746 -0.2787715 0.44971368 0.08033172 0.06860498 -0.26358306 -0.30578643 -0.6234565 0.06694418 -0.38865206 0.044060774 -0.26220906 0.34031335 -0.34593564 -0.44979736 0.13717471 0.30405205 0.53649986 -0.04210503 -0.06574032 -0.16104054 -0.3408219 -0.38220873 -0.059606913 0.23080876 -0.061966363 0.14253147 0.023661396 -0.13243021 -0.32878834 0.35576877 0.013673939 0.3252382 -0.36560148 0.13767317 -0.32606795 0.038745813 0.53393394 -0.27517375 0.18663204 -0.4450719 -0.19615789 -0.218983 -0.09318409 0.3181021 -0.24298917 -0.24942668 0.03404441 0.20986813 0.33599514 -0.2731574 -0.108935274 0.101738885 -0.2771969 0.37823135 0.22106111 -0.30335978 -0.1565812 0.29829037 -0.1453901 0.18573044 0.6294788 -0.2576388 0.44851267 -0.090902 0.22817868 -0.00036601102 0.2527014 0.49315032 0.09737007 -0.43855003 0.289131 0.073426776 0.6932333 -0.26210487 0.27107692 -0.36874723 -0.31887922 0.31883544 -0.84049547 0.12073964 0.41242647 -0.105195515 0.32449517 0.16308635 0.14975195
238 0.63213474 -0.09507989 0.48306704 -0.10783591 0.07478991 0.13128178 0.0957297 0.34385777 -0.48017195 -0.38162318 -0.046970848 0.2612262 -0.2310674 -0.19263005 0.22933197 0.17211482 0.20120975 0.5828243 0.06220211 -0.18541186 0.31458595 0.24867322 -0.19046505 0.31328177 -0.4063963 -0.057883665 0.17639431 -0.1993621 0.35257939 -0.07582357 -0.3209301 0.42516083 -0.25891563 -0.22390786 0.35004556 -0.3959274 -0.42177168 -0.12488401 -0.09816201 -0.31693974 -0.1824205 0.27103913 -0.45514452 0.17156576 -0.21554182 0.43764213 -0.070331834 0.0030076725 -0.10891609 -0.45586717 -0.2539595 -0.6965219 0.07493785 -0.09492087 0.02869152 -0.060563184 -0.2902703 0.08823394 0.46898392 0.33251143 -0.21596615 -0.39233068 -0.47766298 -0.01941124 -0.7869089 -0.5632452 0.6049544 0.23493086 -0.08555968 -0.43034855 0.2326953 0.21245149 -0.06019681 -0.61330205 0.48117787 -0.6234659 0.42880213 0.23545806 0.03063106 0.015940959 -0.6353709 0.018170414 -0.16622753 0.4944155 -0.47597173 -0.11997755 0.33193976 -0.3945571 -0.36271864 0.48858148 -0.50064987 0.13547264 0.06776213 -0.20985396 0.18980736 -0.5096274 0.15183589 -0.3123172 -0.3297074 0.20081542 0.24478923 0.008598724 -0.2135367 0.60971665 -0.5544914 0.19832925 -0.11190813 0.23156571 -0.28780589 0.53480107 0.4450996 -0.08669236 -0.3767722 0.5582015 -0.083509065 0.433264 -0.5060706 0.08026404 -0.40370217 0.20150165 -0.33051422 -0.38121623 0.46110258 0.18378967 -0.2759582 0.7836594 0.065309174 0.29260537
618 0.27481717 0.26145524 -0.01102011 -0.40851998 -0.020548591 0.08712358 0.35244855 0.46660975 -0.39300767 -0.12006852 0.4768071 0.14928755 0.0660699 0.24391496 0.085992604 0.1616794 0.16835119 0.4248336 -0.24371217 -0.15818125 -0.12293298 0.23803037 -0.18109424 0.12748459 -0.25611717 0.0916757 0.11111072 -0.32880262 0.4499098 0.41522616 -0.1547594 0.63357 -0.2623831 0.06464273 0.3608294 -0.049194492 -0.29736665 0.29505146 -0.19473106 -0.37165082 -0.34765258 0.27053553 -0.16714108 0.24173604 -0.14743842 0.049311936 0.31011063 -0.017285453 -0.012556684 -0.40350595 0.09343622 -0.6242524 -0.30281737 -0.14787251 -0.09639398 0.008106439 -0.10079241 -0.2186308 -0.019667765 0.04677995 -0.036454506 -0.16610067 -0.9104929 -0.09978547 0.10588408 -0.035360634 0.47896037 -0.27071965 0.24514653 -0.12364783 0.3047013 -0.36023653 -0.56204265 0.24108848 0.15941253 -0.30537346 0.034872983 -0.026276078 0.13534364 -0.09338548 -0.49986383 -0.055689353 -0.014118573 0.07352148 -0.19555305 0.10942083 0.22551666 -0.4941316 -0.022631615 0.11324694 0.24312718 0.43826804 -0.27314106 -0.1426382 0.11776078 -0.08931847 -0.24955416 0.013026467 0.18058915 -0.02167395 -0.52406466 0.15296355 0.7179451 0.2830495 -0.4536014 0.75102806 -0.7846807 0.04223414 -0.1625046 -0.15156159 -0.043684687 0.10290966 -0.43951517 -0.08644937 0.10755123 0.3492625 -0.56413805 0.026743637 -0.2794771 -0.12817723 -0.26443636 -0.11484038 -0.0006105487 0.23873688 -0.15457572 0.41851786 0.32049647 -0.10041762
108 0.78193843 -0.30152798 0.07157393 0.094789796 -0.1214127 0.066923104 0.08975285 1.1182945 -0.6039615 -0.29548943 0.17469396 0.15653403 -0.95192283 -0.26583853 0.17416143 -0.16799854 -0.34869292 0.299098 0.23797105 -0.3543999 0.5484088 0.26121977 -0.107442215 0.6385184 -0.019354837 -0.17551588 0.6921769 -0.49138546 0.320357 0.2359989 0.23687547 0.5444291 0.27176425 0.05213891 -0.032627605 -0.45611998 -0.17601572 -0.13866146 0.35326993 0.05488743 -0.37084818 0.2026098 -0.5683589 -0.32825553 0.43641058 -0.00077820773 -0.066199064 -0.31483865 -0.4258741 -0.48419917 -0.026262585 -0.53243023 0.078106605 -0.44691548 0.300912 -0.3399773 -0.6427019 0.3425 0.4985454 0.63498324 -0.027713886 -0.15318145 -0.33171633 -0.43748057 -0.5009603 -0.039571535 0.26711562 0.13666986 0.097730294 -0.063057266 -0.14381306 -0.27272922 0.38680497 -0.032217525 0.2984095 -0.5283628 0.15701175 -0.52235043 -0.053098366 0.7093763 -0.32455188 0.28138617 -0.45721993 0.0010023792 -0.19099288 -0.13090995 0.46595046 -0.29480124 -0.50740635 0.02936625 0.124547906 0.3830717 -0.20723838 -0.06761333 0.07562708 -0.2168284 0.43071684 0.2565058 -0.30954716 -0.13621995 0.23598738 -0.3457601 0.031110164 0.6231544 -0.1585237 0.5217226 -0.010758386 0.1954888 0.08683134 0.31769508 0.43946964 0.23085077 -0.46599323 0.41167063 0.1532101 0.6641802 -0.2848609 0.4437088 -0.27260578 -0.3457583 0.27217495 -0.9443585 0.25783595 0.48391402 -0.18353875 0.44572493 0.24168651 0.07448609
1937 0.24318497 0.11692473 -0.2162008 -0.25562015 -0.08917672 -0.16162647 0.31990382 0.56325054 -0.05222137 0.1072588 0.51588976 0.08934959 0.2482618 0.36116856 -0.10673311 -0.46753454 -0.02510626 0.26109004 -0.23707275 -0.19092722 -0.23270881 0.4271477 0.46437213 0.24591342 0.05840732 -0.24352765 0.030733606 -0.41070455 0.40212795 0.018667245 -0.012079455 0.46144128 -0.15109567 -0.26122773 0.17798398 0.27932885 -0.51100564 0.3558367 -0.26457423 0.3913702 -0.05496216 0.29285523 0.22794609 0.18776202 0.18032494 -0.16163999 -0.38147634 0.004129998 0.101297095 -0.064993285 0.21945977 -0.0191596 -0.525762 -0.23040129 -0.3727178 0.061972912 0.08959312 0.2690529 0.103276715 0.20959114 -0.29952908 -0.26885888 -0.16839075 -0.1309261 -0.47794983 -0.27359903 0.57896817 -0.23644465 0.3628465 -0.29413924 0.0037580137 -0.2624912 -0.41504422 -0.04756358 0.2784265 -0.121553905 0.056972988 -0.2709901 -0.114021964 0.021842672 -0.30882713 -0.34662154 -0.14337575 -0.08549908 0.06306005 -0.03428297 -0.34303284 -0.7020344 -0.071915425 -0.0820226 0.2729648 -0.32196465 -0.10654 -0.14627531 -0.031613797 0.066219196 -0.11782626 -0.15146856 0.025623301 0.09681529 -0.17391394 0.028193831 0.46211585 0.24953243 -0.45048788 0.42568758 -0.55360407 0.21865065 -0.51252335 -0.026469784 -0.1663566 0.27867565 -0.20572646 -0.011773725 -0.27337942 -0.0054575647 -0.24411389 -0.14281015 -0.36528453 -0.43409714 0.09825988 -0.035728358 -0.010170862 -0.28248593 -0.3994514 0.38941008 -0.16067696 0.2833503
1450 0.56653774 0.116823174 0.033296976 -0.22050238 -0.047036145 0.09750543 0.3817388 0.818764 -0.31800398 -0.45233917 0.29053637 0.33453488 -0.18140602 0.17463914 0.6112552 0.3919161 0.01836758 0.53031534 -0.12526633 -0.30544555 0.250439 0.29289073 -0.22579584 0.23635532 -0.3373588 0.19278131 0.39363262 -0.27981693 0.5525176 0.23930417 -0.1867069 0.64332545 -0.14931661 -0.020524478 0.1575245 -0.24756205 -0.112884074 0.013488314 -0.1490027 -0.28963324 -0.24566472 0.2914814 -0.16249324 -0.24698639 0.16662337 -0.1401894 0.22634943 0.03089856 -0.13103715 -0.3313302 0.12693661 -0.70048386 0.050507672 -0.1935688 0.22762093 0.22757234 -0.33212233 0.20644112 0.48124635 0.31345403 0.18501829 -0.06951993 -0.46752575 0.11352696 -0.17275561 0.021408929 -0.07878535 0.14939827 0.16439822 -0.4741492 0.14173213 -0.1518779 -0.24760026 0.14749725 0.583072 -0.28494966 0.3794245 -0.571142 0.12632595 -0.07669717 -0.47509763 0.06030107 -0.32565057 0.42864665 -0.40272647 -0.2257113 0.18644293 -0.47068325 -0.13968767 0.122674115 -0.18848024 0.14628443 -0.2284456 0.108744204 0.14294568 -0.5549486 -0.11206338 -0.2974982 -0.1507092 -0.1410197 0.09265135 -0.09094107 0.08011938 0.48184198 -0.46468887 -0.100948706 -0.34672898 -0.12622808 -0.04562356 0.31240547 -0.037461147 -0.14965364 -0.48030314 0.08433649 0.1645413 0.73962533 -0.3410033 0.6048153 -0.37851155 -0.261458 -0.41956535 -0.42295748 0.6128014 0.29772875 -0.08900438 0.24652134 -0.117412806 -0.18159854
2107 -0.029493993 0.014275114 -0.25655073 0.078508124 -0.5289138 -0.11770668 0.3628891 0.74212 0.23315911 0.25414142 0.5823017 0.59737307 -0.4504878 -0.19672948 -0.31211346 -0.44137114 -0.4424951 -0.018653201 -0.1386713 -0.065599 0.3403275 0.57780796 -0.045867506 0.17624022 -0.45126677 -0.3998116 0.19548674 -0.799835 0.28538197 0.6558629 -0.35944346 0.728697 -0.14618929 -0.33789614 0.036724966 0.17500602 -0.21284695 0.40399298 -0.3256492 0.09143291 -0.07665621 -0.005436406 -0.07907216 -0.075983316 0.30545437 0.26872084 -0.048308387 -0.22616243 -0.079551406 -0.54859644 0.16500498 -0.3508967 -0.8124522 -0.38251147 0.04142011 0.044379663 0.2684487 0.08630268 -0.16277435 -4.837045e-05 -0.1915313 -0.108059935 -0.61601794 -0.08946662 -0.429528 -0.4634021 0.6511302 -0.42207754 0.43998 -0.13440908 -0.09934326 -0.25917053 -0.48019606 -0.4000601 0.47385514 -0.14546171 0.32082513 -0.30116582 -0.4365621 0.5663768 -0.06276149 -0.013315929 -0.5220725 0.11208267 -0.5356395 -0.18115084 -0.35658264 -0.74561423 0.03556606 0.11039079 0.2677584 -0.07993214 -0.62917084 -0.2637578 -0.24473673 -0.07349837 0.1589692 0.102169976 0.041098326 -0.033047527 0.026866008 0.08052542 0.76834345 0.23215717 -0.7558008 0.8975505 -0.48230428 0.0063622817 -0.60320127 -0.20821524 0.0044764755 0.5067457 -0.27984497 -0.048647895 -0.16045712 0.3199777 -0.80903304 -0.23165423 -0.31097946 -0.56207603 -0.13382933 -0.5160411 -0.104550995 0.038300734 -0.25867456 0.74811816 0.116766006 -0.25292566
858 0.70507294 0.043419328 0.1704595 -0.21460627 -0.031591386 0.07390769 0.29827788 0.86874527 -0.49477124 -0.45503253 0.19017918 0.15788318 -0.71558714 -0.035678975 0.42430693 -0.2413673 -0.010840648 0.47356758 0.27451664 -0.41584197 0.46815917 0.30336425 -0.26455966 0.37097126 -0.3460551 -0.009536795 0.49955997 -0.59006023 0.62997293 0.22234812 0.09894927 0.3838372 0.06672682 0.17080007 0.02037701 -0.583425 -0.2527441 0.02095926 -0.023209278 0.006093192 -0.14273548 0.398168 -0.59228224 -0.3159143 0.40259737 0.08701741 0.03878827 -0.12337136 -0.2369379 -0.65290344 0.04806062 -0.42780584 0.1710099 -0.39497638 0.30958888 -0.052121468 -0.5380321 0.09514509 0.5701871 0.5362906 -0.12994823 -0.06802552 -0.2712047 -0.39691368 -0.34568867 -0.08445276 0.3885126 0.14670713 0.08445299 -0.15271978 0.01871857 -0.24736033 0.3848827 -0.19517663 0.56906235 -0.47566637 0.2336031 -0.36299714 0.053638183 0.31799072 -0.4469549 0.2515857 -0.3986492 -0.12435446 -0.17478488 -0.14738692 0.27811563 -0.20669797 -0.3711185 0.25768527 0.04233167 0.49084997 -0.16312571 -0.11063071 0.18502294 -0.45365435 0.405292 0.14398912 -0.17655987 -0.17407298 0.4152776 -0.04663357 0.19555704 0.6832092 -0.40413198 0.40858847 0.05157769 0.17474481 -0.005851342 0.48404962 0.3932901 0.015887177 -0.41362575 0.08000717 0.0961751 0.8282877 -0.34419182 0.15308803 -0.3184472 -0.32764176 0.066456676 -0.7916454 0.28221184 0.4404949 0.02307309 0.2608722 0.108685225 0.26835436
2236 0.07645646 -0.10394736 -0.18251568 0.060935017 -0.3732668 -0.084236994 0.31538942 0.9020109 0.08624478 0.2370107 0.6166838 0.56452125 -0.42150295 -0.22324605 -0.24383473 -0.45423332 -0.46265966 0.002027183 -0.11670152 -0.14425826 0.30159178 0.4810925 0.09812621 0.24967106 -0.34865916 -0.28159842 0.23965962 -0.7909817 0.24479292 0.5658125 -0.25811985 0.7678437 -0.09782114 -0.39715412 -0.13524958 0.07307252 -0.15945674 0.31507498 -0.12858069 0.25934705 -0.14226513 0.14451578 -0.09984918 0.025717895 0.32499185 0.32300836 -0.0084029175 -0.31096166 -0.17033549 -0.63763016 0.16278766 -0.33095875 -0.8128687 -0.3996283 -0.043774877 -0.05604419 0.1535346 0.22029954 -0.28641304 0.094464466 -0.2551915 -0.16182253 -0.48878837 -0.07438974 -0.35801065 -0.48675722 0.57013166 -0.41794604 0.40318695 -0.23914991 0.046454508 -0.34875524 -0.4308043 -0.25701484 0.46294793 -0.12660114 0.37982526 -0.4765744 -0.39235577 0.46911603 -0.14481334 -0.008212712 -0.6247313 0.041763764 -0.5331094 -0.12103869 -0.3714956 -0.67401326 -0.05545089 0.103746496 0.36564985 -0.089037985 -0.5729444 -0.318514 -0.33198053 -0.018109726 0.20901266 0.22577421 0.0075326553 -0.12268363 -0.010172955 -0.069731034 0.77547354 0.2939593 -0.7435095 1.0195166 -0.6580585 0.14978199 -0.64223474 -0.17675763 0.19046868 0.4301116 -0.35261297 0.12577695 -0.27020082 0.37190825 -0.87238985 -0.30119452 -0.4198191 -0.5362638 -0.073901646 -0.49681935 -0.21278004 0.048854277 -0.23089917 0.7588271 0.2018787 -0.15443452
625 0.85103124 -0.28858814 0.07985207 -0.0296737 -0.07093179 -0.004036579 0.111504175 1.1965601 -0.61534405 -0.3593954 0.1412914 0.11073975 -0.8711485 -0.23283322 0.14356215 -0.1130612 -0.43935618 0.27440557 0.15401466 -0.43228963 0.5337528 0.37683526 -0.024036193 0.6404194 -0.011683293 -0.1216 0.7857254 -0.50735277 0.25718838 0.17840864 0.26667246 0.6457646 0.34490153 -0.002197644 -0.059237484 -0.39933702 -0.13584992 -0.19465312 0.29825655 0.02150594 -0.4285559 0.18773843 -0.48589274 -0.27377832 0.4635593 0.007929238 -0.033704318 -0.29130733 -0.40184104 -0.38503733 -0.017983373 -0.58679193 0.08551344 -0.4815754 0.37653694 -0.29745 -0.6620961 0.37620932 0.53818846 0.66259104 -0.036740273 -0.16254382 -0.33504307 -0.47643393 -0.5282409 -0.030079365 0.218606 0.13626115 0.09525284 -0.065823 -0.087854534 -0.32234275 0.25819913 0.028909456 0.28737205 -0.47577605 0.18848866 -0.5432814 -0.1206007 0.67135686 -0.32367304 0.22171755 -0.49567407 0.031368505 -0.18082763 -0.12597512 0.44459468 -0.28318274 -0.5416727 0.046239145 0.020594675 0.30043218 -0.21585229 -0.085892536 0.041830774 -0.25472426 0.37988922 0.19908251 -0.26306507 -0.10220335 0.2457072 -0.37666178 0.14541474 0.5774032 -0.0964299 0.4337995 -0.021089667 0.19757937 0.07463815 0.32047144 0.4036277 0.23311637 -0.5097902 0.38061345 0.11848029 0.71426255 -0.35844508 0.44164222 -0.29649803 -0.22514978 0.15025857 -0.83651894 0.33329412 0.49930105 -0.12295951 0.49663204 0.23708543 0.005672628
605 0.2402151 -0.12200125 -0.110130586 -0.06507719 -0.30519062 0.13084297 0.33370462 0.33634257 -0.357126 0.035670582 0.54919815 -0.10634386 0.012294856 0.17825897 -0.2158609 0.49126148 -0.1347636 0.48662332 0.06879284 -0.18956801 -0.014049144 0.17287634 -0.3364893 0.40391305 0.21580625 0.08081674 0.30574214 -0.4191683 0.6167051 0.1485309 -0.021075401 0.53804517 -0.28974494 -0.010042817 0.418003 0.0151824085 -0.44813374 -0.021337269 0.09024168 0.17048155 0.21601348 0.084089115 -0.014115603 -0.17393602 -0.2336295 0.085975714 0.045331903 0.13496776 -0.1547905 0.027459573 -0.09688794 -0.43478414 -0.060782015 -0.27556652 -0.34381786 0.16585027 -0.23131602 0.22013001 0.06805008 -0.058554534 -0.47728902 -0.11780219 -0.7183952 -0.25916353 -0.15032393 -0.27251327 0.41384405 0.43979126 0.08233013 -0.27124694 0.2580052 0.07341455 -0.16865122 0.17788619 -0.10102671 -0.452899 0.6008009 -0.38751867 -0.04883223 -0.46353403 -0.53228647 -0.15399438 0.20409475 0.009759428 -0.10016727 -0.008625295 0.23986074 -0.90133494 -0.38758567 0.1774591 0.21848702 0.16214488 0.11371633 -0.018001659 0.11012277 0.042849816 -0.076781616 0.14079963 -0.022833105 -0.22983809 -0.38284877 0.13151523 0.32531732 0.4188209 -0.34036058 0.37377542 -0.75434285 0.034737837 -0.31046858 0.34728172 0.2325496 -0.006421477 -0.21266076 -0.105748154 0.056705274 0.035544664 -0.35863206 0.22352155 -0.15391235 0.09927346 -0.5854763 0.23699977 0.053664684 0.07374188 -0.03437909 0.35511398 -0.1007349 0.11235782
939 0.6863512 -0.24711685 0.12764472 -0.28854075 -0.14274897 -0.05768414 0.35250506 0.88244456 -0.58840185 -0.42565978 0.20701939 0.09376548 -0.18416612 0.14987032 0.3041903 0.49680793 -0.3177272 0.6308069 0.023194967 -0.28581616 0.3862381 0.2315304 -0.032316085 0.44554716 -0.19573863 0.31840682 0.27981174 -0.48891473 0.39321402 -0.12168484 0.07098682 0.6690823 -0.08747739 -0.07967585 0.11786752 -0.15000619 -0.41129455 -0.20973416 -0.08522876 -0.5142918 -0.13997659 0.45121884 -0.3587815 -0.16433573 0.31367025 -0.2448792 -0.06480225 0.17185518 -0.27466142 -0.32008106 0.13647576 -0.70903003 0.14785925 -0.4916641 0.20340267 0.1093868 -0.22645977 0.10971813 0.55542344 0.46295276 -0.14831862 -0.0662629 -0.4471294 -0.51409996 -0.2774528 -0.039258685 0.29506713 0.5617147 0.18731211 -0.48446804 0.056312308 0.19544008 0.14477138 -0.031311322 0.38820457 -0.3391525 0.44477713 -0.84239095 0.1444566 0.36825997 -0.26900822 -0.043457095 0.036057256 0.2320906 -0.108331785 -0.60933673 0.49820063 -0.49740592 -0.41853046 0.19358097 -0.2005897 0.09005166 -0.24781218 -0.0018149778 0.09976321 -0.5049843 0.20041487 -0.5209038 -0.05601849 -0.20811138 -0.12689282 -0.17517178 0.20148301 0.42225423 -0.30030546 -0.08455708 -0.30627182 0.072188675 0.3765266 0.9022122 -0.0267454 -0.23703066 -0.25872383 0.62307644 0.078613065 0.30027273 -0.23466061 0.8665761 -0.41042155 -0.08069285 -0.37002853 -0.5717114 0.33990762 0.015493587 0.10731228 0.50925195 -0.12850761 -0.29011294
1035 0.7265168 -0.16326144 -0.1617571 -0.35057926 0.001990065 -0.040304843 0.3732086 0.42843112 -0.090968944 0.20592672 0.35645697 0.20901455 -0.12652624 0.3977468 -0.29363337 -0.011491264 -0.13390774 0.5021696 -0.014488912 -0.2380998 0.012196942 -0.07888428 0.010048242 0.17213206 -0.050317116 -0.07514211 0.2696968 -0.31359035 0.4031639 0.22756505 0.13200182 0.39372197 -0.26889712 0.024181997 0.2884206 -0.22741862 -0.6697817 0.06103553 0.0071667423 0.28030092 -0.44216216 0.12528877 -0.10319951 0.18206123 0.048008688 0.11776918 0.19579886 0.02520022 -0.045194674 -0.32610035 0.06744874 -0.20396066 -0.29538912 -0.18031624 -0.4725241 -0.043463245 0.1290787 0.23274657 0.12209621 0.048921607 0.021880945 -0.1859759 -0.6935072 -0.28675377 0.08478736 0.04690269 0.78934836 -0.087318785 -0.03185956 -0.4675921 -0.064816095 -0.04853697 -0.3707302 0.06042253 0.2052527 -0.7226051 0.3274319 -0.3912024 -0.0036979427 0.17532761 -0.15298305 -0.15073825 -0.049188767 0.23314264 0.08387942 -0.1867735 0.13159522 -0.9280145 -0.24410057 0.16362216 0.20542036 0.24931432 -0.16291733 -0.0426932 0.23521765 -0.05554918 0.076825865 -0.03304836 0.07794077 0.13949728 -0.4625612 0.2004752 0.3727424 0.45196593 -0.47340792 0.7039253 -0.6974721 -0.0987843 -0.09743468 0.08776864 0.10476297 0.11709484 -0.38043448 0.23245038 0.19824281 0.020769086 -0.55956876 0.19803585 -0.24575588 -0.47218475 0.00427421 -0.3466817 0.06420285 -0.090281226 -0.5310824 0.23121981 0.21560505 0.16049805
2235 0.07846714 -0.00924444 -0.16015564 0.07442468 -0.41167325 -0.049873427 0.3464827 0.88143057 0.06268771 0.15805693 0.61403114 0.6172765 -0.3865856 -0.15168335 -0.17006074 -0.551682 -0.3211825 0.0016641147 -0.19945848 -0.12082887 0.26461443 0.49599785 0.09521358 0.23447096 -0.31705472 -0.3829949 0.16461283 -0.798635 0.30069423 0.6108766 -0.34876582 0.74266815 -0.09268843 -0.3808701 -0.10595304 0.0801805 -0.23020807 0.38712478 -0.22466037 0.18922958 -0.18009219 0.1797339 -0.06831545 0.0592638 0.38171744 0.24583066 -0.038535126 -0.27815607 -0.17032503 -0.6109825 0.17670621 -0.32616705 -0.8477319 -0.32479307 -0.08765361 -0.013957452 0.22716118 0.12666295 -0.22202405 0.12624052 -0.23534429 -0.22401337 -0.49190375 0.021009233 -0.40919346 -0.4338075 0.59950763 -0.4528692 0.47700268 -0.2416097 0.057166982 -0.4112606 -0.502321 -0.24267529 0.51216274 -0.09731575 0.29736084 -0.39453217 -0.37816137 0.5031755 -0.2038076 -0.020140106 -0.6578541 0.059453208 -0.50292593 -0.09332359 -0.3909553 -0.6610559 -0.043880425 0.05174874 0.34416956 -0.14394796 -0.5761036 -0.33371878 -0.31686795 -0.03806844 0.1985989 0.15003805 -0.018275764 -0.07710106 -0.055379536 -0.034974374 0.75694287 0.27372614 -0.7775933 0.964263 -0.670608 0.12750037 -0.625003 -0.22250357 0.023721786 0.44513303 -0.38430703 0.12589432 -0.22089443 0.41608244 -0.80146587 -0.28153804 -0.47583628 -0.65381414 0.030365419 -0.5092197 -0.20673807 0.009132807 -0.35442334 0.77400106 0.20999575 -0.13329592
171 0.11062003 0.16539988 0.17549007 0.24916475 -0.04153556 0.34524754 0.26236194 0.37110558 -0.5253784 -0.5753322 0.46304888 0.32140192 -0.37859917 -0.068034634 0.35437262 0.14556949 -0.12299978 0.47923845 0.07387491 -0.14666875 0.14209786 0.19615863 -0.29759336 0.56067574 0.04437835 -0.049945638 0.26006806 -0.018235916 0.07190238 0.19876486 -0.2983618 0.39730373 -0.046219196 0.13705797 0.5937221 -0.1498266 -0.14266315 0.29675004 -0.12428534 -0.3681103 0.25074357 -0.07645317 -0.20004933 -0.041999854 -0.034998246 -0.0030070345 0.022173848 -0.08793021 -0.48073375 -0.55803853 -0.40109697 -0.5880274 0.13768111 -0.26877996 0.3072087 -0.44642347 -0.32223493 -0.3259289 0.18475723 0.34592924 -0.26891094 0.06598086 -0.29020908 -0.0038043314 -0.31375024 -0.029219525 0.21111445 0.3154902 0.37437305 0.23920763 0.1620461 0.059400473 0.3632031 -0.3821776 0.15098399 -0.3059051 0.15944032 -0.2449609 -0.11805642 0.44550648 -0.41276014 -0.10400914 -0.6230794 0.43978146 -0.3458725 -0.13252069 0.74599093 -0.27873933 -0.36571956 0.27579838 -0.09121355 -0.20786837 -0.084557526 0.12245812 0.043068103 -0.19800271 0.34805843 0.09434264 -0.44555214 -0.038107105 -0.17828736 -0.18310691 0.05182429 0.3935682 -0.2042459 0.07404669 0.12097016 0.50432885 -0.27919197 0.46867096 0.13288228 0.2608393 -0.20970377 0.02651088 0.34968743 0.4560925 -0.42832 0.2054264 -0.25082812 -0.24351457 0.2866453 -0.2782289 0.16048872 0.48752758 0.18680874 0.65388113 0.26902807 -0.043154992
1999 -0.22582403 -0.1174178 0.2080663 0.024836307 -0.04470743 -0.57086444 0.42612183 0.87098473 -0.52150774 0.4018015 0.7461908 0.18289682 0.0041800565 -0.37102264 -0.356511 -0.4000812 -0.6188834 0.087728776 -0.31612474 -0.36084768 0.16903913 0.80815756 -0.19010355 0.59188265 0.20669925 -0.14283447 0.17406915 -0.66653734 0.08113978 0.105191305 -0.07189536 0.7824366 -0.34434924 -0.6981473 -0.32567108 0.043772258 0.0067234584 0.09236238 0.08225863 0.28244272 -0.045440897 0.5090357 -0.066619776 0.070583664 0.103047304 0.42467377 -0.027209662 -0.35780105 -0.038809758 -0.29306248 0.16966529 -0.5241104 -0.1290294 -0.33438313 -0.39560792 -0.13787323 -0.12128327 0.108273245 -0.4128087 0.019817935 -0.9758079 0.0004675051 -0.43214798 0.0070420406 -0.2942931 -0.95740885 0.516055 -0.37430274 0.4831495 -0.03678619 0.23883763 0.14384353 -0.04221571 0.0017781904 0.49809352 -0.326031 0.22213738 -0.9098549 -0.026457451 -0.0647539 -0.35219592 -0.084231615 -0.5651405 -0.29299518 -1.0208646 -0.30419466 -0.40948603 -0.6581611 -0.5550035 0.15274785 0.2177227 -0.007375172 -0.33781418 -0.6540651 -0.3569689 0.037798304 0.20446888 0.3079763 -0.097258925 -0.310364 0.11564399 -0.5195112 1.0270029 0.4713157 -0.82413346 1.1128856 -0.69091237 0.41009718 -0.85812944 0.41610196 0.14736004 0.07567494 -0.2335551 0.05150795 -0.84948015 1.0615597 -0.9449701 -0.85100967 -0.6202022 0.033287235 -0.49398875 -0.36833337 -0.5006904 0.05421994 0.09548381 0.44925115 -0.5764326 -0.08243639
597 0.626247 -0.19269292 -0.00805174 -0.24590328 0.07283015 0.07137266 0.5490378 0.1549692 -0.19220968 0.24022245 0.48739004 -0.041889187 0.10071188 0.32236028 -0.14470857 0.17017335 -0.13708878 0.46010163 -0.08139853 -0.22717196 0.055780616 0.046522375 -0.10510185 0.4290212 0.34533823 -0.08131933 0.32580665 -0.41621 0.3413096 0.18168645 0.16761464 0.45019865 -0.49439353 -0.022649456 0.41995448 -0.033358254 -0.8120913 0.02156742 -0.116141886 0.32851198 0.08979655 0.19363436 -0.11869504 -0.00605425 -0.09830517 0.036365047 0.021327954 0.10962279 -0.036460772 0.10362491 0.078717984 -0.073700294 -0.044978306 -0.20783748 -0.62226695 0.18298922 0.012074179 0.19122523 0.071469374 -0.043873295 -0.13325377 -0.20208475 -0.6054576 -0.44314384 -0.09552418 -0.25370675 0.9083999 0.06610529 -0.27914155 -0.49958038 0.14439198 0.25335103 -0.43077323 -0.070205726 0.027685992 -0.7458066 0.58366513 -0.29701915 -0.18816456 -0.06806078 -0.48798382 -0.20611279 -0.14836745 0.39826372 -0.00936394 -0.06576079 0.26844797 -1.0801452 -0.65708405 0.19956577 0.0897898 -0.010280574 0.10772876 0.06994076 0.13494109 0.12878773 -0.05526532 0.13069285 0.026271524 -0.070373155 -0.4276343 -0.054494474 0.136634 0.28849304 -0.36741975 0.3455828 -0.6979289 -0.10870342 -0.07923025 0.34663928 0.22040586 -0.019579345 -0.31116372 0.062305547 0.38563845 -0.10857745 -0.56151193 0.1169368 -0.15156797 -0.110288054 -0.026806552 0.00085879257 0.12761582 -0.099780366 -0.5811774 0.48812756 -0.028038882 0.17817408
594 0.1433525 0.024078708 0.35969162 0.2058204 -0.15633014 0.2780419 0.25987628 0.33583137 -0.54485315 -0.52660495 0.5041822 0.23821558 -0.1610817 0.014266759 0.39313516 0.12626562 -0.08748949 0.43589303 0.13784857 -0.1708699 0.07320302 0.29600105 -0.50014454 0.4889972 -0.0032906712 0.08485582 0.14450824 -0.051432677 0.3684574 0.2754671 -0.23203821 0.46024576 -0.06465658 0.10969561 0.72102773 -0.35281584 -0.24163389 0.2842617 -0.28115323 -0.48517263 0.16444108 -0.061800573 -0.40037566 0.18785575 -0.055302415 -0.026835965 0.08713316 -0.06761522 -0.5961764 -0.4828012 -0.3021928 -0.83620864 0.12027693 -0.50000477 0.27551365 -0.5676192 -0.36370733 -0.38979954 0.16965102 0.2608277 -0.4857716 -0.026882138 -0.3852414 0.04179806 -0.23838943 0.04092115 0.37354633 0.41166005 0.45610794 0.20483346 0.21041034 0.06109566 0.29731604 -0.27468884 0.25879318 -0.36618382 0.10325252 -0.38919616 0.08202996 0.20750572 -0.54403657 -0.23131223 -0.64272 0.23052444 -0.25576997 -0.18891184 0.8094902 -0.32022852 -0.43144754 0.24826795 -0.08511992 0.07525473 -0.02266175 -0.026729489 0.16884516 -0.35205328 0.36180007 0.11576419 -0.35915664 -0.06555629 -0.30079657 -0.08332874 0.29370093 0.47792524 -0.24110158 0.31529367 -0.09696072 0.6222544 -0.281978 0.58988285 -0.051825147 0.23420633 -0.14106657 0.111934066 0.22029217 0.44489336 -0.34819752 0.2896586 -0.2912586 -0.12379032 0.05207656 -0.24111366 -0.049449988 0.40283322 0.17378181 0.5695516 0.18723866 -0.10891982
2106 0.14537017 -0.043100134 -0.12523918 -0.016688615 -0.40809396 -0.11539938 0.37031662 1.0890685 -0.019092973 0.04303686 0.70451605 0.5605846 -0.47393802 -0.1342947 -0.09983081 -0.47349957 -0.40404555 -0.008599875 -0.09165105 -0.25702527 0.35882393 0.51113 -0.056636084 0.3056851 -0.40701726 -0.33242765 0.2879126 -0.890226 0.30975273 0.6079159 -0.24730954 0.8418594 -0.066541106 -0.3524451 -0.1483746 -0.018047076 -0.18130237 0.2853315 -0.12936015 0.20198071 -0.16461474 0.2188256 -0.087717146 0.029478762 0.47388396 0.21473983 0.08722962 -0.24482372 -0.12320059 -0.5131964 0.23716454 -0.36266372 -0.7214027 -0.34341472 -0.037882723 0.13755271 0.12293921 0.10751457 -0.22563015 0.25777838 -0.30692074 -0.16221906 -0.44731602 -0.0020534785 -0.27656445 -0.3600033 0.43323556 -0.36071724 0.40518418 -0.21692406 0.10770097 -0.41447973 -0.45241117 -0.10568927 0.5887231 -0.06575106 0.39028627 -0.45648873 -0.4563228 0.4353239 -0.19055428 0.016083183 -0.7444233 -0.021860177 -0.4952727 -0.17558058 -0.26662886 -0.64455575 -0.12446949 0.028528776 0.3497157 -0.122464314 -0.5935543 -0.36954948 -0.29672632 -0.09436892 0.18688647 0.18631001 -0.008608531 -0.1102313 -0.028119171 -0.01485034 0.9026108 0.3780031 -0.7060072 0.94981396 -0.5807025 0.07214118 -0.59462035 -0.20795482 0.061808825 0.40045878 -0.41362947 0.14542633 -0.2235908 0.5363726 -0.83908993 -0.27647913 -0.50051296 -0.5232168 -0.046011623 -0.54742837 -0.193023 0.04875409 -0.24882197 0.63121545 0.2728448 -0.12621963
2087 -0.10522107 0.10034945 -0.08257321 -0.1481623 -0.1735142 -0.19665955 0.37107965 0.6406101 -0.21900776 0.29573998 0.52954817 -0.03764202 -0.15795222 0.2948645 -0.3565329 -0.7584576 -0.17244111 0.28593656 0.027928041 -0.12085289 -0.15082659 0.43011904 0.19052973 0.57639456 0.15845452 -0.34890154 0.21625978 -0.21734424 0.31447306 -0.09680947 -0.03166701 0.3609915 -0.11145008 -0.12742375 0.13962154 0.21554989 -0.62244934 0.34176815 -0.24217151 0.50700927 0.006090609 0.27700073 0.3581452 -0.030438721 -0.066673435 -0.14807408 0.0428714 -0.01671058 0.3279395 0.032623596 0.16303322 -0.07416755 -0.47946817 -0.1556673 -0.4225091 0.21593703 0.13632494 0.057675738 -0.20802085 0.17082004 -0.69273525 0.10753563 -0.40526652 -0.1533711 -0.43107614 -0.43118325 0.40131745 -0.2270179 0.3872499 -0.17278598 -0.1954319 -0.08243207 -0.4340267 0.11503399 0.16351809 -0.36881974 -0.14420804 -0.37140068 -0.18315105 0.026580265 -0.2345043 -0.26698828 -0.31674275 -0.34086275 -0.18846564 -0.012814699 -0.38004816 -0.7108572 -0.40896925 -0.2877815 0.20691644 -0.17978394 -0.39195937 -0.2630324 0.08327724 0.2683655 -0.11915737 -0.119272366 -0.13030343 0.29049236 -0.25178784 -0.094083644 0.45815498 0.42566916 -0.49235597 0.7484811 -0.31015515 -0.046068482 -0.6026258 0.0473117 -0.32053548 0.3780077 -0.36119118 -0.14821331 -0.49069545 0.50273013 -0.50913876 -0.43787867 -0.2556003 -0.56404495 0.12732942 -0.31022477 -0.3348927 -0.33243802 -0.105555914 0.21757141 -0.106332116 0.22399603
619 0.5275515 0.0662709 -0.15734003 -0.3495128 0.27240273 0.14421016 0.27899987 0.5011733 -0.30855426 -0.1264325 0.5833378 0.13946879 0.036908552 0.47125402 -0.061746337 0.21911381 -0.12649356 0.6149326 -0.076796405 -0.23514342 -0.05590156 0.13207096 -0.0023040127 0.29905555 0.036842372 0.23988011 0.13433577 -0.10474858 0.39747876 0.2827607 -0.024430007 0.6921392 -0.17726403 0.044882204 0.29432362 0.07054685 -0.40395907 0.07876223 -0.13233179 -0.033296302 -0.3994112 0.34087026 0.041479144 0.009794655 -0.1712945 -0.005339301 0.2709752 0.12464117 0.037752993 -0.39030546 0.23171638 -0.6020055 -0.06337927 -0.015229102 0.19287768 -0.19217864 -0.23953561 0.25603026 -0.0036990033 -0.135933 0.24538158 -0.058910232 -0.65386915 -0.11164574 0.10301262 0.08362344 0.29189247 -0.19823256 0.24733128 -0.13589014 0.09112161 -0.3406043 -0.6671417 0.19126466 0.08640802 -0.4332955 0.1882578 -0.28824386 0.09165667 -0.16348818 -0.64516175 -0.12032995 -0.08374092 0.09236848 -0.023074973 0.12135649 0.124755934 -0.8020695 -0.19763322 0.0459517 0.26737764 0.22344896 -0.16322225 0.111902006 0.25442895 0.05049404 -0.20162657 -0.024612114 -0.13920605 -0.09249689 -0.30767527 0.027866848 0.5048186 0.39204466 -0.35152665 0.525023 -0.592643 -0.06251941 -0.31261277 -0.016737077 -0.121272415 0.13226858 -0.5676586 -0.16744596 0.2245541 0.41267556 -0.5942183 0.20893183 -0.35620195 -0.10487551 -0.30740833 0.039894283 0.1862814 0.09472354 -0.28473812 0.19891389 0.099858314 0.12537605
2003 -0.22776932 -0.10647328 0.23109509 0.054476883 -0.033652537 -0.551224 0.36621368 0.8741995 -0.53403276 0.3887971 0.6832025 0.17774995 -0.08409839 -0.43007225 -0.33067688 -0.42512843 -0.6046854 0.08366379 -0.26689765 -0.34697336 0.18620995 0.76670176 -0.14520787 0.6588754 0.22962753 -0.14737782 0.19525164 -0.60466266 0.04675034 0.0694246 -0.036079463 0.7361368 -0.33809972 -0.69159275 -0.34127936 0.048512895 0.00690716 0.14740202 0.10680398 0.29010418 -0.017499229 0.5056221 -0.063799754 0.034484077 0.075712 0.46036085 0.028930144 -0.36704662 -0.04144563 -0.28149855 0.17653555 -0.5400365 -0.14614019 -0.30834365 -0.37364957 -0.10646585 -0.13548814 0.06343437 -0.46333572 0.046161756 -0.9810915 0.014064582 -0.4032914 0.032857623 -0.29382208 -0.97872245 0.46771282 -0.40106604 0.48499838 -0.06777068 0.2642018 0.15417926 -0.0067790127 0.02761421 0.4889967 -0.30885157 0.18116908 -0.8843457 -0.06660268 -0.050205756 -0.34117305 -0.08336167 -0.58176625 -0.28644127 -1.0431399 -0.2759932 -0.4033546 -0.5796894 -0.5866467 0.15006402 0.1816181 0.01911178 -0.36193478 -0.65924877 -0.3344447 0.054862764 0.23221906 0.31011522 -0.14527704 -0.25158963 0.11609231 -0.5862351 0.96644056 0.48343298 -0.8088586 1.1551875 -0.6308942 0.40399584 -0.79112107 0.39915103 0.14426263 0.107262306 -0.27287424 0.10275523 -0.85527116 1.0946764 -0.9730891 -0.9048125 -0.5651677 0.010005456 -0.4618538 -0.3995727 -0.50124025 0.0975195 0.14301443 0.44020262 -0.52263534 -0.08363151
109 0.6813062 -0.008355438 -0.022312887 -0.14510967 0.056078177 0.18369757 0.27814364 0.62817115 -0.29885045 -0.53681195 0.13372983 -0.262094 -0.5729849 -0.25965557 0.23284017 -0.31905416 -0.054641865 0.16500345 0.3505198 -0.051359855 0.61329013 0.22469985 0.033213448 0.5284546 -0.30399638 -0.020842241 0.0216823 -0.76901937 0.106074646 0.05997997 0.07841309 0.6557654 0.056039404 -0.24868365 -0.09120352 0.094916835 -0.40110216 -0.11381475 -0.20189482 -0.5142203 0.09170558 0.5679606 -0.4835161 -0.039869055 0.0022871806 0.3204388 -0.1791519 0.19072661 0.06633812 -0.46540993 0.30555668 -0.7685481 0.05071201 -0.22178786 0.61255276 0.2990784 -0.3712661 0.027179893 0.3692046 0.17535149 -0.17959115 -0.29265305 -0.14894205 -0.11973393 -0.40748462 -0.41046113 0.55504465 -0.17477289 0.07822842 -0.1559354 0.20481524 0.15476353 0.28442693 -0.47881603 0.2774645 -0.42907017 0.24989107 0.101156525 -0.3040618 0.38544807 -0.42027578 -0.10590824 0.085268974 -0.070696235 -0.049791683 -0.1344067 0.20432627 -0.05003001 -0.47899655 0.3412416 -0.25747612 0.33374077 -0.12563284 -0.32439858 -0.085034095 -0.0898793 0.22598667 -0.22628114 -0.120487355 -0.0025208616 0.5779443 -0.36368427 -0.047588974 0.084339716 -0.52849114 0.18690033 0.59453636 -0.15450516 0.07313982 0.5442529 0.064362116 -0.05467396 -0.1677029 0.29439452 -0.054237448 0.5510982 -0.6732748 0.11012631 -0.26025528 -0.26522157 -0.031506978 -0.5025168 0.261893 -0.009283705 -0.009169626 0.42467365 0.22009619 0.24082743
242 0.8214493 -0.22547634 0.10179799 -0.14433928 -0.037967138 0.07032907 0.22229116 0.99174947 -0.3523117 -0.29465866 0.27895716 0.058101427 -0.6754451 -0.014349992 0.3019438 -0.12192698 -0.15366499 0.32740235 0.29612103 -0.4472914 0.44750863 0.28984734 -0.12912384 0.45386216 -0.19302481 0.071779184 0.60841966 -0.42087132 0.5027794 0.20968579 0.29315642 0.4927539 0.16910024 0.07956652 0.021386413 -0.5792487 -0.2957313 -0.09794699 0.048317757 0.17455867 -0.3092951 0.30054697 -0.4842116 -0.20617186 0.39641014 0.06285989 0.1483672 -0.14063133 -0.3377701 -0.47003973 -0.0029288873 -0.41506058 0.09019697 -0.51849544 0.23562331 -0.19393486 -0.515791 0.32088172 0.5141887 0.56357414 -0.06961001 -0.07677602 -0.31217858 -0.28977698 -0.27142432 0.039316826 0.24480596 0.25392962 0.046579584 -0.23880535 -0.024156544 -0.22241636 0.16112334 -0.10230952 0.49611196 -0.56311905 0.24384497 -0.6038823 -0.01920188 0.25004113 -0.43569916 0.22527768 -0.5636856 -0.06643746 -0.08883273 -0.21305408 0.32623115 -0.36588338 -0.39138088 0.1415023 0.08088167 0.42984992 -0.07906815 -0.06730278 0.13888288 -0.46656296 0.36283317 0.15749167 -0.23091818 -0.11420267 0.18740341 -0.077191815 0.17762494 0.6782123 -0.27160293 0.44981375 -0.012462033 0.15715837 -0.07710136 0.41795793 0.28651196 0.1478993 -0.44772387 0.21910769 0.05923103 0.6689132 -0.3153352 0.4711597 -0.30517796 -0.34310552 0.0048504034 -0.7671669 0.27765596 0.37211013 -0.06274022 0.159986 0.15807167 0.2459126
2094 0.037769474 0.06557869 -0.101158634 -0.30081505 0.15067919 -0.24795981 0.38052705 0.6078197 -0.58709115 -0.05199976 0.5414991 -0.03651078 -0.21390456 0.016548187 -0.3434026 -0.4147105 -0.31055838 0.51606834 -0.014685237 -0.14659472 0.2962573 0.2276678 -0.023274925 0.44632068 -0.12157433 -0.018297667 0.032666598 -0.5842579 0.21358179 -0.25766042 0.022180011 0.6047017 -0.20279697 -0.24079399 0.124876276 0.4791764 -0.61052775 0.29635584 -0.11735168 -0.016142877 0.18432973 0.37639844 0.1332977 0.054535937 -0.20407832 0.13590768 0.08803014 0.047701437 0.2594641 -0.2156282 0.32548183 -0.60018724 -0.3833024 -0.10941072 -0.034377325 0.47760606 -0.17390706 -0.14512059 -0.27172226 0.042660497 -0.68697786 0.0033882167 -0.5492225 -0.2042788 -0.18836768 -0.5998467 0.3055819 -0.20058736 0.28197947 -0.0150326025 0.116214745 0.23090495 -0.31701934 -0.02432958 0.059960026 -0.17178701 0.10639126 -0.03596611 -0.33247054 0.04074191 -0.3481616 -0.15952761 0.067932345 -0.20363735 -0.21842293 0.024646668 -0.07874033 -0.4712731 -0.38535473 0.07546142 0.23544128 0.107992746 -0.47915694 -0.25311878 -0.061582338 0.21613446 -0.011840268 -0.035722364 -0.09214317 0.1930197 -0.053332232 -0.3590944 0.7697157 0.31786123 -0.3791552 0.6454304 -0.44759342 0.10285985 -0.1388989 0.16393441 0.025386026 0.054923795 -0.23614858 -0.020886574 -0.379242 0.22539803 -0.8239262 -0.5401598 -0.32094374 0.10634563 -0.1377151 0.07210428 -0.119898215 -0.16975378 0.12553146 0.31491247 0.33551088 -0.020430734
708 0.30900925 -0.3280189 0.27971306 -0.16941498 -0.20353167 -0.11541424 -0.017072856 0.7691726 -0.51316816 -0.4637412 -0.14404087 0.143758 -0.21695487 -0.015326942 0.16903664 0.2660009 -0.3235482 0.62332404 -0.042798813 -0.21639639 0.43722728 0.27535927 0.043124877 0.40952864 -0.16911079 0.14976668 0.07191709 -0.28452462 0.2941906 -0.19870098 0.023794735 0.33324164 -0.02852472 -0.09489805 0.16154663 0.02885469 -0.4491461 -0.07587889 -0.05010831 -0.4733649 -0.05282146 0.0998599 -0.24703111 -0.17805094 -0.011799241 -0.1971684 -0.10061349 0.02069228 0.002861443 -0.23527499 0.23482962 -0.4754768 -0.0844375 -0.28592408 -0.07720124 0.20156528 -0.2633934 0.1629279 0.3988862 0.47463974 -0.21462326 -0.11563345 -0.43200815 -0.31868538 -0.62704283 -0.16407922 0.10229245 0.5308898 0.124061465 -0.28735512 -0.09501421 0.21358018 0.03795902 0.11872123 0.2191078 -0.43245405 0.3768564 -0.61098844 0.028540237 0.25493678 -0.268376 -0.044276077 0.09619738 -0.00844338 -0.27801242 -0.32738206 0.42791605 -0.5386027 -0.33141384 0.028819848 0.008848901 -0.28975144 -0.15546894 0.08542842 0.14881077 -0.5645739 0.12712103 -0.6737471 -0.19625133 -0.118183166 0.09617762 -0.23062235 0.14440787 0.23015207 -0.21327838 -0.17975126 -0.21578836 0.28295472 0.24832848 0.7031602 0.13427415 -0.3714977 -0.0025668023 0.62824965 -0.1322361 -0.060346838 -0.106269024 0.84309864 -0.544444 0.20531067 -0.4231261 -0.34647614 0.49968624 -0.2582896 0.10930979 0.4306104 -0.23386794 -0.24193132
496 0.64702034 -0.13738295 -0.018481297 -0.3257097 0.0908719 -0.06634772 0.47715393 0.14670904 -0.23060174 0.18788004 0.1756225 0.10883177 -0.17953853 0.28487524 -0.5193833 0.19941878 -0.2741957 0.59489536 -0.12115951 -0.25797358 -0.026966162 0.07311977 -0.1616716 0.20313933 -0.09432117 -0.03095273 0.15926163 -0.34228048 0.27944443 -0.012223882 -0.22790425 0.21841745 -0.11657328 0.01708151 0.29424536 -0.1649825 -0.49442127 -0.16636127 0.110553406 0.05054735 -0.3239193 -0.0908526 -0.10491158 0.2572881 -0.08673984 0.28127408 0.09989736 0.036898542 -0.021218935 -0.42178017 -0.24851798 -0.41359892 -0.12779044 -0.12577392 -0.2675898 -0.15668653 0.024383303 0.26853648 0.28617868 -0.02690421 -0.14798637 -0.22672984 -0.9259095 -0.44464785 -0.11991946 -0.21516418 0.85576 0.061647862 -0.08057147 -0.21386284 -0.045183122 0.19436838 -0.35251474 -0.21614279 0.11555729 -0.70411456 0.5153463 -0.26253858 0.22264747 -0.027944524 -0.18920405 -0.071635075 0.18450396 0.30480197 -0.22096118 -0.10793391 0.19880004 -0.83928007 -0.3104938 0.38251123 -0.005020044 0.15243757 0.021037867 -0.0065503228 0.2985314 -0.0068313014 0.038754724 -0.15521684 0.05169347 0.24299382 -0.2356481 0.22734654 0.29003555 0.47769076 -0.44431117 0.5197813 -0.8111815 -0.01504254 -0.2007384 0.14239527 0.28915954 -0.14587967 -0.50714135 0.08365672 0.06648277 0.15448894 -0.6570212 -0.022350611 -0.23009777 -0.15597636 -0.26113576 -0.11377504 0.087215155 -0.08300556 -0.39104712 0.5769269 0.20528926 0.17611143
585 0.121430404 0.053163193 -0.18478101 0.23583266 0.194084 0.06974999 0.40619123 0.0583362 -0.1886184 -0.21791503 0.5426147 -0.019505281 0.1760344 0.30862534 0.26809937 -0.0196568 -0.24816637 0.36755654 0.012383279 -0.05095718 0.2885649 0.16641577 0.13088684 0.12531617 0.1431265 0.58812296 -0.13537063 -0.15242529 0.52795124 -0.40814042 0.13043562 0.5094393 0.2213336 -0.24352048 0.1377847 0.19586442 -0.5781663 0.09176486 -0.44003144 -0.34329265 -0.16231802 0.36158687 -0.47283056 -0.17389692 0.38627312 -0.084282435 -0.11264729 0.20310174 -0.2475597 -0.11453278 0.29056266 -0.48278794 -0.018228542 -0.48414025 0.4173176 -0.38804966 -0.10085102 -0.050392125 0.73519105 -0.0025945194 -0.13648131 -0.06829945 -0.2055762 -0.6828983 -0.46590438 -0.41093808 0.27073014 0.24030809 0.08054761 -0.24780396 -0.27004284 0.6200648 -0.2752623 -0.4841239 0.047708 -0.12490306 -0.054203913 -0.29097185 -0.24105257 0.05013724 -0.67376405 0.26143587 -0.17617431 -0.14798906 -0.047340143 -0.2846026 0.23061344 -0.46554455 -0.5647804 0.09041143 0.30106172 -0.18500398 -0.19440116 0.20448828 0.24544758 -0.44987944 0.15922377 -0.14943755 -0.07756799 -0.090407975 0.36537907 -0.14911357 0.11328607 0.2806662 0.06919827 0.36344093 -0.31073686 -0.1207123 0.24331349 1.0600517 -0.24462035 -0.2048886 -0.23811775 0.1335209 0.20960413 0.2183152 -0.12789547 0.3863137 -0.090014845 -0.28666595 -0.23163895 -0.517433 0.2718193 0.41926765 0.0957684 0.5787173 -0.13169605 -0.0033958054
621 0.38119143 0.04237338 -0.1072955 -0.4105116 -0.017779512 0.00017707812 0.309647 0.6350015 -0.30308297 -0.054706346 0.59826744 0.2963714 -0.110095344 0.2983985 -0.07272861 0.17651097 0.017212614 0.34601757 -0.14939417 -0.20390002 0.0027004231 0.19495523 -0.1905132 0.18504949 -0.10389014 0.0981384 0.2090442 -0.43370095 0.44804353 0.39869806 -0.015274415 0.66628844 -0.182232 0.048799824 0.3477316 0.010175238 -0.31011185 0.23816495 -0.090989605 -0.10332616 -0.35939196 0.32618874 -0.10208575 0.07852402 -0.10212325 0.029318487 0.21607812 0.006707797 0.046764404 -0.33059558 0.22590487 -0.506268 -0.25173056 -0.24499507 0.044043116 0.016735492 -0.024156274 0.13262878 -0.040077887 -0.041896198 0.01731411 -0.068500735 -0.70286083 -0.1427069 0.1476659 0.06507651 0.4278252 -0.23562814 0.1772062 -0.21443006 0.24364485 -0.24812087 -0.5367298 0.16323052 0.1255795 -0.17621797 0.21443905 -0.33895522 0.018153956 -0.048842393 -0.47350422 -0.11578338 -0.0256448 0.11993169 -0.16024597 0.027596187 0.122334495 -0.68008935 -0.030727608 0.12861626 0.26520732 0.29790062 -0.30991906 -0.07229395 0.04559293 -0.0336727 -0.15613674 0.05006945 0.15872116 -0.10939588 -0.43430793 0.12809353 0.6126339 0.30816945 -0.371688 0.53120506 -0.58519596 0.056140788 -0.21552461 -0.055626564 0.02549476 0.17265739 -0.5070224 -0.065851636 0.10834515 0.2902199 -0.61357635 0.14765665 -0.4080008 -0.17231987 -0.22843885 -0.14290363 -0.020887848 0.078311 -0.18758681 0.28753114 0.27728894 -0.07597476
69 0.6734388 -0.23111656 0.04223591 -0.30276662 0.056378026 -0.021078294 0.5803614 0.16565329 -0.19172058 0.30005297 0.37077805 -0.080917194 0.060953163 0.1629225 -0.1610303 0.21240625 -0.13362129 0.49758822 -0.03695457 -0.20012368 0.07250602 0.055256236 -0.20609896 0.3609981 0.2456246 -0.04742805 0.28942287 -0.3884897 0.3539847 0.1620793 0.09823236 0.39617226 -0.5213461 -0.021222152 0.4237717 -0.14088069 -0.77881396 0.045573555 -0.12905008 0.23097894 0.020474719 0.24720256 -0.1904564 0.08182313 -0.28764847 0.14968081 0.013141402 0.13471317 0.050309148 0.011376571 0.06346992 -0.2424031 -0.024484904 -0.1784288 -0.54456455 0.16519086 0.06990011 0.2039585 0.050718594 -0.116404876 -0.18679531 -0.21659835 -0.7450133 -0.43779123 -0.10437168 -0.3568709 1.0481808 -0.016073372 -0.30613723 -0.5654533 0.16819434 0.32972512 -0.40140855 -0.1990344 0.08112169 -0.7437025 0.56984663 -0.2722049 -0.14939865 -0.07169095 -0.533487 -0.19926181 0.023500908 0.45024323 -0.10422534 -0.1625783 0.22848314 -1.0168539 -0.63782746 0.26492944 -0.0643232 0.24576889 0.09647027 -0.012838701 0.23711054 0.13073835 -0.059550405 0.11936714 0.10309962 -0.010502152 -0.47251776 0.053635754 0.16020778 0.37090006 -0.4941031 0.35697994 -0.63202906 -0.12978534 0.015759809 0.43778643 0.2577622 -0.052657448 -0.28073704 0.1049314 0.28135538 -0.028624745 -0.643836 0.07620179 -0.154907 0.010625802 -0.12821758 -0.035757206 0.08653483 -0.15683249 -0.56744593 0.52534366 -0.048523657 0.13477713
601 0.54528946 -0.3261968 -0.02383215 -0.3008772 0.09688701 -0.17289189 0.45314935 0.22254859 -0.2806931 0.25025713 0.28588924 0.07630949 -0.20736547 0.2093683 -0.5782118 0.1310822 -0.31723595 0.6518457 -0.10430304 -0.19327173 0.17746775 0.0042784056 -0.0938947 0.4540187 0.108340286 0.11767287 0.08569098 -0.2941669 0.2657235 -0.16854888 -0.08814432 0.18615772 -0.1321065 -0.03633066 0.2957043 -0.05866407 -0.53858113 0.061685875 0.09867292 0.1848881 -0.2938036 -0.08236544 -0.0094840815 0.19204062 -0.37787524 0.13942082 0.059398517 -0.103068344 0.14247328 -0.32573676 -0.01899417 -0.5615688 -0.13821228 -0.16774662 -0.23986422 -0.29332918 -0.08055463 0.34542462 0.055092048 0.010043367 -0.35455567 0.0010721385 -0.9346767 -0.2340371 -0.04662256 -0.26195404 0.58380467 0.029653447 0.08498644 -0.11617349 0.07344742 0.35752523 -0.019151703 -0.21744692 -0.003233155 -0.5869258 0.2651615 -0.4702541 0.23410998 -0.06543175 -0.068861045 -0.1873556 0.28240418 0.25227705 -0.07401358 -0.28807727 0.22270952 -0.8932041 -0.3061123 0.33565062 0.062132545 0.25611648 -0.0750846 -0.06363933 0.3130887 0.07610052 0.04509858 -0.14833198 -0.009005529 0.1388531 -0.30064347 0.1110954 0.36901876 0.49543035 -0.31837735 0.48381355 -0.79849666 0.27036136 -0.12799846 0.37030795 0.2419291 -0.1176967 -0.3138439 0.10475606 0.03220776 0.070738904 -0.6637852 0.10967308 -0.33016023 -0.07999443 -0.23883653 -0.06452859 0.039526135 -0.17804392 -0.19461614 0.35072288 0.20153199 0.09926294
837 0.10602836 0.031194333 -0.20958824 0.10109249 -0.42335552 0.13825989 0.2656056 0.31135178 -0.01175901 0.44596568 0.22428472 0.073084265 0.17225453 0.26763767 -0.19001506 0.09270409 -0.08868144 0.5222301 0.108905084 0.1066543 -0.15863758 -0.010666339 -0.019536298 0.12167271 0.071126804 -0.1507556 0.30495307 -0.09099362 0.4540707 0.005982819 0.22475587 0.20204045 -0.5304001 -0.10535655 0.480607 0.10554246 -0.5962374 0.0957436 -0.11380211 0.41086072 0.078198254 0.34941965 0.008147208 0.12308574 -0.25767535 0.0031695878 -0.030453283 0.29021493 -0.06918552 -0.406021 -0.0012648816 -0.061678283 -0.40176752 -0.39690992 -0.5359283 0.015774362 0.13356766 0.087634385 -0.2787531 -0.2248066 -0.28985763 0.10821229 -0.3016059 -0.26896024 -0.16779137 -0.31557018 0.87069863 -0.0971312 -0.14849675 -0.71572214 0.20666046 0.08678632 -0.16480872 0.19697489 -0.16217852 -0.56720287 0.3695809 -0.37288165 -0.011628627 0.20468862 0.14008836 -0.25933453 0.08975138 0.26213643 0.16548975 -0.30555835 -0.045246657 -1.0289512 -0.24761184 0.122006975 0.15393524 0.29659438 -0.32646835 0.12942915 0.12917079 0.13024133 0.14731386 -0.08504945 0.010518189 -0.09643955 -0.7499504 -0.4013208 -0.17728679 0.2075327 -0.5948314 0.61117774 -0.5100901 0.010045196 0.20909272 0.56568044 0.07071418 0.16516353 0.11010854 0.34352958 0.027005838 0.018119829 -0.4695224 0.26357207 0.10785982 -0.5165569 -0.18664783 -0.3656262 0.28654155 -0.27201506 -0.024906076 0.3054393 -0.17937739 0.0808369
234 0.79117656 -0.008530566 0.09034961 -0.14300571 0.091558635 0.021064147 0.25119853 0.6572697 -0.26410818 -0.575734 0.080340534 -0.09690224 -0.61341506 -0.2687847 0.31071222 -0.40244302 -0.025876446 0.32217574 0.45022586 -0.19642362 0.5900136 0.3791489 0.04341694 0.6258405 -0.3914944 -0.03845994 0.05947437 -0.62029827 0.23593359 -0.003399315 -0.059093796 0.3961683 -0.03043948 -0.1442459 -0.080927856 -0.07221496 -0.3952521 -0.019157998 -0.20066546 -0.30167246 -0.022266658 0.41193724 -0.2892141 -0.095417865 -0.060027916 0.35901925 -0.046503704 0.20255972 0.08898892 -0.49819872 0.26200843 -0.78730226 -0.0031868115 -0.08999446 0.53991896 0.075635016 -0.41352433 0.056053296 0.43727246 0.20944268 -0.30109632 -0.047890037 -0.22245394 -0.11597493 -0.67450213 -0.41309702 0.426884 -0.07886749 0.15105316 -0.11725547 0.105551735 0.021888267 0.30850628 -0.5489118 0.5413075 -0.43319604 0.072910875 0.04657666 -0.1927201 0.29617837 -0.40955448 0.03803391 -0.18788968 -0.1453099 -0.14974627 -0.08127073 0.17486458 -0.1495223 -0.50828815 0.27627984 -0.072691634 0.3735887 -0.09311914 -0.29292935 0.12239827 -0.273148 0.22431615 -0.047266256 -0.19926666 -0.034105778 0.6083135 -0.1539095 -0.0099908905 0.3985097 -0.5776568 0.1880335 0.59721273 0.0124963075 -0.05448226 0.7179369 0.17567177 -0.020500567 -0.18435286 0.14993612 -0.03378665 0.83473253 -0.67788994 0.07808164 -0.3782949 -0.11003234 -0.05154464 -0.5446989 0.41679463 0.15882449 0.06711025 0.30051363 0.21498802 0.41777456
703 0.67397636 -0.08491204 0.35298896 0.0006588717 -0.13230821 0.18172868 -0.070860036 0.41331398 -0.4523898 -0.6144998 0.045704357 0.15122585 -0.34944764 -0.23798478 0.34924635 0.26480597 0.04082461 0.5963022 0.06307752 -0.15375793 0.37106127 0.26880085 0.0065700826 0.33796102 -0.47146234 -0.08017909 0.08408376 -0.12081695 0.22325402 0.053320467 -0.33475506 0.37841326 -0.23015802 -0.18303485 0.30369815 -0.31839737 -0.3788293 0.057144027 -0.13026589 -0.40223843 0.067128405 0.37506682 -0.4000026 0.10758588 -0.13312969 0.28004202 -0.086214885 0.0447439 -0.3933978 -0.69923234 -0.36078486 -0.513184 0.008990195 -0.13485919 0.2531416 -0.15058081 -0.15719135 0.0026177133 0.4882629 0.48367885 -0.27641472 -0.46935257 -0.4736871 -0.21726432 -0.87714607 -0.46788645 0.39980358 0.52720785 0.15504496 -0.49877495 0.20274338 0.010770898 0.27697176 -0.7144101 0.47545287 -0.6300805 0.37623087 0.12023968 -0.15297975 0.4904912 -0.4300999 0.009261198 -0.17517278 0.5335866 -0.38971397 -0.20343298 0.28181866 -0.24155319 -0.22668396 0.5494208 -0.47536078 -0.03671898 -0.0377542 -0.11124981 0.028137708 -0.58385026 0.33394733 -0.421809 -0.5218036 0.3240183 0.25583 -0.080743596 -0.209182 0.5532872 -0.5518306 0.06282017 -0.09274502 0.2524634 -0.32171312 0.14319842 0.33566168 0.21871935 -0.3597031 0.57005316 -0.1762457 0.3114033 -0.39874288 0.21536538 -0.3760773 -0.07820884 -0.18661858 -0.31780893 0.51400924 0.35988224 -0.112240314 0.9320631 0.25214267 0.07984011
2092 0.096939206 0.08781191 -0.09866871 -0.3892517 0.08821175 -0.2925734 0.32326815 0.6125737 -0.4393069 0.023242641 0.60199857 -0.0050252513 0.017170077 0.077401355 -0.25111702 -0.13080478 -0.24648893 0.40858996 -0.29171482 -0.17519097 0.20707099 0.43591958 -0.048623074 0.29265848 -0.27069175 0.044867642 0.014600663 -0.54722804 0.3003823 -0.013484549 0.07162249 0.78809273 -0.19180524 -0.34446034 0.22296107 0.33158207 -0.4586842 0.3703899 -0.17122693 -0.13471116 -0.0782827 0.34830332 -0.028225958 0.28662577 -0.22392842 0.14576934 0.031015124 -0.09326681 0.28048384 -0.25680447 0.46115223 -0.63911057 -0.31438377 -0.1909791 -0.0930887 0.25819844 -0.19172706 -0.122738354 -0.20191972 0.102554575 -0.575955 -0.039393958 -0.5945791 -0.13735351 -0.17120063 -0.49257806 0.28075927 -0.36466467 0.33474895 -0.0121118855 0.22185402 0.12279502 -0.330167 -0.08009984 0.1657901 -0.26605847 0.069391035 -0.006492706 -0.24070731 0.002966818 -0.28528276 -0.24979614 0.034142986 -0.0707747 -0.17693007 -0.09356564 -0.025635054 -0.48220265 -0.16428815 0.17836599 0.21393329 0.07744887 -0.43905887 -0.3570926 -0.08904015 -0.0044089896 -0.16148923 -0.08382434 -0.055510234 0.13913459 -0.061277214 -0.20426981 1.0372506 0.35259414 -0.34850577 0.6386977 -0.5565659 0.22579478 -0.25853446 0.023548849 0.023626769 0.16621996 -0.13938631 -0.013404791 -0.42364988 0.27807572 -0.69050306 -0.35896885 -0.44124568 0.13782144 -0.26293296 0.035442315 -0.040385075 -0.06664311 0.040926773 0.31072628 0.19484596 -0.04114789
443 0.18043241 0.16525213 -0.11003619 0.12829836 0.33799338 -0.31631747 0.58884895 0.4526607 -0.46434677 -0.3905188 0.22238801 0.5130332 -0.10144576 0.076923236 0.0014021664 -0.18953405 -0.29299933 0.95142734 -0.08691604 -0.057947833 0.4928468 0.24042884 -0.2298941 0.1443278 -0.25327098 0.20533466 -0.040348373 -0.2771596 0.48646182 -0.5622008 -0.35430023 0.35662016 -0.08660083 -0.22286999 0.24774845 0.40028116 -0.3683066 0.20427452 -0.4573011 -0.40299663 -0.09457969 0.24464144 -0.15583727 -0.25136283 0.0075970152 -0.15361172 0.19573681 0.14444312 0.15383129 -0.21074767 0.15205042 -0.74409235 -0.069708996 -0.1394183 0.46324426 0.0636686 -0.14635691 -0.102266334 0.48872665 0.014401926 -0.19886279 0.2003715 -0.23808354 -0.33746663 -0.6263363 -0.59304553 0.3242434 0.07687011 0.14539045 -0.10405313 -0.104873516 0.3990277 -0.12776019 -0.13135149 0.27261302 0.11523786 0.15635923 -0.12672906 -0.14432627 0.09006896 -0.49239215 0.17033637 -0.15544896 0.24697606 -0.45222986 -0.32155463 0.18088035 -0.6434397 -0.2817545 0.22202407 -0.17199644 0.03407333 -0.40182638 0.24306016 0.35299793 -0.5388829 0.22780503 -0.37498385 -0.17051207 0.03266958 0.33275107 -0.23066221 0.038293328 0.51054955 -0.19782415 -0.019280635 -0.28548297 0.071694694 0.45875055 1.0190568 -0.073093124 -0.18504207 -0.27491605 0.09016827 0.3408165 0.4660218 -0.38893113 -0.058303587 -0.19150884 0.10489853 -0.21785182 -0.31341645 0.6191542 0.1331538 0.031914007 0.5912179 -0.0258431 -0.111105256
44 0.253413 0.21980792 -0.13303788 0.12308391 0.11626966 -0.07131173 0.39806446 0.53417194 -0.43296912 -0.55943215 0.29099467 0.23197143 -0.33196634 -0.016919065 0.089744925 -0.05076768 -0.12965643 0.6675572 0.2629036 -0.124145396 0.5186144 0.25764978 -0.27684826 0.5428696 -0.12755305 0.24853893 -0.029587833 -0.16994797 0.25021216 -0.47357 -0.25195158 0.2753658 -0.12517636 -0.09794181 0.12524346 0.1772085 -0.18517666 -0.043519974 -0.35527742 -0.3435434 0.24447869 0.24071008 0.081144735 -0.26013047 -0.021096986 -0.009996105 0.18346642 0.28362268 0.034217786 -0.5237383 -0.04789501 -0.79103905 0.16561082 0.04846501 0.73809755 0.0050710854 -0.31703368 -0.09656517 0.124164134 -0.07020288 -0.21941812 0.16963354 -0.07989079 0.17680608 -0.49399212 -0.48666036 0.15935124 0.04512832 0.51933974 -0.07806927 0.15517351 0.2266107 0.14943942 -0.1354223 0.40418375 -0.03378298 0.15889657 -0.18112257 0.0060341875 0.039797515 -0.51223826 -0.009287531 -0.18143201 0.00467388 -0.29962957 -0.28762308 0.28086758 -0.4362835 -0.399553 0.27824858 -0.22795047 0.057246137 -0.09919224 0.051962998 0.14165094 -0.30467677 0.29671732 -0.43271968 -0.53060895 -0.14747646 0.2565641 -0.44685298 -0.010487477 0.47920606 -0.5011599 -0.044973053 0.19196786 0.014752199 0.16124684 0.9285017 -0.110523805 -0.14524648 -0.24414608 0.18517709 0.11985616 0.7793803 -0.5113935 -0.02692861 -0.11534686 -0.13127023 -0.18656446 -0.2878961 0.6569235 0.057415146 0.07865244 0.35420138 -0.24962732 0.21009946
218 0.35652715 -0.2093191 -0.045218557 -0.17517397 -0.14776418 0.20236516 0.36928052 0.17763542 -0.23267266 0.109802745 0.5459738 -0.20130365 -0.054091167 0.19419181 -0.12435218 0.550291 0.00068164244 0.19204871 -0.29810062 -0.14963046 -0.0023568897 0.35635287 -0.21740867 0.46052048 0.16284283 0.056756426 0.3015951 -0.61813134 0.4379649 0.38433623 0.0473713 0.6504385 -0.25802037 -0.091900736 0.522754 0.17355427 -0.3579005 -0.06779164 0.11405396 -0.061312165 0.10647991 0.08700192 -0.3533265 -0.0076427106 -0.27757543 -0.049736723 -0.1474552 -0.0023816694 0.0076127145 -0.026240159 0.00821049 -0.33360606 -0.14018522 -0.45355237 -0.09137421 0.02481435 -0.39420247 0.5457088 0.0052522025 -0.21320815 -0.19075707 -0.17083657 -0.62112373 -0.4469227 -0.24575914 -0.23176268 0.67556065 -0.050315134 -0.04198903 -0.24430905 0.41107142 0.06983669 -0.3971294 -0.0883571 -0.2860484 -0.2782069 0.40708923 -0.07178712 -0.12349978 -0.18568265 -0.43551618 -0.05150625 0.20873205 0.28587696 0.068085045 0.15387303 0.34938878 -0.9007825 -0.38622138 0.2632188 -0.021773254 0.2652274 0.057944078 0.04076659 0.016889382 0.15932868 -0.29596967 0.2847416 0.12683198 -0.2024576 -0.27581462 -0.16500528 -0.0013934002 0.1775138 -0.30441543 0.37289658 -0.48345652 0.04302501 -0.30233586 0.09661009 0.38052022 0.199156 -0.46090338 -0.20526445 0.24785784 -0.056255806 -0.63349396 0.35560054 -0.056288738 0.14228478 -0.15866983 0.30614263 0.095488906 -0.075692706 -0.13724802 0.7136786 0.14907825 0.19086352
71 0.52226716 -0.21610706 -0.22592956 -0.3591013 -0.0115668345 0.08639978 0.536722 0.25777498 -0.0587794 0.37504086 0.27560005 -0.031983506 0.1477743 0.35427684 -0.3322063 0.19886324 -0.1469499 0.49097618 -0.08083613 -0.11042832 -0.17485277 0.019291505 0.13856536 0.12924576 -0.00078808184 0.07233873 0.22631827 -0.35687453 0.38570577 0.123558626 0.2247199 0.43035266 -0.33214158 -0.05943576 0.2598594 -0.1709347 -0.6678201 -0.03826319 -0.035861667 0.28624743 -0.34630182 0.24936649 -0.11549641 0.20632108 -0.04445065 0.029241368 0.03354661 0.09937262 -0.12590687 -0.33160388 -0.09440315 -0.26287413 -0.35820347 -0.4194737 -0.49972168 0.0043894574 0.09565624 0.22188558 0.12964334 -0.14568329 -0.080249935 -0.17371409 -0.7237523 -0.5231927 -0.020505436 -0.19607396 0.9434372 -0.08961631 -0.057239987 -0.6342832 0.047982816 0.042271923 -0.40468302 -0.036858395 -0.018007385 -0.6215605 0.4132376 -0.39404106 0.10663335 0.07694352 -0.16712627 -0.1506288 0.13952756 0.30865845 0.2291316 -0.29459965 0.03943589 -0.9482639 -0.3547631 0.17580417 0.06451608 0.4303852 -0.2050712 -0.059130333 0.18444027 0.0795783 0.006540346 -0.05836363 0.2809853 0.04026502 -0.6591416 0.07500186 0.36407593 0.45385894 -0.51378417 0.77200675 -0.8195082 -0.19227922 -0.04393243 0.4396784 0.022721667 0.049707666 -0.29721126 0.24639675 0.050698318 0.014786411 -0.6215418 0.1609769 -0.053953264 -0.41657975 -0.14731388 -0.31013334 0.070897706 -0.112037614 -0.28476307 0.4465299 0.06966241 0.20031695
