410 128
51 0.11946848 0.07388011 -0.01979581 0.14869079 0.06769674 0.32875946 0.19304812 -0.060429387 0.008220577 -0.18782225 -0.155417 0.12186594 0.31838483 -0.27279893 0.26902756 -0.021108879 0.09485262 0.13788787 0.58511454 -0.1812554 0.07910701 0.042945232 -0.1113981 0.22193787 -0.06698663 0.02762559 -0.08939238 -0.23588963 0.09012675 0.34134424 -9.250114e-05 -0.36606592 -0.066515364 0.14604008 -0.4247546 0.17708609 0.033235874 -0.00035866728 0.019077286 0.1715405 0.12233842 0.24299756 -0.42187887 0.47462007 0.1963045 0.15385525 0.11144085 -0.064123064 0.11762018 -0.059208073 -0.1090421 0.12560342 0.2866185 -0.101291165 -0.05306103 0.12946124 0.23842968 -0.1163678 -0.050827492 -0.2982313 -0.17216657 -0.084917225 -0.00042678427 -0.0054625375 0.06027157 0.24024512 -0.18050593 -0.0798665 0.0036741176 -0.18400657 0.17589232 -0.108699046 -0.12851433 -0.09080684 -0.3768801 0.016931841 -0.13850418 -0.035504512 -0.12683897 0.052699473 0.093942404 -0.0012710262 0.09792671 -0.048758864 -0.30669013 0.033032432 0.20969026 -0.04709975 -0.22885063 -0.08923022 0.123667225 0.12929091 -0.09164562 -0.064072944 0.17869544 -0.3875537 -0.18009336 0.09400701 -0.05186458 -0.047284976 -0.2135002 0.075141326 -0.34368402 0.04589549 -0.04087923 0.22341655 -0.24224317 -0.12948437 -0.08766621 0.103565425 0.1261651 0.15493979 -0.09118937 0.092603914 0.03280315 -0.013887363 0.04432891 -0.0612035 -0.027834762 0.0018959623 -0.35757667 0.016412655 0.13500738 0.07423946 -0.174819 0.080390796 0.017579876 0.19775112
272 0.34078157 0.19700755 -0.069587804 -0.11569203 -0.009819753 -0.17572835 -0.0816934 0.3454822 0.32193533 0.034191 0.20212178 -0.09061355 -0.15160644 -0.3253751 -0.22616304 0.017118666 0.42107487 -0.35372153 0.053645402 -0.11356185 -0.2682518 -0.27767748 0.10630752 -0.044627283 0.08035753 0.647778 -0.13501003 0.18464652 0.2068994 -0.14505191 0.010247034 0.052617975 -0.054989085 0.5244999 -0.24399275 0.025607206 -0.25645286 0.0732215 0.2842118 -0.042029515 -0.040774267 -0.12824781 0.031749662 -0.11718973 0.14511795 -0.09088417 0.2754719 -0.08532196 -0.1408744 0.11633765 -0.09625735 0.030198885 -0.44331554 -0.23861726 0.15284494 0.01941048 0.16201043 0.15558214 0.07069582 0.08457927 0.20575449 -0.1942494 0.40711305 -0.27842918 0.14968395 -0.29408646 -0.25327793 -0.13659263 0.2117336 -0.17290413 -0.114828445 0.008035741 0.017582761 0.063538514 -0.061027367 0.20781131 0.009567596 0.18906121 -0.47797897 -0.3928741 0.32546023 0.24892747 -0.021830726 -0.0539637 -0.11576322 -0.047774512 0.22544456 -0.2333209 -0.111279674 0.08205106 0.10156726 0.008079456 -0.003987128 0.044083662 -0.04822115 -0.055553883 -0.21663181 0.027185783 -0.25507197 0.16205183 -0.09934194 0.07245554 -0.16768518 0.03630111 0.017492656 -0.091971844 -0.1085084 -0.37495843 -0.08437293 -0.012432221 0.07390673 0.053038917 0.22873627 0.3172483 0.20416142 -0.2914148 0.16687706 -0.02688558 -0.14832087 0.3081755 0.08096706 0.28302234 -0.14478248 -0.2653741 -0.063498996 -0.262462 0.34813496 -0.0034955146
195 -0.23581842 0.18684237 -0.09259219 0.119502105 0.20966664 -0.16686964 -0.13276389 0.39412954 0.5714116 -0.20636682 -0.13304923 0.054568347 0.13958126 0.01781992 -0.162669 -0.09517971 0.20305902 -0.052977383 0.18475573 -0.22303525 -0.19168466 -0.14159827 -0.054464005 0.23175302 0.06687515 0.12241581 0.05336508 -0.2895514 0.09138497 -0.038241882 0.43835104 -0.023387646 -0.13194966 0.51507396 -0.08316246 0.21482839 0.023771856 -0.07131923 0.30725643 0.18906264 0.38432595 -0.08717112 -0.29762775 0.024797427 0.1191503 0.15329102 0.114395276 -0.2889911 -0.23285037 0.16852224 -0.052438036 -0.1770938 -0.11315704 -0.20873043 0.06867613 0.02773964 0.09603805 -0.18235941 -0.0609991 0.12325377 0.03190326 -0.15011185 0.5388495 -0.15125303 0.22011138 0.044772625 -0.20628954 -0.032221094 -0.004057637 -0.24921064 -0.06740011 0.096517526 -0.07864511 0.03564953 -0.12224974 0.11308979 -0.13375323 -0.0024015293 -0.29632533 -0.08680891 0.25541934 0.10066611 -0.14265442 0.015284891 -0.4593118 -0.24332587 0.35308272 -0.04743064 -0.18445015 0.15168224 0.075101435 0.08387018 0.02985922 -0.2694907 -0.04480386 -0.32717487 -0.12073213 -0.08449964 -0.08212092 0.110078335 -0.20474504 0.1845179 -0.42201117 0.20324454 -0.06359181 -0.13805684 -0.01694548 -0.5007036 0.24779938 -0.2736838 0.28950647 0.092956655 0.16977815 -0.09689693 0.23248652 0.04602354 -0.044508822 -0.16027425 -0.15289515 0.15839645 0.16383286 0.16980258 -0.26394853 -0.09274343 0.11783592 -0.18409035 0.19162905 0.102722555
235 -0.03986777 0.21878675 -0.15530877 0.06548989 0.20300722 -0.1607508 -0.0808785 0.4638912 0.46073988 -0.33982614 -0.14333473 0.04850465 0.1799322 -0.061194066 -0.29645377 -0.049203057 0.27539086 -0.12268528 0.1413846 -0.24729744 -0.004906281 -0.2019334 -0.13339376 0.0043159802 -0.097882055 0.10421498 0.06487187 -0.09574682 0.13632417 -0.0055712922 0.39937797 -0.13757291 -0.16586721 0.40511003 -0.10200921 0.19277579 0.09627277 -0.045806985 0.24923708 0.2493449 0.21550527 -0.13513291 -0.23788081 0.052519057 0.054190733 0.28644013 0.09039257 -0.035825036 -0.28317547 0.23951116 0.005895 -0.15081574 0.11914895 -0.15065064 -0.042022657 0.024350876 0.21287191 -0.11912845 -0.082619034 0.1173918 0.064401664 -0.24766143 0.49967095 0.04180924 0.12282304 -0.06209146 -0.33484727 0.08609847 -0.02550119 -0.28706858 -0.20292 0.0152761955 0.13474268 -0.12718067 -0.18068232 0.21889526 -0.04724389 0.050209463 -0.3016365 0.021078888 0.071249925 0.10506916 -0.043012977 0.012003051 -0.36748 -0.28446457 0.2251063 0.0053854906 -0.23717867 0.2306754 0.12652817 0.018920261 0.053206574 -0.26474485 -0.05125345 -0.29420364 -0.17763175 -0.15162235 -0.13985859 0.1266716 -0.29174194 0.1787866 -0.33682063 0.22027181 -0.048768215 -0.22317827 -0.23927584 -0.3213928 0.14590356 -0.15331028 0.36159876 0.04355793 0.017221216 -0.03960862 0.28753462 -0.18511543 -0.07662866 -0.016255252 0.016172465 0.21354854 -0.032531675 0.057521917 -0.1946765 -0.14347851 -0.13293031 -0.017711887 0.1677734 -0.031117959
50 0.006864551 -0.13804123 -0.095929235 -0.014943996 0.11987981 0.36628693 0.022201037 0.14318788 -0.099149525 -0.25619024 -0.08195394 0.014377733 0.29299325 -0.098500915 0.18276979 0.03471858 0.0655699 0.14535992 0.51578903 -0.18375424 0.0410928 0.027621485 -0.21391842 0.022109522 -0.10469797 -0.01152666 0.03049642 -0.41518778 0.035192125 0.44972044 0.06407874 -0.31900254 -0.062028807 0.2595589 -0.2625315 0.17104997 0.12701757 0.06590025 0.17019816 0.0296328 0.25284988 0.13064092 -0.3529328 0.36658633 0.33738118 -0.0058507724 -0.020404479 -0.10158397 0.07137454 -0.03296769 0.00957056 -0.0077831983 0.11087077 -0.025677146 -0.06916692 -0.007559252 0.21927935 -0.098124534 -0.20255989 -0.32209778 -0.3069597 -0.12389444 -0.035005536 0.058703583 0.20709768 0.12211933 -0.08645318 -0.060436375 0.12746961 -0.22007433 0.21987244 0.04910908 -0.14428154 -0.11940353 -0.564387 0.036949854 0.11633986 -0.11359494 -0.13660869 0.030075375 0.17906287 -0.17706712 0.26833904 -0.16027667 -0.03637848 0.078411885 0.12420137 -0.060630385 -0.105031356 -0.19294561 0.29804432 0.017961707 -0.0628423 -0.106096156 0.13491403 -0.25965717 -0.24946645 0.23148674 0.014767859 -0.13169506 -0.25045687 0.112054914 -0.47519907 -0.08916365 -0.0070693917 0.15119493 -0.22319451 -0.2011657 0.05168953 -0.043457426 0.0642127 0.049367994 -0.07813508 -0.0011162113 0.04725005 -0.027274393 0.1954691 -0.060702268 0.013966827 0.18122366 -0.42967412 0.13225205 0.11572127 -0.16758588 -0.31097496 -0.039757468 0.010153336 0.2825422
122 0.08646305 -0.13238493 -0.18070254 0.27056357 0.23953569 0.35389814 0.022006517 0.107240155 -0.17865449 -0.19283599 -0.10057952 0.31536186 0.25498396 -0.09912415 0.028153308 -0.048753846 0.12240915 0.051704083 0.52489287 -0.10375753 0.06321784 -0.007349242 -0.30820757 0.06823529 -0.061424714 0.26458836 -0.08021548 -0.43420145 -0.0006819693 0.5310141 -0.08091166 -0.20586005 0.17863862 0.10384684 -0.47810742 0.37344277 0.013338189 0.22599232 -0.011884681 0.06093392 -0.039542526 0.14001767 -0.34208673 0.44628316 0.09595163 -0.11103146 -0.069081776 0.17184028 0.014522415 0.013774239 -0.29456347 0.07776946 0.2701514 -0.075891696 0.055928096 0.10775074 0.2226637 -0.01256899 0.22155818 -0.44728303 -0.110725075 -0.19251142 0.18279576 -0.05016934 0.17703551 0.0417413 -0.23558408 -0.08646831 -0.029799532 -0.16355209 -0.007221982 0.022231115 -0.256052 -0.11399931 -0.5338795 0.04857987 -0.12475502 -0.0015234889 -0.089847274 0.12379173 0.30591682 -0.104057364 -0.25429758 -0.0378589 -0.09840667 0.14675829 0.02110051 -0.0342845 -0.24209663 -0.17791641 0.13342585 0.011784662 0.06544709 -0.07480568 0.1813954 -0.4134397 -0.018655157 0.1828074 -0.31012735 0.0603331 0.06498298 -0.0030708655 -0.42545664 -0.06296842 -0.09494067 0.18936828 -0.11682121 0.35485315 -0.257826 -0.06535097 0.2881391 0.00094072626 -0.12584789 0.25027958 0.030315004 0.1574279 0.012627761 -0.2416588 -0.0018377069 0.25276873 -0.4021862 0.11872766 0.13017325 -0.11690147 -0.009743969 -0.30915183 -0.050215237 0.35004863
219 -0.19461957 0.13645726 -0.28048655 -0.09841484 0.04025258 0.10129262 -0.07310455 0.37468034 0.47267312 -0.1224008 -0.08909499 0.09004258 0.3720506 -0.08978626 0.034256607 -0.07082851 -0.018502412 0.1020733 0.19288027 -0.17679091 -0.03123619 -0.15484442 0.009535252 0.25663528 0.024541054 -0.075265825 -0.011860236 -0.2302176 0.14002964 0.053020775 0.511547 -0.17120016 -0.21719304 0.20119491 -0.18466328 0.2091038 0.14079304 -0.0044207876 0.10374023 0.18334989 0.16634972 -0.14329417 -0.39982453 0.15287344 0.26208335 0.15459904 0.060329888 -0.19610532 -0.09165975 0.024459817 0.00089535804 -0.20209831 0.14438772 -0.14336215 0.016622452 0.27130815 0.07718547 -0.05560659 -0.2006051 -0.09382544 -0.17018883 -0.07514045 0.38303074 0.118584216 0.1603745 0.03373351 -0.27403718 -0.14454037 0.073655374 -0.37385634 -0.08378747 -0.15655841 0.009117857 0.11625091 -0.28414825 0.07423947 0.067024216 0.034155224 -0.18951549 0.036489442 0.16585673 0.029689943 -0.004088189 -0.020488065 -0.4997325 -0.23551998 0.17258814 0.0100477375 -0.20881064 0.10253172 0.3731068 0.07899832 -0.18732199 -0.1685669 0.13176596 -0.42973495 -0.19119948 0.0011883741 -0.1354076 0.13056283 -0.23963237 -0.08288639 -0.3955811 0.23955625 -0.0026423866 -0.09856518 -0.19951011 -0.39149287 -0.0060789436 -0.038828414 0.33819082 0.2615948 0.13910793 0.055976618 0.13178532 -0.01877876 -0.17654793 -0.19655055 -0.038288504 0.10953756 0.16040245 0.0699149 -0.1667113 -0.055403557 0.20289232 -0.03159053 0.3070642 0.1354017
161 -0.19209613 0.123981565 -0.3081419 0.12996961 -2.859702e-05 0.18812817 0.09863912 0.34186336 0.33755353 -0.45260388 -0.03572876 0.17990866 0.38958976 -0.17844228 0.10760514 0.14564149 0.04973265 0.43864644 0.27876452 -0.24796823 -0.18863988 0.07352255 -0.018257406 0.20094965 -0.0632797 -0.12954713 -0.0172634 -0.3538639 0.104945734 0.2904618 0.08807434 -0.3857477 0.09513316 0.074365035 -0.12294192 0.38126305 0.027242495 0.02105073 0.120091744 0.30368525 0.29434425 -0.21843937 -0.2899573 0.40803456 0.35266644 -0.024159083 -0.10248058 -0.23798625 -0.05216614 0.10000507 -0.3797897 -0.16111425 0.17305683 -0.16005208 -0.19760197 0.28910667 0.066626176 -0.06780367 -0.2679455 -0.38710845 -0.22493304 -0.10399512 0.23570414 -0.07996243 0.22982502 0.1330685 -0.2027085 -0.17180245 0.054642513 -0.26951796 0.051224206 0.08922568 -0.14162666 0.18595718 -0.39329898 0.07410789 -0.019091342 0.09294033 0.08775251 -0.023310069 0.23726577 -0.0021450035 -0.08349102 0.09134674 -0.36635256 -0.021667957 0.18635835 -0.057521027 -0.16451384 -0.3313666 0.243795 0.103337474 -0.20103845 -0.124247424 0.0040134825 -0.52276045 -0.14757773 0.14975154 -0.031241395 -0.002927792 -0.056567278 0.039545603 -0.47362086 0.016808622 0.10944525 0.04315885 -0.016199514 -0.102961585 0.010830627 -0.2476604 0.15380901 0.17758347 -0.06805749 0.19053562 0.09609005 0.013138173 0.02851158 -0.23914383 -0.045371946 0.29091057 -0.0797018 -0.04882567 0.041826136 -0.21425192 0.025273267 -0.08365797 0.0888443 0.4006072
265 0.09679018 0.12938152 0.09969479 -0.050386097 -0.02237535 -0.14845532 -0.10038469 0.3734668 0.6889888 -0.13139136 -0.03048189 -0.05471193 0.054987036 -0.09383389 -0.29564542 0.06736676 0.41587484 -0.1623344 0.13217582 -0.27039748 -0.15820862 -0.141839 0.035706196 0.033894252 0.009677053 0.4016019 -0.024488494 -0.18345761 0.0039489153 -0.021588577 0.225824 -0.033469025 -0.099500336 0.6779011 -0.13818881 0.24039769 -0.02639318 -0.09395863 0.37067565 0.11483269 0.24399142 -0.17307231 -0.028416514 0.021700695 0.082101844 0.10799947 0.13532972 -0.060303863 -0.45959413 0.31464568 -0.03833364 0.031579908 -0.24568702 -0.11279092 0.009172546 -0.09075511 0.04654493 -0.08224774 -0.10973919 0.17553093 0.08844462 -0.37183303 0.50767577 -0.17499138 0.2351406 -0.17088477 -0.34853616 -0.09707493 0.022329003 -0.27772516 -0.017036017 0.17505896 0.07630191 -0.0011006127 -0.1233501 0.31995234 -0.10039775 -0.017755793 -0.51366115 -0.28353223 0.20514542 0.21693324 -0.048017167 0.07077877 -0.1503351 -0.20586988 0.4012326 -0.21430261 -0.1000652 0.12870455 -0.05308532 0.107336506 0.06876874 -0.025975725 -0.1806758 -0.0981224 -0.20370223 -0.09505492 -0.07561691 0.054544166 -0.121124856 0.308536 -0.39644626 0.17004046 -0.041114315 -0.11793147 -0.08813441 -0.54799455 0.16578552 -0.10319333 0.077862754 0.05593372 0.11361543 0.07863165 0.18767887 -0.08213972 0.081568986 -0.08949298 -0.14685968 0.18706702 -0.06020993 0.10912684 -0.18823424 -0.2699106 -0.2675813 -0.09794959 0.12984996 -0.015376994
181 -0.2514739 0.017574059 -0.36838847 0.05540408 0.05885996 0.1425359 -0.10287077 0.2703215 0.28960454 -0.23777616 -0.056374412 0.034293704 0.408999 -0.18360005 0.14343329 0.033315007 -0.05091903 0.25687858 0.31064066 -0.22582681 -0.06253192 0.080377996 0.032417838 0.24887118 -0.12127127 -0.13866065 -0.0019750323 -0.4024398 0.17415237 0.25741345 0.32750586 -0.38582286 -0.05929392 0.08070814 -0.29533827 0.3539821 0.15971199 -0.041742697 0.03691663 0.16924301 0.13535796 -0.1280787 -0.38899493 0.40619346 0.33573955 -0.0009850606 0.00015878525 -0.21630727 -0.09325439 -0.07670487 -0.15158394 -0.21187904 0.10587926 -0.105421364 -0.05109753 0.30145183 0.14220716 -0.084705375 -0.33173534 -0.3898522 -0.29474196 -0.049777158 0.20465073 0.16782336 0.17261836 0.023065235 -0.1543482 -0.22115241 -0.004086718 -0.2853117 0.087948814 0.037101492 -0.11685256 0.07560709 -0.53479594 0.057632443 0.07870932 0.034973048 -0.11765274 -0.03549923 0.2451574 -0.038245376 -0.014187021 -0.024996696 -0.30789584 -0.11510589 0.24288978 0.08393777 -0.22171795 -0.15973271 0.3980937 0.06713105 -0.26197204 -0.19167045 0.17515473 -0.46150535 -0.3114995 0.1566666 -0.033435587 0.019071346 -0.2783881 -0.021991044 -0.48939925 0.007578496 0.05792207 0.04035086 -0.027795656 -0.236142 -0.10296599 -0.12448677 0.23204045 0.1522907 0.015048231 0.07737109 0.07954797 -0.091122426 0.025757778 -0.18872364 -0.0034650743 0.19383179 -0.08221387 -0.023332968 -0.06497607 -0.10959112 0.025236018 0.03094743 0.16720729 0.3147888
359 0.46535566 0.19109881 -0.14872932 -0.15386803 -0.00014975712 -0.10576876 -0.062013794 0.30393973 0.08991292 0.07857192 0.29382366 -0.106779665 -0.14401136 -0.6135924 -0.23857674 -0.08074262 0.54725796 -0.21257268 0.076348044 -0.0539349 -0.18243118 -0.3369362 0.11248606 -0.18576509 0.11174678 0.88778925 -0.2849306 0.36032316 0.24117103 -0.2861285 0.06679141 0.04114733 -0.06986137 0.52705777 -0.383858 -0.26787505 -0.40841258 0.223992 0.15764669 -0.10962889 -0.14595611 -0.27071443 -0.06729201 -0.1481209 0.28149018 -0.33099484 0.16881381 -0.3068451 0.13864061 0.10378474 -0.12832642 -0.08562686 -0.38938695 -0.32543707 0.15387495 0.11178226 0.26099858 0.27224967 0.18526652 -0.10105252 0.0642341 0.14386536 0.41069445 -0.3013471 0.036915988 -0.34504545 -0.42008373 -0.17835464 0.32484648 -0.14146501 -0.1337564 -0.19070835 -0.07037814 0.34108013 -0.16738494 0.19797298 0.1480571 0.2687656 -0.53400886 -0.28604996 0.44296944 0.32134727 -0.011362039 0.05427207 -0.016336652 0.09829763 0.22996968 -0.37028453 -0.14690897 -0.08946041 0.19453502 -0.049883746 -0.104308404 0.073460795 -0.02113242 -0.06404451 -0.23425154 0.23134767 -0.3613869 0.2935266 -0.019804012 -0.22859296 0.0010844107 -0.012539687 0.14730737 -0.06272491 -0.26647115 -0.28606975 -0.07677947 -0.056535017 0.21883468 0.12869775 0.19375092 0.44509622 0.28578717 -0.27231663 0.15275657 -0.07284005 -0.06159277 0.38937083 0.12230772 0.47745454 -0.29677895 -0.4549865 0.3241816 -0.45187643 0.36486965 -8.774911e-05
292 0.009820551 0.25508195 -0.06408237 0.017615428 0.113190666 -0.15120019 -0.12692092 0.5553841 0.49048883 -0.31658193 -0.041070323 0.06421006 -0.028792707 -0.07135912 -0.38000485 0.0502339 0.4305365 -0.16879192 0.17026123 -0.29534635 -0.2900319 -0.23498793 -0.053572584 0.017375074 -0.032801684 0.3936671 -0.09707325 -0.14874329 0.08886725 -0.023569243 0.116054125 -0.095951706 -0.09283004 0.54409486 -0.03306913 0.32794747 -0.039709054 -0.04315466 0.34858793 0.18362468 0.34338832 -0.12129633 -0.1411061 -0.06752728 0.108241014 0.04888855 0.13105458 -0.17625688 -0.37005293 0.3148981 -0.05995382 0.012783084 -0.2423463 -0.13115725 -0.113214165 0.023024278 0.17380649 -0.080087595 0.02577204 0.20065492 0.24340352 -0.3282571 0.5312609 -0.22828163 0.24392779 -0.19286212 -0.31177533 0.079339 0.011219746 -0.33678204 -0.16099317 0.11520086 0.06502175 -0.14670049 -0.08715156 0.2656317 -0.14298372 0.12807007 -0.33684924 -0.1844965 0.15243883 0.22204281 -0.081734374 -0.011999691 -0.2506007 -0.23198564 0.2600544 -0.24102396 -0.12782001 0.1442071 -0.026147602 -0.0061092502 0.18996398 -0.08945597 -0.14316945 -0.13178469 -0.08216933 -0.07197576 -0.086984776 0.21903971 -0.13953379 0.34811142 -0.38465706 0.22585446 -0.025239594 -0.20538472 -0.15354274 -0.42756397 0.13392314 -0.18397865 0.19171783 -0.020526672 0.09666273 0.05449163 0.32125744 -0.14187366 0.089013554 -0.096162826 -0.18314834 0.35427916 -0.04352596 0.1594472 -0.1680766 -0.26116124 -0.13627835 -0.123499595 0.23573594 -0.035555437
188 0.22635123 0.045470957 -0.12485766 -0.036601 0.015273228 0.14955294 0.006892001 0.2194917 0.33103117 -0.27219012 0.0018248744 -0.028181374 0.08025227 -0.023887284 0.038436342 0.110166125 0.34275967 0.057334177 0.3231909 -0.343277 -0.07858111 -0.1425954 -0.083979644 -0.0954316 -0.099601015 0.066870205 -0.03579686 -0.14053763 -0.0699848 0.3391514 -0.081120305 -0.109649554 -0.020915389 0.21122628 0.009390791 0.3462341 -0.14000793 0.052394927 0.26083067 0.05067199 0.13238187 -0.019007849 -0.08820835 0.054971125 0.08163627 -0.0868417 0.07826025 0.014425087 -0.02296796 0.1567251 -0.17153797 0.122734204 -0.099958554 -0.1973239 -0.054791853 -0.061695874 0.11241995 -0.033675577 -0.1087263 0.027570501 -0.05589442 -0.29766452 0.3543029 -0.191028 0.3241255 -0.087448426 -0.23327528 -0.008641772 0.06971377 -0.11581524 0.06350003 0.12262581 -0.03607157 0.038452998 -0.21305831 0.124751896 -0.055324003 -0.036771476 -0.017229525 -0.10599991 0.055408183 -0.05845734 -0.029501917 0.061755974 -0.04270746 0.13851614 0.08779517 -0.18981723 -0.0014040226 -0.0864109 0.08193201 0.018866044 -0.052485783 0.05941015 -0.10922327 -0.1321626 -0.048018113 0.05328304 -0.09255993 0.019364009 0.0064021284 0.27488682 -0.2608495 0.08006433 -0.014765054 -0.20054281 -0.12363934 -0.14352913 -0.051127147 -0.010390543 -0.0023464942 0.05832359 -0.10078344 0.1873287 0.18168153 0.1315888 0.114321336 -0.2655178 -0.027180515 0.101259075 -0.19880116 0.010955563 0.16963905 -0.37379667 -0.3079913 -0.16171162 0.081734695 0.1704246
294 -0.027610233 0.24135117 -0.22230607 -0.051546447 0.10534054 -0.10448272 -0.20287342 0.5754981 0.5042429 -0.3698087 0.00023618975 0.14787848 -0.024623042 -0.028908629 -0.39448255 0.05220151 0.41078636 -0.21483816 0.21460055 -0.3423409 -0.25445557 -0.10336403 -0.018186409 -0.09650298 -0.06016131 0.35056365 -0.0476266 -0.21349677 0.0037743782 -0.060201067 0.21599655 -0.085351735 -0.13938837 0.46998596 -0.14363259 0.34273118 -0.014788505 -0.075234346 0.28892347 0.15703757 0.21106832 -0.2056207 -0.2117939 -0.1121668 0.16135807 0.023351962 0.03146391 -0.13618286 -0.47087434 0.3073105 0.058240343 0.030577501 -0.16340937 0.09657106 -0.13563092 0.011627424 0.18846564 0.05868413 0.0518785 0.17030896 0.3394508 -0.2613822 0.46950412 -0.19569108 0.16056912 -0.29679775 -0.291354 0.07348372 -0.048480846 -0.29082763 -0.15418206 0.17914782 0.07724359 -0.16882797 -0.068098664 0.36030933 -0.119165406 0.16103071 -0.4449027 -0.19599499 0.18412252 0.24665643 -0.034657516 0.05526643 -0.10932208 -0.2772689 0.23217009 -0.26481852 -0.18918334 0.11298802 -0.03689193 -0.046005856 0.1991058 -0.08860652 -0.16026242 -0.110725306 -0.07407025 -0.12619153 -0.118372925 0.19857612 -0.16289619 0.40559655 -0.4162645 0.13206409 -0.093160234 -0.32070747 -0.15993571 -0.3482733 0.08384934 -0.10624066 0.24652524 -0.028925516 0.12513943 -0.06196694 0.22093353 -0.15898429 0.09311676 -0.024729019 -0.1388631 0.33450967 -0.0061299955 0.13380133 -0.24391514 -0.33636916 -0.022932585 -0.18765332 0.20747097 -0.0831845
100 0.2373088 -0.03789991 -0.05089542 0.3465892 0.18936709 0.26322597 0.075648144 -0.12805478 -0.18456669 -0.19574016 -0.10534529 0.38810724 0.32407588 -0.32577014 -0.07146026 -0.14576982 0.25127116 0.18882556 0.61690104 -0.1757707 0.090169035 0.10316846 -0.23079465 0.05604239 -0.022759918 0.30089727 -0.20455714 -0.30184957 -0.047274914 0.41101226 -0.1313912 -0.38892266 0.19704615 0.036108293 -0.648658 0.4149981 -0.027802939 0.16837145 -0.15604496 0.24587424 0.010349341 0.14762317 -0.45922583 0.6057808 0.12670267 -0.069485456 -0.09059254 0.06016155 -0.0009746203 0.022469154 -0.2646685 0.084346585 0.42009303 0.058444258 -0.14526692 0.2562524 0.26971328 -0.02437172 0.43361914 -0.46147844 0.01622603 -0.01086306 0.06606483 -0.09405093 0.00056248973 0.0053777755 -0.40872642 -0.091727376 -0.12536784 -0.16417937 -0.07007019 -0.0011494656 -0.16837731 -0.09223091 -0.4450447 0.084006995 -0.26931202 0.13393332 -0.09441964 0.24234371 0.15691149 0.081463896 -0.26095682 0.17247064 -0.18462309 -0.00095205824 0.1529968 -0.14597256 -0.33626506 -0.21748994 -0.026777009 0.11126963 0.09627456 0.0045210067 0.0008734978 -0.50889724 -0.009443743 0.10754836 -0.34265658 0.068524085 0.11894425 0.08962639 -0.24172892 0.016085451 -0.052296005 0.26475 -0.18020435 0.36858702 -0.17847054 -0.0019477145 0.30397967 -0.10044098 -0.09416862 0.24210595 0.005536039 0.20188114 -0.028034305 -0.09137065 0.05998721 0.11594367 -0.47388542 0.038167685 0.04500661 -0.06789078 0.105368644 -0.12731186 -0.17181762 0.22186533
288 0.008196833 0.18966684 -0.116684176 -0.030993612 0.14599462 -0.16195606 -0.21720882 0.5428964 0.56307834 -0.2765238 -0.030527383 0.096547686 -0.011220928 -0.032587904 -0.39155504 0.032786902 0.42132422 -0.27782986 0.24390818 -0.33679926 -0.21427691 -0.12091816 -0.024539694 -0.026531212 -0.071432106 0.41227892 -0.0008841295 -0.24884884 0.024951417 -0.024325587 0.21923202 -0.070988975 -0.17116211 0.58498937 -0.15434358 0.2768711 0.040898338 -0.09968717 0.33106908 0.15216093 0.2511091 -0.101858616 -0.20370926 -0.073703535 0.119131625 0.0860823 0.11594498 -0.11545406 -0.5107702 0.330263 0.10547683 0.068033114 -0.19975354 0.03216131 -0.07638001 -0.030387182 0.17629206 -0.018487157 0.014526106 0.18419671 0.29587302 -0.31138024 0.48883143 -0.1592967 0.20572913 -0.27106524 -0.30835092 0.041440655 -0.07565424 -0.29542735 -0.12950765 0.16003522 0.07354348 -0.20990866 -0.11815614 0.38276505 -0.15039404 0.09996515 -0.5004505 -0.20695423 0.18057084 0.23701672 -0.011194044 0.013280531 -0.13345076 -0.27825835 0.3128046 -0.22522277 -0.17381668 0.16501929 -0.065500274 -0.017423825 0.21287796 -0.10269903 -0.109038346 -0.10813249 -0.14207883 -0.12565029 -0.07129136 0.17504983 -0.22907114 0.43349165 -0.45785493 0.16674027 -0.089331515 -0.2527518 -0.15094821 -0.46517926 0.12606488 -0.10858061 0.20258005 -0.015555395 0.10940085 -0.055360243 0.23362687 -0.16245943 0.08776277 -0.01086738 -0.1724699 0.29558364 -0.04957461 0.14748365 -0.22883934 -0.2932439 -0.14391483 -0.1531722 0.19534764 -0.0835627
148 -0.14726588 -0.038742173 -0.43271512 0.11416756 0.055410832 0.26171857 0.05565416 0.35299644 0.32514513 -0.37018102 0.065480225 0.05956927 0.4466825 -0.21253198 0.099974774 0.17830162 0.010517364 0.3478303 0.3528394 -0.23637792 -0.10549779 0.0320394 0.014901639 0.24121884 -0.13049994 -0.12423245 0.09184345 -0.41359484 0.08857993 0.27788433 0.20221502 -0.323748 0.03694208 0.17350006 -0.20488688 0.29867056 0.11761526 -0.031600572 0.1294486 0.18817823 0.19165882 -0.24763529 -0.214983 0.4502158 0.4489524 -0.062428955 0.049888812 -0.21116342 -0.092135966 0.0036844194 -0.22515509 -0.2151989 0.060394417 -0.23204975 -0.08290497 0.2555106 0.11710399 -0.16886455 -0.38431555 -0.3927496 -0.2857145 -0.05502662 0.20968585 0.060062572 0.33920637 0.042662073 -0.13273855 -0.21930061 0.105575025 -0.17967367 0.03964291 0.16940635 -0.10493578 0.22891201 -0.47000462 0.03069173 0.027408093 0.13634706 -0.023359224 -0.10361283 0.23699845 -0.050750636 -0.0053732237 0.016708411 -0.30606213 -0.03475018 0.28122422 -0.010284691 -0.21349774 -0.27421644 0.311426 0.09314159 -0.26764756 -0.15734859 0.0584445 -0.5825017 -0.31277925 0.15521322 -0.029204397 -0.03601927 -0.22005187 0.05079497 -0.38697615 -0.059384592 0.145186 0.048428196 -0.015203583 -0.11517606 0.058037292 -0.18822022 0.09486219 0.11430423 -0.038447317 0.10196122 0.15449582 -0.018711248 0.15010975 -0.09648762 -0.03608111 0.41865772 -0.09219816 0.013834337 0.09364782 -0.2944264 0.004455682 -0.02281811 0.00867749 0.33203357
171 -0.29853266 -0.052457932 -0.3904199 0.036845617 0.1014844 0.20996794 0.07026754 0.0973376 0.1273508 -0.3444157 -0.0667432 -0.11994524 0.21699272 -0.15275382 0.15980221 0.012475248 0.13157506 0.011892084 0.4504556 -0.2303281 -0.0037217003 0.07650892 -0.09699363 0.04430692 0.060028926 -0.051569518 -0.007902053 -0.40498096 0.14137308 0.26866242 0.3536803 -0.35732484 0.11834209 0.14952187 -0.22232306 0.36264074 0.030449994 0.07048501 0.112225905 -0.00070086867 0.09170117 -0.14941508 -0.37100908 0.363115 0.18142477 0.061884437 0.015284655 -0.19543977 -0.08176023 -0.07883322 -0.15975823 -0.16311672 0.08309943 -0.17147233 0.012495532 0.15146776 0.21037605 -0.19250895 -0.21652724 -0.26835665 -0.18820244 -0.20622201 0.18994978 0.060841683 0.22176045 0.006958486 -0.037328303 -0.10336984 0.013247015 -0.22449878 0.18016388 0.058548406 -0.12535982 0.03512398 -0.39025316 -0.103806354 0.1088537 0.0043722102 -0.1625859 0.080313735 0.098490484 -0.13955206 -0.0017790126 -0.029324532 -0.3419915 -0.10666157 0.12938336 0.17203966 -0.27841413 -0.093674734 0.5050146 -0.07221327 -0.1095079 -0.11448085 0.1415713 -0.3983528 -0.21139768 0.067262456 -0.24301761 -0.012703258 -0.12949386 -0.06280393 -0.3600413 -0.0734515 -0.0044186306 -0.012890112 -0.072210014 -0.17504229 -0.13061737 -0.040852938 0.1648238 0.0360226 0.12062739 -0.005987078 0.071085535 -0.11820405 0.20895225 -0.2558316 -0.0052512637 0.24707814 -0.17774156 -0.121784784 0.027568681 -0.08362202 -0.09824625 -0.032056432 0.110919684 0.3523681
345 0.3768304 0.09625888 -0.29418468 -0.10773336 0.05970186 -0.053391118 -0.012467481 0.40193146 0.08856667 -0.017225897 0.34514493 -0.0019777738 -0.2362865 -0.46125817 -0.2881578 0.08011621 0.42495897 -0.26266956 0.12080065 -0.09462638 -0.16994819 -0.25551876 0.091067486 -0.24873905 0.072193965 0.8821435 -0.12496069 0.25090468 0.19426383 -0.27532896 -0.0015848412 0.10627309 0.006990821 0.5518373 -0.4520092 -0.21977417 -0.3502134 0.19250488 0.14481369 -0.07506377 -0.10301076 -0.27461872 -0.003733036 -0.14604567 0.36098832 -0.33464426 0.1706498 -0.074079 -0.0028873938 0.031938 -0.11003497 -0.023550391 -0.4147753 -0.1706881 0.1418235 0.027248008 0.24860936 0.14829518 0.17576014 -0.015314458 0.20655434 0.15844579 0.2974699 -0.35094488 0.09758618 -0.38972434 -0.17143945 -0.24198338 0.31065828 0.0017906388 -0.16926986 -0.027682157 -0.020233827 0.26807585 -0.12888896 0.18884069 0.0068766773 0.40454948 -0.5965705 -0.39088425 0.3985664 0.32680467 0.09211071 0.053570535 0.074522614 0.04267956 0.20028625 -0.31921276 -0.16479805 -0.11925628 0.0572834 -0.16847472 -0.044333387 0.005659976 0.0073162694 -0.11254191 -0.23972285 0.2163238 -0.36569184 0.12667918 -0.22382483 -0.06664106 -0.06235061 -0.120248884 0.16069669 0.06308004 -0.18264134 -0.18894029 -0.09641847 -0.078822955 0.15644443 -0.040004056 0.18536249 0.325038 0.16170827 -0.4481193 0.30257517 0.11837673 -0.09673448 0.6274586 0.0038722712 0.44572246 -0.19367424 -0.35754377 0.16319765 -0.36942497 0.29246315 -0.03290641
257 -0.0790359 0.31423804 -0.020263242 0.061148986 0.028882045 -0.26791835 -0.18203124 0.47602507 0.5548354 -0.32385623 -0.2272627 -0.01173174 0.009051749 -0.11856729 -0.28222993 -0.027349237 0.43414092 -0.2003259 0.08909577 -0.35548824 -0.2195753 -0.09821893 0.07394056 0.06966474 -0.059879076 0.32189694 -0.13966009 -0.16255093 0.1576016 0.002133651 0.2759145 -0.21771574 -0.26929718 0.41540572 -0.16127631 0.33292535 -0.02910129 -0.12636189 0.22485514 0.12030203 0.20954235 -0.15347676 -0.2998379 0.005697762 0.053211242 0.17783439 0.02209883 -0.19347706 -0.5343076 0.1640125 -0.028379371 0.04439962 -0.11929797 0.017041488 -0.18771912 0.06985257 0.16078342 0.026842939 -0.0791432 0.12420352 0.17129008 -0.30243996 0.47983924 -0.05001073 0.07711218 -0.204805 -0.2798369 0.021928882 -0.16301772 -0.42513186 -0.030967087 0.12343179 0.102854975 -0.17359841 -0.13868952 0.34226403 -0.11712734 0.008290442 -0.4646991 -0.094946586 0.18655905 0.26696613 -0.09077486 -0.0009746316 -0.2630079 -0.20275882 0.3397813 -0.16834395 -0.14627342 0.16491133 0.06514456 0.15038273 0.14992073 -0.13748576 -0.06914927 -0.02165605 -0.16091374 -0.22128874 0.0042398134 0.1866087 -0.20625971 0.31812912 -0.5067697 0.28153008 -0.08477574 -0.2547312 -0.15351532 -0.59106153 -0.003229084 -0.13454162 0.28489226 0.0748827 0.07971561 -0.04431362 0.22540893 -0.2523461 0.023443513 -0.09887526 -0.25561857 0.085840955 -0.016755095 0.073443644 -0.3196918 -0.18387856 -0.06831634 -0.013256216 0.36024615 -0.008945073
42 0.16157794 -0.15041906 0.020810459 -0.031221075 0.078270786 0.431376 0.12603673 -0.16340926 -0.29195192 -0.103834964 -0.14310597 0.2001608 0.41584092 -0.3438277 0.13542126 -0.25604978 0.23403643 0.13032709 0.65658844 -0.09313786 0.16794093 0.11168743 -0.21139127 -0.057116125 0.051808853 0.32352272 -0.32644373 -0.27804455 0.06307287 0.26077557 -0.04476228 -0.44111943 0.15424076 0.16261305 -0.41984025 0.11374961 0.13966048 0.15010269 -0.14369972 0.11590415 0.16183408 0.27717835 -0.44887167 0.3921888 0.20125371 -0.11233236 -0.08544029 -0.1892584 0.1855799 -0.15731387 0.004709632 0.07687582 0.24588048 0.06504116 -0.14183992 0.23694743 0.29966092 -0.114099815 0.20885332 -0.36350313 -0.05320771 0.071460254 -0.2687541 0.04409639 -0.09192804 0.07271947 -0.32523164 0.038118377 0.057726 -0.33403352 0.18580152 -0.23791604 -0.27930814 -0.14771298 -0.48693302 0.009798336 -0.044964142 0.049518354 -0.15183732 0.27311867 0.032300033 0.024492575 0.16443202 0.016545601 -0.1193263 -0.08729841 0.13268936 -0.15592967 -0.23948301 -0.009611412 0.21269508 -0.030380921 0.012869221 0.14582525 0.22844401 -0.3771972 -0.15370294 0.33117366 -0.18731458 0.08629404 -0.049207263 -0.115445554 -0.21565187 0.09509437 0.033509877 0.53916115 -0.3555541 -0.068697035 -0.15713179 0.1721612 0.26426268 -0.14134334 0.03869913 0.11620917 -0.1419494 -0.063984245 0.02390327 -0.14212793 0.118880816 0.06234932 -0.6090018 0.13309635 -0.06036015 0.05873635 0.020588554 0.018904893 -0.123859785 0.042302623
112 0.060608808 -0.07701514 -0.2629534 0.14545682 0.20368473 0.29922375 0.044555545 -0.03011065 -0.00057649263 -0.2120717 -0.086237624 0.105798066 0.1790565 -0.16178691 -0.015658317 0.008484543 0.3755216 -0.107615 0.594508 -0.3019429 0.025463825 0.041139215 -0.19934963 -0.11977067 -0.21871102 0.13785833 -0.05789626 -0.29521832 -0.0061860895 0.58933616 -0.04868511 -0.31410548 0.11492593 0.0315119 -0.28602055 0.5518527 0.05397301 0.034970064 0.09334443 0.21391475 0.057260107 0.27208742 -0.3191908 0.31999472 -0.015622139 -0.07230983 0.029741006 0.17006186 0.006062094 0.044985138 -0.20577048 0.12916833 0.03706442 -0.064136714 0.049275722 0.1437901 0.2569651 0.033968743 0.029512566 -0.2702496 -0.16601846 -0.31399155 0.15664631 -0.023211105 0.26987565 -0.13245921 -0.24453868 -0.11104373 -0.20404845 -0.20970395 0.06361286 0.050515074 -0.15525544 -0.21893197 -0.4523091 0.16914774 -0.10919243 0.056920886 -0.11188968 -0.00090734696 0.1853788 -0.12624119 -0.08776488 -0.07919112 -0.09520687 0.021572392 0.06505543 0.050890524 -0.15451737 -0.109141946 0.24217232 -0.05589552 -0.008747145 -0.03488859 0.16625027 -0.36694625 -0.13881627 0.103423946 -0.319067 -0.028100066 -0.0016508248 0.26748362 -0.48025423 -0.0826721 -0.12359791 -0.07640088 -0.11557343 0.14242725 -0.3518789 0.11132334 0.02903911 -0.1596545 -0.11311119 0.2743332 0.014677794 0.11715566 -0.0013251227 -0.186634 0.03735935 0.13070619 -0.40587342 -0.18336122 0.21634512 -0.24805288 -0.3501549 -0.07461727 0.055141922 0.29928145
293 0.011164304 0.25590968 -0.04688528 0.06380099 0.08201201 -0.12865031 -0.109806836 0.5201488 0.5762008 -0.3126867 -0.0033232383 0.17457347 -0.0007980352 -0.105150476 -0.44519225 0.082084484 0.45292905 -0.18954678 0.21182738 -0.31167063 -0.2656171 -0.111624554 0.010236142 -0.006209559 -0.024056366 0.4664449 0.0059467386 -0.17109479 0.03309884 -0.042291857 0.09533474 -0.027701637 -0.037583597 0.61361134 -0.13469635 0.31701532 -0.019078638 -0.10843074 0.35009027 0.20198771 0.2925962 -0.17033872 -0.13197239 -0.01665496 0.11105068 0.040176153 0.10157382 -0.0753852 -0.4496481 0.38666138 -0.016444266 0.060236756 -0.18039104 -0.0263156 -0.11590595 -0.044221308 0.17499167 -0.042103194 0.0942722 0.1608133 0.28360337 -0.34533715 0.5085173 -0.24667296 0.26453176 -0.22441956 -0.35353893 0.039392762 -0.057389695 -0.24490991 -0.15690628 0.19104522 0.041109163 -0.16308531 -0.027356632 0.3586991 -0.19996388 0.12939107 -0.40238434 -0.2743434 0.22379874 0.30586722 -0.053174093 0.06564131 -0.14321506 -0.27577463 0.32935056 -0.2757229 -0.16288349 0.09758039 -0.1413939 0.0008560359 0.2734427 -0.08059375 -0.21785095 -0.15437047 -0.08877771 -0.13927647 -0.09261581 0.16865125 -0.15719369 0.43712822 -0.4436474 0.1522851 -0.045194007 -0.2284559 -0.10548916 -0.36288676 0.20141788 -0.19373927 0.15444022 -0.034408826 0.088384435 0.023633162 0.28875667 -0.086311296 0.12928411 -0.015098337 -0.17467248 0.3638602 -0.023068845 0.12848891 -0.18402073 -0.2967178 -0.12856041 -0.1451638 0.13270319 -0.077220984
299 -0.04648175 0.30376723 -0.05050033 0.09920493 0.11708413 -0.1994193 -0.18933876 0.5494223 0.50210994 -0.31698558 -0.08168402 0.09616457 -0.005166397 -0.039570905 -0.40381703 -0.01398458 0.38055706 -0.18873328 0.14144936 -0.30643818 -0.275302 -0.15922777 -0.0046334406 0.07927045 -0.043067474 0.37809002 -0.029651703 -0.19808549 0.10306712 -0.006462365 0.17581014 -0.1018316 -0.13312972 0.53377616 -0.13895975 0.34187636 -0.0076218885 -0.13106139 0.3066236 0.15769537 0.3420887 -0.12667748 -0.23851797 0.0057788156 0.13067794 0.059475426 0.1073142 -0.12878793 -0.48742414 0.24919854 -0.010891636 0.0146546755 -0.17021082 -0.03263911 -0.121483795 -0.015211815 0.17715715 -0.056995768 0.032676898 0.13979538 0.23366934 -0.31198937 0.50338185 -0.15994358 0.1942403 -0.17619081 -0.27966103 0.032388993 -0.04178255 -0.30856383 -0.13921718 0.17610468 0.071115635 -0.23628724 -0.09471661 0.30988333 -0.1501002 0.09198768 -0.41813323 -0.18599634 0.19242336 0.23127635 -0.08150268 -0.026018267 -0.22569752 -0.26224124 0.30698496 -0.22027569 -0.17530672 0.16690321 -0.025254507 0.051816057 0.25582245 -0.14499567 -0.15276071 -0.11129884 -0.13550004 -0.15989296 -0.028515793 0.19961487 -0.24434778 0.38415498 -0.47623315 0.22200522 -0.048030775 -0.17316061 -0.11212995 -0.4627881 0.15229797 -0.2299354 0.25410128 0.002463601 0.093796715 -0.060070846 0.2914841 -0.14817856 0.09261141 -0.04418555 -0.24051407 0.29755497 -0.033818986 0.19299942 -0.20987165 -0.21554601 -0.118282 -0.08697241 0.22094274 -0.066332184
132 0.18684508 -0.028053721 -0.10821696 0.07566796 0.19698928 0.14988248 0.037199747 0.014651869 0.11808706 -0.010208986 -0.14927189 0.059075877 0.2076472 -0.04992443 0.12955175 -0.029447267 0.17085563 -0.18728739 0.49795428 -0.18862443 0.111277446 -0.09837772 -0.25892854 -0.04145394 -0.095898375 0.17966603 0.055507723 -0.2546774 0.059646957 0.4597796 0.0052610342 -0.11492266 0.030224347 0.21807967 -0.2834701 0.35694748 -0.046149418 0.1553973 0.20878953 0.026969854 -0.067272775 0.24214949 -0.22439583 0.20020463 -0.04768057 0.11137863 0.09365612 0.25871018 0.08832655 -0.018479388 -0.20036149 0.15673783 0.0554538 -0.19728713 0.2663691 -0.09298363 0.12635356 -0.032355186 0.023939783 -0.15342872 -0.10008654 -0.3981645 0.2835641 -0.093002 0.23489372 -0.018797234 -0.22959818 -0.03323711 0.016356291 -0.09692883 0.10758187 0.043695685 -0.20714898 -0.09977619 -0.41399896 0.06374072 -0.059424423 -0.1987025 -0.22288357 -0.0005942245 0.2558055 -0.17871618 -0.0852372 -0.042783003 -0.16089585 0.13037238 0.0572135 0.024280824 -0.1389634 0.12870747 0.18930565 0.12120921 -0.007277509 -0.1144067 0.19907296 -0.33598688 -0.11873483 0.076239266 -0.33216813 -0.052341525 -0.023719579 0.04287965 -0.41776592 0.0011340058 -0.23003307 0.004727264 -0.1435486 0.09218026 -0.25529662 0.06544623 0.13964763 0.09033724 -0.061943054 0.17344137 0.025349611 0.061799526 -0.015766736 -0.32708472 0.0661783 -0.012933069 -0.27632758 0.06528665 0.13356808 -0.12403184 -0.2584298 -0.22125909 0.10175264 0.26954353
230 0.18845464 -0.0036601482 -0.45105928 -0.18183398 0.09953283 -0.023806803 -0.11758677 0.45812702 0.4130666 -0.103752516 0.008937601 -0.07921735 0.11914479 -0.056870956 -0.014447852 0.013951055 0.14568482 -0.18154496 0.18243475 -0.18545064 0.0605958 -0.26084423 -0.08721325 -0.12375952 0.01591804 0.15204784 -0.06777788 -0.15508163 0.080476165 -0.0631473 0.45289937 -0.056773417 -0.17921987 0.17780472 -0.110633194 0.12642129 -0.101607315 0.18528904 0.059402548 -0.03043354 -0.2295658 -0.2027165 -0.115779236 -0.13264953 0.11433152 -0.017943459 0.08071637 -0.07840269 -0.026392838 -0.036116477 -0.074106306 -0.10691147 -0.09340184 -0.17482442 0.20290145 0.19495882 0.08100581 0.123468526 -0.14951496 0.02147089 -0.030309675 -0.14604184 0.45082885 0.026637012 0.09765449 -0.26568305 -0.24489424 -0.06958942 0.16723786 -0.22485502 -0.12742426 -0.14494936 0.00393908 0.2401547 -0.27922732 0.10441626 0.1395792 0.12089458 -0.20755589 0.03553128 0.03243965 -0.017741814 -0.12098678 0.10113448 -0.2506786 -0.03715509 0.009769691 -0.0014372297 -0.15091592 0.111376174 0.36958927 2.0162603e-05 -0.25751826 -0.0966136 0.13610496 -0.25201273 -0.07577406 0.0918079 -0.33755857 0.22045945 0.015655302 -0.17741969 -0.11486415 0.1330567 -0.12195806 -0.326394 -0.18286218 -0.07962632 -0.29155475 0.108546965 0.37175462 0.16160224 0.19657248 0.13633813 0.08518201 -0.11483217 -0.13435195 -0.34236538 0.1012232 0.10341151 0.10580483 0.13335736 -0.12851325 -0.3110589 0.19898891 -0.31265423 0.27903017 0.10775669
240 -0.1411847 0.14251442 -0.14255238 0.001534147 0.17523757 0.005212341 -0.01666869 0.2424348 0.4048315 -0.112859726 -0.20044741 0.059312947 0.33008364 -0.13804834 0.020764204 -0.14803433 0.10154285 -0.13211004 0.30610427 -0.15453541 0.1209517 -0.13586709 -0.10881461 0.2817838 0.106076285 0.06540979 0.029521808 -0.1775454 0.21268146 -0.012987118 0.49194032 -0.18881097 -0.10982884 0.37420687 -0.27337998 0.1652709 0.16058345 0.012488942 0.114851534 0.18157504 0.12768057 -0.020008517 -0.40869567 0.27812853 0.039614547 0.35732305 0.19894196 -0.13648501 -0.07991626 0.037652507 0.0685867 -0.17920275 0.22690435 -0.24698518 0.11811689 0.11138685 0.28316325 -0.27127248 -0.033941463 -0.009292428 -0.02221839 -0.2017479 0.40117162 0.13458417 0.15010688 0.07917708 -0.34302416 0.0021833528 -0.044811673 -0.3258214 -0.12479905 -0.12751123 0.0051736543 -0.056992397 -0.26674664 0.010237602 -0.03288755 -0.06344996 -0.27630442 0.15343766 0.06401468 0.051894955 -0.008898182 -0.039325796 -0.60790247 -0.33540553 0.23466906 0.14357902 -0.3493485 0.2910854 0.31466666 0.029179543 -0.0028209095 -0.22859761 0.13795038 -0.46697876 -0.24037002 -0.07202088 -0.22228438 0.091873854 -0.29392013 -0.07553035 -0.32472903 0.21021584 -0.0887167 0.005612141 -0.22962628 -0.3482078 0.043202225 0.010924881 0.40457153 0.12076389 0.14205976 -0.011865599 0.18448527 -0.038449332 -0.061853025 -0.15223582 0.015960332 0.08628839 -0.025863985 0.007302506 -0.20936078 0.17789045 0.037309002 0.03392139 0.12455876 0.09236635
264 0.018031806 0.26477212 -0.03233002 0.017048232 0.10208554 -0.19923672 -0.14600255 0.47192392 0.5053243 -0.23054534 -0.09694101 0.027119929 0.040476494 -0.057784688 -0.32045516 0.039724093 0.3972391 -0.13690113 0.1419218 -0.31288606 -0.21804641 -0.18346448 -0.034226738 0.04413337 -0.103603795 0.335715 -0.03389144 -0.13702023 0.089133136 0.036679916 0.16044177 -0.09100143 -0.18071252 0.5046182 -0.07383197 0.24003722 -0.04842465 -0.029154591 0.30804038 0.21816634 0.28379017 -0.061567053 -0.17758876 -0.017826676 0.07128593 0.105230905 0.08689349 -0.10512196 -0.3779725 0.3161279 -0.008796688 0.03649552 -0.14751591 -0.079555765 -0.04241711 -0.025538787 0.11221328 -0.04386075 -0.021841517 0.13687225 0.1489143 -0.25068066 0.5331194 -0.17786112 0.18250284 -0.16254158 -0.33031285 0.012987834 -0.068932995 -0.26848328 -0.14355963 0.11203379 0.025203392 -0.11580841 -0.17231187 0.31761304 -0.145708 0.03866759 -0.34920767 -0.1848007 0.15987381 0.19898316 -0.09553248 -0.009533124 -0.21723297 -0.15861769 0.2541545 -0.15709898 -0.09387911 0.081711195 -0.05113151 0.059629314 0.112103246 -0.13382843 -0.08811757 -0.0849912 -0.1412807 -0.09935027 -0.012727376 0.14071882 -0.18935898 0.35795128 -0.4006498 0.2115232 -0.022837024 -0.23780172 -0.15304859 -0.49120453 0.103005484 -0.16043003 0.1955239 0.049657237 -0.0064290706 0.04267772 0.2541253 -0.101807036 -0.009637674 -0.084507234 -0.16520406 0.18138105 -0.004433745 0.1663221 -0.18894695 -0.22068842 -0.13288659 -0.14074875 0.25500166 -0.0028701893
199 -0.24577998 0.14006458 -0.21885109 0.039579056 0.084362596 0.05576335 -0.03544629 0.33235952 0.5382535 -0.14774872 -0.11656412 0.15656571 0.37244 -0.11286658 -0.023689592 -0.034963828 -0.021187516 0.03114343 0.15436025 -0.124180935 -0.010710536 -0.06315374 0.034329534 0.33398676 0.100527756 0.0009993287 0.08777266 -0.21935596 0.16963676 -0.034749813 0.52591455 -0.0637127 -0.11130032 0.35710958 -0.24900499 0.17700268 0.1495375 -0.027131839 0.11962789 0.2241221 0.14088616 -0.24326251 -0.30819914 0.23324168 0.17355995 0.22052915 0.111881584 -0.15329325 -0.14729775 0.11117087 -0.034795098 -0.24593754 0.1592837 -0.19248806 0.07600872 0.14461377 0.10513007 -0.15265906 -0.11558464 -0.09291082 -0.11055436 -0.1431247 0.40078524 0.10559478 0.19153538 0.07905061 -0.31748205 -0.12537569 0.019262662 -0.29242402 -0.11314762 -0.03409182 0.0005512392 0.119917914 -0.22948548 0.06944677 -0.024403552 -0.033146225 -0.25973877 -0.016931504 0.2713431 0.074520975 -0.031809248 0.005319167 -0.49936125 -0.29893926 0.27561206 0.06049714 -0.27372703 0.09561582 0.2562578 0.07848008 -0.11556234 -0.23983304 0.05982579 -0.44983813 -0.24247247 -0.055369437 -0.11963593 0.047398753 -0.25447908 -0.07758236 -0.40419462 0.14724283 -0.024247298 -0.048972033 -0.09677098 -0.34589916 0.12953152 -0.13674405 0.33046713 0.21637934 0.11743325 0.04427864 0.12881319 0.023374377 -0.10548072 -0.10807665 -0.032125913 0.15974596 0.16428937 0.050648566 -0.23230596 0.05029348 0.17880939 -0.03372792 0.1658237 0.18020485
103 0.19502047 -0.094623454 -0.12125387 0.2993348 0.18902509 0.49896345 0.14455459 -0.054521687 -0.23218164 -0.31094676 -0.1092145 0.39304262 0.33210984 -0.3545426 -0.15142398 -0.13541466 0.3197517 0.13031572 0.5688523 -0.055570494 0.18061197 0.027832506 -0.26151177 -0.15593803 0.016442578 0.39883345 -0.19854674 -0.27799314 -0.0724647 0.4218055 -0.07666571 -0.2547013 0.35822117 0.1376455 -0.66897905 0.34175923 -0.025328526 0.21337333 -0.07844102 0.16579102 -0.06131881 -0.048041187 -0.29874635 0.5559473 0.08074734 -0.15258282 -0.20133097 0.19037664 0.08234928 0.07272352 -0.3764169 0.0017464973 0.3714079 -0.029320411 -0.06902791 0.08166644 0.28508016 -0.0021861088 0.3981406 -0.4870954 -0.09034823 -0.11662618 0.027395522 -0.054024566 0.081173904 -0.026114346 -0.44217283 -0.053286973 0.0009454722 -0.1935903 -0.026878206 0.03451447 -0.17856903 -0.052901752 -0.4420664 0.053825796 -0.115871206 0.053357825 -0.18647403 0.19693252 0.33459276 -0.014247387 -0.24219275 0.13798314 0.061615314 0.051622156 0.15452847 -0.17295256 -0.34359136 -0.21347004 0.08869275 0.016389588 0.114447944 0.0002667429 -0.06023602 -0.4829804 -0.05784901 0.1351966 -0.42854196 0.000820893 0.24097358 -0.0691701 -0.27655223 -0.09105431 -0.056142174 0.30730683 -0.18379244 0.5239553 -0.13101883 -0.08832692 0.29510581 -0.12728292 -0.12619577 0.27233478 0.005960289 0.16951357 0.034172643 -0.12541941 0.19930108 0.33213526 -0.52913713 0.03813217 0.028649593 -0.18689507 0.055479035 -0.20349333 -0.26975158 0.22477642
261 0.09309473 0.17214805 -0.04288942 0.055274002 0.13506824 -0.15199211 -0.096702754 0.5152509 0.59686375 -0.31869674 -0.05658896 0.08616964 -0.0549249 -0.0028578895 -0.33857986 0.051602647 0.4894611 -0.14060783 0.1790381 -0.3817309 -0.16723692 -0.16756923 -0.1279051 -0.034669206 -0.08361936 0.31254405 -0.02201866 -0.16145343 0.021597099 0.008531112 0.24609236 0.016551062 -0.1805049 0.5634287 -0.014586642 0.13370039 -0.02636609 -0.03557628 0.32400182 0.23561697 0.28191978 -0.15242848 -0.17758955 -0.09634652 0.08304993 0.121171445 0.14327067 -0.18480603 -0.35847837 0.37430868 0.029734936 -0.011337824 -0.138324 -0.15357633 -0.08645993 -0.10769933 0.23332392 -0.08234674 0.0068981852 0.2487294 0.21447183 -0.2066751 0.57452923 -0.18007049 0.21311967 -0.124324046 -0.3415449 0.028177712 -0.089697614 -0.26318282 -0.22770807 0.16890936 0.0750059 -0.041912757 -0.14213873 0.35837057 -0.23552424 0.0713668 -0.37738597 -0.17805634 0.07860076 0.20218813 -0.07752425 0.10876858 -0.17393695 -0.1640338 0.29195157 -0.16211045 -0.102868676 0.003912073 -0.12482122 -0.06333328 0.069021665 -0.15805121 -0.13981968 -0.054654606 -0.0821995 -0.06680623 -0.053239387 0.14352463 -0.21281934 0.42098653 -0.36239672 0.21561877 -0.01487008 -0.35584685 -0.18444082 -0.5095965 0.19568267 -0.1335313 0.24561134 -0.05578322 0.014997578 0.025141353 0.2683751 -0.09813694 0.02932039 -0.016182745 -0.1344986 0.2652185 -0.073967636 0.1785601 -0.19247277 -0.30190533 -0.20491591 -0.2588938 0.17165548 0.06337528
95 0.21045241 -0.011352765 -0.08264692 0.26915395 0.13110483 0.43981078 0.17588733 -0.017812498 -0.12510447 -0.35543028 -0.1888225 0.42104182 0.38288605 -0.3671894 -0.18343541 -0.092053905 0.35285655 0.09990651 0.5540771 -0.14161468 0.22886677 0.073549956 -0.2577995 -0.19406416 -0.034029026 0.31567934 -0.1729878 -0.20798737 0.0012719735 0.407696 -0.14201732 -0.34584782 0.3123482 0.14167373 -0.5276203 0.40780047 0.082624234 0.14156802 -0.055089835 0.34986055 0.06649212 0.014695004 -0.2607845 0.5223743 -0.025054323 -0.008863482 -0.18962257 0.19291288 0.070535146 0.16414075 -0.29827228 0.026595512 0.40949622 -0.03107182 -0.17785119 0.0693234 0.3273467 -0.026255157 0.31116053 -0.41162956 -0.025116852 -0.24185267 -0.017743284 0.0008851904 0.07881762 -0.024184415 -0.5636462 -0.0019835588 -0.11118938 -0.28821346 -0.07382073 -0.0066779708 -0.066514276 -0.18388002 -0.43301776 0.15213074 -0.13405803 0.06325726 -0.19182283 0.19660513 0.17798936 0.019905657 -0.11680193 0.12712577 -0.020960074 -0.103704296 0.12963398 -0.11129032 -0.3360778 -0.084082514 0.11402513 -0.021526413 0.17156392 0.009828504 -0.051992323 -0.47352368 -0.12172809 0.11426572 -0.32574603 -0.041333903 0.14229423 0.016606594 -0.34839955 -0.016889786 -0.049028326 0.28365764 -0.28011554 0.39726588 -0.104844786 -0.03335265 0.3220905 -0.19044161 -0.18285634 0.2984802 0.019319227 0.0648692 -0.026774699 -0.10612718 0.23591414 0.2511992 -0.62103486 -0.102235086 -0.008070961 -0.1351201 -0.14860556 -0.028138883 -0.2623427 0.17895453
297 -0.0052279914 0.30340838 -0.05839377 -0.010547097 0.036573246 -0.16602962 -0.18435593 0.5769643 0.5492927 -0.2754038 0.007658492 0.09305991 -0.088122874 -0.11060555 -0.44391674 0.066866316 0.44757578 -0.24005002 0.13749135 -0.27147993 -0.3362608 -0.1510235 0.053966217 -0.0069324244 -0.010792122 0.5063684 -0.08918568 -0.11118104 0.09815667 -0.09359721 0.106777705 -0.10761673 -0.095889196 0.57102007 -0.09802618 0.32390147 -0.0448904 -0.10115122 0.33039683 0.19489557 0.29855183 -0.1897583 -0.12872827 -0.03449698 0.08667971 0.028436946 0.100020394 -0.15211725 -0.48161438 0.40483183 0.015619114 0.042509757 -0.24075766 -0.030295515 -0.10558663 0.019582586 0.14356522 0.06733072 0.061859448 0.11900162 0.25967014 -0.39368775 0.5172428 -0.23246735 0.18769966 -0.26338112 -0.4014744 0.0052424776 -0.031402864 -0.32981506 -0.16259558 0.11269436 0.1207184 -0.1634209 -0.036560897 0.3849927 -0.087689 0.12668322 -0.45047286 -0.25546968 0.21959941 0.29861757 -0.079240695 -0.0005170112 -0.16594028 -0.28245777 0.2825839 -0.24133494 -0.16106947 0.07672912 -0.054827876 -0.03516441 0.24970116 -0.056080032 -0.16943225 -0.062163383 -0.08956919 -0.11501892 -0.07421847 0.22696768 -0.13997081 0.39724353 -0.4511426 0.16371097 -0.04988532 -0.26032412 -0.11503336 -0.4476379 0.1121845 -0.13430193 0.19831362 0.02820299 0.100790195 0.07412399 0.29978445 -0.12087234 0.082247615 -0.0659315 -0.20925175 0.34136724 0.007597877 0.14309004 -0.24688336 -0.27241424 -0.13984452 -0.1330795 0.23729944 -0.0792634
318 0.33117932 0.10862591 0.042298395 -0.04722546 -0.06620532 -0.12385658 -0.1007201 0.23058067 0.4723437 0.021700155 0.15436588 0.16056447 -0.17893407 -0.45777345 -0.15467994 0.06685307 0.5107013 -0.09481574 0.070316054 -0.26473358 -0.21411632 0.10383427 0.102405034 -0.09724341 0.060253266 0.7002115 -0.09534409 0.1463543 0.1466274 -0.2429714 0.06409003 0.20539618 -0.096717626 0.5938887 -0.24688038 -0.35499272 -0.27129483 0.103045344 0.13982533 0.107088014 -0.058184177 -0.34413373 -0.11043084 -0.19066323 0.21961574 -0.22022524 0.14851947 -0.4057787 0.024639536 0.37820917 0.09396597 -0.027810173 -0.2691609 -0.15903687 0.10276309 -0.041584764 0.2529645 0.35699862 0.16548012 -0.050790124 0.1647348 0.109042905 0.35481143 -0.28662056 0.038801048 -0.10394744 -0.4809446 -0.19067948 -0.05762869 -0.10284015 -0.119240776 0.07301081 -0.14424087 0.34753108 -0.044421706 0.49880162 -0.13705122 0.09851668 -0.445441 -0.3929692 0.41322792 0.432202 0.04894345 0.25843838 0.036473006 0.03616469 0.32577676 -0.26930058 0.013787232 -0.39249775 -0.18294139 -0.13074759 -0.17372026 -0.032503042 0.027721472 0.06611913 -0.19652297 0.15635516 -0.023450349 0.12481201 -0.100554034 0.17419162 -0.26018792 -0.04910916 0.04487837 -0.4022842 -0.07435158 -0.46880138 0.09025908 -0.016900346 0.13662387 0.081883006 0.14285468 0.3870745 0.12794816 -0.11059309 0.08443841 -0.040631987 -0.072613634 0.18174367 0.17502181 0.35580504 -0.40923712 -0.3542829 0.2233723 -0.5685632 0.25165123 0.19147481
389 0.386839 -0.20948517 -0.3078977 -0.24663268 0.014819003 0.064267255 -0.18914472 0.38311392 0.3406167 0.18003695 0.28243333 0.24239339 -0.12856215 -0.43724665 -0.18158935 0.120635964 0.31005755 -0.19099502 0.25170666 -0.1428227 -0.02021549 0.055396862 0.12270547 -0.2401926 0.023990404 0.8217883 0.0070893453 0.04615831 0.07627275 -0.38789076 0.15650667 0.19001104 -0.1507176 0.5101508 -0.6034495 -0.43966994 -0.18111098 0.23352517 -0.0060565337 0.106624596 -0.29996213 -0.26644582 -0.09983173 -0.21889237 0.3413056 -0.32533225 0.037525397 -0.15914169 -0.046193264 0.22065243 0.1930041 -0.04838982 -0.32129192 0.11293462 0.26504594 0.09570874 0.13154237 0.44886082 0.19887343 -0.23829497 0.29486015 0.31074813 0.19258103 -0.27319214 -0.05239558 -0.31973803 -0.46191046 -0.52558273 0.08657592 0.053086955 -0.21329299 -0.22508585 -0.08709899 0.40161246 -0.31974342 0.46346402 -0.014116364 0.31301817 -0.7357538 -0.40163043 0.43260816 0.32850963 0.06139685 0.2547902 0.29662573 -0.0792347 0.19562654 -0.28640255 -0.17818718 -0.3918285 -0.043395586 -0.25309998 -0.21166967 0.04206645 0.19421718 -0.16171442 -0.24905033 0.38098243 -0.24304126 0.06782658 -0.18729435 -0.048838723 -0.24338381 -0.25536925 0.04346287 -0.14943711 -0.062363733 -0.27156627 -0.15113203 0.15690482 0.26841 0.12091321 0.22245097 0.35421315 -0.09330449 -0.2687487 0.016512817 0.06960417 0.025106253 0.3748288 0.117276385 0.46364668 -0.45375082 -0.38077518 0.40904656 -0.62375087 0.28267878 0.13605161
117 -0.00091339945 0.055679973 -0.2922403 0.06480535 0.18920003 0.15524153 -0.02620886 0.077536464 0.0575898 -0.26640683 -0.059335668 0.02625754 0.27018362 -0.07733255 0.18104744 -0.038374472 0.08223753 0.07919901 0.42133442 -0.17692062 0.04934555 -0.113509074 -0.24310486 0.0265513 -0.17902522 -0.063622825 -0.011453778 -0.33413792 0.046124198 0.3975556 0.1841976 -0.2726769 -0.0063939197 0.14779581 -0.25822228 0.22089253 0.07086192 0.0692256 0.17989354 0.04534327 0.039001096 0.033549916 -0.36286765 0.27991197 0.17079253 0.17562078 0.0045990366 -0.030733913 0.060640287 0.04369922 -0.22107954 -0.043047115 0.24214832 -0.18190919 0.094840065 -0.014038912 0.17358702 -0.0055092117 -0.15432413 -0.29624644 -0.2018592 -0.22127004 0.2897228 -0.017281668 0.13791917 0.08953437 -0.16510536 0.05303361 0.10473121 -0.19094056 0.1314406 0.061886158 -0.20120302 -0.02629559 -0.4660274 0.02880739 0.08005234 -0.14343269 -0.16384993 0.11122951 0.2839327 -0.17860198 -0.05111808 -0.02688435 -0.21943133 0.125385 0.13997187 0.04971833 -0.20582134 0.014347683 0.28603947 0.08962023 -0.22403848 -0.22059463 0.1313148 -0.44498256 -0.09362752 0.14390367 -0.20431261 -0.06695137 -0.0545683 -0.036072895 -0.30384225 -0.052446205 -0.14171305 0.02986422 -0.1646362 0.0580587 -0.12185522 -0.11055315 0.22560866 0.17421322 -0.058279604 0.048409373 0.07772404 -0.0029102196 0.007859666 -0.19024517 0.0060729953 0.12496761 -0.21720882 0.030795442 0.04110018 -0.18035075 -0.13040249 -0.22651763 -0.00627393 0.33266094
291 0.0014378226 0.2126549 -0.055500973 0.030144058 0.18321322 -0.20056564 -0.20565715 0.52899486 0.44701177 -0.2307879 -0.012292384 0.046212737 0.005512903 -0.07816234 -0.43825522 -0.002615865 0.4025382 -0.24556014 0.1898824 -0.2789905 -0.28390098 -0.20953073 -0.03940911 0.025956756 -0.0574425 0.44549143 -0.003596681 -0.16509233 0.09651336 0.0015470873 0.17001337 -0.035617877 -0.14166695 0.61060405 -0.11847648 0.29380113 -0.029939301 -0.04805415 0.35215375 0.10485261 0.33307728 -0.07567212 -0.18623646 -0.041356623 0.12284413 0.01999936 0.1336693 -0.12229538 -0.42446107 0.30422568 0.057427052 0.023887632 -0.23004359 -0.060862236 -0.042072605 -0.07848934 0.18573743 -0.0765971 0.058619533 0.1740512 0.23214649 -0.26699278 0.54787964 -0.20575947 0.23212671 -0.25161967 -0.2799697 0.079869196 -0.021440094 -0.25048038 -0.14977793 0.17694148 0.011551043 -0.2384187 -0.114246696 0.2656529 -0.11610915 0.119833186 -0.41830036 -0.21844639 0.24210513 0.20517969 -0.052207492 -0.06330066 -0.19364703 -0.22645035 0.2896852 -0.2315928 -0.16599691 0.18417156 -0.014473704 0.014893018 0.25258052 -0.15675639 -0.109563544 -0.09898768 -0.16049315 -0.12876487 -0.058656026 0.2202064 -0.23478189 0.37502265 -0.4205643 0.17964794 -0.030540096 -0.2051163 -0.14175972 -0.45958525 0.17222494 -0.23687129 0.20550416 0.003781662 0.072143465 -0.047672357 0.33048663 -0.09954442 0.12951285 -0.039280683 -0.22789189 0.338427 0.018782454 0.24693136 -0.20141435 -0.27749956 -0.06194218 -0.1504846 0.2077505 -0.09043574
231 -0.19539951 0.146888 -0.28083494 0.0034051598 0.18693832 0.033184387 -0.034283914 0.39221168 0.5096879 -0.1820143 -0.1671556 0.09145347 0.40740007 -0.11848436 -0.06650167 -0.10991355 0.05317247 -0.05104814 0.22590217 -0.13694067 0.06017993 -0.17909834 -0.07435218 0.2795308 0.0638519 0.0036404233 0.06646303 -0.21423614 0.18658662 -0.018535925 0.6103894 -0.13244216 -0.16396797 0.3471858 -0.23978637 0.23251092 0.14318909 0.034232296 0.12480755 0.26205188 0.112294726 -0.1261004 -0.36475354 0.18780908 0.12209258 0.28822494 0.1284455 -0.11544085 -0.11963384 0.07104472 -0.041515715 -0.23379377 0.174904 -0.23438695 0.09331736 0.20215565 0.16758339 -0.18596774 -0.100095265 -0.04219285 -0.05483019 -0.16242288 0.47352713 0.12658323 0.19724564 0.008962874 -0.35989985 -0.07567631 0.010950521 -0.35244948 -0.20469277 -0.096290834 0.0082460055 0.045670178 -0.27694777 0.063891836 -0.017735975 0.020541118 -0.2431578 0.08687367 0.1817691 0.040379096 -0.0752142 -0.006915788 -0.6094601 -0.33239195 0.23658179 0.095419884 -0.3224607 0.24178022 0.32114285 0.08117473 -0.09948499 -0.27431136 0.09565185 -0.55077326 -0.23181926 -0.10389399 -0.24498323 0.12058247 -0.22663936 -0.08981343 -0.3687538 0.21748151 -0.055634905 -0.106636755 -0.19383287 -0.29563823 0.048191912 -0.0994354 0.4123283 0.17301 0.15572289 0.03776181 0.20996797 -0.014049921 -0.17568329 -0.13291208 0.03256137 0.14830281 0.12233481 0.04988378 -0.2118177 0.016028212 0.20619136 -0.04352263 0.24008563 0.13291961
259 -0.05752636 0.15429221 -0.042592775 0.098861344 0.116366 -0.12121841 -0.15899494 0.6866064 0.5808259 -0.32109082 -0.07030928 0.14380816 -0.05220258 -0.004473841 -0.43011916 0.07265098 0.33543813 -0.123931326 0.084591724 -0.24690327 -0.26923606 -0.17559257 -0.022138862 0.067984626 0.006232792 0.35023537 -0.03605592 -0.19401635 0.10711082 -0.022315428 0.19426197 -0.09780838 -0.100788146 0.51522064 -0.07078923 0.26075086 0.03606236 -0.075070076 0.24432391 0.25813606 0.38568613 -0.16916507 -0.17320366 0.074223 0.09590418 0.060241386 0.10367078 -0.16108958 -0.47483665 0.38480774 0.0019192921 -0.0529216 -0.15020904 -0.11469102 -0.121290416 0.014189259 0.16719715 -0.07108731 0.0031929566 0.07785697 0.1508007 -0.29364708 0.4911381 -0.115250394 0.20975105 -0.15662862 -0.35263604 -0.0628811 -0.08038912 -0.32702625 -0.2536579 0.122834325 0.14147018 -0.11919232 -0.101714954 0.30831432 -0.09353902 0.14072357 -0.3691381 -0.16738388 0.12509388 0.20197508 -0.12094626 -0.024983745 -0.24496865 -0.26980317 0.25224975 -0.11292981 -0.16617565 -0.031818327 -0.028775865 -0.10147019 0.18578728 -0.13180555 -0.10982903 -0.10602345 -0.124124825 -0.058844924 -0.0011643837 0.20968148 -0.2170201 0.35476443 -0.45189866 0.19983818 0.03801246 -0.14445098 -0.09860521 -0.46514687 0.15804924 -0.18517072 0.27758095 0.011514148 0.00769818 0.049447622 0.28662688 -0.08212692 0.060960468 -0.037766747 -0.20137027 0.36906272 -0.032956727 0.14228171 -0.20464954 -0.1421551 -0.16873987 -0.10138098 0.1892493 0.0126574915
296 0.01872925 0.22856174 -0.03422253 0.02963149 0.108740106 -0.14756048 -0.14561853 0.573202 0.59837 -0.38075212 -0.075961955 0.16401535 0.057659794 -0.07777685 -0.45686758 0.05849442 0.45890638 -0.19459045 0.22236192 -0.368645 -0.2471753 -0.12738416 -0.031093685 -0.028934343 -0.06497089 0.41112015 -0.0047813836 -0.20593265 0.056504365 0.014934052 0.14672337 -0.10278977 -0.11208469 0.59019256 -0.11719069 0.3509443 0.031120745 -0.0993265 0.3299787 0.21642123 0.36330283 -0.14040902 -0.20823474 -0.027284522 0.12408113 0.09146435 0.09792254 -0.0935564 -0.50382906 0.3551285 0.065599136 0.049981527 -0.12787691 0.018873094 -0.17719232 -0.049597856 0.22185265 -0.04538423 0.044723578 0.1765351 0.28601193 -0.3232782 0.501159 -0.16504487 0.22770353 -0.25214583 -0.3733021 0.10142934 -0.10622959 -0.32922292 -0.14643802 0.20547596 0.072434284 -0.25854558 -0.06658382 0.39219844 -0.18924963 0.119790286 -0.42736384 -0.17669715 0.17790358 0.26358217 -0.012107521 0.028500745 -0.17031717 -0.31652606 0.31697023 -0.27513346 -0.16771042 0.15094213 -0.06703393 0.0024025452 0.28028885 -0.11855661 -0.16181095 -0.13903709 -0.15650156 -0.16416976 -0.029828066 0.19036497 -0.21309625 0.46098074 -0.49111885 0.21060057 -0.06394177 -0.2540891 -0.16870327 -0.44161832 0.17901401 -0.18227844 0.22506653 -0.027123876 0.04287338 -0.047084156 0.26918006 -0.14629728 0.10431554 -0.018778395 -0.1792433 0.3567157 -0.06849976 0.10646455 -0.23539703 -0.27138582 -0.13701554 -0.083042674 0.15363725 -0.104934394
260 -0.049781565 0.09082062 -0.11487246 0.0020632083 0.16548494 -0.11192467 -0.18363976 0.58926415 0.69429433 -0.3251332 -0.11241695 0.08027493 0.07119449 0.052441075 -0.3333018 0.035743378 0.36013114 -0.10972566 0.22685552 -0.34287784 -0.17307138 -0.16960442 -0.05047268 0.016505288 -0.03297424 0.25539306 -0.0028742328 -0.3066156 0.04201993 -0.0496296 0.30186468 -0.057092045 -0.14170487 0.5594392 -0.057431348 0.2633463 0.034908973 -0.056922924 0.30950448 0.1816553 0.3630246 -0.091213435 -0.2425622 -0.0868044 0.10802656 0.06563678 0.08538403 -0.16486263 -0.40781167 0.2675418 0.0440154 -0.03136375 -0.18068908 -0.062014308 -0.054218456 -0.009286128 0.124205895 -0.14707689 -0.061438356 0.22091968 0.19594482 -0.2253542 0.5317721 -0.15784773 0.21739511 -0.17438294 -0.3098382 0.016209891 -0.07237088 -0.29540694 -0.13581292 0.11049397 0.034377407 -0.08639508 -0.13654284 0.26604375 -0.15484688 0.08555716 -0.40326694 -0.13686262 0.0895448 0.14418116 -0.09097702 0.06535467 -0.2324725 -0.26744512 0.2719815 -0.21610296 -0.12676482 0.14553034 -0.010821985 -0.01640597 0.13178748 -0.16412322 -0.0923179 -0.18536408 -0.12714304 -0.03847977 -0.02314297 0.16903321 -0.18788046 0.3374275 -0.41167733 0.23955987 -0.056109026 -0.20955881 -0.09862946 -0.48499435 0.15098128 -0.1815474 0.2850823 0.035312884 0.08793582 -0.093851395 0.20747167 -0.06035281 0.034118496 -0.152735 -0.13852845 0.2635051 0.017471105 0.15027292 -0.23368075 -0.22636597 -0.054974154 -0.15602463 0.17382774 -0.03677719
229 -0.13737975 0.1571417 -0.32691255 -0.11360479 0.105369255 0.03898236 0.0010828184 0.2525026 0.3837367 -0.20906644 -0.12830018 -0.017176101 0.31141093 -0.13784844 -0.040336575 -0.1690099 0.12980554 -0.15079571 0.1863955 -0.112952605 0.077531286 -0.1694389 -0.040814817 0.1293238 0.13780153 0.0665502 -0.04811967 -0.14125714 0.16762476 -0.082849815 0.598511 -0.1725498 -0.10502415 0.28922746 -0.25399366 0.20750865 0.08424304 0.044245835 0.09519369 0.097690225 -0.009326859 -0.22247927 -0.3537186 0.13575925 0.08990728 0.28746322 0.088298835 -0.16031262 -0.1155459 -0.058190178 -0.031228725 -0.21132064 0.17077136 -0.18258402 0.067877226 0.16450723 0.1887745 -0.11359591 -0.08274537 0.0015298495 -0.018039504 -0.17441386 0.40955827 0.13163134 0.081541345 -0.099344194 -0.30405033 0.012690878 0.03662226 -0.362048 -0.12930477 -0.06902646 0.04658799 0.08158131 -0.19542173 -0.021662211 0.0826437 -0.006205809 -0.34587973 0.15630834 0.16237995 0.0528794 -0.04932934 0.036671773 -0.5061323 -0.29892763 0.21549855 0.050341856 -0.33257654 0.32845134 0.40974504 0.057046007 -0.07721329 -0.22125071 0.07338216 -0.4375553 -0.19535665 -0.091637604 -0.33073968 0.11949342 -0.07778299 -0.2069179 -0.2257782 0.19564098 -0.08781203 -0.09504948 -0.21150135 -0.24485548 -0.016434323 -0.029468825 0.40312722 0.14176396 0.22829022 -0.039099034 0.1335639 -0.10565339 -0.08586765 -0.17176296 0.036745463 0.13871916 0.110421605 -0.015737912 -0.296686 -0.022647977 0.22326542 -0.02037139 0.20387323 0.07005275
287 -0.08680536 0.21946876 -0.050225716 0.010901658 0.12380037 -0.12046432 -0.13984945 0.4627815 0.48606303 -0.3065488 -0.10563494 0.102058284 0.08053574 -0.05422245 -0.37109277 0.01629308 0.38006574 -0.18192469 0.22826107 -0.3046507 -0.26398212 -0.100789525 -0.0017636945 0.048531145 -0.044089813 0.3326721 -0.05032227 -0.23098631 0.07471094 0.012773135 0.14979482 -0.15026519 -0.11724699 0.50719094 -0.09239068 0.40672654 0.016657744 -0.07276304 0.30181623 0.22716643 0.33819368 -0.048938364 -0.2211677 -0.01565028 0.10071517 0.09095105 0.059799086 -0.15188357 -0.4414101 0.2801381 0.02909161 0.049687758 -0.17101121 0.03594899 -0.116298564 0.028837796 0.13155001 -0.027341057 0.043479785 0.1106426 0.22634827 -0.31756 0.4298569 -0.18679924 0.20542575 -0.21067041 -0.31632575 0.080480196 -0.08066285 -0.32104644 -0.09134236 0.15749979 0.002362132 -0.2309385 -0.095871784 0.28110164 -0.14351904 0.066437915 -0.34823528 -0.15434028 0.21807788 0.20984222 -0.042855952 -0.028349223 -0.21598056 -0.31384024 0.29681116 -0.23547585 -0.153702 0.1578886 -0.020293687 0.059205517 0.23904891 -0.1352207 -0.11921185 -0.1623728 -0.10822804 -0.13048987 -0.028814355 0.17349088 -0.12159109 0.36741504 -0.4854241 0.19359104 -0.08678819 -0.2308191 -0.100289606 -0.43306854 0.12810583 -0.17655803 0.18880337 0.007972989 0.09076397 -0.064685196 0.22680986 -0.07537004 0.04201448 -0.0834602 -0.18981063 0.21219778 0.000758604 0.10576628 -0.23273717 -0.22119038 -0.04224895 -0.07358035 0.20254867 -0.04114284
198 -0.22820093 0.09027523 -0.17281596 0.015180194 0.18653375 0.12942182 -0.022126587 0.29294565 0.47992578 -0.1423883 -0.17138733 0.19625984 0.4838884 -0.073156945 -0.025780667 -0.11980133 0.022896504 0.09760891 0.30046692 -0.14932032 0.04841011 -0.117840506 -0.091309756 0.32078993 0.047240272 -0.07462945 0.065723754 -0.28383708 0.11664031 0.045758184 0.57876474 -0.11340696 -0.16290613 0.3423921 -0.243941 0.19866903 0.18419872 0.012665429 0.13108523 0.28762394 0.2517266 -0.06766204 -0.43448853 0.20613909 0.18678203 0.24531478 0.09624369 -0.19424854 -0.108474255 0.13644843 -0.0050607943 -0.23859042 0.22125779 -0.16298777 0.05470191 0.18683453 0.13536851 -0.2114138 -0.049920704 -0.057886515 -0.12676562 -0.08173832 0.4077573 0.106930844 0.20306495 0.113851495 -0.3351876 -0.048941206 0.009696847 -0.3365507 -0.1186313 -0.1035756 -0.082835995 0.055901736 -0.29081854 0.06458062 -0.08880551 -0.023759207 -0.1825873 0.09003625 0.20698927 0.027910616 -0.044327103 -0.0023719063 -0.55875915 -0.3259673 0.26110896 0.03911058 -0.3050863 0.14683622 0.23714794 0.074767694 -0.10598557 -0.27773446 0.059456132 -0.56054324 -0.19969301 -0.046383705 -0.1699068 0.065206215 -0.24016245 -0.035472684 -0.3917941 0.22449797 -0.0627561 -0.051134657 -0.1849634 -0.36960244 0.14788057 -0.13715462 0.37638938 0.18746279 0.1082225 -0.0014577074 0.1251008 0.1210406 -0.19606984 -0.10598019 0.003425309 0.079216175 0.12833227 0.06906001 -0.2084061 0.054438762 0.23795657 -0.06356871 0.16699436 0.16291738
74 -0.054309636 -0.10699821 0.024371903 0.16032967 0.1928923 0.29713663 0.07511805 0.05272957 -0.09818429 -0.24413802 -0.25095835 0.341918 0.45310804 -0.30370882 -0.10356594 -0.12057284 0.20933832 0.22024354 0.5739072 -0.15749653 0.12607634 0.15282868 -0.2523469 -0.1466652 -0.011649355 0.27090976 -0.19384557 -0.2996006 0.12719238 0.22713776 0.008273465 -0.34967157 0.24051045 0.14995505 -0.38232195 0.08329872 0.07715286 0.2317821 -0.025079168 0.18840238 0.39135617 0.21591938 -0.5207537 0.29886183 0.036168057 -0.085799225 -0.26369885 -0.14292303 0.20161054 0.04837382 -0.21339929 -0.1054069 0.22195798 0.058583785 -0.08966723 0.111147396 0.3083862 -0.1814063 0.20718433 -0.351878 -0.17623453 0.07865362 -0.1521786 0.03279165 0.028358797 0.21928775 -0.2673594 0.10134817 -0.028208124 -0.28344473 0.14195885 -0.27072966 -0.27401143 -0.21050021 -0.4649471 0.04894539 -0.12906933 0.014471971 -0.07925584 0.24220367 0.086629346 -0.035744067 0.035234112 -0.04397464 0.016846146 -0.1391165 0.00029917958 -0.072469234 -0.21064107 -0.13416816 0.246134 -0.14976312 0.18648408 -0.045968395 0.19468635 -0.3827604 -0.121063374 0.28231215 -0.10227812 0.0068223174 -0.09243994 -0.17096971 -0.36187327 0.046538305 0.07237552 0.40585807 -0.2874368 -0.008800602 -0.07841369 -0.10661956 0.27592966 -0.0895696 -0.1839968 0.11168059 -0.11809248 -0.11292645 0.0509496 -0.21251966 0.17100719 0.20340014 -0.4279431 0.04618594 -0.092090085 0.0955568 0.06707512 -0.020942347 -0.124573834 0.16671483
298 0.038710274 0.17218846 -0.045190025 0.1046927 0.17370617 -0.22780241 -0.22120361 0.6090245 0.50388867 -0.24581258 -0.03160796 0.16768165 -0.082266174 -0.08626032 -0.44622663 0.13163178 0.38880503 -0.2117668 0.19610015 -0.35850102 -0.31787544 -0.0772205 -0.009772749 -0.0343988 -0.13927542 0.42850867 0.08403846 -0.13030162 0.107938625 -0.02381358 0.04499055 -0.04565264 -0.1844916 0.5388538 -0.08651266 0.24821459 -0.019939182 -0.05832881 0.32053643 0.24722849 0.28421637 -0.01599641 -0.12974864 -0.09380605 0.11315473 0.023032663 0.13869545 -0.10332712 -0.4297493 0.3894918 0.116750345 0.04270135 -0.25649747 -0.008108047 -0.04643823 -0.043210275 0.1930194 0.058551762 0.06071997 0.07913567 0.34333637 -0.22727542 0.46808758 -0.2330816 0.19409624 -0.20256753 -0.34085143 0.002699068 -0.12681174 -0.16911723 -0.19357197 0.17555797 0.035741452 -0.2566096 -0.10994722 0.4301916 -0.17201315 0.14935417 -0.37235835 -0.31862548 0.19383298 0.22581753 -0.047284417 -0.023289783 -0.09821171 -0.23891245 0.26979384 -0.2097599 -0.1294414 -0.0077370033 -0.16328132 -0.032980543 0.22206055 -0.13945457 -0.06761701 -0.074706 -0.14390829 -0.06847421 0.060714364 0.20094308 -0.3076681 0.50850755 -0.494408 0.094961226 -0.05423231 -0.32997757 -0.07797924 -0.40653792 0.14914794 -0.16216037 0.17675164 -0.0014150975 0.0010148278 0.025179664 0.33610383 -0.1472043 0.0867606 0.0032033215 -0.19290678 0.3048422 -0.0071371966 0.24074705 -0.19681251 -0.2938465 -0.1187824 -0.18239929 0.23231688 -0.016777592
367 0.41214925 0.0557979 -0.3484875 -0.071718246 -0.097828984 -0.08061629 -0.12724507 0.34045133 0.49747002 0.06874025 0.19621693 0.06958303 -0.19310714 -0.35768905 0.004757037 0.036861453 0.29309517 -0.17526147 -0.00039929152 -0.18682514 -0.086308986 0.011670411 0.19913384 -0.13173112 0.1722603 0.76551497 -0.16465001 -0.036590155 0.17923406 -0.33692098 0.25477728 0.1837641 -0.000883179 0.47659403 -0.5712401 -0.29786402 -0.4026156 0.10290265 -0.021346504 -0.062656656 -0.34697825 -0.5294907 -0.09562399 -0.18178675 0.41948947 -0.3594635 0.13532726 -0.21199861 0.037843768 -0.13450316 -0.11637577 -0.057627935 -0.33416724 -0.12661913 0.22515291 0.21649702 0.18499248 0.38442498 0.03629502 -0.091035455 0.15059307 0.15890327 0.23673075 -0.24688141 -0.103413634 -0.17497373 -0.25891757 -0.36200792 0.26777077 -0.15829091 -0.052560546 -0.0013844639 -0.061784707 0.5251242 -0.13148193 0.37835407 -0.0068053193 0.23397546 -0.7001092 -0.41722974 0.48424286 0.35626867 0.0641197 0.32894772 -0.08998772 0.09965807 0.22163805 -0.34443814 -0.077761315 -0.23105748 0.052436054 -0.06308988 -0.33756593 0.0075932746 0.14456162 -0.07684467 -0.2940916 0.26351163 -0.25679004 0.10426334 -0.119665556 -0.2051622 -0.24203223 -0.06214507 -0.071591295 -0.06855669 -0.058816526 -0.22261009 -0.2770863 0.021461789 0.35622588 0.16244575 0.40894884 0.3163741 -0.106530935 -0.4703702 0.118327215 -0.15286936 -0.019239003 0.33671832 0.1776342 0.39468038 -0.37917143 -0.2667181 0.34249213 -0.56955886 0.34768423 0.10775909
197 -0.26759297 0.1528032 -0.14114542 0.007829148 0.22316208 0.02757577 -0.097291656 0.37061277 0.550217 -0.17236923 -0.1913273 0.15441793 0.3928699 -0.06418461 -0.06181721 -0.13488224 0.06560319 -0.045281563 0.23363464 -0.15939389 -0.039979693 -0.1666405 -0.0522855 0.3509043 0.047068223 -0.0023671095 0.08682117 -0.24415512 0.1506329 0.019346198 0.58274096 -0.09907721 -0.20171575 0.42273352 -0.21769759 0.17585687 0.20516285 -0.040875558 0.17996302 0.24310125 0.26727292 -0.034190692 -0.43958217 0.16615568 0.12592253 0.26921052 0.13780719 -0.23248795 -0.14621797 0.1178189 0.057324458 -0.19633843 0.14238448 -0.20647228 0.08729427 0.1224861 0.15178096 -0.18740852 -0.062016577 0.0033276035 -0.08499331 -0.12904145 0.46341375 0.11293278 0.2031262 0.06511395 -0.33752882 -0.040171113 -0.057412956 -0.3556412 -0.1353359 -0.062144645 -0.048676755 -0.027500812 -0.23840518 0.07795664 -0.0754245 -0.03442052 -0.2789706 0.05377807 0.2641419 0.05720588 -0.02522568 -0.08574056 -0.5687059 -0.320283 0.2961249 0.04515008 -0.271865 0.2313142 0.24767378 0.089647464 -0.040251594 -0.31666926 0.116346575 -0.4652735 -0.24458998 -0.09080493 -0.08622404 0.119884446 -0.3049513 0.010397896 -0.4491225 0.23822564 -0.06224324 -0.073051386 -0.15888327 -0.4672478 0.17421988 -0.16221765 0.39005888 0.19394082 0.10830189 -0.049440138 0.20177852 0.0892155 -0.17813341 -0.091589324 -0.09071462 0.08277676 0.17705433 0.116531566 -0.2693938 0.0559521 0.21934995 -0.059085473 0.22418018 0.107015885
113 -0.0679259 -0.11807415 -0.20751083 0.13367732 0.14769286 0.3190785 0.06133446 -0.06811338 0.0067647165 -0.22250403 -0.07730314 0.0044749463 0.24003018 -0.20765862 -0.07562151 -0.045928948 0.31028917 -0.094963886 0.63914007 -0.26664412 0.049388297 0.11116364 -0.15502101 -0.17896107 -0.12581816 0.14236496 -0.07143948 -0.3476904 -0.014948176 0.4913396 0.08157374 -0.35816413 0.10666918 0.12278862 -0.36635324 0.52464575 0.089625694 0.0014386318 0.09270649 0.048055995 0.11368719 0.21389858 -0.3466174 0.3767831 -0.006125439 -0.057385694 -0.08523383 0.12798531 -0.06712838 0.010800325 -0.18906912 0.02918961 0.07424354 0.077895924 0.07556762 0.050280977 0.2489796 -0.041816358 -0.0020982209 -0.29853618 -0.3048109 -0.25694844 0.10789677 0.03121765 0.23252636 -0.10885815 -0.10554681 -0.15200825 -0.15426664 -0.10772912 0.21647747 0.0354963 -0.1833284 -0.17352603 -0.37682936 0.10699995 -0.019602003 0.001823519 -0.22690196 0.038991332 0.15766466 -0.11284111 -0.046244614 -0.07612294 0.03608768 -0.05515148 0.1463312 0.11486655 -0.20648925 -0.11026574 0.3044336 -0.05191936 0.054758977 -0.020831298 0.14017424 -0.31664205 -0.13977775 0.028191399 -0.3635572 -0.06609751 -0.03278697 0.15371482 -0.4583757 -0.11028937 -0.047142632 -0.039695654 -0.12293956 0.05436676 -0.26948658 0.074492894 0.06364697 -0.11207082 -0.080985725 0.10282481 -0.0060915635 0.07724405 0.09318422 -0.15714149 0.064237416 0.1221297 -0.34272498 -0.18840659 0.13756335 -0.20956816 -0.2859421 0.033309445 -0.025385031 0.23615557
207 -0.19007519 0.16058728 -0.23377404 0.017227791 0.22314781 0.09762453 -0.032978963 0.32862628 0.5190929 -0.21485075 -0.15362345 0.15469226 0.33069056 -0.055585332 0.017690402 -0.04467404 0.052294068 -0.029872226 0.24229749 -0.18795107 -0.019763686 -0.14380275 -0.08821675 0.22997443 0.010992855 -0.05529072 0.12369021 -0.18059029 0.13582502 0.046453662 0.536744 -0.06550382 -0.18062456 0.3556806 -0.20418133 0.1441554 0.12960835 -0.014108139 0.19103108 0.29481432 0.15898316 -0.060401842 -0.36493888 0.12836665 0.122349724 0.25580916 0.1399931 -0.1377162 -0.069338605 0.1051902 0.0042839386 -0.18722571 0.13390024 -0.2419029 0.11926974 0.124652036 0.13259615 -0.11109325 -0.090062074 -0.031364195 -0.083293594 -0.12298971 0.45751074 0.05237896 0.19562648 0.09329897 -0.31979015 -0.10806149 -0.0045866966 -0.22607599 -0.1396618 -0.07622989 -0.04864959 0.040221322 -0.24195416 0.09366248 -0.06992959 -0.038388193 -0.22564515 -0.021375315 0.22836016 0.0029946608 -0.015433086 -0.012942973 -0.5275105 -0.24708971 0.22945972 0.06540578 -0.26691502 0.108778484 0.1995949 0.037933663 -0.15661469 -0.30252525 0.09821896 -0.5024137 -0.20255546 -0.040095177 -0.14290412 0.039044134 -0.30402148 0.023733633 -0.40959474 0.14675684 -0.0799071 -0.14743768 -0.13132106 -0.3517417 0.11205543 -0.13530561 0.33074525 0.20745645 0.06981116 0.017295154 0.18385848 0.064175695 -0.19792591 -0.09508273 -0.020080505 0.07210628 0.16004686 0.087596454 -0.18540628 -0.017004194 0.11716951 -0.12474171 0.25029528 0.19462849
356 0.46744224 0.21554627 -0.21922763 -0.17411618 0.02194073 -0.13116807 -0.094773486 0.3373652 0.1730971 0.03792796 0.31032944 -0.13105743 -0.05423106 -0.47827914 -0.271106 -0.092614986 0.5053421 -0.23711886 0.042588845 -0.03952027 -0.15737055 -0.41369367 0.11767808 -0.1506947 0.08099071 0.7928228 -0.23634227 0.24566011 0.13813516 -0.29245722 0.18016616 0.021123558 -0.0044535366 0.5459078 -0.40608823 -0.14294808 -0.36382782 0.12117074 0.18744111 -0.121187426 -0.12703161 -0.31783825 -0.036835298 -0.119939424 0.3212492 -0.34317115 0.1729053 -0.17984223 0.048308775 0.02293476 -0.21728201 -0.06083753 -0.41859612 -0.26512128 0.1955675 0.17173366 0.1969021 0.1974265 0.10015945 0.012199004 0.052439354 0.04579199 0.4010369 -0.27900368 0.056633644 -0.32607138 -0.3024809 -0.17149864 0.4145843 -0.18937911 -0.14143124 -0.14433849 -0.049580395 0.3012407 -0.14469148 0.16302498 0.11416473 0.2884594 -0.5481418 -0.33012056 0.41483083 0.27057967 -0.022143746 0.057093605 -0.087991565 0.03327902 0.21683653 -0.39723065 -0.14174065 0.06802164 0.21067499 0.0037504674 -0.1431771 0.086325265 -0.103000544 -0.13373858 -0.24869095 0.16523038 -0.4349297 0.2551976 -0.03540833 -0.22243458 0.018885685 0.047503456 0.08738208 0.02032881 -0.2207472 -0.22864847 -0.09446768 -0.06720762 0.21804091 0.06379805 0.28930694 0.36277145 0.26273566 -0.28815094 0.117013805 -0.050748188 -0.034947626 0.407355 0.0902607 0.45183975 -0.22302352 -0.47522208 0.24029988 -0.39762366 0.32363138 -0.11959276
202 -0.26504362 0.1873716 -0.18300526 -0.027211148 0.10715635 0.0690565 -0.1368881 0.3506927 0.41672975 -0.134757 -0.1810728 0.20821923 0.3035225 -0.050359827 0.022926068 -0.16155586 0.005010309 0.071055315 0.16355406 -0.09862412 -0.05983552 -0.096173756 0.02527079 0.3450107 0.06311167 -0.023670927 -0.0721116 -0.23687498 0.16400264 0.048277028 0.41229278 -0.20115127 -0.1609037 0.16706787 -0.26656806 0.22648193 0.13565943 -0.040355153 0.044213526 0.29321247 0.22548123 -0.051762365 -0.45738888 0.19689429 0.18802701 0.17613265 0.04913448 -0.24768016 -0.115888126 0.043916684 -0.046810698 -0.1607969 0.16146363 -0.10948462 0.019671025 0.31398293 0.08377903 0.0048814537 -0.029091356 -0.1326468 -0.05937022 -0.11327456 0.28215152 0.064765126 0.05284581 0.10866737 -0.33615497 -0.14781316 -0.0073970743 -0.41282636 -0.11151055 -0.16893613 -0.029285068 0.018635102 -0.25609654 0.101615995 -0.01996944 -0.008157013 -0.22155188 0.058367316 0.25754005 0.05353349 -0.09759577 -0.049201675 -0.5397509 -0.28487533 0.16716652 0.013468707 -0.23840779 0.09136256 0.25291505 0.050266445 -0.086326815 -0.18087906 0.13609338 -0.4341507 -0.15404391 0.027506026 -0.079304405 0.11198251 -0.18122327 -0.035148036 -0.46485046 0.20769686 -0.06850892 0.040215485 -0.11960338 -0.38148025 -0.01859232 -0.07736057 0.389927 0.21265027 0.15955725 0.04185804 0.04106206 0.03923226 -0.24815738 -0.1768427 -0.116301775 0.016568713 0.10520647 0.071719736 -0.26512873 0.14864077 0.21950725 -0.03924117 0.29011512 0.16373815
105 0.26135382 -0.06559744 -0.055099014 0.2379722 0.17313507 0.50829077 0.16513558 -0.0017520846 -0.19546463 -0.29997647 -0.17483683 0.4209105 0.31911173 -0.31823412 -0.14716634 -0.18964793 0.3110536 0.084684506 0.53291273 -0.047769275 0.17259642 0.007288221 -0.2898158 -0.13471113 0.058276463 0.41511068 -0.24446675 -0.25064126 -0.055339485 0.33347663 -0.10943963 -0.28907534 0.3233014 0.1386271 -0.5706856 0.32699153 0.037593924 0.19375318 -0.12265864 0.19915152 -0.010089409 0.031102683 -0.3059057 0.47480097 0.03727153 -0.108498946 -0.18016027 0.15930262 0.061539315 0.021457285 -0.28057846 0.055289418 0.37267125 0.019373402 -0.14396821 0.14923927 0.28887 -0.029144516 0.4058625 -0.37025416 0.027444655 -0.11999093 0.014218886 -0.051570136 0.024622021 -0.022358935 -0.47203544 -0.007609318 -0.040016524 -0.2856907 -0.078190416 -0.055539913 -0.14592542 -0.12050248 -0.41182214 0.05768839 -0.15045023 0.08446845 -0.18111287 0.26566866 0.20742805 0.03907772 -0.19241032 0.14263122 -0.047351845 -0.036690865 0.0939573 -0.2187407 -0.3439672 -0.06862718 0.09172674 -0.00040936243 0.18577544 0.058389965 0.005396336 -0.46427074 -0.0376397 0.1487193 -0.3952813 0.07722921 0.2536862 -0.051760796 -0.265485 0.017712936 -0.05209925 0.39258128 -0.23895025 0.42595744 -0.14612353 -0.00962228 0.36162847 -0.1632292 -0.061608266 0.24687238 -0.027992621 0.12835355 -0.023671187 -0.1628074 0.18139957 0.27864835 -0.55697685 0.045784425 -0.02444325 -0.09307576 0.07737459 -0.13831076 -0.23970154 0.08973645
237 -0.16696581 0.16433181 -0.21760333 0.052343536 0.21875922 -0.023161307 0.010626514 0.22676006 0.40668553 -0.25450784 -0.2167201 0.051045492 0.31503868 -0.117135614 0.004080589 -0.15519615 0.22398396 -0.13752969 0.31374308 -0.19208339 0.1129697 -0.14112516 -0.14796808 0.18733758 0.08762739 0.026833473 0.0093505215 -0.26698628 0.12277796 -0.049014874 0.6151945 -0.1412029 -0.10622207 0.39488578 -0.25978723 0.19135343 0.09440863 0.02483921 0.17081967 0.11922418 0.081919596 -0.14464046 -0.40929958 0.13807629 0.027071184 0.35576233 0.08697319 -0.17905986 -0.1333301 0.029151952 -0.073348805 -0.19459128 0.20154779 -0.2024972 0.06061646 0.10629375 0.24730471 -0.2551693 -0.0450285 0.09561527 0.031767003 -0.17598447 0.46879363 0.07641371 0.13693173 0.04246651 -0.24011832 0.09351647 -0.03354118 -0.36257058 -0.078040645 -0.049243774 -0.039387003 0.0055598323 -0.2174523 0.018230787 -0.10400577 -0.057920124 -0.3204749 0.17136489 0.11974991 0.054415036 -0.06976028 0.057067588 -0.57042354 -0.28863648 0.2780934 0.051782396 -0.35999078 0.3381447 0.2906692 0.08713116 -0.024564818 -0.27506295 0.0194219 -0.47331226 -0.14501415 -0.141381 -0.32010272 0.08708108 -0.16447985 -0.10093797 -0.28660718 0.21423396 -0.17524326 -0.09930731 -0.19399548 -0.28016698 0.07637089 -0.08566624 0.443246 0.08047674 0.21274936 -0.094667666 0.17053354 -0.077558786 -0.06387502 -0.14559528 0.0376637 0.10221588 0.02695154 0.003772638 -0.2547628 0.013938729 0.15043044 -0.09861056 0.13728903 0.11505573
183 -0.17736633 0.011279779 -0.42310706 -0.04723429 0.008673343 0.40470108 0.008283331 0.33898634 0.29109725 -0.37229094 0.017977761 0.0558216 0.42507425 -0.23149906 0.14355646 0.073487684 -0.00425527 0.2704934 0.32991818 -0.19573867 -0.06777551 0.043032527 0.015194088 0.19666833 -0.08942909 -0.14994828 -0.039248336 -0.35071838 0.123052984 0.37081063 0.31702027 -0.446445 -0.04877725 0.10425137 -0.19896 0.38312942 0.2195123 -0.05480062 0.024322689 0.17285405 0.18418717 -0.20246673 -0.30506957 0.50369537 0.42209375 -0.034305543 0.04653531 -0.2584335 -0.057833076 0.00081152475 -0.07730454 -0.20538625 0.17156573 -0.17644817 -0.11246457 0.27177984 0.18188299 -0.052066065 -0.36336228 -0.4416762 -0.39587948 -0.1359135 0.14217064 0.20990725 0.25536105 -0.0035057783 -0.24734066 -0.24276185 0.06440489 -0.35971582 0.07697057 0.049959667 -0.034066312 0.12862185 -0.49231026 0.040446837 0.19630814 0.09410909 -0.071985915 0.008741741 0.23090939 -0.08547959 0.094759785 -0.06293982 -0.32308593 -0.08309042 0.24463277 0.07660525 -0.257948 -0.22926356 0.47018284 -0.019840661 -0.3010938 -0.08007408 0.1712573 -0.4756116 -0.3463228 0.15640451 -0.043966137 0.032397218 -0.24871011 0.033170875 -0.46665996 -0.0104209585 0.16130258 0.028840488 -0.16925153 -0.23753427 -0.062007476 -0.014795453 0.18651783 0.14659894 -0.0416716 0.16889621 0.105737 0.00037091327 0.06389398 -0.14056502 -0.017007858 0.28896177 -0.17893976 -0.056981772 0.030982234 -0.20279557 -0.08624801 0.071020484 0.108584784 0.30142805
258 0.019529052 0.1678037 -0.020716518 0.042468227 0.18223631 -0.17458022 -0.16928366 0.50724965 0.57746595 -0.3116301 -0.11543596 0.015566432 -0.027389787 -0.0034314855 -0.37742016 -0.022907812 0.47230706 -0.21229756 0.23432028 -0.33368066 -0.21661986 -0.1559278 -0.105849005 -0.040528 -0.02100134 0.37548608 -0.08058971 -0.26836935 0.051789485 -0.028097862 0.24873747 -0.09426947 -0.11405685 0.6091325 -0.032395374 0.25886413 0.004134677 -0.054783884 0.3562694 0.16219774 0.37579557 -0.053754132 -0.19674373 -0.064889394 0.041749354 0.09820491 0.1035509 -0.2366137 -0.41071966 0.29508874 0.013419722 -0.017261392 -0.2308863 -0.095823936 -0.048227135 -0.07207972 0.17961036 -0.12677494 -0.0028736433 0.22358882 0.20664802 -0.2933531 0.53042895 -0.17687194 0.203484 -0.15844516 -0.29657426 0.05385533 -0.065365784 -0.3171425 -0.109114215 0.14556792 0.0260748 -0.13258663 -0.15647312 0.28500366 -0.15896443 0.04576269 -0.42895135 -0.14012885 0.08176571 0.17947394 -0.11793572 0.032916877 -0.20736738 -0.23771206 0.31859934 -0.17149436 -0.14023387 0.13390517 -0.03832649 -0.026924515 0.1704438 -0.1370556 -0.10546901 -0.09369023 -0.10152759 -0.062004592 -0.05979764 0.19321148 -0.1449718 0.37368816 -0.3871794 0.23310141 -0.04174931 -0.23079629 -0.13941489 -0.53317744 0.15301742 -0.15229899 0.24327011 -0.06411719 0.11256714 -0.054289266 0.2465721 -0.112011254 0.055814575 -0.11768409 -0.14683637 0.24689767 -0.09942133 0.17754842 -0.23735175 -0.24467197 -0.1821027 -0.160264 0.1563277 -0.040146854
282 -0.014352449 0.20926389 -0.03327153 0.11724498 0.18575415 -0.20591125 -0.17963265 0.5734132 0.48019305 -0.29538947 -0.05620878 0.13090697 -0.004729294 -0.06340331 -0.44335356 0.0496711 0.35855204 -0.18932638 0.19191243 -0.32416362 -0.2624685 -0.14452817 -0.053702015 0.0051731286 -0.083570294 0.40515062 0.043924764 -0.16625224 0.12739189 -0.023167951 0.1515071 -0.04207414 -0.15564662 0.594532 -0.11440347 0.24112812 2.0555264e-05 -0.067010604 0.31497422 0.17852154 0.35876667 -0.077161185 -0.2113099 -0.03360958 0.14651155 0.039222553 0.13737673 -0.12873818 -0.4015699 0.2955554 0.072836414 -0.0040141116 -0.19350398 -0.07203087 -0.0677975 -0.083524846 0.23622361 -0.076656915 0.038728513 0.14609057 0.24979009 -0.22507603 0.49286735 -0.17868921 0.21200709 -0.17382038 -0.2896488 0.07232564 -0.057379946 -0.21095997 -0.1708449 0.19814116 0.03750966 -0.23847203 -0.110853575 0.30525622 -0.17460836 0.12700081 -0.3764001 -0.2338507 0.18479013 0.21387082 -0.032130063 -0.024967017 -0.18573108 -0.24443166 0.31423655 -0.2083354 -0.15912907 0.10683444 -0.08102298 0.0011818901 0.24193072 -0.20523162 -0.09416708 -0.12965745 -0.1683989 -0.10908782 0.030410053 0.18733376 -0.33584964 0.4190757 -0.45587328 0.17773435 -0.026949182 -0.21824954 -0.13533664 -0.4464717 0.21072076 -0.24436074 0.24224362 -0.034293905 0.03029517 -0.067712456 0.3443923 -0.1454813 0.12708779 -0.0129681835 -0.1981737 0.3414259 -0.021177188 0.2443915 -0.18270433 -0.23766148 -0.09374071 -0.12902945 0.18634696 -0.055034753
120 0.12955514 -0.028662937 -0.10973311 0.28608894 0.24531226 0.1663051 -0.05363053 0.08053596 -0.03708957 -0.030650087 -0.15729833 0.25772062 0.23694482 -0.09542655 0.038431067 -0.046222273 0.11857592 -0.060125627 0.49264306 -0.18543607 0.05744501 -0.038326073 -0.24039932 0.17711702 -0.17952292 0.20652355 -0.0009504452 -0.28150812 0.10372568 0.6023858 -0.06855978 -0.20690629 -0.035815027 0.021456897 -0.43181664 0.46088845 -0.0026573767 0.1382746 0.01245653 0.16216967 -0.11078069 0.27193624 -0.39437455 0.38851503 0.032098286 0.01552198 0.12427066 0.24950565 -0.068020664 0.07279664 -0.19331025 0.15850574 0.2486564 -0.10313413 0.105721906 0.1468867 0.19563879 0.061181426 0.18387075 -0.34613258 -0.13161276 -0.3011455 0.32471123 -0.014541444 0.19999321 -0.0062674154 -0.3433361 -0.103444226 -0.12593688 -0.16007757 -0.07004671 0.030609215 -0.18604073 -0.23841667 -0.57097924 0.15014267 -0.17538157 -0.054025933 -0.0877261 0.020792043 0.28083584 -0.08152451 -0.20792875 -0.09640175 -0.2782487 0.13111182 0.037454374 0.029226927 -0.18998346 -0.10914394 0.1254035 0.109410234 0.041308682 -0.1008611 0.21544862 -0.36677507 -0.08294262 0.06419424 -0.2757885 0.06633673 -0.14456408 0.19327055 -0.5224607 0.014302514 -0.19698797 -0.005222 -0.17778671 0.15997225 -0.33642918 0.0142354 0.28555557 0.07005696 -0.16679965 0.31265548 0.10540035 0.1594266 -0.101383604 -0.19599767 -0.046068203 0.032061916 -0.35078898 0.10662655 0.18544304 -0.050572813 -0.17830601 -0.22861134 0.1737774 0.3601127
154 -0.20057176 0.012786483 -0.30719545 0.2748438 -0.0018868629 0.25812218 0.0817158 0.27652237 0.21126974 -0.33895624 0.035233147 0.15538457 0.4066746 -0.31084475 0.12053832 0.17628118 0.04590005 0.413204 0.30796054 -0.23857151 -0.14100844 0.15338267 0.09839582 0.3962675 -0.08980999 -0.0564682 0.07158093 -0.35934666 0.16975866 0.28736174 0.06086368 -0.32449096 0.05704355 0.094492644 -0.2556668 0.30770025 0.087611064 -0.06556328 0.03303738 0.2378156 0.19477203 -0.23459245 -0.26570392 0.560664 0.39539403 -0.101487815 0.032179307 -0.25236332 -0.07414399 0.04763066 -0.26509944 -0.20482233 0.10797102 -0.21911378 -0.16473629 0.32337576 0.18670608 -0.14493701 -0.27356374 -0.51322407 -0.29443297 -0.009712203 0.16320977 0.041048426 0.32501164 0.15438358 -0.17766352 -0.35619408 -0.01553931 -0.1803281 0.002976115 0.13051195 -0.13532606 0.15757829 -0.4834564 0.06747876 -0.0326158 0.13214086 0.03914173 -0.12059395 0.28775173 0.027442638 -0.041214816 0.005261795 -0.334041 -0.051875878 0.30038956 -0.0025908437 -0.22134836 -0.42703572 0.26281488 0.072763264 -0.19148514 -0.08594694 0.030745685 -0.5378611 -0.29203874 0.13481258 0.040753115 -0.039799448 -0.26887 0.08556961 -0.51551896 -0.09604511 0.19516937 0.08630691 0.047577415 -0.1449957 0.07002809 -0.20439403 0.122561224 0.10443485 -0.080129996 0.21532056 0.18808518 0.03837162 0.15630639 -0.07423109 -0.12187078 0.36660033 -0.15119031 0.0019695212 0.07689403 -0.19242515 0.016876265 -0.009877634 0.033316478 0.43530098
295 -0.061053257 0.23935892 -0.109567866 0.049116313 0.11368509 -0.14556055 -0.21951784 0.5678513 0.52581394 -0.4199022 -0.070082754 0.20775142 0.0142586045 -0.020361505 -0.4390933 0.0038131804 0.4021914 -0.19483551 0.2042399 -0.3640577 -0.29146135 -0.06528405 -0.0053110626 -0.014496685 -0.04154388 0.37644526 -0.022111654 -0.27190182 0.011357893 0.011988246 0.16705818 -0.08309563 -0.15591985 0.4820997 -0.1898432 0.370323 -0.007157857 -0.09821146 0.25650325 0.10507581 0.25973538 -0.18479793 -0.3063888 -0.0648327 0.14236769 0.007877594 0.0014823637 -0.14317262 -0.5487252 0.27209675 0.046147764 0.070792854 -0.09906328 0.11984365 -0.1891648 -0.019556975 0.18799382 0.05408167 0.123922445 0.14772542 0.31928158 -0.24814051 0.49084005 -0.17380646 0.15956 -0.27380565 -0.28930524 0.096507445 -0.15267132 -0.30744472 -0.120836616 0.26323226 0.029635219 -0.25196117 -0.05633771 0.36864153 -0.18349849 0.11973266 -0.43099767 -0.14727262 0.2572827 0.2646612 -0.08253763 0.04040707 -0.112081446 -0.25292525 0.29428267 -0.30291763 -0.19224004 0.12214829 -0.07493978 0.027051508 0.31369478 -0.13325736 -0.1766224 -0.07414418 -0.07649917 -0.20056058 -0.02620381 0.21963622 -0.15008752 0.43580988 -0.4903259 0.16337205 -0.10679324 -0.29545766 -0.11365948 -0.364544 0.13294324 -0.22232097 0.28391418 0.0063952794 0.07512886 -0.14332812 0.21685337 -0.08515637 0.101189375 -0.039310962 -0.23335977 0.2956055 0.0076562553 0.15402524 -0.2904194 -0.30553737 0.055007886 -0.18149298 0.18757299 -0.08368326
281 -0.11855184 0.2721989 -0.032842394 0.09815528 0.13626797 -0.15693118 -0.16371402 0.52310187 0.5198029 -0.3330296 -0.050289 0.14311638 -0.0063924612 -0.08251645 -0.39811498 0.019550653 0.4169518 -0.20249502 0.19418167 -0.31307665 -0.31916815 -0.10000409 -0.003120091 0.08093875 -0.038620472 0.39716446 0.0140938135 -0.1995423 0.08730758 0.046422027 0.15709469 -0.096878566 -0.104838274 0.5647234 -0.14769898 0.3490279 0.015756255 -0.12718023 0.32815677 0.18101563 0.35282838 -0.112944916 -0.24752343 0.044642024 0.123482935 0.0724668 0.108000375 -0.1480338 -0.4984296 0.32900655 0.013599102 0.03468345 -0.16082917 -0.029350612 -0.119963884 -0.04458758 0.19451846 -0.036736578 0.055930905 0.10335292 0.2228781 -0.32391778 0.5094819 -0.19616638 0.24959977 -0.18675278 -0.2936025 0.020566065 -0.10351752 -0.28798226 -0.12730059 0.23651542 0.029761972 -0.24169262 -0.090078264 0.33849168 -0.17176355 0.09033395 -0.40996394 -0.23398279 0.28053403 0.25725153 -0.054566436 -0.051158547 -0.21142614 -0.261934 0.33958972 -0.19546159 -0.18801174 0.081362106 -0.05298607 0.018061718 0.28575495 -0.14618805 -0.13841009 -0.14667799 -0.1465878 -0.17885311 -0.029824318 0.17286682 -0.24721944 0.44821835 -0.53176564 0.14431944 -0.036547173 -0.21722156 -0.10118412 -0.46056724 0.17983839 -0.2342555 0.18265699 -0.012856553 0.061719593 -0.030764762 0.31044683 -0.091057435 0.13113418 -0.006125745 -0.2725358 0.33306247 -0.024833392 0.15198462 -0.20477954 -0.24250987 -0.1181668 -0.12724495 0.2143115 -0.0050839237
93 0.3726284 -0.09678033 -0.08713278 0.25717455 0.20002505 0.46725315 0.11186814 -0.09646279 -0.27459344 -0.22995202 -0.111148685 0.3756115 0.36545414 -0.37267408 -0.09187902 -0.17927293 0.29706478 0.071493566 0.5709913 -0.0673261 0.2591317 0.012122451 -0.29214543 -0.13544546 0.03301803 0.421452 -0.20487857 -0.24312784 -0.06137718 0.43411386 -0.074199416 -0.30340254 0.26289845 0.12206938 -0.7352713 0.35027656 0.005015986 0.19504248 -0.12850395 0.17081544 -0.08810667 0.021721125 -0.35124725 0.6002161 0.09073773 -0.07588172 -0.12730625 0.19803832 0.08434832 -0.009327469 -0.26385027 0.05746402 0.47803617 -0.002728065 -0.09899524 0.12525769 0.35602948 0.021056704 0.42325264 -0.45711562 -0.06562027 -0.10374483 0.048211638 0.035538 0.026517352 -0.026726428 -0.5017634 -0.08940275 -0.024416389 -0.22131434 -0.090214476 -0.020972239 -0.12424153 -0.07760193 -0.5162361 0.085305385 -0.10243866 0.054258756 -0.25345713 0.289009 0.25139 0.026065102 -0.21621408 0.14346074 -0.04517192 0.021668557 0.1142366 -0.18935235 -0.4021262 -0.10854467 0.12894332 0.052576303 0.12280711 0.025157034 0.0021895939 -0.50421816 -0.10176952 0.15421656 -0.44695333 0.0234043 0.16164862 -0.072327234 -0.26877344 -0.0169326 -0.08891609 0.36890417 -0.28803486 0.4672253 -0.17378017 0.036224194 0.38211012 -0.11799905 -0.098434426 0.271248 -0.01943415 0.1796494 -0.0074071987 -0.10455469 0.17005274 0.22705357 -0.6074429 0.066166714 -0.01029224 -0.121195614 0.043785937 -0.1512482 -0.23479271 0.13232657
348 0.47681347 0.13973863 -0.18827474 -0.08688327 -0.0026612172 -0.15542848 -0.09009104 0.38202316 0.13752373 -0.012634436 0.27014372 -0.13451026 -0.10958629 -0.53328043 -0.2753816 -0.04062481 0.4835336 -0.13186505 0.022189073 -0.11038594 -0.2030129 -0.32175782 0.12965856 -0.15235974 0.07375989 0.82165134 -0.29693183 0.20372802 0.22770825 -0.310206 0.06651316 0.012598797 0.01719472 0.5245177 -0.36344215 -0.21563976 -0.40232435 0.17170076 0.12637755 -0.1328494 -0.0780958 -0.36241093 -0.02612567 -0.107289664 0.3603537 -0.44727585 0.13722172 -0.28310528 0.06642856 -0.016108539 -0.21271513 -0.12205795 -0.46126562 -0.2883337 0.09950578 0.17910247 0.25616547 0.15320946 0.06481971 -0.031841066 0.058481507 0.1626878 0.36421904 -0.26656115 0.041966666 -0.30912903 -0.28197265 -0.18408372 0.37599665 -0.17077662 -0.13143821 -0.10396028 -0.057232797 0.33529586 -0.19368535 0.14917342 0.116586424 0.362269 -0.48219362 -0.34456304 0.33821192 0.30423784 -0.03689283 0.09556226 -0.044565275 0.078434266 0.2148507 -0.39219987 -0.092193656 -0.09476888 0.20678934 -0.05559225 -0.15770808 0.08910335 -0.08019683 -0.052889872 -0.28141782 0.26302645 -0.3001012 0.28123143 -0.06834437 -0.19647464 0.021026028 0.0637821 0.19069146 0.025324687 -0.19093123 -0.27152053 -0.09261261 -0.12913895 0.24377196 0.019412749 0.2525708 0.37056726 0.25130203 -0.37610462 0.22889185 -0.077152364 -0.061813794 0.4849654 0.050530113 0.48559758 -0.22321399 -0.4434285 0.25260004 -0.3965759 0.3072096 -0.0583234
341 0.41251662 0.060280368 -0.05013804 0.026124818 -0.1320959 -0.12697865 0.056679703 0.19380675 0.33423415 0.07046105 0.09785195 -0.12557106 -0.18054846 -0.5091142 -0.034026336 0.06264225 0.40740532 -0.3075262 0.045342475 -0.15208556 -0.09900742 0.037675045 0.116713196 -0.16683193 0.29797313 0.8527028 -0.16080436 0.15834674 0.37328273 -0.29230392 0.18736753 0.20367078 0.0349156 0.6800039 -0.3603672 -0.28517374 -0.4274741 0.197688 0.09353821 -0.08060745 -0.23314379 -0.47692195 0.016041202 -0.024138354 0.19185713 -0.13134047 0.25236884 -0.29868314 0.058416825 -0.014948282 -0.03118941 -0.10891986 -0.39186838 -0.37962925 0.22264767 -0.19196089 0.33075088 0.1025878 0.03468 -0.11524923 0.102916636 0.018787209 0.33187366 -0.23502597 0.070204176 -0.17108592 -0.32110286 -0.25897616 0.11857254 -0.032152016 -0.0364044 0.15308139 -0.08667499 0.4601685 -0.16262726 0.16382433 0.025923453 0.0314943 -0.599236 -0.32312104 0.36585018 0.30389878 0.062189803 0.24585804 -0.032932974 0.08989676 0.35884154 -0.09033441 -0.16010413 -0.28326514 0.09838101 -0.11852942 -0.153569 -0.026824947 0.14940824 0.026801003 -0.33516482 0.19193923 -0.20580135 0.042299476 -0.12400577 -0.14613551 -0.20179091 -0.11216956 0.1269377 -0.11690134 -0.12382409 -0.43089902 -0.05654474 0.026262678 0.1655355 0.053040575 0.21377587 0.33032873 0.035415128 -0.4030536 0.35242656 -0.14809634 -0.05385822 0.38391116 0.03974019 0.3616053 -0.3578067 -0.18194029 0.08808577 -0.41045368 0.2654359 0.23164016
165 -0.13970149 -0.05357957 -0.33733976 0.3093575 0.16084534 0.28475016 0.17397484 0.35743105 0.26595864 -0.4638226 -0.07932591 0.1356407 0.35790575 -0.21917136 0.15821843 0.19683525 0.009440352 0.30103377 0.40245596 -0.24381846 -0.10945763 0.10412051 -0.030188061 0.26750666 -0.038988933 -0.09496691 0.1218298 -0.37939674 0.14980397 0.21110696 0.19020978 -0.3011373 0.035121355 0.1885102 -0.19007272 0.26148614 0.094482824 -0.016687179 0.06347374 0.24536301 0.20376122 -0.076297306 -0.26790062 0.47239262 0.30102935 -0.016854137 0.021532184 -0.21661547 -0.019065516 -0.095312595 -0.24045932 -0.17826204 0.07969635 -0.2432632 -0.080237985 0.24731965 0.1773374 -0.24671386 -0.29777843 -0.42389566 -0.22429058 0.023548845 0.16952269 -0.016375024 0.2518118 0.19235681 -0.111146085 -0.31450555 -0.028783686 -0.072773166 0.030134343 0.054063763 -0.13849734 0.12783949 -0.46487093 -0.06270346 -0.06072657 0.1747944 0.031160366 -0.06295882 0.1669927 -0.056536656 -0.052937783 0.020904463 -0.34750494 -0.06472783 0.26073042 -0.0028581533 -0.2718827 -0.3001603 0.23584284 0.098697565 -0.19191015 -0.19592695 0.16157869 -0.60281503 -0.24074438 0.19623597 0.026996048 -0.024961466 -0.2880916 0.05570213 -0.4809086 -0.06507471 0.18806577 0.11291813 0.027950449 -0.116136566 0.07160977 -0.20271729 0.19640574 0.116770685 -0.06920507 0.053546116 0.18032399 -0.019665277 0.12999524 -0.14400592 -0.07115955 0.31701347 -0.11686982 0.08881603 0.08883306 -0.19265033 0.01697503 -0.039605025 0.033578057 0.42415908
232 -0.22398002 0.15106389 -0.23890066 -0.0462994 0.1819835 -0.051610406 -0.04868169 0.30284503 0.5170935 -0.1236342 -0.19417919 0.099790804 0.42496198 -0.1454896 -0.081994005 -0.10468087 0.09805263 -0.041431773 0.24899395 -0.1959833 0.15281832 -0.06908787 -0.10360208 0.18719162 -0.0271671 -0.030025268 0.12684664 -0.21520033 0.16587573 -0.0027607763 0.6293228 -0.15847567 -0.260731 0.400453 -0.237403 0.16799037 0.22022945 0.02595012 0.20260389 0.26519576 0.100531936 -0.11234579 -0.35572547 0.119025275 0.10283659 0.37160406 0.09814443 -0.091605075 -0.15054184 0.163062 0.074188456 -0.22368808 0.21873295 -0.12733392 0.11595503 0.11517322 0.16935399 -0.13975483 -0.1534756 -0.02760716 -0.034589984 -0.11765503 0.40718055 0.18076463 0.16189164 0.00285223 -0.3737971 -0.029210648 -0.040905397 -0.34360203 -0.13184293 -0.085878186 0.012152312 0.045539867 -0.31921217 0.17891157 -0.018920088 -0.07503892 -0.3380918 0.08819858 0.17151922 0.038523126 0.02435541 0.033874363 -0.4764925 -0.35201707 0.30451214 0.08244867 -0.29775855 0.26851913 0.2483338 0.09180394 -0.13563415 -0.30524415 0.11182111 -0.5067608 -0.26515612 -0.12081074 -0.20353633 0.062341392 -0.31941628 -0.046626933 -0.38451535 0.22328272 -0.0965818 -0.20344567 -0.2477513 -0.3676718 0.09858845 -0.04202285 0.37472373 0.16943279 0.10998585 0.00039545938 0.18021606 -0.09289755 -0.21071203 -0.051656347 0.13013622 0.07556438 0.06820541 0.018585194 -0.27195784 -0.037742667 0.14650112 -0.0071544237 0.18198963 0.09414142
262 0.03515922 0.126975 -0.012551411 0.10382436 0.1450029 -0.185023 -0.19937378 0.5945211 0.586899 -0.26084954 -0.09710066 0.053338856 0.0032581356 0.012069659 -0.3919922 0.050207924 0.3780205 -0.2163084 0.16770683 -0.31760147 -0.20386809 -0.15297182 -0.055881854 0.046843704 -0.057953916 0.37250152 0.0034877644 -0.26939172 0.06814219 0.0006940931 0.24280614 -0.04486609 -0.19366315 0.5823173 -0.11987219 0.29291636 0.02179015 -0.073859975 0.27514437 0.16125631 0.2940459 -0.10520459 -0.16459137 0.022049354 0.081043795 0.093935065 0.104942456 -0.096098855 -0.5451767 0.2921226 0.0723944 0.0043753125 -0.18202625 -0.0387649 -0.08244354 -0.06690784 0.15151002 -0.098668896 -0.015806131 0.13816798 0.20125756 -0.27285177 0.546839 -0.1292627 0.19993618 -0.19537455 -0.31991723 -0.055698384 -0.08979555 -0.26090068 -0.18776459 0.1808526 0.09840175 -0.17888615 -0.19253823 0.31395277 -0.16147077 0.085242555 -0.44230166 -0.17279203 0.11845284 0.17448792 -0.12347042 0.007484909 -0.17917071 -0.23323977 0.31953633 -0.1543181 -0.17405427 0.067488156 -0.050079774 0.03869348 0.19614363 -0.1453025 -0.092456535 -0.08988011 -0.14703523 -0.109643705 -0.0041257995 0.17825152 -0.24402656 0.41272354 -0.46495214 0.21352023 -0.016683176 -0.2122244 -0.113528185 -0.4961829 0.14589679 -0.15145957 0.27361488 -0.002259266 0.026267752 -0.03745982 0.26086393 -0.1033496 0.071269765 -0.060488887 -0.22595032 0.27382037 -0.08802287 0.21894279 -0.20894204 -0.2515843 -0.17315295 -0.14174984 0.18585686 -0.008698044
