77 128
11 0.11924609 0.016954374 0.011381298 0.205191 -0.025368527 0.060101047 -0.0033059386 -0.11512212 0.08236803 0.019341502 0.17007966 0.13965093 -0.031811357 -0.042744357 0.09924098 -0.13677484 -0.056520663 -0.15499583 -0.10418655 -0.0841097 0.04011865 0.057368178 0.0335493 -0.2842595 0.09554592 0.124991946 -0.051791508 -0.12807687 0.1527494 0.12830107 0.03077826 -0.042780086 -0.15973873 0.016697252 0.19320995 0.15934879 0.0207059 0.04869414 0.0062194085 -0.06165825 0.11236619 0.036521513 0.05094065 0.018280903 -0.01419212 -0.035550382 0.036934283 -0.19393244 -0.0056781527 -0.3042029 -0.08205382 0.07438653 -0.110564515 -0.20578231 0.16072406 -0.024564946 -0.14967208 0.11481988 -0.23956147 -0.040977295 -0.015032579 -0.05997807 -0.10312267 -0.04946251 0.018903222 0.068842016 0.098134674 0.09787972 -0.115342 0.011034029 0.031492498 -0.027076218 -0.024703419 -0.20858526 0.05595005 -0.05201742 0.1475647 0.010644757 -0.10718949 -0.06445807 -0.39683136 -0.08975414 0.031099686 0.041778322 -0.0468345 0.11124575 0.046892963 0.13070525 -0.0069667054 0.05941173 -0.035162244 -0.10323104 -0.28092146 0.04603677 0.12992471 -0.041250985 -0.04752615 0.0025468767 -0.17921518 0.059686396 0.044002462 -0.098214895 -0.040100913 -0.0014166215 -0.22832349 0.03597466 0.13594997 -0.033023335 0.12468684 -0.11360541 -0.05899793 0.014949391 0.15926228 0.0015005764 0.026712598 -0.23678592 0.14735937 0.003594697 -0.0063096015 -0.15911248 0.06547903 -0.11845696 0.0876588 0.18371847 -0.08431151 -0.10365521 -0.039448544 -0.11292625
56 0.12923156 0.095105715 0.033832565 0.063344084 0.0369242 0.0011216948 0.02654799 -0.11489529 0.039038077 0.020076104 0.13725626 0.14469732 -0.036181044 -0.095237635 0.11489929 -0.10034966 -0.024027335 -0.0953044 -0.019313382 -0.11111 0.088830374 0.035120316 0.045446582 -0.23645696 0.07173084 0.11637027 0.031033475 -0.13678578 -0.0043830555 0.21916614 -0.078777604 0.034816436 -0.16249561 0.0053450586 0.027539175 0.10211599 0.12869875 0.084271334 -0.018959321 -0.06622326 0.07650969 -0.04013397 0.105244376 0.09150249 -0.13761885 -0.03609153 -0.034358535 -0.049564872 -0.007287951 -0.07202882 0.08592542 0.082210824 0.0058588516 -0.14653157 0.048607584 -0.03202209 -0.16460241 0.041931648 -0.132318 -0.032206513 -0.062231764 -0.053366337 -0.11995434 0.003273186 0.028817743 0.02027795 -0.019123849 0.04196158 -0.05510836 -0.026236234 0.12343855 -0.06690167 -0.09224299 -0.1478505 0.023319392 0.008501295 0.09777663 0.08472595 -0.1241306 0.008666909 -0.41657278 0.034080684 -0.044574868 0.05313119 -0.09890772 0.008764485 -0.054402873 0.068560824 -0.03206138 0.14128073 0.03288297 -0.08572634 -0.21777534 0.100625515 0.13297263 0.07926942 0.0674733 -0.02772191 -0.1835212 0.023401588 0.088472076 -0.10875954 -0.1421721 -0.074705556 -0.13260502 0.004176483 0.058005717 -0.104982056 0.11852707 -0.08871835 -0.06491025 0.034922026 0.049965657 -0.05921483 -0.047059886 -0.2548039 0.07275377 0.01394433 0.08776301 -0.2482187 0.09021064 -0.12148728 0.07951378 0.08627647 -0.11210114 -0.12716192 -0.09100471 -0.15494068
59 0.12990762 0.16255124 0.061236735 -0.092513315 0.12561417 -0.054932877 0.05181203 -0.09347142 0.03346247 -0.03574474 0.0957171 0.1334449 -0.02277901 -0.16280387 0.14472231 -0.069834396 0.078462 -0.027289897 0.073301695 -0.07996447 0.11907041 0.078450225 0.023055695 -0.22114222 0.046609312 0.08765194 0.08609837 -0.17406286 -0.16244312 0.3211962 -0.2505094 0.09686742 -0.22095822 0.01996458 -0.16933066 -0.031144487 0.23830974 0.08779295 -0.03470534 -0.08913802 0.089139685 -0.1530218 0.17280021 0.14104903 -0.25957933 -0.035368223 -0.09627426 0.067300655 -0.04874552 0.091549136 0.24417089 0.07371199 0.037886973 -0.054322112 -0.0060062045 0.049723223 -0.21165529 -0.03154559 -0.033665456 -0.07598237 -0.092640154 0.07657808 -0.19234686 0.0471739 -0.007140805 -0.060716122 -0.11911956 0.026073083 0.008321846 -0.021997068 0.17995635 -0.13716182 -0.18903439 -0.10227469 -0.022956531 0.09676385 0.090569355 0.1716159 -0.16424702 0.10963945 -0.42088467 0.08473482 -0.11852612 0.09701943 -0.15957059 -0.08901116 -0.08838942 0.026796822 -0.037053887 0.20956554 0.14510746 -0.17910048 -0.23954242 0.16807781 0.1542918 0.18404207 0.15161437 -0.07684334 -0.2359348 0.011153083 0.14622872 -0.097156614 -0.24244614 -0.11166884 -0.0977462 -0.04890863 0.011087087 -0.21319818 0.14313668 -0.03273087 -0.07731276 0.030979652 -0.040164422 -0.039935455 -0.08439934 -0.23857118 -0.030477509 0.03744483 0.22663057 -0.38482648 0.11651412 -0.119007066 0.11211185 -0.016162973 -0.13796805 -0.10235796 -0.15429124 -0.232041
63 0.14145908 0.1579649 0.05483109 -0.07356695 0.107898906 -0.04622309 0.05500463 -0.09194795 0.020525329 -0.03235386 0.08363525 0.13353692 -0.025699785 -0.15750569 0.14336203 -0.080852844 0.07699421 -0.03180175 0.0681768 -0.065712415 0.12255649 0.08294962 0.03768102 -0.20820382 0.041381687 0.07848446 0.07850791 -0.17161357 -0.17258099 0.3137493 -0.23563561 0.093277454 -0.22580783 0.032017473 -0.16658816 -0.03135502 0.23603365 0.09920164 -0.041328523 -0.089252375 0.0897316 -0.14069884 0.15890498 0.13868472 -0.2560252 -0.02951213 -0.09532287 0.06916383 -0.045523647 0.08922703 0.23332322 0.07044602 0.03992096 -0.05254897 -0.0130279455 0.057688944 -0.18881568 -0.036143936 -0.024250306 -0.065994866 -0.08772706 0.061294973 -0.18102719 0.034407847 -0.007400468 -0.0605646 -0.11554695 0.015440651 0.011999277 -0.02987053 0.16672614 -0.12442369 -0.16796874 -0.09856474 -0.03080684 0.10042812 0.07532224 0.15644854 -0.15936059 0.12344525 -0.37994802 0.07867388 -0.10610832 0.0797809 -0.14267366 -0.09412967 -0.07911824 0.028651763 -0.04661292 0.19945206 0.15686072 -0.16793622 -0.23048739 0.16138953 0.15292552 0.18145865 0.15039049 -0.06303079 -0.21290794 0.010530806 0.12862036 -0.07837001 -0.22901273 -0.08470254 -0.08494894 -0.037315726 0.0014909534 -0.21415792 0.12720953 -0.033106826 -0.08540599 0.02372161 -0.048179533 -0.041075706 -0.092823945 -0.21194698 -0.03171802 0.034917302 0.23075832 -0.37831935 0.10117414 -0.111704014 0.1163995 -0.019032294 -0.13278608 -0.0941632 -0.14550278 -0.21454087
27 0.13458842 0.061149575 0.022088597 0.13294432 0.012117067 0.023238234 0.0026921663 -0.13147707 0.052136417 0.022927916 0.15789433 0.1589667 -0.043562897 -0.072147205 0.11856709 -0.11174824 -0.026082832 -0.1311608 -0.04215803 -0.10056735 0.05337928 0.034673963 0.04778939 -0.25900725 0.08348003 0.1160747 -0.018105006 -0.13566373 0.06910834 0.18416819 -0.03522179 -0.002665324 -0.15048926 0.0024242606 0.10046354 0.12858288 0.09302975 0.08122459 -0.0066165295 -0.05618632 0.08490151 0.012278299 0.081207894 0.08110428 -0.0992798 -0.043215092 -0.014800106 -0.09016968 0.0011164206 -0.15072607 0.038843673 0.08520841 -0.024944838 -0.18076582 0.08950827 -0.051112954 -0.179294 0.08524246 -0.18302776 -0.043958664 -0.04238951 -0.07666167 -0.1181755 -0.01197415 0.03503282 0.055829793 0.03730784 0.06548183 -0.09838654 -0.030489096 0.10201032 -0.04699938 -0.05572855 -0.16914113 0.042830013 -0.0037787165 0.12622473 0.05078469 -0.10356118 -0.022747444 -0.4455422 0.0059471712 -0.01903054 0.054025877 -0.09266782 0.06267787 -0.019087456 0.09196875 -0.017600412 0.11696175 -0.015153717 -0.09721964 -0.24005319 0.07361853 0.117522195 0.04511684 0.025209043 -0.008016412 -0.17274743 0.026986718 0.05734688 -0.11735746 -0.11579364 -0.062565 -0.16846666 -0.002350314 0.09394166 -0.058724742 0.11652028 -0.084764525 -0.06484958 0.017519467 0.10639867 -0.036620893 -0.007033682 -0.25520673 0.11260739 0.00716677 0.05699253 -0.21942219 0.07520821 -0.11218846 0.07566485 0.13623117 -0.09640042 -0.10806635 -0.06836983 -0.12749493
65 0.08750893 0.14626671 0.056178212 -0.11132339 0.08581142 -0.05905063 0.08853272 -0.077350415 0.044449154 -0.03893871 0.065432884 0.0988747 0.029746154 -0.18100037 0.07202799 -0.047042586 0.036521766 0.049897697 0.041138664 -0.1330874 0.1724809 0.0031741962 -0.03839541 -0.22999825 -0.0025511242 0.059453376 0.14651623 -0.18305843 -0.16528137 0.317792 -0.24211451 0.13702033 -0.20079616 -0.022361886 -0.20517775 -0.0034830964 0.24717544 0.07919359 -0.0729086 -0.053580668 0.08581171 -0.18307512 0.1520873 0.11517622 -0.19283919 -0.05000255 -0.09788583 0.01677681 -0.09656507 0.105582744 0.26092556 0.11552827 0.027729228 0.004956174 -0.005961958 0.12076142 -0.15328646 -0.055955917 0.0025442368 -0.078754924 -0.08284648 0.16408087 -0.12964682 0.12921986 -0.058874592 -0.12162873 -0.10481342 -0.0106325 0.03783441 0.061231334 0.1790092 -0.15274462 -0.15260878 -0.084718846 -0.0796078 0.110560335 0.096498 0.23475352 -0.23501003 0.06145288 -0.3211175 0.040871605 -0.10563896 0.121054314 -0.0723049 -0.13838266 -0.12520288 -0.03272528 -0.09792142 0.16889077 0.15302052 -0.13667174 -0.2179053 0.20293602 0.12481663 0.17541066 0.13854814 -0.13754871 -0.20367266 -0.017081313 0.2151941 -0.04448224 -0.21333645 -0.11237274 -0.13416892 0.0014914526 0.008707689 -0.2882219 0.089326486 -0.026705889 -0.060375877 0.03583398 -0.08449123 -0.043442987 -0.17941962 -0.24291389 -0.08285326 0.00029163103 0.23183928 -0.40511107 0.13591245 -0.090679236 0.08885862 -0.029339181 -0.13768391 -0.1633111 -0.16046335 -0.23535562
26 0.21159242 0.0027700248 0.015802922 0.22642119 -0.10162862 0.048698574 -0.025149608 -0.13560422 -0.05578817 0.0910778 0.14353876 0.095419474 -0.039468292 -0.06035082 0.10225024 -0.16780251 -0.09498838 -0.18576567 -0.13861433 -0.04439579 0.02874865 0.035645634 0.13020846 -0.23354213 0.086651206 0.11521377 0.0012877176 -0.11679908 0.038648807 0.19220331 0.014286919 -0.041340332 -0.1577199 0.02491547 0.14427385 0.21453774 -0.005142232 0.07550542 -0.06263847 -0.047531225 0.1314589 0.059402607 0.052956384 0.08177215 -0.02526985 -0.013207254 -0.032192536 -0.1807211 0.08342285 -0.25967014 -0.0882078 0.075377524 -0.02879326 -0.19885272 -0.0063193613 -0.0056248675 -0.15074413 0.05794546 -0.16816317 0.0074112816 -0.03408818 -0.16563712 -0.100349285 -0.07518852 0.026262159 0.026631756 0.08279727 0.065089785 -0.09424489 -0.037314307 0.015787844 0.06531553 -0.03780001 -0.26835316 0.072841756 -0.008608407 0.069431305 -0.03878105 -0.10805025 0.028675832 -0.3275742 -0.069324106 0.025001895 -0.06811167 -0.004393307 -0.008079767 -0.019166468 0.10678301 -0.07158225 0.079861104 0.0029235624 -0.045639016 -0.29140213 0.06925426 0.14572617 -0.004216937 0.0155853275 0.08221494 -0.19468814 0.062400676 0.024163077 -0.08596529 -0.039332822 0.01382386 -0.17281792 0.11561576 0.087791346 -0.08694084 0.067490906 -0.20085363 -0.11170204 0.038166318 0.1060326 -0.06563571 -0.014917139 -0.23730853 0.14562835 0.0017001648 0.06730783 -0.21866077 0.0119023835 -0.12415806 0.13723466 0.19541942 -0.18508711 -0.09278841 0.02974603 -0.06828989
60 0.10240432 0.14108385 0.06877485 -0.0806156 0.0461726 -0.06527851 0.061858475 -0.08460587 0.040396065 -0.03662613 0.0799063 0.10333178 0.022474952 -0.20943077 0.08679045 -0.05763073 0.042053927 0.033546843 0.003252565 -0.14241037 0.17550659 0.012722002 0.0015850795 -0.21816157 0.0024506133 0.064826995 0.14172219 -0.17289162 -0.15600523 0.34071386 -0.25484854 0.14371051 -0.19740666 -0.025251767 -0.1973749 -0.00867054 0.22204585 0.0972035 -0.07743636 -0.054303575 0.082594536 -0.18497913 0.1406413 0.11213192 -0.17715758 -0.030114852 -0.10647297 0.012519922 -0.06783891 0.085084856 0.23138538 0.097034425 0.0042696055 -0.0093346005 -0.03158476 0.122302726 -0.14559859 -0.06681434 -0.01821507 -0.093396425 -0.11608329 0.11917378 -0.13827984 0.12896255 -0.06866745 -0.14321163 -0.09368698 -0.018700862 0.030921722 0.06488611 0.1725048 -0.11268911 -0.1586395 -0.1230806 -0.04899077 0.09914695 0.08444981 0.19954807 -0.21598004 0.06567354 -0.31554577 0.028620044 -0.10474366 0.08600414 -0.042447373 -0.13867562 -0.123274475 -0.04955519 -0.08683712 0.16104701 0.12591903 -0.1388261 -0.24366224 0.19186914 0.11557594 0.17153123 0.1460853 -0.1154605 -0.22135612 0.0012328703 0.20144942 -0.013338206 -0.17968318 -0.10781115 -0.14437014 -0.005945861 0.0009326748 -0.27737448 0.074266896 -0.054103117 -0.077249855 0.033098575 -0.0930542 -0.063804574 -0.1665775 -0.23651768 -0.07505247 0.0036320204 0.24117446 -0.38095745 0.1151801 -0.10451874 0.09408691 0.011941291 -0.1467569 -0.17152856 -0.138991 -0.22759342
49 0.1905387 0.14105156 0.038063463 -0.039705332 0.01902449 -0.081308 0.041445754 -0.12563626 -0.03198631 -0.017916197 0.06580956 0.1350519 -0.009233164 -0.19641048 0.13024014 -0.09313288 0.039979104 -0.01620504 0.05793654 -0.10009169 0.1509456 -0.0028494892 0.04521299 -0.1905863 0.015048719 0.06381187 0.10887886 -0.2049965 -0.18550934 0.3538509 -0.2654071 0.13083759 -0.18747829 -0.016188702 -0.1934112 0.049081225 0.27140772 0.14265569 -0.12619959 -0.03751683 0.08431487 -0.12462099 0.13885362 0.19458763 -0.22917196 -0.04823749 -0.15440337 0.061941404 -0.049373645 0.12447381 0.29336753 0.10903669 0.08388574 -0.038548958 -0.116246514 0.100656316 -0.21346602 -0.06275131 -0.021303494 -0.0666997 -0.09503917 0.044321183 -0.14625363 0.111285485 -0.034289796 -0.13104789 -0.10601445 -0.024489222 0.008147007 -0.031371035 0.21085672 -0.06936566 -0.14299871 -0.10702124 -0.07279736 0.1531031 0.05023207 0.15618607 -0.20725109 0.14538756 -0.3875177 0.09833685 -0.07500074 0.054505315 -0.07968003 -0.16754977 -0.14589241 -0.028295204 -0.08871781 0.17684239 0.13480161 -0.14719842 -0.2509984 0.19674037 0.10974248 0.23776191 0.16419184 -0.0682802 -0.19839334 -0.02365199 0.17490068 -0.038965568 -0.25636387 -0.11765901 -0.13739115 -0.0027657158 -0.02056215 -0.2892379 0.048278656 -0.015650457 -0.10946021 0.010190863 -0.0790827 -0.06810103 -0.14999944 -0.23567012 -0.068968914 -0.001680162 0.29208654 -0.46712402 0.08451662 -0.11993665 0.1359062 0.042736504 -0.2030669 -0.13991028 -0.1271577 -0.21571623
24 0.022825563 0.023518708 0.12189244 0.11743945 -0.116036475 0.04627682 -0.026186869 -0.028473498 0.08537665 0.040421613 0.19081677 -0.0013752901 0.058862872 -0.19681606 -0.009093855 -0.067928486 -0.08489164 -0.04185195 -0.31787914 -0.22702046 0.14489022 0.007886961 0.03971538 -0.28174213 0.015208699 0.11516587 0.1855161 -0.021665547 0.052019842 0.25535822 -0.05640557 0.057998687 -0.14449644 -0.08576415 -0.0073762047 0.094188616 -0.122256555 -0.01145493 0.03740181 -0.041595634 0.106731184 -0.12526876 0.03910816 -0.07467382 0.11337046 0.04143535 -0.010453887 -0.2923228 0.08162732 -0.24622296 -0.16593 0.07178446 -0.20083793 -0.09444204 0.05702087 0.08477572 0.011711499 -0.021964125 -0.15716521 -0.07439094 -0.20929708 0.0014539106 -0.10302183 0.09486442 -0.09887615 -0.10723272 0.08348143 0.03620242 -0.024942346 0.23051141 -0.026253344 -0.0008806088 -0.12017141 -0.37966934 0.13355285 -0.08052418 0.14873046 0.07337713 -0.19624192 -0.11080209 -0.17729081 -0.2250473 -0.100091144 -0.039735205 0.14374882 -0.074228816 -0.08911186 -0.07280084 -0.111361474 0.07025271 -0.07209962 -0.029591735 -0.35510442 0.104570374 0.14960533 -0.120663546 0.019313043 -0.05689424 -0.28701168 0.09753092 0.1504635 0.05623482 0.16289485 -0.079120286 -0.21077397 0.10042108 0.107376866 -0.13808177 0.055665243 -0.37616688 -0.07691384 0.06971185 -0.05176751 -0.1693973 -0.116335444 -0.33458787 0.087469466 0.020100178 0.04655146 -0.09568558 0.11786761 -0.1239042 0.04736827 0.14984284 -0.12436835 -0.26753408 0.017946063 -0.15211236
28 0.13128074 0.053511586 0.039741095 0.09144489 -0.01748184 0.009018159 0.0061162952 -0.09698149 0.005849582 0.032443773 0.12059442 0.09928607 -0.019203292 -0.10670931 0.08522629 -0.10004559 -0.036007382 -0.09497029 -0.07711691 -0.0917357 0.07516243 0.022212757 0.059494875 -0.21048911 0.047419965 0.0944621 0.04694599 -0.118682005 -0.012531766 0.2137883 -0.07073074 0.022316454 -0.15491582 -0.0041314 0.02264844 0.10792638 0.06580558 0.0644388 -0.0392607 -0.049369622 0.09021715 -0.032240104 0.07959483 0.07650802 -0.077049896 -0.022829367 -0.03467645 -0.09600416 0.014344858 -0.10498855 0.032952316 0.07983896 -0.01118529 -0.12706383 0.01147416 0.012077501 -0.12867557 0.024727657 -0.115210935 -0.027319763 -0.06179309 -0.050639052 -0.109474465 -0.002588364 -0.0030916804 -0.015200337 0.013192249 0.034198295 -0.046754535 0.0030038976 0.06913618 -0.014877372 -0.08050057 -0.18359582 0.03422985 0.015019894 0.08288216 0.05504487 -0.12912224 0.019628065 -0.3169057 -0.024016777 -0.036707636 0.006184123 -0.03605219 -0.026486108 -0.056651402 0.04201275 -0.05420702 0.11222659 0.023643285 -0.065493725 -0.23498887 0.096593045 0.12489409 0.041102987 0.05585333 -0.003136807 -0.18519822 0.037071113 0.083783396 -0.06946839 -0.079739526 -0.04935976 -0.14471956 0.044986658 0.0567167 -0.121807836 0.08156934 -0.1345709 -0.074008584 0.03340388 0.03773614 -0.06542454 -0.05904813 -0.2329438 0.064889185 0.0055106715 0.101333894 -0.23650189 0.060627148 -0.10705652 0.09506099 0.10737828 -0.14017925 -0.12405271 -0.04362687 -0.12637663
66 0.08079833 0.14740956 0.077748895 -0.1041492 0.06041069 -0.07250448 0.05574232 -0.06304904 0.053075343 -0.041377075 0.07617718 0.08347625 0.02566054 -0.21308985 0.07793493 -0.048779916 0.055418562 0.04816237 -0.0013357637 -0.14088377 0.1797251 0.03336049 -0.0075534275 -0.2091648 0.0031624 0.06645091 0.15551384 -0.14923485 -0.16420159 0.33561116 -0.2685162 0.15197837 -0.19895986 -0.02875658 -0.22392675 -0.030372227 0.21185248 0.077315114 -0.05432459 -0.05852372 0.0738449 -0.2006543 0.14559352 0.103329524 -0.18163545 -0.02785513 -0.105649404 0.014360124 -0.057949245 0.097811215 0.22640762 0.08788619 -0.011457534 0.003938672 -0.024568602 0.117375396 -0.13705106 -0.080078535 -0.011885426 -0.09448099 -0.13668019 0.13958429 -0.14674348 0.13698252 -0.0670361 -0.14431384 -0.10778883 -0.01611623 0.041960623 0.07920437 0.16794503 -0.117249474 -0.17692797 -0.12338057 -0.036175627 0.09120444 0.09352183 0.1985841 -0.20805675 0.07153801 -0.30713508 0.015401072 -0.12242425 0.08600243 -0.04825065 -0.14561462 -0.13257422 -0.0632312 -0.08159523 0.16552208 0.12073049 -0.14569439 -0.24792872 0.19115517 0.12711322 0.16288215 0.1556349 -0.124927595 -0.23436514 0.008417613 0.20878452 -0.0059595816 -0.16251414 -0.11754212 -0.1255906 -0.018309 -0.004231519 -0.27393803 0.08295367 -0.069609985 -0.077257745 0.02933755 -0.115027666 -0.074205704 -0.1609899 -0.24357177 -0.07437631 0.020759363 0.247689 -0.36961636 0.13268152 -0.114976026 0.09370572 -0.0088147 -0.13884333 -0.17321597 -0.14481492 -0.23453124
2 0.14971444 0.12635732 0.058189094 0.16005836 0.13410111 0.039289683 -0.08226461 -0.031091183 0.1866552 -0.13584031 0.21946771 0.19504155 -0.101239495 -0.11607564 0.3178397 -0.19376718 0.18440968 -0.24299316 0.03268237 0.079527326 -0.03630263 0.3576697 0.106984295 -0.21615037 0.17968413 0.13463798 -0.23142695 -0.12783223 0.11493801 0.16391762 -0.13812715 -0.10811904 -0.30099165 0.13954619 0.12061369 -0.14261632 -0.015321862 0.03452497 0.12789287 -0.22655782 0.14229406 -0.02506293 0.109035276 -0.028892895 -0.16614427 0.061717533 0.047730524 -0.056396827 0.006504356 -0.37461567 -0.1258596 -0.07230004 -0.3057945 -0.24238783 0.24619459 0.031811576 -0.21682377 0.09480849 -0.30981192 -0.120963775 -0.1123219 -0.04748208 -0.31082547 -0.16319802 0.026282934 0.05921386 0.0017566626 0.17981525 -0.113785185 -0.06873607 -0.007150072 -0.08893806 -0.18213588 -0.25366378 0.14144042 -0.036246125 0.1625814 -0.10271381 -0.013188224 0.10038814 -0.4722703 -0.15899783 -0.038562294 0.05386744 -0.23409271 0.19469026 0.19912454 0.22778225 0.17913623 0.141027 0.07722225 -0.38492993 -0.44640926 -0.020121027 0.23935553 -0.04119319 -0.029261103 0.063047424 -0.34354815 0.18038289 -0.08767813 -0.017345052 -0.057185873 0.07618179 -0.26534277 -0.12645559 0.14373015 0.007431614 0.2719402 -0.09728867 -0.13974665 -0.041101653 0.16403463 0.06652454 0.2615108 -0.13101338 0.13685174 0.10733102 0.11422612 -0.1476927 0.035461508 -0.21255068 0.22842579 0.15050845 -0.019431606 0.019790592 -0.10675921 -0.2072728
64 0.13422534 0.14272685 0.03628793 -0.07710954 0.06376134 -0.08189144 0.07442795 -0.11101517 0.029816683 -0.03589599 0.061426714 0.13818337 0.0045349337 -0.17878206 0.10082329 -0.069072016 0.04624319 0.022377886 0.07329321 -0.123842604 0.16715705 -0.002285428 -0.014467222 -0.22716372 0.02453557 0.06683959 0.11044465 -0.20781086 -0.15226428 0.32573864 -0.24614127 0.1450854 -0.19298013 -0.026025094 -0.17450431 0.027267585 0.2931815 0.114747465 -0.10200978 -0.047776356 0.08505985 -0.14930901 0.15834796 0.16819835 -0.22717701 -0.06474587 -0.11869553 0.04734229 -0.10096079 0.110893965 0.30407706 0.11830187 0.05751293 -0.026565805 -0.022621488 0.09652575 -0.20649731 -0.04489776 -0.024746904 -0.07856828 -0.07344686 0.12412368 -0.13323879 0.12366549 -0.03885398 -0.10600614 -0.10168144 -0.011118911 0.015332492 0.00956008 0.22129545 -0.12776622 -0.13258973 -0.07057353 -0.085689716 0.12503852 0.09125692 0.21206155 -0.22361894 0.08801239 -0.41296828 0.08165256 -0.07724655 0.1146249 -0.09579254 -0.121183515 -0.13009648 -0.010762679 -0.082872145 0.16875413 0.14269207 -0.15887229 -0.23098817 0.20250237 0.11538069 0.22367641 0.15368569 -0.121065594 -0.18962662 -0.0293942 0.2093858 -0.060718067 -0.26501822 -0.1129138 -0.1512188 -0.025354765 -0.0017157886 -0.29114327 0.08217085 0.021702932 -0.07183749 0.01070027 -0.050515935 -0.03295183 -0.16566558 -0.25956804 -0.075704224 -0.00044289546 0.25431153 -0.4618752 0.119532846 -0.1160442 0.11115587 0.019655274 -0.16677304 -0.15195672 -0.16911419 -0.24127924
25 0.18860446 0.027912138 0.0027725028 0.16658199 -0.05815493 0.036003437 0.0015793261 -0.13967574 -0.035051756 0.06444067 0.11863678 0.1194221 -0.04220529 -0.055299625 0.101093516 -0.14832738 -0.07805821 -0.15041848 -0.074347705 -0.058401037 0.051874146 0.00976664 0.09111521 -0.22467309 0.06951184 0.10781113 0.003729268 -0.1436386 0.024202209 0.18688674 -0.010404406 -0.013298979 -0.15173684 0.018312357 0.102810815 0.19542573 0.074244514 0.0891784 -0.066853926 -0.038017858 0.108155206 0.047358606 0.05943994 0.106501564 -0.07366589 -0.037769582 -0.039177656 -0.12484226 0.032675207 -0.17301822 0.010166231 0.09094822 0.008802313 -0.17404386 0.006282483 -0.012296272 -0.17220616 0.060554694 -0.15164028 -0.0019502104 -0.014926844 -0.11894541 -0.09773694 -0.04478134 0.03113234 0.025838235 0.04749834 0.046725444 -0.08610232 -0.0582047 0.06770393 0.019900925 -0.028357236 -0.1854126 0.020505289 0.02248301 0.067069985 0.017209958 -0.12052272 0.02277812 -0.36365286 -0.011808151 0.013078516 -0.008801244 -0.035216052 0.00096714526 -0.02841491 0.09422712 -0.06724106 0.098755434 0.01870967 -0.0528074 -0.24049394 0.09022447 0.12311485 0.0525055 0.032798547 0.036367144 -0.15585367 0.022986835 0.054032717 -0.102312595 -0.10221114 -0.018114705 -0.1550252 0.08534017 0.07283085 -0.104150355 0.072074756 -0.11453601 -0.0855881 0.031455167 0.09441674 -0.054318585 -0.04434404 -0.2299631 0.102940045 -0.0037833322 0.0847551 -0.2554552 0.03516548 -0.11584556 0.11287001 0.15265846 -0.16356851 -0.09432781 -0.009541798 -0.09456446
62 0.15062177 0.15836968 0.056357227 -0.09357498 0.07280484 -0.0790041 0.059714604 -0.10752396 0.009299374 -0.035706412 0.06786134 0.1348907 -0.0009958342 -0.19587258 0.12723108 -0.08144161 0.072621666 0.015459512 0.077143535 -0.101714835 0.15913083 0.034874897 0.016960517 -0.2074336 0.020270197 0.070923746 0.117184155 -0.20278096 -0.20220776 0.36709315 -0.2893964 0.14207384 -0.22133583 -0.007311393 -0.21614926 -0.016129542 0.28310177 0.118824154 -0.09201751 -0.06387207 0.08993352 -0.17235512 0.16709316 0.17342173 -0.25805143 -0.04477561 -0.13245896 0.06902028 -0.0757261 0.13015844 0.3015222 0.10304493 0.05277133 -0.022498833 -0.05564698 0.11177 -0.20907106 -0.06325857 -0.007915503 -0.08441838 -0.098395064 0.105539694 -0.17032 0.10398453 -0.0441721 -0.12595409 -0.13052452 -0.008876165 0.023871005 -9.466835e-05 0.21175084 -0.12491253 -0.17363663 -0.10362761 -0.064556584 0.14014927 0.07044683 0.19498235 -0.21173774 0.12718228 -0.3869472 0.08244998 -0.10773292 0.094796196 -0.11046662 -0.14885585 -0.12913835 -0.015894584 -0.07958721 0.1953876 0.169157 -0.1701878 -0.2517576 0.20554447 0.1386328 0.22767872 0.17339553 -0.10212418 -0.22016768 -0.009847271 0.19174331 -0.049943764 -0.2593277 -0.11466092 -0.125845 -0.023111861 -0.0113012465 -0.29699895 0.09143491 -0.011783847 -0.09754637 0.017703645 -0.08034721 -0.04647155 -0.15045221 -0.2391536 -0.07640526 0.015185801 0.28849596 -0.4607154 0.11073537 -0.12163589 0.13303772 -0.005175866 -0.17396915 -0.133005 -0.1559345 -0.24463132
50 0.13836055 0.1279703 0.04237383 0.058819685 0.03169473 0.014692935 0.010347397 -0.14012772 0.010108778 0.06516969 0.15882683 0.16400829 -0.077438176 -0.116820924 0.13677469 -0.08655959 -0.034316506 -0.12449292 -0.027380757 -0.1459589 0.094117425 0.010521525 0.08935887 -0.23690233 0.070579566 0.13766341 0.062394444 -0.11353647 -0.02641703 0.2611134 -0.09797563 0.0450271 -0.14653064 0.00037410538 -0.01772767 0.12029422 0.1288204 0.095721945 0.0020204184 -0.061784375 0.056383304 -0.030585077 0.10950531 0.12011834 -0.18239444 -0.0286505 -0.06505235 -0.011520388 0.042388942 0.008608872 0.11951086 0.08789357 0.065841086 -0.17224397 -0.01265852 -0.099023744 -0.18200842 0.034808986 -0.11866566 -0.018102814 -0.10990449 -0.13597496 -0.14591257 0.0022778772 0.057113178 0.042647935 -0.045393668 0.033461228 -0.06358753 -0.057139765 0.14926633 -0.048852637 -0.11552153 -0.17085563 0.06027396 0.011605115 0.08768258 0.0762798 -0.10143656 0.021620391 -0.47451508 0.10445053 -0.09406905 0.033729002 -0.11262417 -0.0093584545 -0.10346338 0.031726085 -0.036066275 0.19972506 -0.012709812 -0.059935912 -0.21470852 0.09714059 0.13092293 0.10604424 0.10163061 -0.011767281 -0.20500444 0.01826973 0.078205004 -0.1516275 -0.15726516 -0.14988722 -0.066357896 -0.010311587 0.046844333 -0.06263443 0.117766716 -0.13804427 -0.06517889 0.049648378 0.014108096 -0.13303363 -0.053628754 -0.30198172 0.09623 0.030855875 0.09829458 -0.24634983 0.101167366 -0.12899247 0.054946844 0.06907218 -0.12839146 -0.13686939 -0.07298397 -0.14082281
21 0.00078151544 0.035230547 0.18902734 0.105749026 -0.1730014 0.058662612 -0.044697985 -0.01669145 0.09655482 0.060262784 0.23673046 -0.04043839 0.08775755 -0.28764307 -0.0380432 -0.053928807 -0.118052505 -0.029681558 -0.4611202 -0.31333536 0.2089126 -0.017433729 0.07390079 -0.31341296 -0.013067478 0.1374644 0.29894853 0.014630367 0.015086548 0.34334588 -0.091420874 0.10246703 -0.15699634 -0.13156065 -0.08300615 0.090536214 -0.20953451 -0.028729193 0.04626072 -0.027553845 0.123239934 -0.19731264 0.022722734 -0.12196622 0.17086862 0.07689391 -0.03615392 -0.35478082 0.14840867 -0.24838144 -0.21955326 0.06924596 -0.24738905 -0.080711134 0.0034729692 0.12871563 0.08332305 -0.07723734 -0.1520321 -0.09128126 -0.31649336 -0.016063195 -0.12478596 0.15478757 -0.14570192 -0.18031737 0.094028525 0.023880545 0.0026336014 0.32993484 -0.062691204 0.021374786 -0.17045093 -0.49850634 0.19381295 -0.10850019 0.17000805 0.096114255 -0.25026858 -0.13745207 -0.12714306 -0.2879895 -0.16447541 -0.08865758 0.24593928 -0.15563013 -0.15521154 -0.15861624 -0.16080712 0.08666521 -0.11377589 -0.0010383888 -0.44049537 0.13063614 0.16697899 -0.16106085 0.04544485 -0.06345779 -0.36167082 0.12773143 0.20544304 0.11648325 0.2767316 -0.1263371 -0.21770102 0.13314915 0.11142625 -0.17544577 0.038108956 -0.54634047 -0.10593697 0.10652135 -0.14377588 -0.2750501 -0.17372184 -0.4172181 0.0861155 0.039123327 0.06844712 -0.07457568 0.14224325 -0.15139337 0.035429146 0.16486211 -0.1616315 -0.36973196 0.05343793 -0.17475928
18 -0.007243449 0.025066013 0.17273353 0.11039597 -0.1516273 0.05288528 -0.04173104 -0.0054791584 0.11709578 0.03644441 0.22545049 -0.039736375 0.09098256 -0.26291808 -0.04313692 -0.0534602 -0.09614674 -0.024354123 -0.42878085 -0.29086733 0.19042014 0.000813575 0.04857579 -0.30819428 -0.003381282 0.12735306 0.26618227 0.008604096 0.040200856 0.30611476 -0.08293337 0.09185247 -0.1596931 -0.11774583 -0.055840783 0.07457548 -0.19732769 -0.038629055 0.052016016 -0.03878924 0.12806089 -0.18604761 0.02923645 -0.13099763 0.17324907 0.070232585 -0.009315729 -0.35664383 0.112782896 -0.26757297 -0.22486326 0.071273305 -0.26681632 -0.07909443 0.04788068 0.13561948 0.07665069 -0.05892236 -0.16122432 -0.098550715 -0.2872422 0.019965444 -0.11911791 0.148596 -0.14877483 -0.16867912 0.09992753 0.033363305 -0.0012649162 0.32973552 -0.069939345 0.0036810932 -0.15769704 -0.4739997 0.17223988 -0.11232341 0.180437 0.09369276 -0.24286394 -0.14247039 -0.12676556 -0.30140856 -0.14380284 -0.06900217 0.22643523 -0.124459155 -0.12655188 -0.13423553 -0.14550422 0.06753469 -0.099644445 -0.016961604 -0.43096235 0.12392179 0.16311634 -0.17309365 0.030079175 -0.06797331 -0.35064802 0.121762335 0.19926426 0.113118924 0.26592404 -0.10187243 -0.23153187 0.12433807 0.11706604 -0.17035761 0.048450302 -0.50157636 -0.09420953 0.0945559 -0.11089608 -0.2280022 -0.14985496 -0.3914962 0.081149966 0.037315693 0.05492809 -0.07188731 0.13890342 -0.1433638 0.0440384 0.15965573 -0.14684848 -0.34291607 0.04064063 -0.17390002
70 0.30868462 0.019994803 0.010360311 0.19922394 -0.11881496 0.04183826 -0.022907587 -0.17126414 -0.19791137 0.1548822 0.10274637 0.082147166 -0.0751664 -0.072234966 0.12651579 -0.18424816 -0.104807906 -0.22451967 -0.10637531 -0.00024161307 0.017558265 0.018788904 0.21862842 -0.19131029 0.069648065 0.102198996 0.03959235 -0.12848422 -0.106185235 0.25403935 -0.015973343 -0.041005425 -0.17886396 0.058207586 0.06189513 0.24146031 0.046683367 0.118645586 -0.12914419 -0.045714043 0.1400444 0.07422684 0.071326755 0.17626922 -0.113555424 -0.012254514 -0.09830813 -0.1085747 0.14444318 -0.14054288 -0.008636193 0.08235804 0.12193758 -0.18424945 -0.17695941 -0.031973332 -0.20007545 0.020203145 -0.07787355 0.06434999 -0.033509053 -0.2544863 -0.11945909 -0.11922228 0.058133423 0.012921342 0.019936029 0.037478384 -0.06875366 -0.14627558 0.04695332 0.113055244 -0.07312967 -0.27351192 0.060946338 0.052026935 -0.007208795 -0.04826137 -0.10331586 0.15098089 -0.32611027 0.03752227 -0.0030331544 -0.14396526 -0.031532925 -0.11385022 -0.09137354 0.098692976 -0.12480553 0.14595926 0.06640301 0.0014431876 -0.26861724 0.10868911 0.17422865 0.0863497 0.11193676 0.15626548 -0.19498853 0.0366466 0.016752198 -0.13352937 -0.12199836 -0.0043067047 -0.057146143 0.16697498 0.029429596 -0.13455735 0.04877722 -0.2237591 -0.14451984 0.059582327 0.0572565 -0.11515009 -0.057997603 -0.24070796 0.14262116 0.0070158727 0.15680268 -0.31916836 -0.026830504 -0.12818657 0.18065284 0.15591706 -0.27427822 -0.052116383 0.061032213 -0.041722827
20 -0.035248943 0.011326519 0.1749844 0.12805516 -0.18533693 0.056395806 -0.029983593 -0.012832509 0.1525525 0.037148993 0.24094215 -0.038740836 0.12383499 -0.2820426 -0.0769157 -0.050533656 -0.12944764 0.013116756 -0.47242138 -0.35585642 0.23058863 -0.047104467 0.0123262955 -0.35639495 -0.01254674 0.13276477 0.29536358 -0.0075588617 0.085666806 0.32443893 -0.07545351 0.120655455 -0.14598842 -0.16452657 -0.0432421 0.11843703 -0.19977002 -0.03742768 0.043062642 -0.018898055 0.12324163 -0.20450772 0.014306128 -0.14767198 0.22471863 0.058756318 -0.0059327283 -0.41200104 0.08848382 -0.30906537 -0.23328315 0.10159031 -0.30707726 -0.06925655 0.07605326 0.16516827 0.08964214 -0.061204847 -0.18639657 -0.11906668 -0.29969084 0.060722146 -0.090649344 0.20671834 -0.17928664 -0.19789359 0.13422583 0.022699064 -0.005444314 0.4022408 -0.05296725 -0.013015131 -0.13533011 -0.48972514 0.16220133 -0.11546185 0.20998178 0.13192753 -0.2865273 -0.20978902 -0.13170077 -0.34404922 -0.13024758 -0.043592263 0.27858147 -0.12314393 -0.14181061 -0.1689592 -0.16846372 0.039605185 -0.13773066 -0.009817262 -0.44809577 0.14185914 0.14874515 -0.18792234 0.0032439516 -0.124865785 -0.35206306 0.117074326 0.24457681 0.14329886 0.2961568 -0.11594691 -0.29735032 0.13828923 0.13537584 -0.20398648 0.031126501 -0.5127443 -0.0845716 0.09228298 -0.11087292 -0.2430562 -0.19701 -0.4335733 0.07547239 0.015991375 0.042364273 -0.07919121 0.17053626 -0.14320472 0.02244576 0.18978421 -0.14432956 -0.4112542 0.04074969 -0.19545178
23 0.02121262 0.019930359 0.17762321 0.12830652 -0.16570266 0.05878668 -0.050358847 -0.010412343 0.10306943 0.0385297 0.2291182 -0.03683733 0.07964271 -0.2723596 -0.016780334 -0.06706238 -0.09622662 -0.05003881 -0.43705833 -0.28123033 0.1869496 0.011709802 0.07286874 -0.30580607 0.0018826356 0.13187492 0.2529768 0.007198783 0.035646237 0.32327625 -0.08690059 0.07830548 -0.16954413 -0.116114125 -0.04517455 0.079602025 -0.21249297 -0.026678272 0.04599934 -0.044603437 0.13496275 -0.17944683 0.028320203 -0.1137461 0.16360056 0.08028504 -0.017695012 -0.35890698 0.13798189 -0.29041672 -0.23756449 0.065862074 -0.2697025 -0.094258085 0.028171308 0.13049456 0.067210786 -0.06289658 -0.17415518 -0.092545085 -0.29631832 -0.013140461 -0.13170803 0.13087595 -0.14357902 -0.17507164 0.10481051 0.038247243 -0.0055188695 0.31249166 -0.07086301 0.021137662 -0.16911437 -0.49542195 0.19060878 -0.10961533 0.16260687 0.07414182 -0.23695157 -0.120991655 -0.1411336 -0.30288664 -0.14566314 -0.08998245 0.2185284 -0.1338501 -0.11705127 -0.12891586 -0.14459166 0.078049056 -0.103885174 -0.027429914 -0.45017526 0.12122094 0.17137626 -0.16821139 0.02950003 -0.04655457 -0.36256024 0.13553952 0.18574496 0.115765296 0.27159443 -0.087255135 -0.23856905 0.12679534 0.11381364 -0.17145541 0.045862168 -0.51944375 -0.10425194 0.09587947 -0.10521657 -0.23679519 -0.14227761 -0.39295468 0.095583096 0.03428271 0.06450415 -0.07352567 0.12568209 -0.15389608 0.06133681 0.17334217 -0.16341776 -0.34100917 0.056572594 -0.1736031
22 0.010561046 0.0014761502 0.1496384 0.14746705 -0.17058894 0.05667796 -0.039273176 -0.023611316 0.10896155 0.054419424 0.22972807 -0.016807515 0.086300276 -0.2277578 -0.03839226 -0.06333067 -0.12572373 -0.038065314 -0.4269817 -0.29198426 0.17588195 -0.019561894 0.041234605 -0.31918946 0.007335872 0.13226762 0.24197361 -0.0145014115 0.08341537 0.2884637 -0.042090427 0.075344004 -0.13378792 -0.12734137 0.005618009 0.13289572 -0.19369526 -0.028207816 0.03944678 -0.026298104 0.12213246 -0.138978 0.021251772 -0.11255865 0.17917405 0.052976597 -0.0022852225 -0.37579286 0.11410791 -0.30432352 -0.2358121 0.08282176 -0.25470418 -0.10661333 0.06058937 0.10381335 0.053927094 -0.032861996 -0.18751627 -0.07943441 -0.2531621 -0.0098173525 -0.08813009 0.14385329 -0.12338474 -0.14290111 0.12530324 0.031286873 -0.026233679 0.3125667 -0.057824783 0.010192514 -0.12424722 -0.4563976 0.16788942 -0.1101491 0.17626853 0.08377828 -0.22844896 -0.17033122 -0.16202709 -0.28472325 -0.11433299 -0.05957363 0.22027966 -0.09314772 -0.10935011 -0.10499954 -0.13763289 0.05110119 -0.12664136 -0.0039429707 -0.40613145 0.10979336 0.15216239 -0.16919392 0.0007517979 -0.060766403 -0.3189981 0.11140532 0.18999481 0.09201255 0.24909884 -0.0922207 -0.25116834 0.12395026 0.13169591 -0.15060654 0.044917278 -0.4725432 -0.08192354 0.08528865 -0.06997657 -0.21786343 -0.14819181 -0.40144095 0.10520225 0.015927492 0.02060797 -0.07694548 0.13390146 -0.13582298 0.031857338 0.18921445 -0.14480469 -0.34327003 0.04448139 -0.15399384
69 0.3030361 -0.02518692 -0.021170242 0.24079004 -0.14462975 0.0576444 -0.017360257 -0.1749302 -0.18442962 0.15258011 0.09953881 0.081543714 -0.05946249 -0.029507114 0.0987124 -0.1913153 -0.13307346 -0.23108567 -0.10835863 0.007988993 0.009019985 -0.002052726 0.19403274 -0.2042614 0.07740014 0.0986529 0.009566103 -0.1328507 -0.04764659 0.20570275 0.03927594 -0.060354006 -0.16325578 0.045670163 0.13788562 0.28701934 0.031438056 0.10931856 -0.13312061 -0.028229265 0.14716893 0.11347637 0.052511968 0.1666717 -0.06664694 -0.032437064 -0.07218444 -0.14993791 0.121823445 -0.21080399 -0.04336985 0.08981174 0.10447463 -0.1978183 -0.13137145 -0.028881667 -0.19684827 0.046391748 -0.10496436 0.072955385 0.0074356054 -0.23775695 -0.08921513 -0.12950514 0.057466358 0.034321792 0.060486354 0.046950668 -0.086771056 -0.13625558 0.02882388 0.12380285 -0.023512451 -0.25266066 0.044175126 0.041920546 0.0047897436 -0.055591945 -0.10739412 0.11141294 -0.32077256 0.008232202 0.047138784 -0.12846932 -0.013570155 -0.07711322 -0.06138756 0.12803707 -0.121237814 0.102767736 0.048650257 0.0095553715 -0.25398874 0.09718546 0.15371004 0.061189912 0.06678288 0.14989178 -0.15739827 0.028302114 0.009970821 -0.13879313 -0.10659957 0.029287832 -0.09529475 0.18336862 0.051507223 -0.11980456 0.031045899 -0.18984912 -0.1310914 0.043995548 0.1052618 -0.0753981 -0.054387942 -0.22257867 0.15635711 -0.01647606 0.11292237 -0.29944137 -0.038255658 -0.11385046 0.17436916 0.18660025 -0.26543677 -0.042533495 0.067668945 -0.01770923
17 -0.025835082 0.035515543 0.1929418 0.08817293 -0.15351652 0.047718026 -0.046011347 0.0019048611 0.13190256 0.021095289 0.23148803 -0.040485453 0.10107514 -0.29694608 -0.04611672 -0.04451733 -0.08718853 0.0013571501 -0.44578576 -0.31629875 0.21621808 -0.0012769266 0.03782803 -0.31322077 -0.018891996 0.1262785 0.29301953 0.010578073 0.028484246 0.33249617 -0.109666675 0.11630727 -0.15692215 -0.14003061 -0.09464085 0.05576667 -0.20134504 -0.04238554 0.06338662 -0.033948768 0.11821285 -0.21578309 0.03110474 -0.13306549 0.17207628 0.07582846 -0.021409605 -0.3543419 0.11790972 -0.25132293 -0.20942003 0.074011065 -0.28173935 -0.0651878 0.041245684 0.14984067 0.08330794 -0.083925754 -0.15642065 -0.114066824 -0.3213022 0.043121465 -0.12701528 0.18204114 -0.16616856 -0.1997708 0.08949245 0.026336538 0.0075108195 0.36184177 -0.05672633 -0.0062828744 -0.17811228 -0.4865203 0.18276595 -0.103891894 0.18810762 0.1123269 -0.2603654 -0.1518518 -0.12375165 -0.3074852 -0.17127493 -0.060947105 0.2404152 -0.1493861 -0.14186299 -0.161855 -0.14591506 0.07867603 -0.11102929 -0.0304525 -0.4484293 0.13149564 0.16362014 -0.16784431 0.043268815 -0.09124021 -0.36801657 0.13160965 0.22074528 0.13711746 0.27839613 -0.118743345 -0.24394448 0.10724869 0.11544616 -0.19425617 0.047581475 -0.5192277 -0.09617313 0.093448415 -0.14619361 -0.2530863 -0.17328764 -0.4097329 0.06239111 0.03849687 0.07814846 -0.078101225 0.15682931 -0.15229285 0.036799442 0.1582845 -0.14306253 -0.3767188 0.034853127 -0.19455826
19 0.009415584 -0.005294552 0.16803601 0.18562724 -0.19966874 0.07581485 -0.049716216 -0.03610891 0.13116719 0.062920116 0.26644522 -0.020117424 0.09352462 -0.2542194 -0.055131365 -0.075600386 -0.1534605 -0.048984535 -0.49433276 -0.33053222 0.19491103 -0.023800248 0.048145197 -0.37496075 0.012817789 0.15460074 0.2620354 -0.008463467 0.111375816 0.31319743 -0.030215897 0.07627797 -0.15482414 -0.14358027 0.02495009 0.1611061 -0.22969857 -0.03588034 0.05133516 -0.027378773 0.13808191 -0.15454026 0.01394018 -0.13812761 0.22669463 0.057274852 0.0041900813 -0.44309413 0.1294019 -0.36996686 -0.2859446 0.09448704 -0.2956753 -0.12989978 0.08172689 0.110153034 0.06944354 -0.03286045 -0.22433873 -0.091111794 -0.28766888 -0.017765649 -0.09714166 0.1523535 -0.14749487 -0.15308844 0.15863973 0.040050063 -0.03897192 0.3608366 -0.0739985 0.015489589 -0.12854502 -0.525833 0.19618057 -0.13983576 0.20942247 0.08424182 -0.2575556 -0.20387161 -0.1773177 -0.3367003 -0.124117665 -0.06845889 0.25936455 -0.09779263 -0.11993434 -0.11737722 -0.15931824 0.045049425 -0.1576285 0.002256378 -0.46165997 0.112287715 0.16971889 -0.21541283 -0.006821914 -0.07207809 -0.35703072 0.13276555 0.20575908 0.10170888 0.29872403 -0.10263852 -0.2906496 0.15140128 0.15452962 -0.15467472 0.042471506 -0.54475886 -0.09439763 0.098833926 -0.07137799 -0.24785978 -0.16464563 -0.44574744 0.12437332 0.01869456 0.01578972 -0.06035593 0.15015078 -0.15258159 0.030136814 0.22415252 -0.15847175 -0.39186594 0.059234355 -0.17175108
52 0.14998032 0.106294416 0.034089383 0.08438806 0.017721228 0.023600457 0.011960331 -0.14292866 0.016338091 0.049390566 0.14393048 0.15922484 -0.061826445 -0.08343107 0.13754043 -0.102378376 -0.03641027 -0.120472394 -0.017037228 -0.1224874 0.07193065 0.0123149725 0.07400434 -0.22111267 0.07110194 0.12868913 0.03277616 -0.11776974 -0.006066488 0.2256214 -0.072806604 0.018162407 -0.14467366 0.0015510197 0.026472077 0.13612235 0.12287582 0.09332101 -0.003252886 -0.057601552 0.056946307 -0.002061319 0.094594106 0.11171208 -0.15660879 -0.03229002 -0.046745475 -0.028927173 0.032525416 -0.04167623 0.097247705 0.08242486 0.04436951 -0.17555098 0.01654894 -0.08082006 -0.17923468 0.045810383 -0.14042555 -0.020476742 -0.07294542 -0.12510438 -0.123003624 -0.014889958 0.056298893 0.04888044 -0.027793568 0.042578068 -0.0688687 -0.06068167 0.13451582 -0.048231572 -0.081668645 -0.15628316 0.042602893 0.005435137 0.08832412 0.06250549 -0.1059335 0.008928461 -0.45321903 0.07461497 -0.05794432 0.043408565 -0.106678836 0.015975388 -0.072494075 0.05537754 -0.031129414 0.1629493 -0.006897 -0.05853124 -0.20431672 0.080975704 0.123468965 0.09863548 0.07075751 -0.0076473397 -0.18242939 0.017015705 0.057654515 -0.1383655 -0.14184795 -0.11877656 -0.10318438 0.0012141204 0.063481 -0.064759806 0.11151913 -0.10755018 -0.06788848 0.04041901 0.04073397 -0.102032594 -0.05046443 -0.2690928 0.09580638 0.019044524 0.082693234 -0.23295589 0.086497806 -0.1239376 0.057067547 0.0849498 -0.12281905 -0.12323524 -0.056581933 -0.13292906
4 0.16182938 0.111920156 0.06154994 0.17524663 0.090612896 0.03257772 -0.086855374 -0.03530435 0.13601239 -0.10938123 0.19665079 0.1608737 -0.09527751 -0.10527217 0.28647634 -0.18691704 0.15562794 -0.243907 0.007325405 0.076437935 -0.03436341 0.31484523 0.12384609 -0.18985549 0.15454462 0.12209051 -0.20020062 -0.10592647 0.08752531 0.15991008 -0.11880359 -0.102966264 -0.26715225 0.13023664 0.12009741 -0.103329234 -0.027364215 0.04043013 0.10365357 -0.19978344 0.1418184 -0.009506114 0.09549426 -0.0110290125 -0.14445217 0.063385025 0.029789582 -0.073754705 0.04063606 -0.34767914 -0.12680204 -0.06559913 -0.26266596 -0.22985998 0.18818493 0.024882533 -0.19991976 0.08754093 -0.28507346 -0.10201195 -0.10849588 -0.08287224 -0.28058156 -0.16251282 0.030568244 0.056268077 0.002380698 0.16287562 -0.106250875 -0.08144813 -0.0094380155 -0.050989434 -0.16281249 -0.2636468 0.13563725 -0.040526167 0.13704257 -0.11635463 -0.020314636 0.10669803 -0.42961907 -0.14482339 -0.034152247 0.0097152125 -0.19813375 0.15925474 0.16378641 0.20156617 0.1452024 0.13732472 0.071825296 -0.33473572 -0.4273565 -0.008548609 0.21833144 -0.043944363 -0.01611282 0.08519115 -0.31594643 0.16050918 -0.08143748 -0.016652534 -0.0411861 0.06679237 -0.2365366 -0.086392164 0.121368915 0.00051900034 0.23335059 -0.12884113 -0.14535394 -0.021828251 0.13650124 0.047619794 0.23202425 -0.12831587 0.14144096 0.10282718 0.104620405 -0.13218641 0.024098793 -0.20003738 0.21162307 0.15844223 -0.039869517 0.013540411 -0.07019743 -0.18247487
3 0.14687744 0.120860286 0.066696145 0.19625163 0.12018814 0.03010247 -0.09901373 -0.015450027 0.20599723 -0.15879466 0.21659365 0.18374044 -0.08324861 -0.10988763 0.30752808 -0.20008273 0.19510444 -0.24234456 0.013976021 0.08378916 -0.039875664 0.3714979 0.09744399 -0.21323282 0.1857684 0.12951837 -0.24520127 -0.12095015 0.14781508 0.1497877 -0.12529506 -0.11744761 -0.2959452 0.1391864 0.15690127 -0.1456112 -0.031118866 0.03259106 0.13513385 -0.2263005 0.153769 -0.024464386 0.09817308 -0.051333737 -0.13737765 0.072822906 0.053188033 -0.093132325 0.010875188 -0.422925 -0.16303372 -0.07715935 -0.3547003 -0.2471904 0.2741245 0.049402665 -0.20861867 0.11323036 -0.33823636 -0.13626978 -0.10383876 -0.042646486 -0.29913443 -0.16005443 0.015067156 0.06159201 0.01559674 0.18803594 -0.12112302 -0.058618456 -0.021272646 -0.08617129 -0.1698213 -0.27136028 0.14632823 -0.05584763 0.180344 -0.12727503 -0.020505581 0.084815264 -0.4626498 -0.19703527 -0.021865074 0.049402803 -0.22346568 0.21196075 0.22310172 0.23832665 0.18972944 0.12332137 0.073839605 -0.40432405 -0.47491038 -0.033610303 0.23985456 -0.07883439 -0.061508823 0.06204131 -0.34131363 0.1805039 -0.09404121 0.004678184 -0.02709224 0.09491182 -0.29977298 -0.12225609 0.1474343 0.005444744 0.2715654 -0.09873914 -0.15145504 -0.041290127 0.17621864 0.08834305 0.2826685 -0.12692694 0.14619431 0.11433871 0.09768386 -0.12205693 0.033888623 -0.22293893 0.23027295 0.17986445 -0.0002334218 0.012649834 -0.0978224 -0.21652125
71 0.29508892 0.010055876 0.008206747 0.2021578 -0.1348395 0.04312182 -0.017091475 -0.16085775 -0.18800773 0.14244188 0.10029219 0.07892112 -0.06228864 -0.074386284 0.10872625 -0.1825619 -0.10628714 -0.21703553 -0.11974701 -0.007329192 0.02619495 0.0034937812 0.20745882 -0.19182882 0.06851806 0.100051366 0.043420237 -0.12984423 -0.09561478 0.25458652 -0.010744272 -0.034188606 -0.17551664 0.043497697 0.06397298 0.24585555 0.037835184 0.11317081 -0.13567893 -0.03502529 0.14686942 0.07444534 0.05896286 0.16444425 -0.08627637 -0.0133725805 -0.10036522 -0.122377135 0.1308735 -0.15234154 -0.01664338 0.08280782 0.10653353 -0.17662975 -0.16791551 -0.0065952823 -0.18086421 0.015073771 -0.08867499 0.055025462 -0.03521909 -0.23327714 -0.108120546 -0.10931941 0.042189155 -0.0016669608 0.029488942 0.03875001 -0.067588784 -0.12588426 0.03461209 0.119015336 -0.052993443 -0.27081817 0.04703142 0.05476855 -0.005537927 -0.04596487 -0.11919008 0.13657035 -0.31260595 0.015593705 0.008723564 -0.13690618 -0.008466097 -0.11270286 -0.08035806 0.0977304 -0.124736965 0.13007978 0.06374296 0.0013859437 -0.27778828 0.109852895 0.1643009 0.082290255 0.09941509 0.14203025 -0.17996499 0.035714243 0.028681718 -0.116645835 -0.10728903 0.003940705 -0.08048603 0.17232186 0.028419042 -0.14209782 0.037457123 -0.21979386 -0.14201933 0.05333604 0.052792195 -0.10954688 -0.06597494 -0.23457918 0.13345292 -0.004345343 0.14982697 -0.31365943 -0.029078603 -0.1185613 0.1760487 0.17090833 -0.2764066 -0.06428088 0.06430103 -0.04373578
42 0.22195585 0.017811697 0.015452339 0.17135435 -0.097346194 0.042720098 -0.006066025 -0.13951288 -0.101189286 0.10711442 0.11875648 0.08352738 -0.044966098 -0.075392395 0.09598921 -0.1522166 -0.09052756 -0.16970246 -0.11994849 -0.04272897 0.045984562 0.0091892 0.1467965 -0.21586747 0.06518922 0.0956013 0.050089315 -0.114558764 -0.04663291 0.2295641 -0.022909896 -0.015628023 -0.15990278 0.02702872 0.061206147 0.19729553 0.028720032 0.0849502 -0.08941101 -0.033936385 0.12559927 0.03351267 0.064400114 0.11787698 -0.0616711 -0.014447203 -0.06869971 -0.13087115 0.0972556 -0.16691197 -0.02003874 0.077851996 0.039150108 -0.15986583 -0.08137311 -0.0027989035 -0.15714195 0.023198912 -0.10618134 0.02398594 -0.052483033 -0.16709606 -0.10822975 -0.06592127 0.02133736 0.00055103976 0.04120496 0.040366 -0.070029795 -0.062039576 0.03895626 0.06001725 -0.06087737 -0.24883038 0.05543566 0.025924774 0.038140554 -0.011421055 -0.12021454 0.066435955 -0.31281802 -0.013038148 -0.00439496 -0.0804973 -0.011231405 -0.0696944 -0.060247973 0.077079915 -0.10352473 0.10964103 0.033446968 -0.02704439 -0.26871255 0.099993445 0.1469491 0.051658604 0.06512047 0.08613939 -0.18847749 0.041617457 0.044415813 -0.09808065 -0.07543074 -0.01503708 -0.109714866 0.12205503 0.055881985 -0.11947888 0.0591241 -0.20190623 -0.11093665 0.04167601 0.05153096 -0.0913778 -0.057800602 -0.23998863 0.119500645 0.0036903904 0.10819161 -0.26527336 0.008791612 -0.11430106 0.13691655 0.14952604 -0.21293515 -0.09112992 0.030982971 -0.067101106
61 0.1321901 0.14056116 0.040700883 -0.06994649 0.04890695 -0.0637016 0.06435219 -0.11246398 -0.009193493 0.0021743672 0.06752809 0.122328624 -0.0058291177 -0.17263864 0.09021401 -0.06713646 0.019503009 0.0034204996 0.040389266 -0.12764001 0.15641315 -0.010912569 0.017203089 -0.20941262 0.010949549 0.0748042 0.1342575 -0.17321904 -0.17092955 0.32429752 -0.22242312 0.13166602 -0.1790831 -0.01656141 -0.18026547 0.044016477 0.2516973 0.111737736 -0.08964402 -0.04293838 0.07129287 -0.13765138 0.14199017 0.15879081 -0.21382488 -0.05266016 -0.121750645 0.04244011 -0.057552423 0.12630995 0.26965547 0.113212824 0.088608384 -0.032533906 -0.06652517 0.067324355 -0.17647536 -0.05079238 -0.0048079668 -0.05538932 -0.08841799 0.06447951 -0.123540446 0.10444887 -0.025074176 -0.09450637 -0.09924384 -0.022617368 0.017796429 0.0049851714 0.19333278 -0.099750616 -0.140214 -0.09096268 -0.062078077 0.10748156 0.06278923 0.19127344 -0.20167288 0.086262256 -0.36167505 0.09272072 -0.08888308 0.07961327 -0.08011519 -0.13448015 -0.14400749 -0.023554126 -0.10003573 0.18107627 0.1209385 -0.1041246 -0.20645113 0.18616022 0.11391787 0.20638682 0.16091613 -0.092806056 -0.1911553 -0.027088134 0.18416435 -0.076044016 -0.23054864 -0.1213247 -0.09931754 0.0026137175 -0.00962361 -0.25612593 0.07414266 -0.033484876 -0.067339174 0.038053866 -0.07238937 -0.07759563 -0.16684303 -0.24871251 -0.051149 0.0021814855 0.2349994 -0.4113055 0.10474821 -0.10733804 0.092418596 0.0036595953 -0.16623192 -0.15371902 -0.13206723 -0.20281051
29 0.12073768 -0.015688406 0.029539108 0.20170821 -0.040610217 0.019398099 -0.0015003443 -0.13531178 0.09192762 0.015497471 0.22309099 0.163636 -0.017318476 -0.09181381 0.070259996 -0.111956514 -0.054581326 -0.14671019 -0.16716316 -0.16301896 0.058285482 0.022218956 0.038318552 -0.3580982 0.11893459 0.11718581 0.005122897 -0.14045867 0.16096751 0.17804006 0.03725686 0.01068937 -0.11966607 -0.05252213 0.2084113 0.17347439 0.02707986 0.05616573 0.003990814 -0.038397998 0.12469642 0.02400049 0.07079789 0.048803184 -0.02027741 -0.052049693 0.02401536 -0.2195519 0.008575588 -0.2894679 -0.059918415 0.097652026 -0.09714004 -0.22371793 0.1538308 -0.05622198 -0.16149656 0.12768854 -0.26541296 -0.04525661 -0.05755179 -0.06778726 -0.0774034 0.032738153 0.01972145 0.04971095 0.12717235 0.084860645 -0.11448302 0.06520107 0.062043164 -0.046254095 -0.027868923 -0.25101975 0.07123426 -0.069643065 0.19842076 0.05617275 -0.12965123 -0.11958123 -0.49570376 -0.054171603 0.019131903 0.0420183 -0.04864882 0.0869371 -0.02047601 0.123964936 -0.010204194 0.057284545 -0.08433853 -0.08539153 -0.3088366 0.04377731 0.13653892 -0.033538602 -0.03621597 -0.02410252 -0.18260738 0.051191043 0.10067967 -0.12145947 -0.018260898 -0.045789406 -0.23682496 -0.007112676 0.13904174 -0.04014473 0.1254504 -0.14554432 -0.02912264 0.023958841 0.17079903 -0.027545238 0.0046651564 -0.33420333 0.15923767 0.0007478077 -0.007222507 -0.21817882 0.08106449 -0.13117737 0.045518115 0.2352471 -0.10844044 -0.18548366 -0.066965416 -0.12550159
36 0.17159659 -0.08400043 -0.10576375 0.316297 -0.13367018 0.048791505 0.06273606 -0.22511178 0.09563409 0.057463795 0.122634634 0.20980138 0.04923723 0.05006188 -0.013019361 -0.19299383 -0.21183501 -0.06499023 -0.06268456 -0.15995003 0.097972035 -0.14611602 -0.10195511 -0.4235264 0.091541596 0.11857709 -0.06434204 -0.28156987 0.29372415 0.08439347 0.13781586 -0.005646077 -0.1104285 -0.07048804 0.3565858 0.45493862 0.20467578 0.11147737 -0.14499883 0.035720367 0.113703474 0.14382663 0.0297869 0.10253936 0.06921563 -0.18147703 0.042183008 -0.31127062 -0.16985732 -0.39104933 0.014642176 0.24153732 -0.06041512 -0.22238496 0.25209695 0.015378875 -0.23031698 0.19099754 -0.2978237 -0.041163553 0.17780477 0.035918403 0.06340084 0.07636371 0.0184575 0.07463623 0.21916804 0.050370507 -0.17429908 0.051512215 0.15628292 -0.061993927 0.17020193 -0.091811724 -0.11373928 0.013185566 0.18528101 0.12489164 -0.23464642 -0.20881586 -0.51711315 -0.08341606 0.20568004 0.17280884 0.032901958 0.15128177 0.023371097 0.15142198 -0.10347415 -0.062150918 -0.060229335 -0.01861519 -0.19086872 0.11546616 0.031550672 0.026325347 -0.13524085 -0.12241523 -0.034318723 -0.063766256 0.16559553 -0.12782696 -0.16918963 0.019811776 -0.43710598 0.13065174 0.1896498 -0.17216203 0.032259274 0.092548646 -0.02736128 -0.011741218 0.29348493 0.08407132 -0.14335471 -0.30047062 0.114361316 -0.13021879 -0.0430586 -0.3518741 0.10941936 -0.0768864 0.050392963 0.28846943 -0.12401396 -0.18709211 -0.06500181 -0.1257194
67 0.16324508 0.12668982 0.04053047 -0.022970881 0.028807087 -0.057397585 0.05471436 -0.117924124 -0.008200789 -0.0047617042 0.08229271 0.13081174 -0.0033019218 -0.16192788 0.11259871 -0.086578816 0.011189764 -0.015315574 0.025904907 -0.11988353 0.14812422 0.0031083329 0.030455215 -0.21962163 0.027102564 0.082354546 0.10062342 -0.18574052 -0.13872105 0.3222663 -0.20758912 0.10652628 -0.19015646 -0.019969761 -0.13348389 0.0610853 0.23613337 0.120034635 -0.097683616 -0.048054863 0.09095132 -0.118186116 0.13741155 0.16299288 -0.20103845 -0.0514702 -0.116791874 0.013340881 -0.054525793 0.06648703 0.2341507 0.11102143 0.062024634 -0.057290822 -0.055472102 0.078770176 -0.19332293 -0.038560905 -0.042394757 -0.059039917 -0.08231564 0.05114956 -0.12914114 0.092338085 -0.025766226 -0.0930268 -0.0769518 -0.0034103263 -0.0017856017 -0.003530614 0.19261591 -0.08852191 -0.12432375 -0.11833925 -0.06047145 0.10451758 0.068887755 0.16643462 -0.20696452 0.09063944 -0.38452032 0.06783266 -0.07303016 0.07172659 -0.072076 -0.1198385 -0.12498182 0.002644098 -0.08651274 0.1697836 0.11660313 -0.12279495 -0.23986833 0.17946543 0.12363235 0.18683964 0.1406959 -0.073657 -0.19350111 -0.015423364 0.17207265 -0.06323587 -0.21883813 -0.10506756 -0.14144288 0.008898339 0.00644423 -0.2561711 0.07005727 -0.03442643 -0.082761906 0.021037389 -0.044351317 -0.05510447 -0.14325929 -0.24949479 -0.034958314 -0.006095936 0.22396626 -0.40701258 0.091597006 -0.110137984 0.11459929 0.042225152 -0.1747229 -0.14193156 -0.12688334 -0.20642547
58 0.13000642 0.13254006 0.04992446 -0.06611557 0.06698681 -0.0575573 0.059416313 -0.08199371 -0.0024271766 -0.012977337 0.06535588 0.10633437 -0.0039933184 -0.16420352 0.115465835 -0.07209932 0.059857998 -0.022807645 0.045898557 -0.066278525 0.118851766 0.03693303 0.033574656 -0.18419427 0.0399071 0.05544053 0.09445092 -0.15854546 -0.1772416 0.30088705 -0.217269 0.10434043 -0.19151743 0.007629467 -0.1692325 -0.015711015 0.20985779 0.08609411 -0.06530132 -0.068885274 0.094151184 -0.1384213 0.14733572 0.12929085 -0.21462168 -0.032533225 -0.107414834 0.04209541 -0.037372213 0.08057014 0.21356834 0.081613414 0.04481409 -0.03444378 -0.04006605 0.07567428 -0.17374551 -0.045707088 -0.004603053 -0.054085482 -0.09239636 0.065760605 -0.14936939 0.049205314 -0.020145668 -0.07606957 -0.09470195 0.006536818 0.014820249 -0.00805402 0.15210965 -0.08581143 -0.15810628 -0.12280981 -0.0326523 0.09809958 0.05863611 0.14572927 -0.17801777 0.11716326 -0.339163 0.054145623 -0.09286281 0.05846794 -0.105804816 -0.121329166 -0.09511638 0.008626801 -0.079235 0.17925511 0.14502724 -0.15441757 -0.23616521 0.16604772 0.14689477 0.1764435 0.15162031 -0.06611899 -0.21603584 -0.0013063488 0.13921854 -0.058242377 -0.19841501 -0.08090803 -0.09651353 0.0007625376 -0.006202238 -0.24215758 0.09295858 -0.059254404 -0.08049064 0.0268868 -0.058221117 -0.04281768 -0.11042243 -0.21869008 -0.042562883 0.027219104 0.22903311 -0.3737878 0.08099542 -0.114640065 0.12571792 0.007376239 -0.15536115 -0.10765087 -0.11858333 -0.20049207
35 0.15270956 -0.0551277 -0.084313594 0.26961267 -0.100995265 0.043195747 0.06803946 -0.2005292 0.10785928 0.039270967 0.11911797 0.20347878 0.046187762 0.04125276 -0.0011263775 -0.17653815 -0.18471596 -0.055612765 -0.049191818 -0.15399311 0.100563616 -0.118838646 -0.10511009 -0.4039016 0.08756433 0.11327768 -0.059552677 -0.2682008 0.25629932 0.09270605 0.11066222 0.00428424 -0.11350699 -0.06623621 0.31630337 0.40109324 0.20770727 0.095314056 -0.12075086 0.025599943 0.099531904 0.11901694 0.03439624 0.09977325 0.039309215 -0.16381758 0.038976815 -0.27945775 -0.16813156 -0.35365587 0.027763387 0.22456816 -0.06438807 -0.20840642 0.24977744 0.02136073 -0.22170298 0.17614712 -0.27738333 -0.042487226 0.15637389 0.04913788 0.039310012 0.07808405 0.012624119 0.06499726 0.18859291 0.051694762 -0.157057 0.04855095 0.15905255 -0.0763362 0.13893151 -0.08078189 -0.106404826 0.0071132015 0.18179815 0.1301214 -0.21893534 -0.19031088 -0.4992396 -0.07447592 0.1736414 0.17147714 0.0049166577 0.14435644 0.019924106 0.14263493 -0.089939795 -0.040003553 -0.044600878 -0.03535972 -0.18170297 0.10939582 0.046065312 0.03099233 -0.11935381 -0.12042331 -0.041146267 -0.052460812 0.15448648 -0.12505586 -0.16379878 0.010805969 -0.40374175 0.105770476 0.17641458 -0.16483706 0.046574757 0.08861733 -0.021341266 -0.007725277 0.2618346 0.07842347 -0.13317865 -0.28949124 0.099796236 -0.114409514 -0.03128439 -0.33358967 0.116312765 -0.07496299 0.048320264 0.24633415 -0.10585571 -0.18143429 -0.07907918 -0.1333021
39 0.14665289 -0.06313083 -0.09275979 0.23827206 -0.120602205 0.0146510005 0.094421476 -0.21434516 0.10314635 0.045166384 0.10281534 0.20127219 0.075241245 0.013271916 -0.04483669 -0.1505985 -0.21539532 0.004780451 -0.048664078 -0.2050234 0.14402959 -0.20086797 -0.13606699 -0.418861 0.062721774 0.10763143 0.0025803668 -0.29343978 0.23572712 0.12262832 0.0921168 0.053653464 -0.09943158 -0.108082145 0.27367398 0.43407395 0.26259464 0.11766226 -0.1703704 0.06262439 0.09399464 0.08844794 0.04318956 0.125544 0.040503286 -0.19631898 0.0061029964 -0.27144006 -0.20505983 -0.282874 0.108811565 0.27083835 -0.018112333 -0.16148688 0.21998015 0.04575351 -0.22220899 0.14848982 -0.24341382 -0.046326898 0.15895446 0.10228319 0.08170625 0.15041979 -0.006175476 0.025444454 0.18885653 0.012306667 -0.14122932 0.087918036 0.19735838 -0.08254886 0.15677707 -0.051575843 -0.15110824 0.042083 0.18545195 0.19185202 -0.27171308 -0.21115026 -0.49057275 -0.041274287 0.17918637 0.19497512 0.04205313 0.09344729 -0.038016554 0.09441983 -0.13611022 -0.050558772 -0.046389654 0.001614787 -0.15444483 0.15055743 0.0117297 0.07547194 -0.09585337 -0.17666934 -0.015660813 -0.096425705 0.22547793 -0.12220528 -0.19790964 -0.031511296 -0.41337985 0.123155124 0.15916444 -0.23024513 0.007951262 0.1193487 -0.0060377168 -0.0052457917 0.23533861 0.07277835 -0.21538469 -0.31603268 0.04769305 -0.13907792 -0.0011994339 -0.39678955 0.13475257 -0.05812916 0.026483877 0.23609538 -0.13240604 -0.22321534 -0.100536585 -0.14685404
76 0.2862309 0.006303071 -0.0076140123 0.1950226 -0.13077854 0.029197084 -0.013734634 -0.1620706 -0.17263217 0.13203892 0.09495465 0.09317286 -0.06120571 -0.065332055 0.11396156 -0.17957339 -0.100132175 -0.19771999 -0.08649213 -0.0160178 0.03368571 -0.015162204 0.18409379 -0.18457112 0.06472495 0.09172775 0.03065787 -0.13895841 -0.08794281 0.2418921 -0.019762158 -0.021526102 -0.15888137 0.034480598 0.063129395 0.24374822 0.0711024 0.12404734 -0.13902484 -0.023903282 0.13529025 0.07493542 0.05431183 0.1747452 -0.09504677 -0.031822175 -0.105105035 -0.10473074 0.10628637 -0.1370302 0.014771302 0.094960846 0.10770512 -0.17404023 -0.15662293 -0.005603244 -0.19529602 0.019155486 -0.092354685 0.049080685 -0.030724088 -0.21406369 -0.103911005 -0.08400234 0.0391017 -0.009250082 0.028286003 0.03169095 -0.07392461 -0.12568958 0.059231117 0.098876804 -0.046550028 -0.23737729 0.025289781 0.061787806 -0.0045448695 -0.035083074 -0.1199072 0.12745507 -0.32334056 0.03219769 0.01904455 -0.10908096 -0.018325929 -0.10579228 -0.07949922 0.08936399 -0.11770598 0.12370863 0.057028014 -0.0017279006 -0.25748786 0.11478066 0.14566876 0.09511061 0.09034568 0.12229648 -0.16070035 0.016249798 0.03698357 -0.11179767 -0.12695427 -0.0062803016 -0.09152094 0.15222666 0.024964634 -0.15011781 0.025337579 -0.18432221 -0.13439971 0.04254301 0.05995398 -0.09783669 -0.07195947 -0.2272588 0.10970464 -0.0070837215 0.15085037 -0.31943727 -0.020701667 -0.1199535 0.1631138 0.16081607 -0.2604381 -0.06941371 0.050844043 -0.052214652
30 0.121399134 -0.06052456 -0.06505881 0.25898227 -0.11349906 0.033097528 0.05456234 -0.1899669 0.11887203 0.03759189 0.13100795 0.1859624 0.052296378 0.0055234483 -0.014580791 -0.15026136 -0.18582109 -0.037469674 -0.084566146 -0.18245798 0.11269652 -0.13442811 -0.103260994 -0.3986982 0.07510762 0.11669387 -0.024285756 -0.24195212 0.2597502 0.104014486 0.103467666 0.014092341 -0.09973362 -0.08182947 0.28794912 0.3792887 0.17560956 0.0900823 -0.11107317 0.031897392 0.10026635 0.09011105 0.03451358 0.07646608 0.06330549 -0.15708135 0.033268135 -0.28622806 -0.15773071 -0.33490008 0.0191162 0.22379069 -0.07302254 -0.18873999 0.23541513 0.02152687 -0.19280641 0.15645853 -0.27216333 -0.054757796 0.119371906 0.059196856 0.048410617 0.0998982 -0.0025575892 0.04620986 0.19527793 0.044217635 -0.14984514 0.0913484 0.14863124 -0.07026989 0.123559274 -0.10497286 -0.09105144 -0.0025606425 0.18721145 0.13879809 -0.22728042 -0.20779963 -0.4641446 -0.08664965 0.15762268 0.16085917 0.043405615 0.12294021 0.0020367175 0.10522435 -0.09861759 -0.04167663 -0.06903303 -0.019806111 -0.1968636 0.110136345 0.03322777 0.011404051 -0.10991535 -0.13392884 -0.061330695 -0.048214003 0.17587249 -0.10357855 -0.12688126 -0.01844294 -0.39585376 0.10715236 0.17070192 -0.16732664 0.032330085 0.04342712 -0.015690578 0.0023414118 0.23245606 0.058957387 -0.14439732 -0.29924226 0.0895567 -0.112185925 -0.02994467 -0.31160828 0.11690213 -0.08060692 0.032093965 0.2530638 -0.10449815 -0.21031672 -0.07537285 -0.13233338
37 0.13582969 -0.063060194 -0.067758925 0.2861931 -0.109877124 0.05105204 0.043947957 -0.18403456 0.12896495 0.035805073 0.14208509 0.19479702 0.054232754 0.013804427 -0.0027470847 -0.17612599 -0.1796976 -0.066078626 -0.10197265 -0.16961642 0.100464575 -0.10383811 -0.09287764 -0.4170848 0.088467255 0.12041079 -0.045071412 -0.24878433 0.27365762 0.10123802 0.1101165 -0.0032993346 -0.11853092 -0.068810314 0.318341 0.38045695 0.15246572 0.08081279 -0.09677822 0.011575407 0.11272862 0.10269287 0.029845653 0.064744055 0.07721628 -0.1464779 0.04410643 -0.31726652 -0.14555302 -0.39763197 -0.021256108 0.21247369 -0.11647582 -0.21246381 0.25959402 0.034070782 -0.19686468 0.16999434 -0.29857513 -0.05869735 0.11441942 0.047336638 0.028442252 0.084712446 -0.007183494 0.05202475 0.2096293 0.059409425 -0.16005524 0.09040655 0.12690525 -0.0666135 0.12550382 -0.13477556 -0.07397222 -0.015435744 0.20205091 0.11638114 -0.22761923 -0.20205696 -0.47706416 -0.118829325 0.15943204 0.15170851 0.03744994 0.13820018 0.025697058 0.12851335 -0.08571267 -0.045882467 -0.06923273 -0.043726243 -0.23208785 0.09811007 0.053561218 -0.011413893 -0.12616187 -0.11826266 -0.079330556 -0.033339772 0.15830229 -0.09230451 -0.10717802 0.008741573 -0.42335835 0.10846897 0.18733583 -0.16041198 0.05305134 0.022720113 -0.03310807 -0.00034340267 0.25402975 0.061179202 -0.117956474 -0.30395764 0.114584 -0.103407346 -0.034690488 -0.3024839 0.1183254 -0.09036291 0.050253853 0.2714435 -0.10227042 -0.20398507 -0.06612867 -0.13656615
38 0.14140013 -0.07177132 -0.08231828 0.2864411 -0.11309699 0.04531759 0.060358252 -0.20666198 0.10856838 0.047262613 0.12635131 0.20257667 0.05287339 0.032824975 -0.008675723 -0.17349678 -0.199575 -0.053393688 -0.07292965 -0.16872807 0.102919295 -0.13569397 -0.10169058 -0.408824 0.08624673 0.11668623 -0.045391638 -0.26296613 0.27411723 0.09261221 0.121881284 0.004287493 -0.10059981 -0.07592629 0.32858208 0.41329515 0.18867321 0.09592197 -0.12334083 0.027979292 0.10580941 0.11862822 0.031343203 0.08632988 0.06629564 -0.16708095 0.04196144 -0.298143 -0.15852115 -0.36289865 0.015964383 0.22953151 -0.07078418 -0.20502111 0.2463726 0.016171038 -0.20661706 0.17670761 -0.28150624 -0.041230977 0.14444193 0.03793119 0.050079115 0.083525 0.013904673 0.06554108 0.20578258 0.049650986 -0.15954423 0.06626493 0.14970744 -0.06755511 0.14654917 -0.100761086 -0.09756373 -0.0006737672 0.19049104 0.12416074 -0.22628546 -0.20548585 -0.48820475 -0.07918843 0.17251877 0.16470002 0.026911484 0.14272006 0.010221235 0.13351506 -0.091166 -0.049138386 -0.06586408 -0.019286 -0.19106162 0.105203934 0.039297864 0.014895077 -0.12175069 -0.12717687 -0.042522103 -0.050160572 0.16398585 -0.123651154 -0.14792246 -0.0034231232 -0.40854004 0.114136055 0.18111125 -0.15990223 0.03525062 0.067234315 -0.018284189 -0.00070022786 0.26743886 0.07052957 -0.13517249 -0.29997063 0.103506826 -0.117971115 -0.043372896 -0.3242672 0.113479875 -0.07786279 0.03635776 0.26827317 -0.106001705 -0.19531268 -0.07618482 -0.12788802
72 0.2666612 0.010302741 0.012378027 0.20074485 -0.096837655 0.047671966 -0.01704863 -0.14757787 -0.14306574 0.12277423 0.11487718 0.08793349 -0.05952626 -0.062096555 0.118028425 -0.17260249 -0.09030361 -0.2176838 -0.10790751 -0.008073765 0.015183495 0.022585133 0.18321623 -0.20277198 0.08086738 0.099364325 0.020280221 -0.12257324 -0.05221036 0.21660599 0.0036228239 -0.04524852 -0.17090379 0.048393123 0.09420754 0.21427628 0.02110754 0.09865221 -0.09793319 -0.048734017 0.14178473 0.06418474 0.06513053 0.14002524 -0.085990496 -0.017770682 -0.07211473 -0.12983139 0.113607876 -0.1784246 -0.030329002 0.07235478 0.066787 -0.19129968 -0.10265008 -0.029260848 -0.18108508 0.03578505 -0.11252723 0.0456733 -0.033306345 -0.21523397 -0.112803906 -0.11204438 0.049030382 0.02798396 0.03649029 0.048961904 -0.073825225 -0.10855509 0.02870746 0.0896804 -0.059043985 -0.26561046 0.062396444 0.027637424 0.024068033 -0.044794284 -0.10475529 0.10759475 -0.33176607 0.002676835 0.0045117093 -0.110986434 -0.03520878 -0.062870264 -0.05737069 0.11125998 -0.09996892 0.12611474 0.047905594 -0.024980146 -0.27262688 0.09442404 0.16702773 0.050489806 0.07918662 0.13045669 -0.19120716 0.042653397 0.020344883 -0.12808491 -0.09474214 0.0010262905 -0.08744186 0.14327756 0.044913426 -0.11088459 0.058067188 -0.20674078 -0.123198815 0.05226075 0.07970071 -0.08412989 -0.03012073 -0.23520748 0.1411564 0.00985651 0.11388115 -0.2781043 -0.02066442 -0.12368824 0.16259171 0.16497776 -0.23974858 -0.062000193 0.03859204 -0.048833244
32 0.06221357 0.02156933 0.07810823 0.10950025 -0.081912234 0.017504506 -0.007507792 -0.06384166 0.067968614 0.015155053 0.1487242 0.051690247 0.03834468 -0.16007382 0.02079664 -0.07080397 -0.05797187 -0.05384017 -0.1977453 -0.18262094 0.11247031 -0.0032626456 0.023374785 -0.26007146 0.028562363 0.0950858 0.11275578 -0.07555838 0.04534373 0.22225098 -0.06521693 0.050980132 -0.13360962 -0.06370433 0.020504825 0.110560164 -0.023728548 0.02033467 -0.0069709886 -0.032442726 0.09105796 -0.07162496 0.05024295 -0.009844322 0.040444914 -0.004657702 -0.019782642 -0.20962723 0.024651997 -0.18588243 -0.059025373 0.08797789 -0.123119906 -0.10556891 0.052865986 0.061568074 -0.05316702 0.008558765 -0.14329039 -0.06292368 -0.13374591 0.002876844 -0.08827534 0.07812792 -0.06502558 -0.069235094 0.06675013 0.02652047 -0.038944382 0.14149095 0.032368563 -0.010029442 -0.078780346 -0.27294964 0.07438444 -0.038657375 0.13464247 0.071512714 -0.16925418 -0.071630925 -0.24303344 -0.13589212 -0.05130134 -0.00057655247 0.07145554 -0.041334786 -0.07672502 -0.022005115 -0.07270902 0.06026653 -0.039950743 -0.052789394 -0.28760383 0.09838378 0.119120054 -0.0473361 0.022747258 -0.059622876 -0.21383923 0.061617028 0.13717622 0.0028881421 0.050671596 -0.06369452 -0.20428376 0.060688075 0.08687492 -0.14352122 0.050741743 -0.22841102 -0.066535756 0.048193693 0.0035068032 -0.10006105 -0.098409146 -0.2802463 0.059878938 -0.0028578504 0.07048957 -0.16407315 0.08876436 -0.11001834 0.056083657 0.14560029 -0.11796628 -0.21386303 -0.019498581 -0.14327806
77 0.17662884 0.14132322 0.035114225 -0.046565503 0.04940212 -0.054031067 0.05321397 -0.117258385 -0.027422288 -0.004802513 0.06993179 0.12982269 -0.018860148 -0.16947323 0.1264092 -0.09140179 0.03481319 -0.029019414 0.05659095 -0.08851512 0.13371553 0.022160012 0.04762662 -0.2043799 0.029733507 0.07479724 0.09526631 -0.19095077 -0.17752598 0.332745 -0.2271497 0.10647238 -0.1986939 0.0055129104 -0.16096918 0.039761014 0.25435296 0.12318773 -0.09596125 -0.05309009 0.08977474 -0.11522557 0.14443886 0.17669255 -0.23512456 -0.048550434 -0.13110673 0.054905854 -0.035418265 0.10032849 0.25727352 0.1018683 0.08427042 -0.05451066 -0.07968158 0.06975355 -0.20612869 -0.046199787 -0.020828335 -0.055183046 -0.079077125 0.036751535 -0.15289576 0.06759227 -0.012065571 -0.09122019 -0.10671907 -0.006627789 0.006841032 -0.040986046 0.19260916 -0.08023389 -0.14328542 -0.107083715 -0.055059835 0.12568344 0.05043376 0.15265338 -0.1864224 0.12574892 -0.3885918 0.09647778 -0.08544859 0.061678477 -0.10730088 -0.13222387 -0.11870073 0.0035270655 -0.07855846 0.18561143 0.13913828 -0.13426448 -0.2343815 0.18088529 0.12672207 0.21146837 0.16489555 -0.054791145 -0.2009316 -0.012935039 0.15984331 -0.07732294 -0.25106466 -0.104771316 -0.10119349 -0.00021833874 -0.011844374 -0.25329754 0.07962231 -0.029015796 -0.09159482 0.028839901 -0.05130035 -0.066255 -0.13746014 -0.23077294 -0.037416443 0.012241611 0.25617832 -0.4224973 0.09025069 -0.11489572 0.124192774 0.019957354 -0.18095575 -0.121853046 -0.12297217 -0.19890481
44 0.17765598 0.050868336 0.011785213 0.14287354 -0.024068806 0.016951714 -0.0006491599 -0.11873852 -0.0076796645 0.037888244 0.1279623 0.1287126 -0.03703567 -0.07602348 0.125325 -0.14390461 -0.039544843 -0.13957414 -0.060690854 -0.056398444 0.048351675 0.04701207 0.08523854 -0.22193976 0.07893207 0.10712872 -0.007852574 -0.14219256 0.022606501 0.19831455 -0.0483977 -0.0059781754 -0.16882476 0.023405438 0.08367694 0.14225006 0.077704474 0.08073694 -0.047732815 -0.06502135 0.11086846 0.014199052 0.07559964 0.0878249 -0.091239065 -0.023341678 -0.0374694 -0.10957242 0.024473507 -0.17001063 0.0068353917 0.0763428 -0.020708196 -0.16600697 0.031219399 -0.00079678826 -0.17426147 0.054035317 -0.16001001 -0.02367996 -0.03980893 -0.09207475 -0.12202999 -0.04041686 0.023931608 0.016752569 0.028103737 0.06144428 -0.07927501 -0.044030663 0.07381632 -0.0024496738 -0.063092366 -0.19246995 0.034624673 0.013632844 0.08575135 0.020367378 -0.11533997 0.03415562 -0.37915668 -0.017154358 -9.460293e-05 0.007305798 -0.0636477 0.013251291 -0.016268684 0.09907326 -0.037275936 0.11202806 0.031162398 -0.09485652 -0.27013588 0.087227434 0.14029859 0.045785706 0.039514445 0.021915657 -0.18505809 0.03703773 0.052399524 -0.08898835 -0.105819784 -0.02178072 -0.16622266 0.05114947 0.07506332 -0.10904958 0.09501158 -0.11536326 -0.09252407 0.02459292 0.08269498 -0.042673007 -0.016194908 -0.23109056 0.09816484 0.0071840174 0.09204088 -0.25407216 0.04756173 -0.13017508 0.11940141 0.14771222 -0.14673875 -0.088953964 -0.040944982 -0.12463102
74 0.22536649 0.18561484 0.06438149 -0.025162295 -0.04723403 -0.15302546 -0.035712622 -0.08801126 -0.05169964 -0.08451217 0.06371002 0.14539883 -0.037095245 -0.32886055 0.22091088 -0.105908714 0.14723729 -0.041253317 0.03197305 -0.075891554 0.15404731 0.05861658 0.13988 -0.093653895 0.013332521 0.04568858 0.09489865 -0.19561966 -0.2539154 0.45996466 -0.4227621 0.17639388 -0.19110572 -0.022274328 -0.33058828 -0.07225485 0.23034385 0.17987117 -0.15132368 -0.058495056 0.09646022 -0.1664428 0.124525145 0.19480255 -0.26337892 0.034664605 -0.23502459 0.12739673 0.020785049 0.16945335 0.30509576 0.04319273 -0.0017690472 -0.009677664 -0.2457177 0.19138186 -0.20799254 -0.15248813 -0.03602314 -0.1197755 -0.24078086 -0.0071959672 -0.2166426 0.15497266 -0.086841755 -0.25872877 -0.1503875 -0.045288794 0.021587588 -0.045834318 0.20829673 0.020801999 -0.20949082 -0.1952665 -0.035737474 0.20451047 0.0013605768 0.06455066 -0.20489113 0.26239234 -0.3686333 0.06759991 -0.102977365 -0.0130361095 -0.041168362 -0.24738283 -0.15192401 -0.08945315 -0.042641584 0.20449771 0.13222325 -0.26595286 -0.4076949 0.1858037 0.116058275 0.28002015 0.21838766 -0.021988666 -0.28513318 0.011022974 0.1638103 0.10251333 -0.21563086 -0.12926434 -0.18307714 -0.052728474 -0.06397155 -0.35475528 0.008996181 -0.081792146 -0.20371616 -0.023267778 -0.18949878 -0.12976836 -0.102288604 -0.19660498 -0.13132031 0.039387766 0.4384462 -0.51415837 0.024942096 -0.19906715 0.20807156 0.11843617 -0.24203712 -0.15175925 -0.10826701 -0.25248176
55 0.16982086 0.09940915 0.013112479 0.086202346 0.021962253 0.013317966 0.011829524 -0.13895372 0.0011387481 0.046973452 0.12767044 0.15914313 -0.06737628 -0.08236958 0.14439754 -0.11377267 -0.021451706 -0.13419898 0.005145491 -0.087072596 0.06603557 0.022177476 0.080164015 -0.2160369 0.083692715 0.121663816 0.008141024 -0.13626075 -0.011484947 0.22077869 -0.08011783 0.019416451 -0.15519625 0.022637308 0.03778104 0.12879972 0.1466129 0.10317245 -0.024598554 -0.059999786 0.068608925 -0.0012240119 0.096626624 0.12827374 -0.17266516 -0.036553264 -0.05962237 -0.021655772 0.01711776 -0.048817437 0.1040341 0.080663554 0.047876764 -0.1723652 0.015050476 -0.06454215 -0.20156567 0.04961344 -0.13404533 -0.020116627 -0.05561751 -0.11138498 -0.13084926 -0.020083262 0.05474915 0.042780764 -0.023695342 0.040823545 -0.07088145 -0.08552207 0.14044538 -0.04003836 -0.07905409 -0.13762642 0.02746551 0.023350148 0.075762376 0.056680787 -0.10121946 0.037007112 -0.45510465 0.07870614 -0.041151058 0.03534544 -0.12186111 0.011208858 -0.053989798 0.07566048 -0.023605531 0.16419743 0.017416745 -0.08580405 -0.21646158 0.08815172 0.12579727 0.10731313 0.07745133 -1.4037942e-05 -0.1751099 0.00798443 0.05700481 -0.13459374 -0.17084837 -0.09297591 -0.10586441 0.00090965535 0.052679807 -0.080178216 0.11085415 -0.072108954 -0.069565035 0.029655244 0.058838867 -0.07039471 -0.033209153 -0.2492689 0.08713135 0.017150791 0.09964953 -0.26350307 0.07229859 -0.12691095 0.08524895 0.09200057 -0.13323084 -0.0974185 -0.06860012 -0.12948404
75 0.23786034 0.18475191 0.0714485 -0.015756672 -0.06646465 -0.15693262 -0.0649897 -0.08896206 -0.0645887 -0.08124066 0.0875769 0.14898454 -0.048831012 -0.35738975 0.23057579 -0.109063394 0.1579508 -0.070453905 0.008638714 -0.08852857 0.16101286 0.07249367 0.17410004 -0.08005513 0.003704448 0.05860782 0.09693215 -0.17684697 -0.2546888 0.48355952 -0.44266048 0.18588175 -0.18231432 -0.03164018 -0.33269885 -0.076493874 0.21601976 0.19369571 -0.14403331 -0.05723983 0.08513017 -0.1592401 0.12048977 0.2004978 -0.25159827 0.044690296 -0.24872987 0.13386346 0.046980865 0.17202899 0.29587176 0.041726798 -0.0032594828 -0.034141712 -0.270273 0.18911724 -0.20800473 -0.16327693 -0.050285954 -0.12570316 -0.27280965 -0.052097425 -0.22609055 0.15804215 -0.09183428 -0.2701065 -0.14056672 -0.04725364 0.01746947 -0.0510678 0.20272315 0.045762055 -0.21820156 -0.23285235 -0.011180618 0.19341025 0.0024343657 0.035744336 -0.19691528 0.26335377 -0.38175613 0.059444282 -0.113157526 -0.037982654 -0.031642124 -0.25949207 -0.15529007 -0.105982885 -0.03055509 0.21628629 0.11012043 -0.27059925 -0.43596172 0.18481313 0.12232297 0.28574795 0.23444578 -0.0045746984 -0.31383213 0.022349989 0.14682922 0.120475166 -0.19946696 -0.15381974 -0.18583435 -0.056092627 -0.0720782 -0.34662104 0.002306977 -0.12480958 -0.21117477 -0.022133306 -0.20714866 -0.1666936 -0.0940119 -0.21375969 -0.13048619 0.046465967 0.45424756 -0.5009013 0.014120524 -0.21873482 0.2031412 0.14372048 -0.26487762 -0.16249017 -0.09304097 -0.24981052
43 0.1934025 0.027297126 0.00420011 0.18567498 -0.06820353 0.03625286 -0.012234044 -0.12798522 -0.01792258 0.049614392 0.13149284 0.12308211 -0.037919097 -0.06598909 0.11568026 -0.15668662 -0.0682988 -0.1595412 -0.08384279 -0.048536044 0.047091227 0.037699573 0.09655595 -0.23393154 0.08571503 0.11024691 -0.015064056 -0.1391842 0.03908482 0.19144832 -0.016231662 -0.022137215 -0.1634449 0.022691905 0.11751757 0.18582135 0.055268962 0.092278875 -0.06273587 -0.051580902 0.11680228 0.043753818 0.059616707 0.084874555 -0.062449187 -0.023820085 -0.035715654 -0.13995132 0.036268443 -0.21400622 -0.028765133 0.081647314 -0.033741254 -0.1857469 0.022722242 7.760641e-05 -0.1709161 0.05884328 -0.17840081 -0.008261253 -0.024165431 -0.12339973 -0.10795974 -0.049756244 0.024123816 0.022553086 0.058891095 0.054865062 -0.09126674 -0.04612991 0.054470405 0.025358226 -0.037880864 -0.20788752 0.036240377 0.010152136 0.074278474 -0.00456514 -0.11897554 0.022204101 -0.36842516 -0.03591496 0.02388879 -0.0102425935 -0.038646195 0.013818844 -0.0033580447 0.10374291 -0.05077233 0.087821 0.013845226 -0.077627495 -0.2741279 0.078061245 0.12816855 0.029253837 0.014045045 0.046157517 -0.17387477 0.03765342 0.038552534 -0.07932956 -0.081731886 -0.00047147158 -0.18043602 0.07674468 0.082782336 -0.1015017 0.07932584 -0.12694342 -0.09754683 0.025453253 0.10131643 -0.048776146 -0.021071592 -0.22036405 0.11554267 0.0017773455 0.0766997 -0.2407665 0.02677217 -0.12869069 0.12444678 0.16939332 -0.15825684 -0.09126513 -0.006490825 -0.10106694
45 0.106022745 -0.026123976 0.05049968 0.21543275 -0.08148168 0.03775389 -0.023471905 -0.10184342 0.092041135 0.018829044 0.21558116 0.113857396 -0.0024162284 -0.116137646 0.05589473 -0.1045554 -0.0628664 -0.14592753 -0.22633213 -0.16581105 0.059121 0.033162873 0.056236073 -0.3264099 0.099486895 0.11940932 0.031526387 -0.10043066 0.15702303 0.18313874 0.031913254 0.0025153772 -0.1228855 -0.051276475 0.18400997 0.1608844 -0.057523683 0.028167602 0.00784644 -0.037000924 0.132174 0.00039222313 0.054866474 -0.0023592953 0.037762515 -0.017354634 0.033372402 -0.2608658 0.04630855 -0.31844303 -0.12459826 0.07760648 -0.14498767 -0.21108013 0.13421315 -0.020349167 -0.10555229 0.08969138 -0.25083882 -0.054522123 -0.099294916 -0.076081134 -0.08198882 0.027184553 -0.016338486 0.020528013 0.12988311 0.07958074 -0.09135983 0.105002955 0.0029866318 -0.012430181 -0.053777076 -0.31351393 0.110357486 -0.09124412 0.18378894 0.023633556 -0.14049876 -0.10786413 -0.39401454 -0.12404477 0.0017151001 -0.0042285193 0.012177901 0.05804842 -0.021644777 0.08981241 -0.024423786 0.041587487 -0.09336739 -0.077010766 -0.34013796 0.037124433 0.14593436 -0.08691195 -0.030809369 -0.010630666 -0.21950379 0.07660152 0.0963649 -0.06886612 0.06181708 -0.02917892 -0.23868923 0.025277447 0.1421704 -0.04740792 0.10764956 -0.22163719 -0.05096333 0.027995149 0.13386866 -0.059224308 0.003173721 -0.32459918 0.15851903 0.0044982475 -0.009437153 -0.16129048 0.06929885 -0.13643266 0.060389776 0.23899603 -0.12299223 -0.18444179 -0.028380316 -0.1170149
47 0.30889004 0.18136916 0.011091692 -0.058867615 0.043282896 -0.10245765 0.054580107 -0.19782469 -0.11012368 0.00057734665 0.04955997 0.2127574 -0.05845605 -0.19603887 0.21483597 -0.14869541 0.06403267 -0.055646278 0.1754905 -0.06854266 0.1582764 -0.0051531103 0.09397877 -0.21511741 0.037817467 0.079574145 0.079509124 -0.2820472 -0.2693634 0.44313437 -0.3395638 0.15056476 -0.23988448 0.010420045 -0.23570338 0.09075953 0.42634177 0.21868262 -0.20266956 -0.055221777 0.106786184 -0.10611419 0.18512477 0.34372994 -0.38914925 -0.09246445 -0.2281613 0.15514502 -0.061499927 0.21305166 0.447348 0.13361056 0.21386737 -0.06730027 -0.20459177 0.07534839 -0.35142514 -0.06749099 0.0073166788 -0.04961969 -0.06958342 -0.009611896 -0.1999029 0.094332695 0.016818952 -0.116041176 -0.1739552 -0.0370712 -0.003678002 -0.1615261 0.3281419 -0.07704352 -0.17799412 -0.07909833 -0.101213835 0.23624726 0.022060134 0.1634529 -0.21929526 0.25629425 -0.56435215 0.23194179 -0.074758634 0.059145026 -0.1992762 -0.20758988 -0.20171165 0.01909976 -0.08420562 0.25696385 0.1968731 -0.18329445 -0.25674918 0.24547856 0.14478312 0.38408357 0.24267443 -0.043863133 -0.21409407 -0.05560223 0.1827566 -0.11677232 -0.4373378 -0.15704896 -0.1008603 -0.020850865 -0.059597343 -0.33343345 0.06626647 0.06663649 -0.13704088 0.006148897 -0.048693825 -0.06293488 -0.1510707 -0.26950642 -0.07990046 0.010077252 0.39821774 -0.64636105 0.082212046 -0.15727714 0.21010041 0.035533782 -0.2849208 -0.107162066 -0.1752249 -0.24417202
73 0.11846872 0.044954773 0.02718462 0.11587948 -0.022493787 0.017005421 0.0021710244 -0.10368783 0.041739635 0.026425842 0.13926592 0.11708229 -0.013686987 -0.09382128 0.086300634 -0.10504353 -0.048514575 -0.09663161 -0.08507475 -0.1076745 0.075737625 0.014032075 0.04360716 -0.23590304 0.06450318 0.107039385 0.03202404 -0.11348615 0.041927587 0.1902068 -0.043168835 0.022584518 -0.13984789 -0.012675602 0.061932698 0.12736143 0.05818714 0.0629974 -0.021262437 -0.049203586 0.08811509 -0.015765037 0.07209602 0.058841113 -0.05467852 -0.031784385 -0.024032518 -0.12509939 0.0070237033 -0.14974195 0.007388211 0.08251202 -0.049013972 -0.1425351 0.060329694 -0.0028464561 -0.13320726 0.043196615 -0.15153466 -0.036908213 -0.06334329 -0.054021046 -0.09687292 0.014862072 0.007952963 0.01127093 0.037851203 0.04819469 -0.07010791 0.020406025 0.07193483 -0.028055163 -0.059879728 -0.18715626 0.04268218 -0.0026598996 0.11144203 0.051259365 -0.12648053 -0.02369522 -0.359227 -0.03335353 -0.018206712 0.027141297 -0.035530735 0.009936018 -0.041010935 0.049731635 -0.046735473 0.095662 -0.0058486313 -0.07695162 -0.24423878 0.08495776 0.11604775 0.022101277 0.025342774 -0.021298325 -0.18356228 0.03404659 0.08039455 -0.070971735 -0.07129139 -0.05506901 -0.16939795 0.033151712 0.08280835 -0.09735562 0.08545286 -0.12961303 -0.06442116 0.031594694 0.063267365 -0.061402608 -0.049450368 -0.25057137 0.08626963 0.0019441745 0.067907706 -0.21412738 0.07921992 -0.11470969 0.07497499 0.13028777 -0.11631022 -0.13931572 -0.04811154 -0.13210407
34 0.12302292 0.0036844662 0.03151746 0.17559555 -0.0743685 0.039854247 -0.009523648 -0.10079107 0.0321089 0.04352854 0.1527097 0.09152399 -0.0053290823 -0.087769575 0.05592615 -0.12326525 -0.08211203 -0.11160304 -0.15737166 -0.11598056 0.072032735 0.0150620155 0.05646183 -0.26095268 0.060802415 0.10538441 0.03835631 -0.10683113 0.07706779 0.1740117 -0.00424765 0.0004331017 -0.13936411 -0.018765148 0.11399047 0.16703236 0.003335705 0.047406867 -0.023937978 -0.036217455 0.10455016 0.007810827 0.04373937 0.031467523 0.009332839 -0.02378418 -0.0012059826 -0.204316 0.031548705 -0.23605397 -0.07439457 0.08395064 -0.08782813 -0.16057602 0.06525193 0.015503801 -0.1106419 0.05731773 -0.17842308 -0.029208733 -0.057932585 -0.06714332 -0.088027984 0.0023454183 -0.010662306 0.00011111447 0.088095546 0.053652745 -0.07739078 0.05205868 0.032361597 0.0031206608 -0.04285647 -0.24562258 0.05979817 -0.03193425 0.11561415 0.030263944 -0.13775693 -0.049689997 -0.31047276 -0.09600302 -4.9561495e-05 -0.0074022966 0.015501014 0.011327068 -0.024615183 0.058340512 -0.06087195 0.062499646 -0.031580336 -0.051100664 -0.27307913 0.07516028 0.12535673 -0.028243631 -0.0048416886 -0.0005307958 -0.18265785 0.04819112 0.07889313 -0.051872343 -0.007727756 -0.020471815 -0.19791956 0.0811794 0.10247323 -0.09192112 0.076610595 -0.18166229 -0.06974157 0.035307325 0.08293984 -0.06541265 -0.0456855 -0.26008248 0.10732837 -0.0056907283 0.03942544 -0.18296786 0.062086534 -0.11474211 0.08110275 0.16693589 -0.13138953 -0.14705215 -0.012543604 -0.109717384
40 0.15067567 0.10916498 0.037781224 0.04434271 -0.0061022267 0.00051089405 0.015697386 -0.12107783 -0.0050956286 0.04478658 0.1122233 0.12577869 -0.03962598 -0.12101119 0.11774784 -0.09839651 -0.023918062 -0.07239151 -0.022748873 -0.13690865 0.10329172 -0.010423628 0.065713175 -0.20403723 0.052365106 0.10795643 0.075894415 -0.12448917 -0.07276611 0.2703159 -0.120527714 0.053092245 -0.14526483 -0.0138716865 -0.044305503 0.10712864 0.14444126 0.08759042 -0.036898214 -0.035953276 0.06258512 -0.047041327 0.10014896 0.12069969 -0.15876034 -0.028732963 -0.08283153 -0.022685114 0.021728218 0.0008453913 0.13209061 0.09016384 0.051661406 -0.12083344 -0.02220155 -0.016458372 -0.1594718 -0.0042500095 -0.086141646 -0.026710257 -0.10253599 -0.061281204 -0.11212343 0.03740067 0.017070835 -0.025210606 -0.04512591 0.013860581 -0.03276804 -0.029059866 0.14947349 -0.05074898 -0.09889861 -0.1560267 0.009513561 0.044570338 0.07333588 0.098107524 -0.15018502 0.03416837 -0.39986455 0.0686077 -0.06943014 0.042556442 -0.07226068 -0.059976995 -0.10597856 0.016162122 -0.06778071 0.16381302 0.034818012 -0.061036337 -0.22014455 0.11443876 0.124078654 0.13189921 0.10415199 -0.028291704 -0.18549381 0.0023836524 0.09900292 -0.10028908 -0.14015238 -0.12434093 -0.1046212 0.025975194 0.035931014 -0.1369387 0.08450154 -0.12256797 -0.07405094 0.037358567 -0.0065072337 -0.11062884 -0.10484566 -0.25907665 0.040027637 0.014721256 0.14746383 -0.282964 0.07705313 -0.12730817 0.06766587 0.07071288 -0.15627903 -0.14270166 -0.05698477 -0.1529668
13 0.0466882 0.0019389449 0.08744585 0.16481315 -0.12751521 0.05228965 -0.017888024 -0.06693225 0.09621099 0.03415564 0.18886083 0.039465234 0.05855234 -0.16128555 -0.010562692 -0.09284178 -0.10786461 -0.056210767 -0.2882007 -0.22222392 0.13123958 -0.019988248 0.021264795 -0.30843592 0.03155735 0.11783264 0.13384156 -0.066510074 0.10230549 0.22276086 -0.01963235 0.046143483 -0.13223419 -0.08613206 0.068504125 0.1571968 -0.08807508 0.008933686 0.005383856 -0.023839315 0.10826212 -0.074881665 0.026096854 -0.058326434 0.11347234 0.0036140936 0.001048745 -0.30528033 0.04266246 -0.29038954 -0.14650385 0.10060846 -0.19138423 -0.12448774 0.095696524 0.079125345 -0.02404791 0.017675836 -0.19097255 -0.071286336 -0.14592552 0.0018854429 -0.07247675 0.101441376 -0.08262073 -0.077416785 0.11725531 0.044017814 -0.053331703 0.20929697 -0.007993626 -0.004788774 -0.06430745 -0.3429028 0.10122872 -0.07040689 0.16677883 0.07496817 -0.20429397 -0.13438368 -0.2356525 -0.21378934 -0.043848913 -0.0049982597 0.13550074 -0.03128735 -0.06421552 -0.037376866 -0.107399754 0.03660736 -0.08353348 -0.029932741 -0.3381808 0.09656841 0.121764414 -0.102519296 -0.01583015 -0.06647517 -0.24790673 0.07611166 0.15465815 0.029817626 0.124323204 -0.05944134 -0.26226857 0.10082112 0.12816483 -0.14270096 0.04446606 -0.31150067 -0.071284905 0.05934762 0.010535241 -0.12378937 -0.110032625 -0.32677272 0.089157194 -0.010017416 0.029205658 -0.1308829 0.106101245 -0.12075907 0.049899586 0.18735367 -0.12784855 -0.2661306 0.00659865 -0.14343907
68 0.16858634 0.13132097 0.042562198 -0.016920067 0.05818465 -0.04749217 0.045338318 -0.09859 -0.0022541934 -0.02515883 0.08222583 0.14285158 -0.022865037 -0.16023532 0.15243874 -0.0963336 0.07074943 -0.061721176 0.065865606 -0.043999057 0.10491619 0.058108315 0.06227568 -0.1881284 0.068330385 0.06915559 0.046939667 -0.16756488 -0.14993608 0.2986681 -0.21781741 0.084627956 -0.19733413 0.032374047 -0.114566766 0.00049353903 0.20530921 0.10846794 -0.06318469 -0.07582327 0.09626662 -0.09824236 0.14224082 0.14551543 -0.23034172 -0.021290973 -0.11358425 0.050202437 -0.028250868 0.036627583 0.20842679 0.080103494 0.033875886 -0.07119187 -0.031116495 0.06628811 -0.19857478 -0.030580914 -0.044845838 -0.053232014 -0.089499034 0.013074356 -0.167644 0.029664472 -0.0030329553 -0.053792395 -0.08670669 0.012094752 -0.0024263654 -0.05773132 0.15350804 -0.06105781 -0.13716322 -0.124973096 -0.03562598 0.09996965 0.052103385 0.11229833 -0.14655444 0.13379619 -0.38495955 0.05375812 -0.06611361 0.052413855 -0.12344609 -0.07856007 -0.07138727 0.034232754 -0.048741166 0.18722823 0.13735576 -0.17758186 -0.25214922 0.14831688 0.14539807 0.17453037 0.14351803 -0.04297816 -0.21355687 0.010159838 0.10398524 -0.064895086 -0.21832384 -0.063490316 -0.11320743 -0.010947814 -0.0021800473 -0.21906821 0.094464205 -0.041556578 -0.09932271 0.023943303 -0.01833909 -0.025382357 -0.07836939 -0.2125057 -0.024778718 0.028234523 0.23300989 -0.3790537 0.06240186 -0.13256088 0.13777345 0.04457001 -0.15341118 -0.09637798 -0.11621771 -0.19269626
46 0.14216301 0.014943559 0.015984444 0.16782121 -0.006857175 0.005696253 -0.0034970434 -0.12610276 0.07381602 -0.012194889 0.17698078 0.17158437 -0.029081507 -0.07794118 0.11751605 -0.121715076 -0.0024930523 -0.14961374 -0.07518396 -0.09136313 0.03733005 0.06239983 0.041384127 -0.29722524 0.12013957 0.10413352 -0.04667001 -0.16019364 0.12036175 0.170257 -0.01296855 -0.0030825913 -0.14446288 -0.0023968776 0.17344868 0.12272081 0.066829175 0.06949676 -0.015197133 -0.05906145 0.12248921 0.027605116 0.08746814 0.07474548 -0.0818331 -0.042614445 0.012009863 -0.14782529 -0.0072869672 -0.24808516 -0.0063191894 0.072223365 -0.08739469 -0.20909709 0.13989532 -0.03507299 -0.19257362 0.10659732 -0.23339875 -0.05345532 -0.032234553 -0.060702946 -0.10223126 -0.007914564 0.027727311 0.05517262 0.078742795 0.07941388 -0.09707271 -0.00044820446 0.07227203 -0.050527684 -0.049085487 -0.20082863 0.04630099 -0.032888394 0.16145982 0.026397407 -0.104208134 -0.040984422 -0.47711036 -0.029760836 0.021170925 0.053322654 -0.093701586 0.08782798 0.007823561 0.14460991 0.013083706 0.06975542 -0.016511593 -0.14070225 -0.2841266 0.039769657 0.14382872 0.006912035 -0.013806757 -0.0015078841 -0.17319348 0.048450068 0.07047572 -0.11341814 -0.08124327 -0.017128428 -0.2149582 -0.025125211 0.111044176 -0.05853994 0.14044581 -0.06932203 -0.046751864 0.0009907859 0.16299823 0.014329532 0.03272943 -0.25981152 0.12385885 0.0045373496 0.036006704 -0.2451267 0.055632815 -0.12629485 0.090872526 0.19028527 -0.10304349 -0.10620112 -0.0835411 -0.13388234
31 0.028328495 0.0013866198 0.094233826 0.1466386 -0.108953215 0.03364144 -0.018164901 -0.054252166 0.0856438 0.02946125 0.16931924 0.03250864 0.048384823 -0.17549376 -0.0039910777 -0.068282835 -0.076873735 -0.051800832 -0.26871437 -0.21882348 0.116227604 -0.014232721 0.018566106 -0.2726025 0.017443039 0.1029653 0.13328937 -0.04374572 0.09367704 0.21013632 -0.035485957 0.045002438 -0.11205737 -0.08628174 0.045986995 0.12408124 -0.08553343 -0.004924708 0.022100864 -0.022816246 0.09394138 -0.073949695 0.02864171 -0.053119235 0.110554695 0.008467526 0.0062953564 -0.27995157 0.042340036 -0.2445052 -0.1264824 0.08488988 -0.180285 -0.10636168 0.0739181 0.07255361 -0.0063499766 0.0048012524 -0.17443995 -0.07030674 -0.15954436 0.001605982 -0.0702066 0.09512906 -0.08808207 -0.0841501 0.10440308 0.038979817 -0.04347832 0.2006948 -0.008121415 0.0056554973 -0.081360064 -0.3364771 0.108979374 -0.07064688 0.15442689 0.06315872 -0.18825176 -0.111549325 -0.2134964 -0.19984804 -0.05287567 -0.0106861545 0.121715784 -0.042463835 -0.07396059 -0.049734123 -0.08594751 0.0412628 -0.08838586 -0.032239206 -0.33067074 0.08549769 0.12027245 -0.10534352 0.00046797926 -0.065148085 -0.23793939 0.08016116 0.14013524 0.030594738 0.13501616 -0.064197734 -0.22589108 0.08237868 0.11348796 -0.13079906 0.043546237 -0.30380023 -0.061070897 0.061360363 0.00083628297 -0.12530383 -0.09629027 -0.30983543 0.080846496 0.0003714111 0.040083088 -0.11673093 0.10106849 -0.11956714 0.03517943 0.1814004 -0.11995535 -0.25239506 -5.5710843e-05 -0.1375968
53 0.12749565 0.102423266 0.06004493 0.047039714 -0.03283818 0.01556622 0.015988842 -0.11838151 -0.010534305 0.07029947 0.12628 0.109369144 -0.034236915 -0.146899 0.09118302 -0.08658022 -0.053606443 -0.06861245 -0.08035963 -0.17473899 0.12542228 -0.035891104 0.07194278 -0.22050583 0.04330129 0.122477405 0.12975457 -0.09646404 -0.06923098 0.28779516 -0.1057494 0.066904604 -0.13235201 -0.03271249 -0.06360233 0.12589037 0.10734737 0.07195756 -0.028828017 -0.029202977 0.059302274 -0.05971181 0.087843664 0.09375514 -0.1231919 -0.020466855 -0.08116888 -0.0573415 0.044615746 -0.0042364164 0.09731568 0.10080582 0.034862563 -0.12650055 -0.036416195 -0.020011399 -0.12058541 -0.020754889 -0.08661559 -0.024290292 -0.14098577 -0.0832282 -0.10162609 0.055965107 0.0016587456 -0.032664217 -0.037687704 0.012809815 -0.02456896 0.010520436 0.13125934 -0.043979555 -0.119034514 -0.20455484 0.039982002 0.013309565 0.07283065 0.098783255 -0.16495769 0.0041004783 -0.3756401 0.04626593 -0.08637988 0.025961163 -0.034628615 -0.086792 -0.13098635 -0.014490259 -0.09594242 0.16904572 0.0012306313 -0.0214903 -0.23517816 0.12077059 0.12817237 0.10369254 0.10937459 -0.038291965 -0.20736587 0.010239698 0.11574733 -0.08868492 -0.087074816 -0.1474012 -0.08520018 0.051648103 0.04420823 -0.1396757 0.07303838 -0.19910331 -0.06524701 0.06297867 -0.038946673 -0.15984125 -0.1340638 -0.29458916 0.048732135 0.008973853 0.12969555 -0.25957912 0.0902319 -0.13201848 0.04426219 0.073077865 -0.16442536 -0.18295413 -0.032141957 -0.14747837
9 0.1634406 0.08586521 0.03707702 0.2094394 0.073459536 0.0379552 -0.06846179 -0.053247914 0.15004107 -0.09842445 0.2011425 0.18343632 -0.08146424 -0.07593366 0.26386026 -0.19915172 0.12060136 -0.23660308 0.001480707 0.057140604 -0.03599316 0.28157288 0.09703487 -0.22396939 0.17134047 0.12403898 -0.21021684 -0.12871775 0.14378147 0.1413469 -0.075365156 -0.10715527 -0.2609076 0.11267826 0.18480098 -0.040697947 -0.009333734 0.04552609 0.088177055 -0.18017505 0.1403487 0.015022179 0.088351876 -0.014451353 -0.11547803 0.036601905 0.042923562 -0.106750466 0.007290584 -0.39657634 -0.13704021 -0.031648595 -0.26514336 -0.24667516 0.2266222 0.021857867 -0.20989245 0.11554134 -0.3119232 -0.0947882 -0.06329542 -0.07063325 -0.24791068 -0.14897831 0.032375418 0.07216429 0.04009083 0.1658164 -0.12831537 -0.06739455 0.00014956966 -0.06194498 -0.11732162 -0.24658766 0.11337544 -0.04813489 0.15772353 -0.105946004 -0.034038547 0.059226364 -0.4604679 -0.15128127 0.0057436824 0.040514443 -0.18417816 0.1900959 0.17212455 0.22706646 0.13721061 0.108264625 0.04612071 -0.31257048 -0.40908608 -0.019836605 0.20537168 -0.050841864 -0.056385845 0.061385706 -0.28548813 0.14525628 -0.073410235 -0.038929723 -0.045205794 0.07362595 -0.27234745 -0.07709426 0.13733631 0.0040661236 0.2284403 -0.08941927 -0.12600327 -0.031879265 0.18609251 0.069102466 0.2186678 -0.14706777 0.149359 0.0774551 0.06946503 -0.14532904 0.029881185 -0.19259188 0.19865404 0.1839515 -0.03298548 0.0030282226 -0.07466876 -0.17638656
57 0.12767234 0.08712114 0.030807259 0.05713839 -0.008485282 -0.006879264 0.026341926 -0.11904608 0.024688 0.021671787 0.11282113 0.1331607 -0.011157998 -0.117594615 0.084725454 -0.0911652 -0.033898525 -0.057219453 -0.031869415 -0.12925157 0.11796322 -0.010345488 0.026950743 -0.2419478 0.04586726 0.098011926 0.07193031 -0.14883976 -0.025378343 0.24433377 -0.11043555 0.06262247 -0.1471085 -0.025192741 -0.022146488 0.12178301 0.15458025 0.09523822 -0.04944478 -0.03682965 0.07789806 -0.04967013 0.09856481 0.10582811 -0.12090264 -0.046079095 -0.068137184 -0.05872018 -0.017158028 -0.037120115 0.121037886 0.10840658 0.015879648 -0.10982548 0.0111211445 0.009402597 -0.16346937 0.0151174795 -0.10151369 -0.04534631 -0.06397828 -0.016932506 -0.102450326 0.051549055 0.0019114476 -0.023486784 -0.012006185 0.016905798 -0.045283727 0.0084169395 0.13580878 -0.052536923 -0.0798295 -0.14344077 -0.006323172 0.045974057 0.089610614 0.10770555 -0.15404361 0.008610324 -0.3787662 0.030309036 -0.046108447 0.05393975 -0.04513935 -0.039439052 -0.08761946 0.01961077 -0.070595324 0.12717572 0.027164174 -0.07588707 -0.2172962 0.12355117 0.10395319 0.10081608 0.074268356 -0.05364754 -0.16865297 -0.0030087098 0.12455865 -0.0798859 -0.14777349 -0.09198754 -0.1476244 0.025598887 0.04992079 -0.15760216 0.074063286 -0.07729895 -0.067430735 0.025887959 0.011136377 -0.066277966 -0.10556087 -0.25664982 0.03153572 -0.004068203 0.12669869 -0.29399878 0.09049683 -0.107179224 0.07101988 0.08576974 -0.13410845 -0.15045106 -0.07712487 -0.15441222
51 0.14278053 0.037930682 0.018239334 0.12950449 -0.04742118 0.023983367 0.006834676 -0.12294648 0.020219518 0.04663502 0.13277915 0.12134548 -0.0103530735 -0.08782302 0.074257866 -0.11636887 -0.06811545 -0.09663213 -0.0912738 -0.1181547 0.0857745 -0.006444469 0.043110188 -0.2588209 0.059861824 0.104064174 0.043743163 -0.13343897 0.038527098 0.20927231 -0.0428807 0.028604405 -0.13950583 -0.02050574 0.06326392 0.17161901 0.08656863 0.07480619 -0.04698852 -0.034870416 0.093914166 -0.001936397 0.06995451 0.0802586 -0.05243216 -0.036398675 -0.031686805 -0.12918705 0.0013850126 -0.15241684 0.02459234 0.09961841 -0.02710089 -0.14762193 0.04224848 0.0040314985 -0.14676248 0.041697998 -0.15041025 -0.028080387 -0.05035979 -0.057044618 -0.08567984 0.018123291 0.0057566515 -0.0028350428 0.04699775 0.03557717 -0.06608179 0.012229112 0.09247953 -0.01718378 -0.04967662 -0.18619625 0.025158435 0.0064357272 0.10142457 0.064355314 -0.1442815 -0.020435367 -0.36327717 -0.02393857 -0.009462819 0.02660193 -0.016372519 -0.007723261 -0.053953692 0.049552493 -0.06904 0.08911311 -0.0046490273 -0.058372293 -0.24230723 0.0949396 0.110168196 0.04115303 0.03035505 -0.023680037 -0.17302836 0.01975504 0.095746085 -0.07308927 -0.08187355 -0.053776618 -0.1810318 0.054890748 0.07938543 -0.11836294 0.07195621 -0.117255636 -0.06644757 0.031464033 0.066362835 -0.06244606 -0.07014906 -0.25391072 0.08393251 -0.005676417 0.07623438 -0.24079062 0.075285345 -0.112194315 0.08261785 0.13877136 -0.13402215 -0.14394361 -0.044004835 -0.12546647
48 0.28502208 0.18945603 0.01311431 -0.07258664 0.06508445 -0.09871823 0.06919828 -0.18849912 -0.08068703 -0.010311549 0.055656582 0.20932566 -0.053719718 -0.18815394 0.20466806 -0.12738639 0.071856186 -0.04110348 0.17510574 -0.07239535 0.15698554 0.00040341925 0.077185184 -0.21931958 0.041750763 0.083040856 0.08291572 -0.28136435 -0.26530337 0.4241647 -0.3307516 0.14380684 -0.24204323 0.011819429 -0.23056088 0.071846835 0.41845033 0.2114675 -0.17470166 -0.058309935 0.09607204 -0.110677615 0.19169505 0.32280296 -0.39037055 -0.08157031 -0.21632634 0.15436576 -0.07278814 0.21425174 0.44038284 0.13580109 0.20255335 -0.059010576 -0.17328148 0.06969086 -0.33460593 -0.056896 0.0118296575 -0.05456988 -0.06807093 0.010264852 -0.20226415 0.09176735 0.021246063 -0.10044056 -0.18110038 -0.035401717 0.0012222638 -0.14774244 0.322256 -0.092613176 -0.17013964 -0.060849592 -0.10737602 0.22419457 0.028699389 0.18051866 -0.21858995 0.23587872 -0.55530804 0.22660908 -0.0831628 0.07940837 -0.20253308 -0.18744475 -0.18803024 0.01745317 -0.08064349 0.26195067 0.20015025 -0.19033916 -0.24636413 0.23954086 0.14926454 0.36398327 0.23349893 -0.05063191 -0.21468055 -0.048940163 0.17770374 -0.120024174 -0.4345633 -0.15301888 -0.102969795 -0.03249183 -0.051858764 -0.32808656 0.07788171 0.072810814 -0.13268839 0.0072925934 -0.05472283 -0.055942565 -0.15010959 -0.26604918 -0.08074586 0.013061042 0.38091692 -0.62530863 0.091469206 -0.14392348 0.19538413 0.024046857 -0.2591291 -0.10141387 -0.18079585 -0.2511373
5 0.15484601 0.060037367 0.024026928 0.22590414 0.04271188 0.04611913 -0.06109595 -0.062153593 0.13791299 -0.07937533 0.19119757 0.17240214 -0.06637412 -0.053506557 0.22067648 -0.1842935 0.08242293 -0.21915105 -0.024575861 0.034541506 -0.026422055 0.23419496 0.07596621 -0.23343354 0.15558822 0.12200071 -0.18982795 -0.12958683 0.15638804 0.12120159 -0.034172677 -0.09798188 -0.230606 0.09147113 0.20747411 0.00603512 -0.009656609 0.041442692 0.07093573 -0.1485214 0.13363285 0.03836046 0.073777705 -0.0061568148 -0.086271204 0.022649195 0.045529965 -0.1385438 0.001615033 -0.39147142 -0.13259453 -0.007692087 -0.23969848 -0.24092585 0.2274374 0.016307227 -0.19229904 0.12322814 -0.30142763 -0.080953956 -0.04334619 -0.06758782 -0.20177273 -0.12412235 0.03465921 0.07737068 0.062055267 0.15304998 -0.13023183 -0.054789618 0.0031943945 -0.04528159 -0.0787922 -0.23070203 0.096115455 -0.049271688 0.15486628 -0.090872474 -0.045873877 0.025975492 -0.43928704 -0.14744717 0.025024656 0.03858543 -0.14893927 0.17753986 0.16018684 0.21229275 0.10962013 0.08247557 0.025712153 -0.2703267 -0.3773741 -0.013709193 0.18030687 -0.06181991 -0.06535125 0.050668355 -0.24956007 0.117833324 -0.05334832 -0.0406666 -0.04186099 0.07483216 -0.26963392 -0.042420592 0.1379942 -0.00034830085 0.1934633 -0.0853758 -0.110251784 -0.02339582 0.19429329 0.05970849 0.18304943 -0.15165247 0.15492354 0.060494337 0.048390616 -0.1423189 0.028675944 -0.17704241 0.16916537 0.19752504 -0.038743697 -0.01616639 -0.06263569 -0.15678406
7 0.18041533 0.0956505 0.024257686 0.19127198 0.07992944 0.029370015 -0.05872153 -0.068401165 0.13368532 -0.09816667 0.18073462 0.1930416 -0.08434947 -0.07141578 0.26616436 -0.19173521 0.12524192 -0.22818147 0.03497717 0.062075917 -0.024386609 0.26835084 0.094117716 -0.22086376 0.16536094 0.12696387 -0.20579493 -0.15009658 0.11721399 0.15264048 -0.09700606 -0.09156066 -0.25654322 0.11347783 0.15985769 -0.03517681 0.041151423 0.06465505 0.06749434 -0.17617388 0.13273227 0.022824189 0.09627805 0.02107198 -0.1499932 0.02493848 0.021729056 -0.06852837 -0.0049529113 -0.34198365 -0.073281154 -0.02096654 -0.22687094 -0.23483565 0.20370144 0.017771617 -0.23277824 0.10668899 -0.28942183 -0.09442249 -0.05050283 -0.06423644 -0.24062632 -0.13475324 0.04036995 0.07310844 0.022804834 0.15380417 -0.124409094 -0.09348911 0.033142738 -0.061751094 -0.11406563 -0.20679373 0.09147641 -0.019807061 0.14657076 -0.08594727 -0.037879385 0.07995657 -0.4860463 -0.11267712 0.007521094 0.05475333 -0.20486388 0.17020714 0.16286463 0.2211376 0.1272857 0.119936146 0.06382424 -0.31695646 -0.39343214 0.0020621154 0.19308446 -0.006878142 -0.038348854 0.05749915 -0.2669799 0.11858528 -0.06548607 -0.047254503 -0.09380036 0.059516434 -0.26376674 -0.0786496 0.12588653 -0.01625938 0.21870731 -0.052731495 -0.12899281 -0.03424415 0.17434491 0.06947239 0.19593027 -0.13679847 0.1357666 0.072506905 0.09422777 -0.18616049 0.03219325 -0.18890359 0.20033336 0.17132741 -0.047785792 0.009041307 -0.08599876 -0.17805956
