1706 128
67 -0.07983147 -0.22758771 0.03053887 -0.115879945 0.19772826 0.2084424 0.0070781326 -0.22164363 0.022723403 -0.02797525 0.12615824 -0.08012214 0.04120346 -0.33900455 0.32447785 0.34990895 0.39905226 0.19436802 -0.060712878 -0.1655116 0.05258921 -0.022372633 0.013593482 -0.13456821 0.073383294 -0.18278226 0.23090816 -0.1825902 0.1530932 0.17818938 -0.43587852 0.046017997 0.20818628 -0.35533604 -0.27477095 -0.4098375 -0.095372014 0.41045886 0.21684308 -0.03568884 0.0840668 -0.24593788 -0.08793139 0.08299184 -0.096567206 -0.30998614 0.23258197 -0.14652468 0.30859768 0.32645807 -0.18372104 -0.014134082 -0.1316485 -0.030298848 0.029470326 -0.11879919 0.36694968 0.023355525 0.0118407095 -0.05679469 -0.33618206 0.03738606 0.37341234 0.44016698 0.07888302 0.3518587 -0.3452913 -0.022894802 -0.27847034 -0.48095283 -0.2263872 0.337771 -0.30338347 -0.096726745 -0.32217562 0.038234364 0.15582497 0.21761629 0.07946311 -0.067022085 -0.09290479 0.24360995 -0.05197323 0.28576007 0.02963798 -0.0055217333 0.72834617 0.13913469 -0.12042412 -0.25135386 -0.13400324 -0.15548025 -0.1345666 0.21583779 -0.09390886 -0.018935682 -0.14812875 0.21450001 -0.30331483 -0.056185495 0.074717976 -0.0939623 0.2551254 0.15169802 -0.023123022 0.24227044 -0.3293729 -0.19244935 -0.11287152 -0.24584505 -0.3637853 -0.106088795 0.20654213 -0.107837275 -0.07899931 0.47385028 -0.0056905765 0.10612649 0.036575988 0.28238004 -0.26030228 -0.5794916 0.20460472 0.22873473 -0.10233906 -0.2616411 0.31296033 -0.46033144
31 -0.21819977 -0.26478958 0.19389474 0.086391054 0.043824732 0.30854395 -0.17815344 0.31859252 -0.2711262 0.034444403 -0.17306267 -0.12976591 0.088955276 -0.05196493 -0.18834524 0.35162514 0.18066184 0.35129765 -0.070546195 -0.06519188 -0.019723376 0.4362155 0.102010995 0.07633496 -0.28956094 -0.026234139 -0.31903556 0.09622089 -0.02733477 -0.15205891 -0.100868344 0.17546123 0.22329165 -0.08398447 -0.15556653 -0.068111606 0.12796222 0.27777106 -0.009565724 0.12365719 0.2479657 0.09512652 0.10874263 0.020393688 0.37102386 -0.24110919 0.45079932 -0.07084584 0.2016632 0.33032393 -0.19499284 0.20785548 -0.10871286 0.3965103 -0.2721157 -0.22734353 0.3282587 -0.14419852 0.32046786 0.0028930348 -0.43216825 0.38967893 0.242752 0.20767394 0.24998605 0.1341317 -0.53803515 -0.040695425 -0.3070353 -0.31443176 -0.004480754 0.08096832 -0.22872151 -0.27102214 -0.2149468 0.21638788 -0.36684307 -0.085194394 0.025553035 -0.18295854 0.113768086 -0.18218876 0.1499848 -0.074839704 -0.30245706 0.17262638 0.16260312 -0.14451128 -0.30576092 0.3773191 0.13251273 0.1274351 -0.43153465 0.05598057 -0.064873375 0.038747095 -0.46720672 0.25420624 0.009071319 0.014242654 0.0670323 -0.5428393 -0.15284011 0.33491704 0.33769765 0.34421158 -0.3045306 0.08208174 -0.20510253 0.08443588 0.20960808 -0.11726228 0.11790036 -0.51441616 -0.35408673 0.26902792 -0.19526324 0.22010753 -0.3262393 0.3040336 -0.19663812 -0.13996314 0.45659807 0.11237112 -0.13177592 -0.07004286 0.07392103 -0.5548791
13 -0.0100644985 -0.22972661 0.0026672161 0.012772946 0.07183594 0.2694792 -0.14583638 0.2307951 -0.006809516 -0.049787078 -0.03372794 -0.032711152 -0.30554008 -0.4726433 -0.021431806 -0.3097616 0.26142374 0.09012347 0.17820425 0.06128382 0.57085145 -0.054029193 -0.08569057 -0.2632397 -0.06276434 0.12134704 -0.2217092 -0.16177185 0.07544899 -0.004291889 -0.33540863 0.031918343 0.33622783 0.2057943 -0.1612802 -0.13372716 -0.40113243 -0.01230115 -0.30666208 -0.23671138 -0.118090056 0.15337077 -0.15750962 -0.16863927 0.28357244 0.1473394 0.12439329 0.1434624 0.34505466 -0.032334127 0.25564188 -0.11128501 0.16111584 0.60122406 -0.39736617 -0.21295883 0.019510694 -0.1389973 0.121380135 -0.046438396 -0.5699279 -0.0641844 0.62697524 0.0005161402 0.0061241305 -0.15376642 0.14503038 -0.2855052 -0.2620436 -0.519893 -0.17234196 0.46353504 -0.10962915 -0.010258671 -0.36098656 -0.050566323 -0.2982672 -0.13990884 -0.09004173 0.06874281 -0.41910753 0.20001015 0.200791 0.17169476 -0.5279875 -0.25069553 -0.042485677 -0.2807051 -0.2158217 0.057834577 0.17295547 0.07140779 0.2668267 -0.030167693 0.275011 0.18213226 0.23853216 -0.49735993 -0.0543374 -0.44766 -0.13665703 -0.14034142 0.22197732 -0.09704014 0.22829123 0.19692898 0.113495104 0.18902819 0.041399643 -0.0044202274 -0.17164221 0.3961218 -0.12429409 -0.37376547 -0.101833165 0.5173409 -0.15380311 0.075611115 0.05018271 0.12229591 -0.004518382 -0.33517113 0.45377424 0.0141485445 -0.26128352 -0.21720722 0.15899223 -0.4547731
196 0.036426347 -0.07902517 0.1790916 -0.20158862 0.046468306 0.4328338 -0.16684425 0.13693053 -0.22329989 0.064601086 -0.25536647 -0.016254447 0.07587315 -0.40030003 0.081780136 0.16105163 0.27036932 0.34289262 0.35532227 0.1871822 -0.109291844 0.19261955 -0.24250025 0.08115689 -0.0078058657 0.10208211 -0.00929458 -0.13796015 -0.0014080178 0.08856542 -0.3342028 -0.3683917 -0.015045489 0.34835413 -0.102512695 -0.23806395 0.019671602 0.4097015 0.12279487 0.06962444 -0.1120315 -0.38330033 0.41425148 0.39438838 0.05444215 -0.012592507 0.50651765 -0.07307898 -0.16525868 0.40423688 0.24862497 0.16718428 -0.26610726 0.076106004 0.007956389 -0.11934771 0.25023353 0.015312929 -0.14650969 -0.19373651 -0.3416994 -0.21572456 0.2567113 -0.063492484 -0.0955463 -0.21297422 -0.22050628 -0.42655507 -0.5992749 -0.13360639 -0.39297065 0.06500395 0.22389531 -0.04171523 -0.22260052 0.09370697 0.087969266 -0.10577864 0.108455114 -0.3738978 0.20935841 -0.06897549 -0.17473929 0.21005465 0.0052304077 0.13058253 0.34596118 -0.12913226 -0.24855801 -0.07748668 -0.06381024 0.21198641 0.3777467 0.26653075 0.2530802 -0.095720015 -0.17287613 -0.16870609 -0.20778728 0.11177038 0.30892769 -0.19841322 -0.094959214 0.1805971 0.25945282 0.08763824 -0.09308968 0.18298867 0.025419062 0.089806 -0.0498676 0.0762818 -0.3092076 -0.111777924 -0.18843342 -0.16276173 -0.08768758 -0.008881797 -0.54258674 0.29198092 0.05058945 -0.20905454 0.32235083 0.36830062 -0.35490024 -0.13337919 -0.15751521 -0.5150116
54 -0.33090168 -0.4617641 0.23188362 -0.06766742 0.22620441 0.04078833 0.046211798 0.24267851 -0.15612234 0.32784414 -0.052265804 0.22666626 0.010559156 -0.08771365 -0.14508909 -0.05560748 0.067799374 0.22497849 -0.46932086 -0.13485447 -0.403898 0.28760043 0.27850723 -0.2512124 0.2642645 0.14039065 -0.20105964 -0.41349626 -0.0058368165 -0.0038119256 -0.50824076 0.023796285 0.4298539 -0.004719637 -0.40658367 -0.5581676 -0.13191399 0.3588317 0.43053216 -0.078872554 -0.28764328 -0.156216 -0.09293128 -0.23893055 0.11099684 -0.40380117 0.3414787 0.1921516 0.38018006 -0.1422893 0.008379835 -0.011928253 -0.4291136 0.42813432 -0.12834516 -0.37603363 0.53642064 -0.08614211 -0.06043024 -0.020315964 -0.18379687 -0.12582253 -0.27104342 -0.046827894 -3.8028116e-05 0.28944206 -0.2671321 -0.09888887 -0.20750874 -0.14831144 -0.27927813 -0.13023967 0.21841937 -0.23049809 -0.46212775 -0.040787973 -0.119469084 0.29555187 -0.18250956 -0.22025326 -0.17108865 0.215803 -0.10029843 0.14804634 0.14746946 -0.008509405 0.40121216 -0.007870991 0.16861819 0.099200964 0.13236515 0.3161877 0.048903476 0.16569509 0.19080512 -0.10745335 -0.17368829 -0.05088669 -0.19074084 0.19764543 -0.009827335 -0.14543776 0.14988022 0.21610412 0.3668173 -0.23541984 0.11216712 -0.21306606 -0.14680903 0.019776406 -0.088835835 0.30558705 -0.29137084 -0.07916061 -0.0695714 0.3118518 0.06382477 0.3828826 0.1664408 0.4899664 -0.25065205 -0.31715733 0.23173447 0.2702804 -0.14393231 0.024324846 -0.01011041 -0.39528328
63 0.058014408 0.2960176 0.0049470426 -0.573335 0.22580376 -0.5214043 -0.24841304 -0.023324145 0.3100309 0.05342457 -0.039266463 -0.009958983 -0.108762994 0.040566348 0.15768573 -0.21532652 0.27527434 -0.094052166 -0.087102845 0.12814583 0.40060142 0.03315538 -0.004153436 -0.20543244 -0.13944322 0.05295466 -0.1699292 -0.36861017 0.23029089 0.1434038 -0.5537986 -0.39028507 0.10807928 -0.19474903 -0.31445432 0.037890103 -0.27339792 0.1665884 0.3120343 -0.101229146 -0.24309453 -0.093620025 -0.089766935 0.014029731 -0.15812086 -0.63873607 0.20552707 0.21078418 0.004910369 -0.067925915 0.024182256 0.48521534 -0.011685582 0.1498452 0.15734263 -0.33260703 0.05362674 -0.22651897 0.07697221 -0.10463105 0.19115396 -0.028817443 0.28784686 0.5311924 -0.3118336 -0.28766733 0.17707537 -0.3452388 -0.28365028 0.1766388 -0.23701258 0.10959581 -0.00058797817 0.032263502 -0.049927615 -0.056647316 0.048079364 -0.06783802 0.108956754 0.07801871 -0.10321132 0.27170667 0.3384792 0.039028473 -0.21066418 0.024341369 0.33238092 -0.22124507 0.017643308 0.4785757 -0.41605565 -0.06419191 -0.013537798 0.03783864 -0.027948694 0.31490427 -0.4177981 -0.1870402 0.05533712 0.005309049 0.2628638 -0.42987737 -0.26408616 0.07191906 0.5672366 0.49707884 -0.05941728 0.25230044 -0.07358895 -0.19514647 -0.26838505 0.07450654 0.06236351 0.06512033 -0.028646735 0.36720085 -0.14794509 -0.12649375 0.12768283 0.08882622 -0.20387772 -0.49035972 0.3099217 0.22663839 -0.025368406 -0.17705299 -0.16336237 -0.4043773
142 -0.08764833 -0.0071749245 -0.15710439 0.16545637 0.17235611 -0.19233371 0.017904166 0.2993789 0.12458152 0.025461199 -0.20773299 0.26742765 -0.2576202 -0.3641989 0.164743 -0.3465775 0.5777005 0.6499877 -0.08662962 0.14703698 0.09426007 0.18139401 -0.023232516 0.23152032 0.10748527 0.47155064 -0.037741043 0.14844964 -0.06102097 0.10211023 0.032219198 -0.18840592 0.014651841 -0.071374044 -0.50137866 -0.25438604 0.10586425 0.38930795 0.44023034 -0.062362194 0.008251316 -0.20021744 -0.21020691 0.071838446 0.027364634 0.045881987 0.2812449 0.39830878 0.15284976 0.12990567 -0.094566196 0.34809586 -0.5023987 0.35404626 0.14003198 -0.0852469 0.5500693 0.03091168 0.46269917 -0.334234 -0.17282215 0.29216346 0.08956346 0.0737992 -0.48642746 0.47706327 -0.097954966 -0.25155357 -0.36690295 -0.13919769 -0.27217168 0.36112607 -0.08392058 -0.060388293 -0.05547524 0.3016397 0.20421188 0.17013767 0.31620258 -0.31955123 0.055507455 -0.044424027 -0.07344459 -0.18545009 -0.33688557 -0.40448722 0.22613698 -0.13224474 -0.06310695 0.07828988 0.2972638 -0.10656549 0.08408141 0.22452264 0.111520946 -0.2842036 0.22362697 -0.09597352 -0.08732387 0.17578216 0.117572464 -0.21657223 0.11993963 0.085748464 -0.12619963 0.30621195 -0.3832794 0.043906707 -0.0635796 0.21706632 -0.025179885 0.08329444 0.024625488 -0.30484948 0.10064666 0.058744863 0.17164104 -0.3784349 -0.37855244 0.32331052 -0.3516969 -0.2098911 0.47988787 0.16439468 -0.16546203 -0.26601005 0.25104234 -0.11579074
50 -0.3897642 -0.10806652 -0.1258121 -0.3179637 0.4008543 -0.18240505 -0.32782444 -0.31305918 0.019542258 0.06499537 -0.22436781 -0.047321957 0.016913673 -0.20951541 0.2668949 0.12416617 -0.13072994 0.46485785 -0.024160875 -0.14767972 0.5333648 -0.12432845 0.14757128 0.13858107 -0.284599 -0.047792155 -0.16577755 0.13115846 0.15373781 0.084794275 -0.33774126 0.14684974 -0.23154189 0.1784456 0.15220521 -0.18934935 0.1502788 0.06713069 0.35586682 -0.17252862 0.15911444 -0.0062655383 0.13137718 0.046465293 0.347309 0.065467276 0.09283134 0.2505659 -0.0092690885 -0.22668809 0.040108714 0.09382359 -0.096668206 0.68516576 -0.15925087 -0.5047841 0.41389912 -0.025932223 0.12113438 -0.042784445 0.08857962 -0.22288066 0.15419547 -0.32555425 0.07602241 -0.07617386 0.17133959 -0.14602965 -0.34161884 -0.4401933 -0.21595125 0.24441426 -0.15384811 -0.12295991 -0.2165759 -0.26113084 0.21831319 0.42370826 0.20514548 0.15568422 -0.17911439 -0.33775115 -0.33427298 0.19001834 0.033660315 -0.067278005 0.3592972 -0.2763792 -0.23392385 0.39149186 -0.12438374 0.15573053 -0.031800706 0.17082815 0.25192466 0.36986884 -0.43087012 -0.49869213 -0.35406 -0.32405108 -0.045176756 0.15271004 0.13587415 -0.2794649 0.21743539 0.3143402 0.05506492 0.14307953 -0.17586249 -0.5373645 -0.19950712 -0.29798836 0.059665494 -0.23477049 0.15611751 0.3269509 0.43293202 -0.0942141 -0.1527871 -0.039699107 0.12026898 -0.55535567 0.1370393 0.35696432 -0.21028854 -0.38692698 -0.11801855 -0.24368614
269 -0.104401976 0.017214786 0.13986592 -0.33748084 0.107378095 0.4687914 -0.14901297 -0.03254052 -0.2144752 0.010273192 -0.27332035 0.18051012 0.071453586 -0.15117829 0.21477741 -0.38376036 -0.05552262 0.046401706 -0.0048321392 0.29087576 0.19968213 0.02396521 -0.2814878 0.08513987 -0.60115415 -0.31988084 -0.06775734 -0.050035246 -0.11216325 0.07202266 -0.4990153 -0.26210806 -0.13949662 -0.13168384 -0.067782246 -0.16749056 -0.16251764 -0.31388816 0.1633879 -0.2307609 0.07887777 0.019481773 -0.029122718 -0.15221007 -0.506503 -0.38198283 0.5483461 0.21886602 0.34480387 0.09468867 0.16107473 -0.13514936 -0.01083615 0.37433714 -0.20309572 -0.3187053 0.39028427 -0.22940445 0.26834333 -0.49077496 0.042404424 0.15030749 0.45249826 0.35131553 0.1315153 0.12653686 0.025863878 -0.2990182 -0.10705453 -0.6000572 -0.22685461 0.10218469 0.07458873 0.41558152 -0.27133223 -0.06916093 0.33602387 0.10136536 0.43171713 -0.21360874 0.16559649 0.3527919 -0.3038979 -0.46046603 0.1397828 0.30973625 0.3247953 -0.023539398 -0.011953609 0.027719324 0.24499983 0.3699949 0.36479038 0.23898314 0.16280678 0.08511856 -0.24491343 0.12452009 0.1585196 -0.020087952 0.18993549 -0.16437605 0.13810922 0.123257466 0.17494263 -0.21693344 -0.14887166 -0.08176771 0.19398265 0.1815638 0.09138257 -0.069754496 -0.31865117 0.032719415 0.024123954 0.10276181 -0.3108145 0.077654436 -0.12720796 0.17874296 -0.054732542 0.11446402 0.094756536 0.16434075 -0.07329895 -0.20672494 0.27857617 0.10601252
118 -0.2224244 -0.124306455 0.06294763 -0.22454894 -0.09278565 0.106965214 0.04464204 -0.09654081 -0.2878992 0.04213492 -0.019174192 -0.022096187 -0.15986443 -0.047184523 0.13191676 -0.030098498 -0.2992734 0.2779226 -0.34009984 0.13985392 -0.09376636 0.16479225 -0.048035428 -0.27089953 -0.052817885 0.29346928 -0.41056383 -0.05729511 -0.29961625 0.19413546 -0.12871625 0.08118051 0.14679529 -0.32797757 -0.40530857 -0.2003745 0.039730273 0.23676798 0.007854173 -0.12161379 -0.11698822 -0.01974579 -0.10031667 0.2784636 0.04413659 0.0733712 0.42714995 0.15427412 0.28178385 0.025765682 -0.35429096 0.33783647 -0.05818905 0.14432092 -0.07918128 -0.6027737 0.12360214 -0.0487439 0.033859987 -0.18681651 -0.10673115 0.29276732 0.2992813 0.10055633 -0.15859814 0.46757323 -0.27858388 -0.42474663 -0.3162189 -0.106923096 -0.380114 0.2997852 0.12971812 -0.29457211 -0.3129624 0.25992915 0.13861838 0.17659946 0.07353555 0.11054602 -0.32563522 -0.21029837 -0.022390742 -0.018210277 0.054356776 0.029125735 0.32208666 0.38150394 0.13616118 0.10459989 0.08244033 0.018258931 -0.22372593 0.15837236 -0.1049281 0.00029394418 -0.3825689 -0.07504919 -0.14372966 -0.55819786 0.14974193 -0.29611638 0.34885922 0.26201966 0.32613808 0.32108295 -0.3935753 -0.31993768 -0.4424177 0.1188312 0.35016385 -0.07484669 -0.14706507 0.25328407 -0.19271672 0.22910285 0.12343983 -0.009510656 -0.11991055 0.24064098 0.08450489 -0.74513113 0.2106496 0.0082500605 -0.2908446 -0.26927432 -0.020379005 -0.54895914
11 -0.4468208 0.12231448 -0.10176755 0.015103794 0.05075747 0.290327 0.11153311 0.099988274 0.05402919 -0.29216853 -0.14656365 -0.16563386 -0.31227562 0.18534268 -0.11198903 -0.1178486 0.22750987 0.453328 0.4055207 -0.07221789 -0.06483098 0.10181869 -0.014550968 -0.42152125 -0.020705597 0.14745578 -0.053642347 -0.35133505 0.14723781 0.39624855 -0.14483249 -0.006601623 -0.10912716 -0.3082384 -0.21289273 0.096055396 -0.023003707 -0.13269386 0.32124686 0.0116727175 -0.436768 0.36976445 -0.04417169 0.080830276 0.4327526 -0.0155739095 0.59416413 0.002353964 0.55460644 0.046290822 -0.24918443 0.115693256 -0.025167277 0.60312843 0.07454292 -0.41306096 0.36323503 -0.33907512 -0.11626981 -0.18090348 -0.38167068 0.24175932 0.36443132 0.23137242 -0.27197438 0.47494307 0.1011566 -0.39157593 -0.0888698 -0.5319688 -0.3532249 0.054857783 -0.0041507254 0.04369908 -0.3668498 -0.0012746357 0.38558868 0.10346791 0.06715613 0.009794546 0.03627105 -0.35768595 0.064397044 -0.16136432 0.31363577 0.17786746 0.25659814 0.13216537 -0.009966592 0.17700322 -0.13658588 -0.07235431 -0.09956115 0.16279708 0.102051996 0.10351881 -0.20079865 -0.0031591167 -0.045576815 -0.36976385 0.1275627 -0.09074782 0.038325585 0.39505982 0.2564232 0.10062925 -0.09923722 0.07614137 -0.27098235 0.21495286 -0.10887558 -0.055646252 0.055811647 0.06306957 -0.26625067 0.033126686 0.08978457 0.0014510157 -0.1527927 0.3602293 0.12767883 -0.45090285 0.26378205 0.15519442 -0.24552606 0.11744765 -0.02043436 -0.37181073
83 -0.6196119 -0.1202629 -0.4717879 -0.30331588 0.11217408 -0.105109215 -0.3898631 0.013463006 0.0504851 -0.123962395 -0.6819438 -0.05607049 0.1447884 -0.059433307 0.34331787 -0.06698504 -0.09279057 0.49570218 -0.17778392 -0.008211145 0.23998278 -0.08535731 0.28873417 6.7159155e-05 -0.19250451 -0.12233377 -0.20060468 0.0072619906 0.043828648 0.21985154 -0.37274697 0.030262021 -0.051878035 0.31032813 -0.27238294 -0.4630721 0.04579571 0.079836346 0.10680037 0.065545596 0.29449478 -0.07309284 0.17019647 0.15861766 -0.1814757 0.017824173 0.42947555 0.24895093 0.19139381 -0.20910726 0.005948968 0.18823911 0.057075124 0.47207528 0.021502769 -0.3429657 0.18306798 0.020329336 -0.13134472 -0.22456712 0.30122253 -0.49503627 -0.039196312 0.23008186 0.14012672 -0.083014034 0.22482875 -0.1278295 -0.36943233 -0.61885464 -0.08916401 0.13293183 -0.1496259 -0.17731346 0.06396454 -0.24446668 -0.11567375 0.50229216 -0.0068806363 0.04551898 -0.1336016 -0.08628045 0.079887755 -0.12353112 0.16658771 -0.050706882 0.07860861 -0.5847561 -0.21069449 0.3435713 -0.3418552 0.69861203 0.044345457 0.14835837 -0.15304238 -0.03957914 -0.018539967 -0.29176316 -0.33453435 -0.14220496 -0.12656194 -0.25059712 -0.07281816 -0.07829984 -0.008176293 0.35510272 -0.23523141 0.080353595 -0.41748393 -0.1835328 -0.14849567 -0.10831049 0.17117299 -0.063358404 -0.20298229 0.1727322 -0.039858688 -0.28134248 -0.22319855 -0.09453715 0.153785 -0.47361207 0.0829433 0.34697112 0.028027216 -0.23849384 0.007234558 -0.29707006
159 -0.40459177 -0.07627528 0.028515074 0.07613736 -0.021959597 0.2539586 -0.10196305 0.0033156394 -0.2343371 0.28388584 0.13163567 0.048766125 -0.03833349 -0.24039885 -0.1580028 0.1361489 0.541181 0.5967904 -0.07214121 -0.2909952 0.15013674 0.4161982 -0.019773105 -0.10473555 0.102440074 -0.52962434 -0.010538364 -0.4448421 -0.034366537 -0.13687082 -0.19206065 -0.34122694 0.11405453 -0.2145733 -0.38261902 -0.039441794 0.083335556 -0.22488682 0.088183224 0.12133341 -0.19877167 0.1741473 -0.3580754 0.2333312 0.48194107 -0.7005656 0.19690564 0.15141188 0.2082764 0.29779387 0.11091569 0.26591057 -0.095393516 0.25520068 -0.061200444 -0.11053589 0.028014598 -0.14049156 0.32075322 0.11000919 0.16985622 0.026891233 0.20712373 0.055542566 -0.12103775 0.080683164 -0.16082193 -0.2728328 0.10233414 -0.43927193 -0.13360868 0.3020307 -0.1819642 0.29133272 -0.14781632 0.055974428 0.28055105 0.14626591 0.45404375 -0.046410214 -0.30267975 -0.1537242 -0.26786992 -0.3230093 -0.09325859 0.0773426 0.1882224 -0.19200787 -0.088012286 -0.32543567 0.3269291 0.013855545 -0.39874077 0.26918167 -0.3119067 0.49696934 -0.34742126 -0.25561893 -0.061853927 -0.026476396 0.13677453 -0.024365347 -0.31677246 0.032449212 0.21081597 0.35287654 -0.045928422 0.039342154 0.04847617 -0.3057159 -0.23515128 0.1405665 -0.11346049 -0.11160432 -0.14769042 0.3808271 -0.0884813 -0.008086279 -0.33959442 -0.013545899 0.12948616 -0.24788634 0.3291055 0.4924866 -0.19824961 -0.18599366 0.20634845 -0.17699888
123 -0.12460802 -0.046058096 0.24628463 -0.020855598 0.009785285 0.24273366 -0.2507178 0.11863051 -0.45707142 0.28272614 -0.06861181 -0.09219715 -0.27924928 -0.25336844 0.16121258 0.40538785 0.0927762 0.41981483 -0.023393426 -0.073895164 -0.2646392 -0.08118306 0.07612491 -0.15884043 -0.18854243 -0.025006045 0.040940758 0.07922051 0.026494509 -0.07489577 -0.087612554 -0.12207534 0.053595167 -0.11934676 -0.27825975 -0.36478615 -0.100751035 0.14622639 0.26913887 -0.32806388 -0.022188203 -0.17389025 -0.26850542 0.21106745 0.5037793 -0.4236677 0.62812114 0.09348537 0.36084422 0.066124946 0.34288016 -0.20074145 0.33577165 0.39761645 0.0879089 -0.4220893 0.19094467 0.17518398 -0.23470809 -0.06504011 -0.18440652 0.028599937 -0.031115875 0.1679718 -0.29732835 -0.0061799344 -0.46164578 -0.23971099 -0.491854 -0.23912922 -0.12389866 0.066204876 -0.3801748 -0.32426614 -0.2962686 0.2851771 0.07515202 0.057855368 0.06252324 -0.031057356 0.06094558 0.19378239 -0.119652666 -0.1038265 0.12622681 -0.13501593 0.1292022 0.10339038 0.2355354 0.25019288 0.03970645 0.090223886 0.14380284 0.10423172 0.3844515 -0.102577634 -0.39320618 0.05179177 -0.101201385 -0.27547744 -0.09263096 -0.22792993 0.018217849 0.55204934 0.14447355 0.07041367 -0.45764336 -0.016774254 -0.3422155 0.26829946 0.19758447 -0.18595272 -0.379056 -0.2645428 0.07320493 -0.09043294 -0.2972907 -0.16640602 -0.06096073 0.24529515 -0.358384 -0.01683714 0.0423731 0.290641 0.18453108 -0.28934652 -0.008251301 -0.47112155
319 -0.22174706 -0.20106675 0.24807936 -0.48977247 -0.021790633 0.53811926 -0.010695155 0.46705455 0.18367861 0.1603098 -0.016458007 0.13475613 -0.12663879 -0.29868913 0.04665298 0.17634942 0.45207098 0.49506837 -0.30463043 -0.13948326 0.39985386 -0.35732496 -0.033913422 -0.007836059 -0.16209666 0.068707146 -0.082288615 -0.08202126 0.2056339 0.39414725 -0.12209443 -0.1648848 -0.0004157755 -0.24021386 -0.5129861 -0.050582822 0.14245008 0.33739248 0.2742491 -0.13255674 0.28479668 -0.001594852 -0.11489413 -0.19811471 0.6751924 -0.053249452 0.28483838 0.21527497 0.06544573 0.2490811 -0.009097597 -0.016205704 -0.07026319 0.13752079 -0.07689017 -0.012195776 0.18266463 -0.25672382 0.31026655 -0.16764924 -0.2006319 -0.034847505 -0.13100636 -0.04105964 -0.031092847 0.17964503 -0.36359122 -0.10129794 -0.46647176 -0.34412938 -0.35876116 0.07547552 0.029811367 -0.089143366 -0.39425185 0.046015576 0.033353455 0.07842036 -0.03531797 0.13132283 -0.31246254 0.2019585 -0.072477855 -0.06370448 -0.076258235 -0.21327345 0.4403255 0.046664413 -0.26698065 -0.24486965 0.23520717 0.14112796 -0.08440358 0.52743095 -0.06873465 -0.13890627 -0.23944978 -0.40810117 0.09383779 -0.2930812 0.37436587 -0.337387 -0.27974984 0.23246959 0.14509684 0.3312924 -0.3909177 0.13913108 -0.04135483 0.22124262 -0.23767185 -0.1893456 -0.38987437 -0.042779297 0.25181344 0.009549285 0.005173063 -0.041208573 -0.24768268 0.18121219 -0.33424228 -0.3492138 0.38126084 0.0831876 -0.13658588 -0.37937883 0.23275052 -0.06479535
252 0.10924483 0.039340228 0.09755569 -0.20653655 0.123606995 0.46568528 -0.2321896 0.16452637 -0.04318501 0.028764792 0.080944896 0.08551323 -0.30097002 -0.09697755 0.21263845 -0.0055093667 -0.043614313 0.08015314 -0.24607217 0.48561373 0.19156763 0.035342664 0.23877184 0.18380691 -0.26066148 0.07422738 -0.20964387 -0.052489717 0.24931036 0.3852591 -0.4938254 -0.17334254 0.13472626 -0.018163275 -0.23707691 -0.06152282 -0.028072564 -0.070416585 0.49951386 -0.23184887 -0.21547818 0.32083982 0.1386818 -0.27463418 -0.027192986 -0.18311556 0.63898224 0.07845851 0.20599812 -0.10808633 0.44998747 0.074661426 0.119579814 0.30016768 0.0025847135 -0.43266565 0.24403816 -0.3164498 0.11195697 -0.30589774 -0.059423275 -0.030978674 0.32164127 0.19933267 -0.13964154 0.013060288 -0.13892955 -0.020800794 -0.53779984 -0.08286954 -0.022267062 0.65878177 -0.0019513064 0.006618574 -0.24271017 0.17026442 0.08852447 0.30628264 0.3803856 -0.22233747 -0.34913224 0.20797364 -0.015525802 -0.24482025 0.062868305 -0.1947506 0.222505 -0.0600836 0.35012403 -0.023986563 0.14625297 0.011720632 0.1945503 0.19083901 0.2890655 0.02942686 -0.20116702 0.14587623 -0.063854165 -0.32530746 0.21148863 -0.21355143 0.19405185 0.08036952 0.40528706 -0.0033706576 -0.43056002 0.08266551 -0.0902401 -0.052874364 0.16661955 0.009801107 -0.32138467 0.32005006 -0.08414432 0.14380841 -0.10114245 0.22821538 -0.28475347 0.44130918 0.13435206 -0.09923179 0.04359136 0.08694473 -0.19890484 0.10232056 -0.32114518 -0.08468235
150 -0.1946944 0.21662222 0.17768312 -0.16701855 0.23228115 0.29069015 -0.26444808 0.12267768 -0.14775595 -0.033015452 -0.56570387 0.15148307 -0.34323835 -0.3619514 -0.055873126 -0.1545866 0.27410477 0.39857784 0.09084588 -0.1859216 -0.14790249 0.124454394 -0.18954374 -0.0574982 0.15517716 -0.020861093 0.19571653 -0.16489531 -0.10272283 0.37433136 -0.41719657 0.26006275 0.13221915 0.19264103 -0.10869695 0.114489764 -0.23565519 -0.035960324 0.023819754 -0.18365811 -0.090773515 0.22518358 -0.18348455 -0.03976886 0.28813702 0.06818609 0.43930113 0.2592284 0.4453726 0.3044995 0.013930434 0.04351346 0.018075816 0.43987024 -0.4644166 -0.534001 -0.16903411 0.19024724 0.21997964 -0.13918136 -0.27892372 0.08933595 -0.3575882 0.14309831 -0.013543332 0.20833124 -0.24322805 -0.42019498 -0.33243462 -0.43957958 -0.29856426 0.28016552 0.18607391 0.097238116 0.089006655 -0.15918644 -0.1398847 0.026147678 -0.051144056 0.11122038 -0.16024062 0.057414483 0.17045234 0.09479581 -0.24572556 -0.22893308 0.25325593 -0.08213391 0.080978684 0.4780537 -0.07257854 0.16954932 0.110988274 -0.02376925 0.15673085 0.15298066 -0.100748815 -0.16174509 -0.023320002 -0.14426944 0.3620814 -0.32643119 0.07723274 0.231189 -0.15256831 0.10170517 0.14582418 -0.08637313 -0.06834379 0.14606082 0.23361659 -0.27077362 -0.1673163 0.31323877 0.0746588 0.09851966 -0.21813455 -0.18550543 -0.16335163 0.10793108 -0.09256417 -0.44446218 0.19124341 0.18766262 -0.29166904 -0.21915919 0.04381499 -0.21535167
328 0.20846072 -0.41121128 0.07948574 -0.4066102 0.2525247 -0.1281926 0.25680313 -0.18954176 -0.28656358 0.11792292 -0.43757373 0.05282349 -0.13507977 -0.24681498 0.087474614 0.06721587 0.5817512 -0.03886237 -0.23889296 0.38047585 0.16493969 -0.11695762 -0.21504503 -0.22501762 -0.2300088 -0.08448055 -0.017098216 -0.30507022 0.1223418 0.26228002 -0.37222317 -0.19769135 0.08672168 -0.13842112 -0.3446611 -0.48076007 -0.09500362 -0.24831213 -0.26438248 0.124899015 -0.30377516 0.038328152 0.1952174 -0.16047059 0.11428237 0.08058526 0.3264104 0.34926766 -0.13845673 0.33776426 -0.029539421 0.41813207 0.16576645 0.5599948 -0.100854464 -0.69244605 0.28985032 -0.079086095 -0.17833589 0.045685556 -0.007367997 -0.1458449 0.24360988 -0.014628347 -0.34864506 -0.24511267 -0.007934307 0.05197202 -0.17681241 -0.95904166 -0.2910182 0.110498525 -0.12570809 -0.5127875 -0.0516825 0.20590493 -0.12929192 0.18853445 0.11943424 -0.017298093 -0.13632223 -0.03411331 0.010579301 0.1397037 0.08854456 0.18291657 -0.2506794 -0.09709217 -0.05565183 0.107929334 0.056432433 -0.30472472 0.53594995 -0.30752453 -0.09516553 -0.06181463 -0.1947135 0.047752094 -0.098108366 -0.1523951 -0.10672927 0.06917897 0.05048293 0.31340793 0.1510548 0.4795068 -0.1201938 0.40981758 0.14844242 0.18856008 0.25386888 0.32247305 -0.34874976 0.10929773 0.25548515 0.32192665 0.06611604 -0.022705697 -0.106998116 0.18040311 0.26448542 -0.26389912 0.30742595 0.2782709 0.21770829 0.16205396 0.11610246 -0.24154921
125 -0.42820558 0.036388777 -0.015668046 -0.40720934 0.23848553 0.21536958 -0.27378646 0.34117487 -0.27460605 0.12989062 -0.0815834 0.043071125 -0.09184942 -0.5058682 0.13691388 -0.15908088 0.15446582 0.15381373 -0.7439337 0.6233549 -0.0005793285 0.08432182 0.008499048 -0.16883102 0.1747153 -0.027640888 0.10783783 -0.37432158 0.07072921 0.03671262 -0.43247923 -0.071440555 0.08289464 0.00825587 -0.027198311 -0.05539107 0.06260255 0.07670097 0.25546464 -0.054025736 0.45313033 -0.27905905 -0.3305657 0.048886858 0.25581536 -0.059521765 0.4252031 0.029165182 0.14170843 0.12585251 -0.12807107 -0.23534305 -0.34165967 0.35385928 -0.08464597 -0.65618294 0.14763354 -0.04187579 0.077968486 0.29079476 -0.3258091 -0.2082269 0.31238335 -0.023288094 -0.31773576 -0.063688196 0.019858623 -0.08392269 -0.5704121 0.016062677 -0.3721988 -0.18091646 0.18328367 -0.29934406 0.052320305 0.1726259 0.30633503 0.3221994 -0.0047404543 0.06662953 0.08849594 0.10112831 -0.1224877 -0.47014067 0.09941968 0.3531971 0.10109148 -0.05957303 -0.3359583 -0.021205172 0.37648183 0.17547725 -0.24392968 0.05342542 0.17620556 0.028760228 0.124177985 0.0019376586 -0.10286092 -0.00860508 0.1826599 0.040309917 0.2640308 -0.052006893 0.5169916 0.45953253 -0.27181163 0.08558273 -0.37703592 0.01746424 -0.1388085 -0.123501755 0.03922886 0.041111276 0.03484881 -0.29267845 -0.34816447 -0.14411406 -0.20248936 0.35002732 -0.065378055 0.11014835 0.44380486 -0.015061321 0.018208977 0.321569 0.49886242 -0.38045707
92 -0.2429996 -0.5243481 -0.13674502 -0.45221603 0.17967027 0.5892098 -0.11366182 0.04742998 -0.29823905 0.2520981 -0.4223113 -0.06260035 -0.1638729 -0.45387155 -0.007137333 0.3762265 0.42067623 0.30302122 -0.017304253 -0.050334416 -0.03449837 0.07968041 0.1294117 0.07908405 0.06816272 -0.014998666 -0.122137524 -0.054897062 0.024392802 0.011550548 0.14210142 0.043841522 0.27502957 -0.21188484 -0.14443676 -0.0036386894 0.30418816 0.0056833546 0.32003063 -0.26113522 -0.03396287 0.24445823 -0.24973498 0.12211554 0.15188563 -0.10439518 0.9101432 -0.1194161 0.4575782 0.046470907 -0.07281962 0.19537121 0.05860123 0.2785308 -0.024837939 -0.48752198 -0.041897528 0.2639689 0.24133171 -0.24115166 -0.036919657 0.39145318 0.061472736 0.24246117 0.19764973 0.23470613 -0.11170831 -0.50676024 -0.43304822 -0.22814928 -0.12191046 -0.17489876 -0.031761356 -0.101806976 -0.20999457 0.05756987 -0.008998841 0.2524769 -0.23987013 0.025855547 0.10464989 -0.20147587 0.34635302 0.00031466066 0.22051926 0.14630552 0.31928116 0.07102281 0.058093693 0.07007551 -0.37326342 0.18551606 -0.07177878 0.042646628 0.08254973 -0.030410687 -0.21881267 -0.008982888 0.11184057 0.044147603 -0.10806842 -0.2955748 -0.015033443 0.5079197 0.124072306 0.23996834 -0.32946846 -0.088069506 -0.24581993 -0.07968979 0.10747954 0.14466709 0.0987898 -0.1026624 -0.2457242 -0.24351124 -0.21019866 0.026144542 -0.107819535 0.32337344 0.17808978 -0.17752136 0.50239235 0.35814232 -0.18469281 -0.3043963 0.33688268 -0.526017
314 -0.032897267 -0.3043344 0.20477371 0.1605561 0.23429848 0.39147478 0.17939761 0.061893195 -0.11312937 0.16099656 0.023206841 -0.2733393 -0.40382734 -0.37862054 0.30379763 0.1355224 0.34763685 0.44864056 -0.15260811 0.0067745894 0.08074635 0.29871982 0.034494508 0.11604012 0.19889104 -0.0841264 -0.19311899 -0.018978713 0.2104886 -0.17990893 0.06837068 0.25080672 0.110729985 0.09993922 -0.18803512 0.087712 0.06340732 0.16555929 0.19646361 -0.3643137 0.16336206 -0.06544534 0.17340535 -0.037609372 0.18348098 0.039281733 0.3373234 0.019723367 0.21761018 0.0557388 0.08518136 0.15027186 -0.48315904 0.5151214 0.18578446 -0.11095306 0.24774879 -0.11386202 -0.023211246 -0.2926283 -0.057224378 0.30814737 0.1832348 0.24835789 -0.40294993 0.05964344 -0.15853834 -0.034258284 -0.46437323 -0.008672054 -0.41405457 0.27864984 -0.04538999 -0.08380243 -0.07408247 -0.015311341 0.26313782 0.09753133 0.19104356 0.0040518097 0.23842381 -0.1354241 -0.12209869 -0.16301924 -0.13189603 -0.04784854 0.036243133 0.56895965 -0.34578237 -0.30066827 -0.053782463 0.20585229 0.45444894 0.32911685 -0.019976506 -0.2901504 -0.15026961 -0.38899255 0.21598433 -0.19592203 -0.21355535 -0.29313648 0.32492724 0.32157263 -0.10631544 0.31983668 -0.09787467 0.34843534 0.07923865 0.27031204 -0.28120807 0.6150042 -0.10796483 -0.2086733 -0.19120961 0.006662805 -0.2532008 -0.20845872 -0.22194067 0.07589584 -0.092017464 -0.4042844 0.41467673 0.19641493 -0.346874 -0.17683041 0.25192508 -0.35232437
222 -0.19565178 -0.5116477 -0.18905991 0.017044919 0.40243307 -0.053519864 0.0121865235 0.22735421 -0.23174621 -0.12704599 -0.35154432 -0.20957632 -0.35718644 -0.054727327 0.024529172 0.018786633 0.32149497 -0.08232623 -0.40548038 0.21723443 0.0047670845 -0.23366585 0.36918485 0.19253999 0.110253036 0.02911401 0.107184775 -0.13291432 -0.25661087 0.0422356 -0.022994881 -0.1408832 -0.31653735 0.07913909 0.09996342 -0.5611682 0.38291112 0.16857304 0.08019898 0.34367537 -0.39800736 -0.08927396 -0.22465578 0.17141746 0.045464523 -0.5709507 0.35277262 0.22253671 -0.11924294 0.059475515 -0.04499966 0.047880586 0.13760923 0.34552473 0.08228446 -0.7398373 0.5639095 -0.14217222 0.4016578 -0.23826866 -0.26202992 0.02099347 0.33489183 -0.010224305 -0.38327694 0.15423396 -0.01779028 -0.15347302 -0.5912473 -0.3893547 0.06797171 0.270068 -0.21040966 0.12949362 -0.41468644 0.018888572 -0.57819134 -0.08295463 -0.032717254 -0.17183274 0.05428125 0.15482996 -0.30494803 -0.45299143 -0.5662431 -0.17313232 -0.4115081 0.1108545 0.102938816 -0.2655121 -0.07728954 0.077155344 0.08659518 0.042943325 0.5609979 -0.20684737 -0.12616909 -0.13565561 -0.14926507 0.099122815 -0.1424975 -0.19621947 0.3112232 -0.20338409 0.10453395 0.30138925 -0.45207372 -0.06589994 0.08460008 -0.014399671 -0.076213896 0.139567 0.06600304 -0.008639622 -0.4907886 0.10860563 0.0136060575 -0.5245904 0.0025260828 0.2463337 -0.18216437 -0.37876236 0.30472213 0.14528516 -0.04292293 -0.08102329 -0.3045859 -0.25019255
70 0.046712097 0.003382313 0.07253351 -0.24948004 0.42494977 -0.2750076 -0.1267476 0.1864665 0.15984613 -0.046393875 -0.10909455 0.05050997 -0.027514849 -0.45247853 0.011727734 -0.053685334 -0.05902991 0.06658534 -0.16637385 0.27987674 0.41727528 0.0251754 0.37683865 0.041660696 0.021961005 -0.058261003 -0.1353124 -0.12841418 0.19356446 0.46535337 -0.4132493 0.2515756 0.12314222 0.13658667 -0.05160401 -0.17671326 -0.27805886 -0.13208051 0.10700342 0.035295404 -0.23801015 0.04060568 -0.37907666 -0.41436088 0.16689806 -0.22832967 0.18939534 0.2357694 0.22597915 -0.017507123 0.014369583 0.26376125 -0.07058041 0.26060763 -0.35754603 -0.44713256 0.0022137766 -0.1513853 -0.475965 -0.14044186 -0.17749949 0.31332842 -0.20776996 0.15175344 -0.059556417 -0.11852983 -0.1693528 -0.68571097 -0.2633745 -0.5931968 -0.40369037 0.43698594 -0.31586027 -0.35607344 -0.23185188 -0.028369829 0.12860492 -0.042669877 0.18589398 0.1483535 -0.3260503 -0.13814297 -0.34479126 0.011344256 -0.038392797 0.049552836 0.15077503 0.13171992 -0.15268165 0.34078434 0.038399033 -0.07545058 -0.22581616 -0.0062713353 0.21646988 -0.13194986 -0.5261755 -0.07652273 -0.2571871 -0.2859926 0.24116242 -0.11256283 0.011111365 0.04689251 0.29451004 0.26333746 -0.17589007 -0.46223012 -0.04864517 0.081432514 -0.15203221 0.41637015 -0.01674888 -0.04540693 0.03950574 -0.0002700668 -0.15242346 -0.23620372 0.13965526 -0.043049183 -0.12774882 -0.09406466 0.035974633 0.18757585 -0.42957145 -0.045268424 -0.20608763 -0.1955234
760 -0.49786952 -0.3840083 -0.24734487 -0.2892418 -0.06118743 0.7070695 0.33541262 0.19975998 -0.8648212 -0.149614 -0.06655474 -0.02530089 -1.1040139 0.4474834 -0.6042793 -0.35226047 -0.013911487 0.58587754 -0.42564642 0.5500187 0.07154083 0.25825766 -0.5708116 -0.63245124 0.5733218 -0.05650805 0.08097267 -0.6382665 0.38489312 0.24060313 0.44961232 -0.07481706 0.4210596 -0.11492683 -0.548086 0.1342536 -0.40938815 -0.012878533 0.689802 0.29198176 -0.6413822 -0.117401205 0.54805815 0.32056645 -0.05315529 -0.10683609 0.44419783 0.31234348 1.3725665 0.35986814 0.70862573 0.45912817 -0.19993769 -0.034644753 -0.20322081 -1.2829494 0.72115445 0.41406277 -0.044951726 -0.22802755 -0.41988817 0.38574138 0.16020451 0.7921531 -1.0952967 0.81882054 0.18983316 -1.1767837 -0.53892374 -0.3603239 -0.6319197 0.45013642 -0.44084677 -0.5713982 0.32632712 -0.83193386 0.07325002 0.1579094 1.0598341 0.37995815 0.055696208 0.51221764 -0.1298417 -0.4002928 -0.43282986 0.15956132 0.011127304 0.5245828 -0.07264093 0.04640178 0.04020672 0.39573178 -1.2949046 0.89475304 0.25501442 0.7891766 -0.72894406 0.5335486 -0.49484932 0.48107085 0.26618317 -0.05379644 -0.04769162 -0.2486943 -0.2769996 0.5422892 -0.09093218 -0.01218513 0.01062976 -0.3392163 -0.79976153 0.18495795 0.023243114 -0.3913491 0.3179847 0.25406584 -0.85736626 -0.001301907 -1.071203 0.67189956 -0.5934535 -0.15970734 0.8581438 0.05505609 -0.08745874 -0.48642775 -0.07756034 -0.117468014
759 -0.49785396 -0.42578202 -0.23941898 -0.3103233 -0.09648756 0.7085568 0.40831718 0.3025398 -0.8881131 -0.08963439 -0.13770369 -0.033977333 -1.1360579 0.43888745 -0.65734625 -0.36909378 -0.062216524 0.5959387 -0.39443633 0.5522951 0.09004797 0.23485601 -0.5767014 -0.6671816 0.60261893 -0.043059014 0.048544146 -0.65431356 0.4134599 0.25709698 0.4626464 -0.05771958 0.40837806 -0.11345912 -0.5803317 0.13448204 -0.3860411 0.024195233 0.67527 0.29173604 -0.7105345 -0.14442492 0.60891736 0.2837142 0.0026233613 -0.084763944 0.46462452 0.3682166 1.4475569 0.34044668 0.72985125 0.4956611 -0.16652657 -0.0038983058 -0.1971562 -1.3759828 0.7666686 0.44836754 -0.09374496 -0.2524479 -0.5112028 0.3717124 0.09599068 0.8658383 -1.1597137 0.8457055 0.2019364 -1.1553445 -0.5333292 -0.37887198 -0.7395017 0.4722039 -0.390769 -0.56112695 0.33664286 -0.9163169 0.060194794 0.08967938 1.0335288 0.37743214 0.04752451 0.43116704 -0.13341008 -0.36091185 -0.4393235 0.14675124 -0.089625835 0.5734591 -0.10657831 0.013437324 0.029526709 0.37738192 -1.2788674 0.9502025 0.3017534 0.8870458 -0.7055461 0.54534066 -0.518189 0.52063006 0.2829042 -0.070319876 -0.058185298 -0.31651098 -0.32184428 0.62310654 -0.16601253 -0.010019853 0.05698219 -0.33443472 -0.8018549 0.23384714 0.073687725 -0.42195064 0.3673653 0.3019966 -0.797102 0.014688484 -1.1393058 0.6986928 -0.6742408 -0.11401683 0.93794024 0.080945276 -0.11446642 -0.5145789 -0.08813751 -0.13928375
1451 -0.5484666 -0.5970931 -0.18999004 0.08505687 -0.18582807 1.2813263 0.39999452 0.76690614 -0.8847397 -0.14201604 -0.17955494 -0.010288302 -0.69274175 0.19978307 -0.43860495 0.41647592 -0.049950175 1.391923 0.3206077 -0.20634954 -0.20191717 -0.022009209 -0.12891182 -0.6427919 0.027577147 0.0015761709 -0.28464496 -0.42090237 0.50911945 0.43602863 0.21754733 -0.13218933 0.22951342 -0.5594923 -0.756727 0.53510356 -0.38455603 0.4894737 0.70475835 -0.114373334 -0.44419876 0.5141846 -0.0068444693 -0.052465763 0.95723754 -0.16815822 1.0315659 0.8525304 1.0904385 -0.47864002 -0.07935505 -0.112511896 -0.39628908 0.28481036 0.26305163 -1.0085353 1.0662779 0.13786069 -0.07975542 -0.3007716 -1.0535223 0.7042816 0.42750266 0.45970896 -0.9987342 0.5879529 0.019775957 -0.84792006 -0.39230514 -0.5914449 -1.1996746 0.36916533 0.38588926 0.39566576 -0.27229133 -1.0009661 0.61192936 0.17599566 0.89113295 -0.117101766 0.25914288 -0.55384076 -0.25000829 -0.0474232 0.3082379 -0.20315391 -0.12766322 0.1742057 -0.53450584 -0.18765968 -0.7879414 -0.05965521 -0.41393727 0.5742057 -0.35627243 0.20799954 -0.20630445 0.15740798 -0.31974712 0.17122327 0.32355845 0.19447419 0.23321773 -0.10014179 0.14803672 0.49098542 -0.6573882 -0.045361266 0.21141884 0.08616166 -0.562119 0.20797457 -0.03820632 -0.048507266 -0.42123717 -0.18902977 -0.251325 -0.14317447 -0.62785304 0.86530966 0.09684555 -0.57727003 0.6118974 0.08097658 -0.29202136 -0.3581488 -0.07610211 -1.0606972
157 -0.38986337 -0.1842197 0.18866879 -0.26183158 -0.29788902 0.13613868 0.15215309 0.095553994 -0.048787195 0.027828934 -0.062137134 -0.067035474 -0.465989 0.16937146 0.11284351 -0.08508782 0.35480064 -0.003178091 -0.017735416 0.23913112 0.41996595 0.18030307 -0.124551825 -0.11955642 0.33531812 -0.1549982 -0.22296776 0.18697967 0.056233 0.053617455 0.39695984 -0.13019167 0.22300802 0.16032688 -0.16282782 -0.3594558 -0.31648356 -0.12294855 0.3258124 0.09574123 -0.26554364 -0.26326475 0.5741176 0.22228956 -0.09424873 -0.0104326345 -0.10183702 -0.13626538 0.07911181 0.45799306 0.19853733 0.119609684 -0.032939523 0.017159611 -0.13365802 -0.7301146 0.15812707 0.37174988 0.0041229744 0.047753997 0.10832373 0.08724808 0.22991608 0.31578162 -0.12878956 0.24405128 0.067729 -0.40009716 -0.2347282 -0.51193243 -0.12692101 0.33050525 -0.29713237 -0.0640415 0.05998881 -0.46084842 -0.0009361472 -0.14575598 0.256831 0.48299307 -0.12255426 0.45037746 -0.06879682 -0.16396697 -0.44171938 -0.17001195 0.07576721 0.20424305 -0.15397587 0.23569973 0.017308312 0.44551858 -0.16835839 0.5599718 0.030278794 0.5966345 -0.38454354 -0.068008125 -0.18151881 0.06119536 0.0063371784 -0.27571115 -0.16594836 -0.07754414 -0.15628459 0.09130928 -0.16314004 0.27320787 -0.020313744 -0.2642321 -0.13285433 -0.090344846 -0.011064088 -0.39779922 0.29504156 0.16248348 -0.18305172 0.07747365 -0.20659105 -0.025546195 -0.35900322 -0.46068054 0.43710947 0.19139482 -0.1789851 -0.21929854 0.08441672 0.36483252
56 -0.111398116 -0.2983564 0.04618294 -0.048992164 0.52425706 -0.17161661 -0.03635908 0.4254125 -0.28900543 0.049482714 -0.27052262 -0.010870721 -0.2591806 -0.42414403 0.20153242 0.08150326 0.44765434 0.52501106 -0.06948518 0.27423963 0.07718683 0.027843872 -0.24680106 -0.07460896 0.13599382 0.12393943 -0.22642787 -0.075174615 0.14533615 0.29344836 -0.25182167 -0.2841899 0.19987932 0.11829412 -0.23569386 -0.21178925 -0.25362206 -0.13840592 0.30448273 0.010890058 0.2438987 -0.41547132 0.16116308 -0.4089595 0.17389292 -0.21452053 0.487547 0.14078447 0.45500258 0.108931564 -0.31807455 0.08701722 -0.22041692 0.39817345 -0.28059158 0.017951211 0.50804627 -0.15505321 0.28907448 0.108892664 -0.27955222 0.11330465 -0.016952535 0.19269164 -0.07422223 0.37245122 0.13277932 -0.2864968 -0.4057297 -0.046950754 0.2792927 0.3041155 0.09420616 0.36710876 -0.1328313 -0.49009576 0.06394472 0.3653968 0.12002815 -0.06266481 0.11205855 0.15948825 -0.13208285 0.026540207 -0.35468632 0.3063087 0.20794353 -0.011779164 0.22718091 0.107387915 0.14022514 0.2967308 -0.11632376 -0.024546698 0.032548755 -0.117587395 -0.15974328 0.25885883 -0.024968296 -0.011290362 -0.0177405 -0.072030276 -0.041055463 0.16147298 0.49374664 -0.15750453 -0.05467698 0.15800413 -0.35512894 0.03645286 -0.21880569 -0.13405994 -0.32667252 0.389024 -0.073017515 0.10866254 -0.14204146 0.3874241 0.039596118 0.114594705 0.1040176 -0.49340993 -0.030769257 0.5448389 -0.110072196 0.118021995 0.20558502 -0.6163775
1452 -0.55903125 -0.6585641 -0.23582652 0.10432927 -0.15774545 1.3779725 0.47823122 0.7897681 -0.96340686 -0.16031486 -0.22938372 -0.004472846 -0.66440153 0.19937211 -0.4795497 0.38418698 -0.047125913 1.4876308 0.29117167 -0.26320735 -0.25077835 -0.090464234 -0.1675144 -0.7163488 0.054439947 -0.0995867 -0.26950446 -0.49583346 0.5230337 0.42805517 0.05760722 -0.144899 0.22831489 -0.53947866 -0.7976743 0.5398453 -0.41886982 0.502706 0.7109173 -0.090811096 -0.5338391 0.5475983 -0.025903352 0.05080514 0.99748 -0.15543021 1.025575 0.957418 1.0863209 -0.5001876 -0.0918657 -0.16121429 -0.43031546 0.25850967 0.21135974 -1.0837576 1.0845869 0.13026737 -0.071889736 -0.22325669 -1.0942682 0.70338094 0.46290824 0.54778945 -1.0217369 0.7424565 -0.0422187 -0.84077287 -0.46462783 -0.57264006 -1.1639774 0.31268233 0.38146758 0.47237363 -0.30799896 -1.0206629 0.65282094 0.19114812 0.91241133 -0.11172792 0.31718162 -0.5738099 -0.27178913 -0.021381598 0.28980672 -0.19802853 -0.13853578 0.2649006 -0.58578366 -0.2614651 -0.84892714 -0.08704658 -0.4147043 0.6447307 -0.33145475 0.2581004 -0.23318824 0.1968333 -0.3469537 0.19357876 0.33501008 0.12953858 0.18951249 -0.093670465 0.15079658 0.54439884 -0.72065526 -0.0101227835 0.24153833 0.07084719 -0.6384228 0.13349006 0.037828345 -0.12298881 -0.44609642 -0.16691343 -0.28570816 -0.109479725 -0.6638932 0.89498514 -0.020781301 -0.6331385 0.6449368 0.055854235 -0.2707528 -0.33628356 -0.03016427 -1.1809181
206 -0.06936617 -0.0142293535 -0.066776514 0.05988359 -0.12836818 0.23231289 -0.13353777 0.12978801 -0.5036743 -0.053021196 -0.23681526 0.106025666 0.12475468 -0.21576056 -0.14695194 0.27700186 0.23423105 0.30538234 0.04257493 -0.39324567 0.037710287 0.18350782 -0.043773636 0.20201838 0.21017829 -0.27439255 0.102701746 0.0748904 0.04974371 -0.08208109 -0.36422914 -0.07887301 0.3296436 0.045926 -0.21991958 -0.2856214 -0.09343091 0.33026302 0.057571676 -0.2990202 -0.08558984 -0.020329447 -0.35281107 0.29129958 0.2359521 -0.11054152 0.4531972 0.17669939 0.2633349 -0.014103899 -0.119270615 -0.35465595 0.20428523 0.20537066 -0.08286385 -0.42398563 0.2501414 0.27787736 0.18082099 0.0017906866 -0.0436888 0.06821828 0.2579574 0.18755159 -0.20980012 0.16268636 -0.4559215 -0.32727936 -0.4660542 -0.23162626 -0.26692793 -0.17392915 -0.12654027 -0.33286974 -0.7867755 0.051680785 0.15409589 -0.013899082 -0.07141173 0.10679707 0.16261597 -0.14184408 -0.3229667 0.2055029 0.20797265 -0.1077065 0.19079565 0.20964162 -0.18026133 -0.051994424 -0.01243605 -0.03966106 0.41461408 0.06952282 -0.044560235 0.268403 -0.108217746 -0.053865466 -0.30818188 -0.27343148 0.09592458 -0.37267312 -0.15562858 0.38567054 -0.042071853 0.39346704 -0.21227555 0.07607146 -0.6301774 -0.091981165 0.08418995 -0.28275 -0.046443295 -0.23095495 -0.2714772 0.28655154 -0.25631735 -0.109079085 0.12143324 0.101328835 -0.28615233 -0.38427478 0.45933062 0.21114026 -0.10234434 -0.25761098 -0.044104517 -0.6624126
136 -0.13369907 -0.21823518 -0.07527459 -0.32529336 0.11749825 -0.0037323928 -0.054967683 0.05309734 -0.00917395 -0.10667574 0.035019696 -0.14936925 -0.15936153 -0.09393821 0.019488642 0.10874284 0.3183144 0.3831129 -0.1168057 -0.2393069 0.09091916 -0.04421974 -0.19677256 0.11952719 0.11657981 0.04705578 0.031933267 -0.17678778 0.15728028 0.45413032 -0.30901048 -0.011496526 -0.1444761 0.14420761 -0.19809948 -0.5509392 0.011526285 -0.09900868 0.058311854 0.16278571 -0.27295998 -0.13335028 0.57944226 0.104702465 0.0072421567 -0.34253642 0.13747725 0.16483414 -0.44974524 -0.044997986 0.30781987 0.15738963 0.065505326 0.33695775 0.09324539 -0.3426042 0.31562307 0.38671723 0.056749307 -0.0001264161 -0.07043034 -0.1142725 0.3890944 0.059367575 -0.46655658 0.11548137 0.058846544 -0.3675801 -0.16224208 -0.62392753 -0.09477784 0.60204816 -0.33991334 -0.52578956 0.17238207 0.10894615 -0.16564362 0.17248368 0.18397255 0.063224725 0.029488485 0.3940919 -0.3842977 -0.4049455 -0.18801756 0.03309388 0.22804162 0.21061498 -0.031132393 0.16800654 -0.16559131 0.3142004 0.07389082 -0.081674136 0.16237275 0.21472774 -0.5109154 -0.1573322 -0.0707561 -0.31714752 -0.21158451 -0.15111591 0.1986846 0.4428422 -0.07124114 0.20114851 -0.15846519 0.48876923 0.045143772 -0.13387112 0.031441458 0.3141405 0.24162303 -0.020251604 -0.042965565 0.20642287 -0.42763895 0.39895663 -0.22485237 0.18078542 -0.106449686 -0.37629294 -0.020781249 0.45980093 0.001494904 -0.09148378 -0.16440296 -0.1527133
18 -0.073617615 -0.21589373 0.15578474 -0.35643467 -0.25470838 0.11145499 -0.30396447 0.36804086 -0.020742053 0.03569718 -0.1024442 -0.06074548 -0.121442124 -0.27675623 0.15009582 -0.07498679 0.23414958 0.2755235 0.059788674 0.054707967 -0.408792 -0.012942857 -0.2962744 -0.33295768 0.2649459 -0.06033675 -0.46776325 -0.20400344 -0.4113797 0.19429871 -0.52768034 -0.4096081 0.14387664 -0.124649584 -0.023293624 -0.045244575 -0.45057905 0.036263257 -0.0064783916 -0.4571101 0.110089265 -0.60083073 -0.3991982 -0.06388662 0.3799751 -0.113129385 0.48915523 0.10760863 0.47576606 0.20622115 0.042645656 0.37937844 -0.12991683 0.0803936 -0.30944967 -0.3791294 0.020913066 -0.0189862 0.122514166 0.2215752 -0.34673655 -0.25252077 0.19840476 0.152135 -0.23326959 -0.062616594 -0.30944306 0.1705014 -0.44565615 -0.306097 -0.4626562 0.3213269 -0.01472433 0.10611603 -0.39708573 -0.0858102 -0.12596714 0.4501234 -0.060127135 -0.0087778075 -0.20307265 -0.10081947 -0.30275154 -0.14506224 0.47514212 -0.054450266 -0.06251304 -0.13737506 -0.05252719 0.10356749 0.03241305 0.1842646 -0.22550084 0.25701365 0.15762381 0.18660164 -0.262531 -0.2982299 -0.12729299 0.09931864 -0.052221898 0.24023204 0.32237142 -0.25093362 -0.16787708 0.062465444 -0.20906436 0.26553124 -0.3218934 0.10397631 0.09489246 0.26899093 0.008226558 0.0062272097 0.022522006 -0.22101128 -0.23568116 -0.18025294 -0.28515905 0.5572016 -0.20929018 -0.1993985 0.35274678 0.45382044 -0.08452474 0.15578131 0.24901181 -0.42354164
347 -0.24707665 -0.09896951 0.023055546 -0.1877204 0.17969999 0.42444724 -0.049933918 0.20923899 0.11339054 0.20993796 -0.19711448 0.10186968 0.015915725 -0.08537141 0.010631971 0.12594274 0.0840517 0.3790098 -0.15892002 -0.23866698 0.039505538 -0.04585203 -0.4142134 -0.026841622 0.21941394 -0.06689651 -0.07384098 -0.18903416 0.040203452 -0.04714787 -0.5845834 -0.12423597 -0.029531555 0.06909588 -0.27030343 -0.12291394 -0.02480755 0.036902323 0.2585082 -0.2130793 -0.056212828 0.1612686 -0.24446425 0.18940994 0.16792734 -0.17351906 0.32989985 0.11257169 0.2631291 0.40733913 -0.19544417 0.23832989 -0.5297161 0.36029112 0.062098682 -0.35829917 0.19247855 -0.05057805 -0.09435558 0.009134496 -0.057453755 -0.011409999 0.16445412 0.28024814 -0.17590165 0.15670647 -0.30122635 -0.33968788 -0.47915792 -0.53307223 -0.24628519 0.159117 0.16164562 0.14361188 -0.15091817 0.06657562 0.018531803 0.16071182 -0.34124687 -0.057865296 0.17493528 -0.07104359 -0.108010806 -0.025439294 0.09920964 0.03496481 0.20534097 0.13530755 -0.15275462 0.25529516 0.20041934 -0.09592717 -0.03734077 0.10441818 -0.09930643 -0.0705429 -0.050663862 -0.16358271 0.03588544 -0.035404608 0.23718053 -0.21269108 0.2709266 0.1733907 0.04287623 0.2896784 -0.25413492 0.16144064 -0.14872287 -0.022435773 -0.08961682 -0.09490544 0.00011736833 -0.10196768 -0.20306106 -0.16220379 -0.22375406 0.05512275 -0.19735439 0.3216057 -0.26743412 -0.1172193 0.4552259 0.054170042 -0.037731364 -0.00875798 0.09883652 -0.36910293
1368 -0.45195484 -0.17608912 -0.29552904 0.17236154 0.36190972 -0.18883102 0.51501876 1.1759647 0.0018771796 0.24180485 -1.0579324 -0.40208766 -0.46530157 -0.36106747 -0.08228536 0.5239072 -0.26006144 -0.050941084 0.14276107 0.21385162 0.32917634 0.74349195 -0.35357645 0.22703034 -0.1737277 0.49330387 0.053529937 -0.05252407 0.25682914 -0.31002963 -0.7080828 0.3625832 0.3255262 0.16833003 -0.91341686 -0.16097988 -0.38362634 0.24386914 0.40121353 -0.06848159 -0.06940491 0.38450435 0.8982362 -0.26058057 -0.1798522 -0.28991026 0.78875375 1.0240847 0.50793934 0.04317138 0.06525547 0.3293461 -0.27463824 -0.108507715 -1.0344578 -1.2067646 0.41167882 0.0846746 -0.31072095 0.4803569 0.22352162 0.013018757 0.042974185 -0.0036463602 -0.6430002 0.80537945 -0.86795443 -0.21628547 -0.61174595 -0.8246622 -0.68386143 0.1497278 0.23028691 -0.21469475 -0.167668 -0.65983707 -0.29634953 0.24186772 0.19120124 0.6172773 -0.24105807 0.6678968 -0.5445928 -0.056982167 0.35753033 0.011018758 -0.1711631 -0.9767188 -0.3915007 0.783439 -0.6447823 0.27124983 0.69103354 0.29912058 -1.0137527 0.6213139 -0.6280762 0.26085106 -1.4429849 0.7057228 0.58512133 0.20855509 -0.7747474 -0.02516682 0.19991869 -0.14818482 -0.8860072 0.5738973 0.018850835 0.17543085 -0.7155717 -0.07700011 -0.40560317 0.27289876 0.55052084 -0.5332319 0.18410334 0.21968661 -0.29604197 0.1269671 -0.39945042 -0.028101796 0.25445637 -0.62969655 -0.3871782 -0.03307463 0.4304057 -0.93497956
133 0.13217847 -0.12055443 -0.09925219 0.015497406 0.3139213 0.33675864 0.0511196 0.16218637 0.06686909 0.4589292 0.03824952 0.09194038 0.214269 -0.23391028 -0.11481393 0.3285328 0.20721205 0.2287496 0.26737332 -0.053461373 0.21293272 0.09762965 -0.1342347 0.2716158 0.05500847 -0.16449791 0.014939723 -0.7468571 0.1728779 0.12167621 -0.07347086 -0.52393997 0.39394742 0.018439518 -0.23729266 -0.17962608 -0.18838656 0.14293437 0.18576205 0.0998013 -0.011985146 0.376863 -0.18224396 -0.12653679 -0.3452759 -0.16036832 0.59665394 0.4620125 0.15530784 0.01038497 0.3349255 -0.06746227 -0.2811478 -0.030173367 -0.4871122 -0.40656778 0.09562817 0.27514046 -0.045093283 0.2616233 0.031378433 -0.04167848 -0.33382878 0.07622642 -0.3688776 0.40432054 -0.3496193 -0.2513534 -0.5985918 -0.39866078 -0.09700895 0.3735799 0.373214 0.13246931 -0.32546994 -0.3177133 0.055863056 0.13411462 -0.18020077 0.34584576 0.36263004 0.014117657 0.0076549286 0.266396 0.08601113 -0.035155002 0.14495303 0.0074930163 -0.03965092 0.24066564 0.18296707 0.23515208 -0.3312039 -0.14851396 0.45742083 0.07188502 -0.35687944 -0.3423202 0.2586617 -0.037339423 0.57120603 -0.27405524 0.30718148 0.27800298 -0.0556374 0.3746818 -0.22162089 0.08917983 0.08276531 -0.066128425 -0.50745654 -0.1876131 -0.2015508 -0.48451108 -0.0867695 0.033411734 -0.04581703 -0.3355711 -0.22376166 0.22979474 -0.59641683 -0.3560799 0.19756377 -0.20436966 0.052966963 0.009689475 -0.01224905 -0.56791645
1367 -0.4179151 -0.17729746 -0.34360936 0.15124226 0.35539213 -0.24280502 0.50868607 1.2357718 0.018561818 0.24735583 -1.0585096 -0.39398474 -0.5200688 -0.35899773 -0.08315819 0.4805802 -0.26539597 -0.048549596 0.14255857 0.2804356 0.34706736 0.7514527 -0.3361735 0.2200126 -0.12520991 0.52002454 0.04801838 -0.04153734 0.28999698 -0.2672361 -0.7479558 0.37786636 0.34450948 0.16849338 -0.91657203 -0.1550693 -0.37864724 0.20804621 0.4032069 -0.09052227 -0.05767723 0.3964264 0.92776716 -0.29193717 -0.20389138 -0.25724587 0.8188058 1.0457971 0.53487104 0.06447317 0.077684954 0.38376373 -0.2863002 -0.12857668 -1.0591062 -1.2608247 0.4027168 0.102337785 -0.311012 0.5283751 0.20193516 -0.004998326 0.061760053 -0.051823094 -0.6715234 0.789886 -0.89665824 -0.22733739 -0.61567086 -0.9002793 -0.7038403 0.11947844 0.25145078 -0.28242218 -0.16165692 -0.64717704 -0.3245737 0.271163 0.21360938 0.6463317 -0.23479185 0.6825349 -0.5494907 -0.08467756 0.37731588 0.009394353 -0.19999403 -1.0055645 -0.4126201 0.81628793 -0.66145176 0.27109763 0.66922575 0.2806824 -1.0379994 0.64359206 -0.6674809 0.25297284 -1.5264742 0.749115 0.61728513 0.22481334 -0.7373396 -0.049596958 0.24230833 -0.15547027 -0.93589455 0.6138448 0.015689265 0.170013 -0.68160367 -0.046090126 -0.40911758 0.29012385 0.5572385 -0.56351346 0.14209948 0.21514624 -0.2955677 0.15637103 -0.42077807 -0.033084556 0.28770646 -0.6675453 -0.35269052 -0.023393437 0.43702114 -0.91176486
168 -0.448614 -0.25295013 -0.01832732 -0.350578 0.045638055 0.43056312 0.20226847 0.26664743 -0.5746946 0.358541 -0.3737198 -0.48175058 -0.036440097 0.23622838 0.10049411 0.7033979 0.03604614 0.32861045 0.11153576 -0.13234924 -0.028483534 0.24837783 -0.43593207 -0.22525533 -0.23330119 0.24922557 0.30588308 -0.15290439 -0.20999268 -0.1757375 -0.3150671 -0.27039626 -0.31286675 -0.07009344 -0.19196522 -0.046727132 -0.017417496 0.12657739 0.4411129 -0.17005995 -0.22837488 0.13977627 -0.28774178 0.25224033 0.024543509 -0.32306588 0.16084689 0.6246563 0.12276856 0.3330135 -0.13839999 -0.016928172 -0.4163347 0.51460725 -0.11237209 -0.07898356 0.30515087 -0.17592447 -0.21205305 -0.17246994 -0.26284817 0.012637347 0.45256358 0.2150965 -0.09309207 0.14308013 -0.201073 -0.099843346 -0.36816114 -0.009552126 -0.49506134 0.73246384 -0.007055601 0.16275454 -0.24892667 0.149835 0.39801562 0.076103814 0.0067639234 -0.039181124 -0.12382377 -0.08070111 -0.24201676 -0.06719219 0.009249048 0.31344742 0.12982401 0.17100134 -0.17501605 -0.07056787 -0.28944373 -0.116890386 0.19743669 0.3392101 -0.15478593 0.051146075 0.1487508 -0.11791868 -0.3391268 -0.18868174 -0.01248974 0.15055598 -0.1559704 0.2088073 -0.09467803 0.37208474 -0.097419545 0.07240697 0.11676184 0.036745016 -0.51016474 0.013632887 0.14990701 0.055055052 -0.025948303 0.058167182 -0.0707472 0.123842776 -0.21236715 -0.10902079 0.17756127 -0.50147116 0.04599479 0.15873359 -0.32009563 0.1473913 0.18272595 -0.54090714
475 -0.05757851 -0.019947557 -0.1754785 -0.07835192 -0.015477995 0.5504143 -0.010033626 0.19507538 0.012248898 0.06399686 -0.15250085 0.080495805 -0.0047572902 0.032794837 0.008949653 0.1105225 0.13022693 0.5313729 -0.040187333 -0.1593708 0.031629227 -0.026442904 -0.17663418 -0.121532485 0.115444474 -0.06542661 -0.027908767 -0.21825144 -0.078772955 0.045043856 -0.26334935 -0.31775275 0.012906759 0.016671 -0.2585689 -0.1297006 0.079449415 -0.08810428 0.090815015 -0.08073361 0.081950344 -0.0024438398 -0.44792387 0.27471298 0.10927377 -0.17176162 0.4655475 0.43827164 0.47018313 0.22908403 0.007996683 0.20131135 -0.37456375 0.30878812 -0.05888737 -0.25280917 0.107142925 0.14111482 -0.006817342 -0.13683331 -0.13744093 0.045681484 0.059489056 0.18084946 -0.28599533 0.24423046 -0.18963882 -0.3024585 -0.41688877 -0.37892383 -0.5070829 0.29675248 0.26409155 0.12021393 -0.24568665 -0.030841041 0.028009564 0.046440914 -0.12633516 -0.042378824 0.09917399 -0.20763442 -0.057937104 -0.17924272 0.0835753 0.014980026 0.17260651 0.21047564 -0.10275307 0.25855342 0.096730486 -0.03973164 -0.19238263 0.02371944 0.09398936 -0.066504516 -0.11922173 -0.16543645 0.120099515 -0.20373745 0.1274932 -0.38035658 0.1502047 0.2480926 0.037510306 0.34928408 -0.18955597 0.13932122 -0.118855834 -0.12876666 -0.0892121 -0.17695878 -0.045890156 0.034371845 -0.3408827 0.0836211 -0.16805212 0.12513621 -0.20845175 0.22335783 -0.13548388 -0.18882899 0.4597052 0.17184372 -0.043617785 -0.047658596 0.20867057 -0.3393286
121 0.37533998 -0.24609087 -0.07570115 -0.73773074 -0.30902442 0.3532848 0.07147725 0.2883125 -0.46320724 0.090997145 -0.22003095 -0.16268887 -0.34304026 0.11796787 -0.010543559 -0.2922923 0.04246099 0.34905255 -0.08804713 0.23720954 0.3897418 -0.17836186 0.33965287 -0.03451407 0.33729702 -0.11102696 -0.025182664 -0.26578945 0.025717327 0.60298604 0.07517297 -0.25884992 0.12718195 0.356315 -0.35563532 -0.32312524 0.06584596 0.009272927 0.19391629 -0.38288516 -0.33326322 0.2576974 0.035228543 0.08861906 0.10463904 -0.31657913 0.18801019 0.7882952 0.1495373 -0.42991108 0.21831428 0.07386248 -0.5078695 0.42182004 -0.21276091 -0.4096737 -0.07844354 -0.12361653 -0.12992707 0.16208927 0.13230053 -0.24531573 0.27852556 0.05472089 -0.042362787 0.40428248 0.043718684 -0.34537172 -0.7417832 -0.33533597 -0.28493974 0.36872712 0.22341676 -0.043632176 -0.23715347 -0.21136184 0.14844254 0.0698295 0.41634008 0.40399054 0.23465708 -0.10711627 0.13556972 0.1344223 -0.10228319 -0.06667821 -0.18987559 -0.058133233 -0.28156775 -0.36392653 -0.2663478 0.014741666 -0.14444332 0.14030093 0.15899844 0.14344673 -0.43939635 -0.1521029 -0.10438376 0.04289321 0.06452639 0.22667846 -0.054966964 -0.26567653 0.11725251 -0.17618328 -0.35869443 0.21325159 0.3382486 -0.11723198 0.087830156 -0.103970915 -0.40342838 -0.22044611 -0.31862938 0.1330294 -0.10875804 0.45890087 -0.042542357 0.1168431 -0.18144591 -0.01424274 0.24082747 -0.4256 0.026756313 -0.2551115 0.4109985 -0.2641508
244 -0.070336044 -0.23958147 -0.20143405 -0.19706924 -0.10209779 0.19830927 -0.08497344 0.27821174 0.1585855 0.17216054 -0.096367165 0.1457163 -0.08743483 0.008963081 0.12937136 -0.03568465 0.18247716 0.4834418 -0.21436006 -0.09026878 0.04501674 -0.026248181 -0.10348634 -0.17506059 0.06068773 -0.17232366 -0.07026638 -0.011005521 -0.21344887 0.13002448 -0.4288735 -0.24121721 0.3502711 -0.019913036 -0.3298364 -0.113353066 -0.17480917 0.137367 -0.104553595 -0.10875019 -0.2193883 -0.028499458 -0.27828103 0.04659868 0.108844765 -0.10411563 0.32009166 -0.20670573 0.40931082 0.21489672 -0.115140766 -0.04791748 -0.4362116 0.38929728 -0.06815133 -0.39016002 0.37918276 -0.049319237 -0.03069567 -0.22113493 -0.17165971 -0.094802774 0.08748083 0.20302077 -0.09642846 -0.09257336 -0.23051845 -0.35655513 -0.25133622 -0.5765793 -0.32860672 -0.011235875 0.08650594 -0.006124745 -0.11012765 0.011636799 0.22888859 0.0113205975 0.056309853 -0.066788785 -0.16600539 -0.008027146 0.05848742 0.03586033 -0.06439309 -0.118388005 0.13865696 0.092233635 -0.20855197 0.08326804 0.1153968 0.05569553 0.12235824 0.150847 0.019578412 0.018052021 0.054266017 -0.3093221 -0.3240083 -0.21801192 -0.014761923 -0.37762323 0.18832694 0.3458175 0.09163418 0.23898612 -0.23043321 0.028851813 -0.2142401 -0.052078974 -0.02125997 -0.19808336 -0.050831135 -0.19825467 -0.17547475 -0.1687631 -0.16556174 0.3430657 -0.10862176 0.23496674 0.03842423 -0.18818383 0.46206453 0.36854786 0.12507519 0.14143856 0.03293945 -0.44145826
108 0.33426976 -0.057273775 -0.07507213 -0.11428483 0.020375716 0.00767742 -0.30158293 -0.12273919 0.00051461713 -0.19462533 -0.39777932 0.4411001 -0.3667017 0.08347455 -0.21344201 -0.18697983 0.32793126 -0.036365297 0.07964078 0.04757881 0.23446284 0.2595526 0.15237771 -0.14051875 -0.29685363 -0.24615665 -0.07561819 0.5213796 0.27134058 -0.21985964 -0.13473214 -0.06902978 -0.35713017 -0.3729741 -0.06657151 -0.10734869 -0.18854654 -0.13716967 0.2103004 -0.21901688 0.06414978 -0.0039243526 0.2088976 -0.105403766 -0.2129805 -0.027482156 0.16876979 0.19274302 -0.05097893 0.27522007 -0.18379444 0.15577957 -0.31632978 0.15266445 -0.3385362 -0.027700802 0.337198 0.010596601 0.24948205 0.028282162 -0.411761 0.11512587 0.3571701 0.079729214 -0.2900878 -0.15696132 0.07100147 -0.7133434 -0.18590046 -0.5820739 -0.41612437 -0.040572528 0.18978575 0.08849354 -0.30995205 -0.22838973 -0.07869337 0.28209808 -0.009794058 -0.031858817 -0.10334924 0.23909137 -0.21670942 -0.115996055 0.237567 0.105332024 0.28475663 0.01485032 0.39830476 0.3921645 -0.23155087 0.5547895 0.12477122 0.3616176 -0.04930353 -0.1435311 -0.18702978 0.23507895 -0.6249522 -0.23280236 0.10378225 0.30110648 0.0021972402 0.5174089 0.262684 0.3766402 -0.19722067 0.23003036 0.031760357 -0.18470564 -0.33007586 -0.03329435 0.09044377 0.034077656 -0.042824026 0.13480751 -0.40944102 -0.4729762 0.1263671 -0.13742888 -0.344627 -0.33288255 0.6373072 0.22102106 -0.014657726 -0.034912977 0.33243337 -0.30036536
408 -0.12127814 0.120891415 -0.30355227 -0.21842335 0.34247085 -0.18845017 -0.17169118 0.02075572 -0.26207134 -0.18006265 -0.035695326 0.1442137 -0.01960546 0.053676587 -0.19023393 0.17838068 0.4727354 0.43667173 -0.6844629 0.31893075 0.002419653 0.13832025 0.15275246 -0.006570141 -0.1854193 -0.07881293 -0.10026246 -0.2359582 -0.3118083 0.51715213 0.10292926 -0.39464843 0.22520937 0.08291613 0.042172372 -0.36172098 -0.30489007 -0.101334795 -0.33337045 -0.2553731 0.45028222 -0.16696686 0.015873758 -0.38421285 0.17335223 -0.22409792 0.11883828 0.112394646 0.14104208 0.09688939 0.03052693 0.19390893 0.1992417 0.41992417 0.15242882 -0.52570677 0.44624203 0.4000868 -0.14406925 0.23203595 -0.08857964 0.28477478 0.3333773 -0.12612498 -0.2651188 0.3119849 0.20141204 -0.29381394 -0.331121 -0.5932659 -0.43824506 0.32175833 -0.20001541 -0.5805069 -0.13112676 -0.22465798 -0.20411141 0.54912716 0.20627059 -0.18599057 0.021716705 -0.09202084 -0.50060815 -0.24565211 -0.03531585 -0.06161699 -0.020727538 -0.20933251 -0.41011053 0.24812454 -0.026358958 -0.16473418 -0.06407579 0.22827002 0.034938037 -0.16749817 0.010561641 0.12795512 0.0019639917 0.10688231 -0.54173666 0.18126877 -0.07802859 0.24385744 0.12347613 -0.14330469 0.016125023 0.14350426 -0.0934462 -0.019109864 -0.15060893 0.16148071 -0.24389061 -0.3319664 0.32423136 -0.21788852 -0.45706436 -0.0067139757 -0.21206298 0.10501369 0.22008483 -0.21567197 -0.19071089 0.21039249 -0.20062931 -0.15692547 0.10630044 -0.3769539
101 -0.52492124 -0.75425875 -0.577501 0.29062334 0.056200434 -0.12816131 -0.07642144 -0.019863931 -0.15370089 0.53757656 0.38815305 0.06770689 -0.24529283 -0.021408137 0.14410152 -0.17756858 -0.11355422 0.7411203 -0.49103755 -0.13168809 -0.43786088 -0.0015792084 0.044254303 0.39235497 -0.078470744 -0.0071595935 0.08621549 -0.040556446 0.057634834 -0.15906811 -0.41224617 0.08119692 0.37070072 0.20698068 -0.21524064 0.1269381 0.013863232 0.07420089 0.6364401 -0.022037294 -0.051717952 0.019608209 0.32083187 0.11802494 -0.3194634 0.08353915 0.5496908 0.11626244 0.040076174 0.0013743772 0.20859078 0.100216985 0.10180342 0.39059606 0.59450114 -0.39374027 -0.04731321 0.00953521 0.24006702 -0.0089149475 -0.4282711 0.19550812 0.20295969 0.18060105 -0.49261466 0.01786136 0.14526494 -0.32222027 -0.41324994 -0.30739087 -0.52527183 0.13565542 0.019925369 -0.4012954 0.098225206 -0.03973013 0.05447658 0.04611963 0.24273689 -0.24346545 0.47126827 0.5657095 -0.20491618 -0.244116 -0.43491974 -0.22327879 -0.08935568 0.057162818 -0.47867173 -0.043717522 -0.17487991 0.41558066 0.31025404 0.020013727 -0.0019928569 0.2579746 -0.34047228 -0.37944737 -0.029352026 0.018815812 -0.042468198 -0.117402285 0.3393673 -0.38087198 -0.029149903 0.30354849 -0.42493492 0.21031974 0.11274729 0.13321304 -0.12217555 0.4851338 0.14470206 0.02434083 -0.18185435 0.16049695 -0.47416633 -0.41546884 -0.59052366 -0.01175012 -0.44834435 -0.15382949 0.0014945217 0.37125343 -0.25482902 -0.18445726 0.12191157 -0.52575684
993 0.00566213 0.048891354 -0.78134435 -0.09598944 0.8244564 0.24901366 -0.045960736 0.07991587 -0.1023328 0.6811634 -0.96133304 0.24039862 -0.19215 0.12704457 0.42586792 -0.28547078 -0.17748791 -0.2665214 -0.8209233 0.31160423 0.6004113 0.54104257 -0.33331883 0.5358308 -0.43782175 -0.43650016 -0.22831354 -1.0122768 -0.14230321 -0.15060669 -0.6217808 0.13078532 0.19290335 -0.71362674 -0.62442225 0.18716908 -0.6839992 0.8273639 -0.047931332 0.03882704 0.7006237 -0.28506288 0.9124499 -0.40193638 -0.2621804 -0.35887384 0.7377693 -0.021196628 1.0674844 -0.5482113 0.432449 0.1695719 0.05982073 -0.29450414 -0.73563343 -0.6475995 0.1617173 0.20569193 -0.39339367 0.112135135 -0.4618727 -0.34071356 0.52132076 0.07698364 -0.7785943 0.7063343 -0.2825524 -0.46080643 -0.7618607 -0.2147061 -1.3368455 0.50494856 0.113812715 -0.44547814 0.14221302 -0.9353659 -0.41755635 -0.13445203 0.26245505 1.0492718 -0.7166684 0.1476435 -0.33218545 -0.38637725 0.29312345 0.41450477 -0.97163653 -0.80198854 0.14430296 0.006455905 0.013120675 -0.021317145 -0.20274247 0.63942325 -0.20190124 0.9800806 -0.8880564 -0.30267632 -0.8618073 -0.08875966 -0.4855596 -0.15945347 0.00083555793 -0.48102742 0.2373694 0.065361276 -0.4280809 0.0063959137 0.28429338 -0.29148546 -0.9255982 0.019798424 0.48557606 0.15164946 1.0257578 -0.5290943 0.3876206 0.036561627 -0.7058506 -0.22861087 -0.6667397 -0.11949125 0.22043207 -0.094382755 -1.0692794 -0.013039549 0.46564862 -0.88965166
992 0.041830752 -0.011179605 -0.792917 -0.11129659 0.80957794 0.21979883 -0.05619577 0.14636269 -0.091744505 0.69560814 -0.9736553 0.22706108 -0.20620817 0.12244859 0.4114302 -0.2433224 -0.16208309 -0.28429413 -0.8139825 0.37707397 0.6172715 0.5420523 -0.34790602 0.5480791 -0.43919325 -0.4185774 -0.19540225 -1.0196564 -0.14473602 -0.11355386 -0.6726576 0.14018337 0.23752952 -0.7451242 -0.60622907 0.19563906 -0.70922405 0.8628056 -0.07934557 0.027804233 0.7623547 -0.27024284 0.9162875 -0.40853328 -0.23848642 -0.34190142 0.73354155 -0.031301916 1.0629737 -0.54558814 0.42353874 0.13232909 0.032870773 -0.32908827 -0.7157189 -0.6782859 0.21014808 0.22142221 -0.36533093 0.17095597 -0.47821546 -0.37483782 0.5170572 0.050023526 -0.8205374 0.7016466 -0.29190916 -0.4263596 -0.78583 -0.24671315 -1.3833303 0.5012136 0.11239507 -0.4632129 0.16433406 -0.94745654 -0.42759657 -0.103765674 0.2782785 1.0866777 -0.7401248 0.14915016 -0.3052341 -0.37506852 0.31610438 0.42507732 -0.9631318 -0.8328033 0.10272113 0.011983408 -0.008278148 -0.052752785 -0.16286519 0.6440734 -0.239858 0.98328364 -0.8450112 -0.29318836 -0.92635125 -0.03837343 -0.5137839 -0.13306162 -0.028431196 -0.45510384 0.2755699 0.06740218 -0.44000968 0.059186082 0.2829159 -0.30171275 -0.95919335 0.05284051 0.5088392 0.11928335 1.1002432 -0.58956045 0.38634282 0.025502454 -0.7370944 -0.22745214 -0.71915066 -0.17237028 0.23329248 -0.15536731 -1.0460823 0.0032187141 0.5023019 -0.92244756
33 0.10396289 -0.40729463 0.19858848 0.028269839 0.07776168 0.107323006 -0.23666668 0.061765656 -0.004243077 0.12242505 0.025518617 0.22314276 -0.8869781 -0.042918675 -0.3209546 0.08458304 0.24761409 0.055511672 0.27786624 0.06003701 0.13321286 0.32282537 -0.1596935 -0.08774491 -0.0051276493 0.023826314 -0.26114938 0.22042647 0.43357837 -0.16516423 0.14367081 -0.043753523 0.14527217 0.01495398 -0.6265972 -0.059888564 -0.09439888 -0.19352305 0.43075272 -0.10273523 -0.14474407 -0.026338149 0.33566007 0.18101056 -0.07636454 0.042024523 -0.10341872 0.3427159 -0.09798397 0.3784629 0.20153762 -0.099781886 -0.3007651 -0.28421968 -0.28817838 -0.20895424 0.20491162 -0.13504004 -0.2075303 0.11708556 -0.21902338 -0.024028543 0.33213487 -0.0009266237 -0.499128 -0.15240307 0.044260133 -0.57898927 -0.4485868 -0.53200394 -0.20292634 0.27324924 -0.27344128 -0.047835156 -0.20043814 -0.34287345 0.12164732 0.1199302 0.0107472055 -0.115786664 0.05897632 0.35003686 0.074089184 0.027694082 -0.31079683 0.3254615 0.14581475 -0.035964645 -0.083990835 0.4069373 -0.021166693 -0.09043233 0.17923704 0.07420614 -0.021655442 0.12803225 -0.16364528 -0.047816932 -0.27321944 -0.1635215 0.1715803 -0.11173131 0.09347808 0.07202165 0.4675727 0.20115225 -0.29720244 0.34810615 -0.33978474 -0.29492837 -0.24702133 0.056123532 -0.07615545 -0.016375998 -0.1973597 0.27876306 -0.36661676 -0.3444039 -0.15179454 -0.08367078 -0.24381544 -0.050524313 0.18925576 0.017000377 0.06643772 -0.38830954 0.30859074 -0.06546166
245 -0.098197654 -0.0941241 -0.15525383 -0.122659326 -0.14761879 0.32440794 -0.24860652 0.3059337 -0.010035748 -0.2800812 -0.4306819 0.0033203952 -0.36228523 -0.23971692 -0.063185595 0.1534494 0.26089576 0.18681097 -0.27548337 0.15768926 -0.24142312 -0.25040868 -0.03717196 -0.024835432 0.14615023 -0.031443227 -0.15515175 -0.32943973 -0.12613349 -0.17825453 0.12560967 -0.36861858 0.06328821 0.29068685 -0.21149372 0.15181135 -0.017829986 0.093150966 0.20555148 -0.09653479 0.049079325 0.028421473 -0.16458951 0.01475511 0.17351915 -0.06781654 0.41381973 -0.027697237 0.25565785 0.011302615 0.16312434 -0.073064625 -0.045993265 0.34899056 -0.47141942 -0.36431673 0.43400702 0.39038956 0.08893711 0.042458363 -0.11735337 0.04295962 -0.19178882 0.19762057 -0.47542053 0.18025254 -0.081519276 -0.30797073 -0.76691324 -0.38979813 -0.15653694 0.034970775 0.066418536 -0.049550604 -0.09113749 0.08876131 0.04880069 0.0062460913 -0.06453921 -0.2629052 0.060479872 -0.12288407 0.1819517 -0.1897026 0.3146547 0.08915385 0.40160537 -0.012640216 0.117192425 -0.22052932 -0.22696173 0.20659906 0.22869425 0.23130374 0.2458351 0.03730098 -0.3346931 -0.4426374 0.2934001 -0.4049652 -0.13614386 -0.43181866 -0.18231317 0.5380181 -0.30962566 0.313115 -0.3946102 0.15808989 0.11159567 -0.0023072253 -0.24021424 0.16214842 -0.018240983 -0.060950402 -0.16319022 -0.09312794 0.026773704 0.25769678 0.041427672 0.45041445 0.1171216 -0.4249264 0.604304 0.66744995 0.07449746 -0.105140075 0.106628425 -0.27470687
474 -0.44005123 -0.09194148 -0.11469258 0.006489984 0.13156223 -0.04438636 0.03447283 0.83205223 0.13278927 0.041104738 -0.04605781 -0.36557147 -0.28640303 -0.3005621 0.09723291 -0.049151402 0.28473246 -0.20799011 -0.1821865 0.0029335762 0.18338905 0.4314296 -0.37232617 -0.030320954 0.264872 0.16084646 0.21439411 0.18940015 0.1359433 -0.43277457 -0.28951445 0.11770811 0.11053502 0.014480876 -0.5298097 -0.13812245 -0.019080877 -0.054298207 0.22945307 -0.4749932 -0.034939367 0.14490715 0.37652677 0.12436841 0.12944882 -0.44249445 0.2664695 0.41612846 -0.31799424 0.41839454 -0.14795476 0.0502833 -0.25478983 -0.048414655 -0.26000643 -0.7436577 0.4161911 -0.15135695 -0.39934272 0.09362508 0.32474858 0.3175273 0.06864291 0.14360215 -0.25779527 0.06707933 -0.25768778 -0.1456037 -0.41948366 -0.59701055 -0.59509975 0.04990873 -0.09759229 0.06318528 -0.1652884 0.3344738 -0.46017572 0.24144447 -0.015645979 -0.057037465 0.013217661 0.039001297 -0.26239467 -0.023534989 0.31452066 -0.13790892 0.15400629 -0.1361157 -0.39880523 0.29522857 -0.24441399 0.36003003 0.18768583 0.033961736 -0.5908968 0.4393932 -0.1376571 0.19367667 -0.43298745 -0.12692896 0.11117524 0.14485781 -0.029666116 0.042630143 0.102609925 0.25943002 -0.5110101 0.38515788 -0.21356049 -0.19373757 -0.3735432 0.1742959 -0.07166634 0.042074252 0.15610074 -0.109686725 0.25837502 0.06972683 0.21726808 0.05380972 -0.113163546 -0.24375315 0.32983297 0.04766702 -0.21387544 -0.053007524 0.102233104 0.007334055
520 -0.05251761 0.0348635 -0.09777501 -0.036270846 0.23350456 0.18767974 0.021675374 0.096933946 -0.1221193 -0.008370712 -0.040958025 -0.118635215 0.31162265 -0.3625169 0.10921633 0.14589518 0.24316992 0.06593682 -0.42243674 0.15939072 0.21294801 -0.20526873 0.1639409 -0.12150373 -0.17611875 -0.035999943 -0.055581145 -0.05127871 -0.03790215 -0.060048636 -0.034678254 0.0676011 0.35330808 -0.048984077 -0.39136422 -0.7787593 -0.257389 -0.15850353 0.310184 0.13778579 0.15539554 -0.11173053 0.120096125 -0.26316586 -0.23852712 -0.5932583 0.46281707 0.10843109 -0.0014356762 0.050969332 -0.17914101 -0.23154879 -0.27369136 0.3913688 -0.23162504 -0.43696526 -0.18937704 -0.04122092 0.24399017 0.32718986 -0.36795267 -0.15101719 0.2615535 0.35093614 0.06649063 -0.23041986 -0.3584671 -0.43769646 -0.4014021 -0.008309547 -0.13296282 0.37779588 0.05576311 0.15230279 -0.29077634 -0.21941683 0.38445178 0.03900213 0.11407497 0.43477768 0.16092847 0.4994187 0.115705386 -0.22631726 0.120978504 -0.27884716 -0.12549347 -0.5685011 0.22764204 0.10550905 0.3790784 0.27389556 -0.035881303 0.16848385 -0.20018877 -0.032999225 -0.14080088 -0.094328545 0.16801289 -0.24857128 0.012434185 -0.32608303 -0.1453651 0.20070834 0.26481938 -0.15443492 -0.4279058 0.2231655 -0.03488455 0.12669525 -0.33590716 0.045878906 -0.4895824 0.070458315 -0.05680065 -0.034044374 0.11293846 -0.22681983 0.1219586 0.35798055 0.014434479 -0.04930204 0.29851595 0.06251855 -0.13560855 0.25666583 -0.06978421 -0.36495692
492 0.04623303 -0.055043917 -0.38351554 0.015311288 0.34593022 -0.010884275 0.24777608 -0.32634524 -0.3801066 -0.090015955 -0.19520144 0.33394444 -0.005673306 0.25202745 0.2161843 0.20454939 0.11090013 0.03318297 -0.372882 -0.021437392 0.020098014 -0.06996274 0.20714009 -0.4387057 -0.1627375 -0.15189531 -0.0750932 -0.07198028 -0.30026633 -0.01774208 -0.50235957 -0.33756667 0.078845166 0.10624326 -0.5391103 0.1762653 -0.027459592 -0.23355861 0.17028502 -0.035162166 -0.42320022 -0.077409655 0.119537875 -0.23628154 -0.058197953 -0.49349862 0.087827794 -0.15058291 -0.009804679 -0.028477194 0.55094874 0.34190172 0.1756866 0.13620533 -0.078186795 -0.17511126 0.19558333 -0.077831514 0.36268815 -0.031036746 -0.29364297 -0.052311614 0.59017617 0.29400557 -0.1350951 0.28257617 0.24327129 -0.65474176 -0.12879474 -0.14060941 -0.43996978 -0.011260751 0.41028675 -0.022630138 -0.2896662 -0.15424639 -0.32653427 0.6712954 -0.15055208 -0.045960933 0.3989556 0.2393403 -0.41456866 0.118436925 -0.1736595 0.010881795 -0.31562737 -0.36212027 -0.19470488 -0.20433551 -0.51833194 0.19017927 -0.24066801 0.35142967 0.11320109 -0.3529111 -1.0136471 -0.018671136 0.39698336 -0.030096117 0.28620845 -0.33742976 -3.8193433e-05 -0.12145228 0.09584895 0.520182 -0.55375755 -0.11737964 -0.24327062 -0.09324254 -0.19707239 0.08272545 0.008061374 0.09536006 -0.036724012 -0.060143016 -0.5699495 -0.4537924 -0.24500214 -0.15121163 -0.56355107 -0.043158673 0.26863298 -0.19637538 -0.25556135 -0.38265693 0.30895278 -0.36437258
73 -0.15144241 -0.36133108 0.035706036 -0.29933083 0.54911125 0.084213056 0.2772007 -0.2085513 -0.40203792 0.5133435 -0.46580753 -0.1563274 -0.4745541 0.33413708 0.07143275 0.26962206 0.6108941 -0.10691109 -0.543378 -0.07415233 -0.18180467 -0.26192144 -0.43917418 -0.0655089 -0.4927372 -0.03885604 0.32921842 0.1594799 -0.068422414 -0.053085674 -0.43695265 0.22708407 0.011731651 0.016988715 -0.08172836 -0.13252139 0.046932995 0.2598047 0.13338633 0.08024629 -0.3597034 0.37696856 0.29953355 -0.6051715 -0.11605461 0.13367221 0.391743 0.44114515 0.24818207 0.27592626 -0.08351247 0.23835771 -0.040853187 0.57164884 -0.5529363 -0.47301522 0.0030325067 0.040444583 -0.29566622 0.085086234 -0.4175413 -0.01247638 0.21510653 -0.13100262 -0.5319584 0.16043536 0.039979037 -0.060733248 -0.15642527 -0.2723991 -0.41696078 -0.14028844 -0.13356748 -0.5583577 0.070240475 -0.03767262 0.41772562 -0.12659407 0.32856223 -0.016901061 -0.22483711 0.21329054 -0.21111068 -0.35047528 0.18074118 0.4742007 -0.44475472 0.045831867 -0.28748152 -0.18455143 -0.19113097 -0.367137 1.2836919 -0.0035290034 0.13828842 0.07491963 -0.5190567 -0.023685988 -0.35424504 0.14252871 -0.09398821 -0.46743387 -0.16501226 0.38858756 0.031845905 0.10395375 0.006583019 0.5340161 0.3229049 0.2751862 0.020589922 -0.024264427 -0.27378908 0.009234031 -0.06945922 -0.0947076 0.34887716 -0.14365765 -0.46823886 -0.23869959 0.004996672 -0.30415812 0.14590009 0.0694646 -0.21490002 0.2899202 0.3173448 -0.5696204
231 0.13720368 -0.02274075 -0.052484017 -0.34070608 0.33149815 -0.12957329 -0.18903874 0.22187644 -0.35459054 0.082624875 -0.18647805 -0.25826097 0.117065124 0.093377 -0.023832187 -0.03277808 0.41297993 -0.05224807 -0.3075631 -0.039930075 -0.18543327 -0.09692853 -0.16448416 0.12240494 -0.039837997 0.13624771 -0.10742083 0.13047554 0.043320052 0.46878734 -0.3669002 -0.06906016 0.014517986 0.10295263 -0.062124826 0.14586785 -0.125362 -0.33234656 -0.0090909945 0.033923015 0.17536962 -0.15329699 -0.03780382 -0.42479804 0.11974387 -0.26769212 0.27638355 -0.088271655 0.18680505 -0.0054436545 -0.103132956 0.22492832 -0.097209975 0.64430696 0.08564335 -0.10569193 0.04650929 -0.22405 0.24804698 -0.07893551 -0.116221026 -0.41529158 0.23630697 -0.28601548 0.31939906 -0.086009055 0.27974367 -0.405444 -0.33977017 -0.408801 -0.49534127 0.35498053 0.11523915 -0.25997275 -0.2200269 0.05630263 -0.17900476 0.5530357 0.09145677 0.3260131 -0.09884383 0.43189895 -0.43776095 -0.102914914 0.3434337 -0.063731104 -0.045991037 -0.4721829 0.31159237 0.18009159 -0.31606966 0.10625758 0.32900697 0.25939095 -0.2718946 0.13773915 -0.37520772 -0.13915934 -0.065734334 0.21680012 0.029328989 -0.030246697 0.18049349 0.43301612 0.24707368 -0.12284658 -0.67648613 -0.15767813 -0.025731027 -0.218419 -0.19689707 0.2220476 -0.03206764 0.0015107413 0.177798 0.13440897 -0.46697128 0.15792628 -0.044320315 0.50442165 -0.14906047 -0.4026829 0.21504638 0.20247485 -0.15684606 0.16555049 0.29424015 -0.6580498
389 -0.17527159 0.035598524 0.1306499 -0.03446158 0.1308352 0.5233107 -0.053540755 0.004244936 -0.2906298 0.29686686 -0.23224694 0.34776077 -0.5022244 -0.010046301 -0.010791148 -0.4018486 0.14029415 0.039565064 0.068257205 0.3092329 -0.36395487 0.3688947 -0.32653266 -0.2867158 0.25097275 0.5595672 0.29096413 -0.22204377 -0.20328014 -0.20152998 -0.0147292055 -0.04114259 0.29001638 -0.15686162 -0.45599312 -0.055548094 0.112457305 -0.009157873 0.16489817 0.44923276 -0.045387488 0.097908966 0.14441432 -0.021856591 -0.2575897 -0.097047955 0.6645445 0.10057836 0.17332374 -0.11787293 0.174674 0.38031757 -0.2044332 0.584362 -0.47868684 -0.11414791 0.2993765 -0.016619949 0.061109032 0.002312874 -0.09004622 -0.009030244 0.1155895 0.19164252 0.17937931 0.6007299 -0.2590831 0.0050173528 -0.49297166 0.15336403 -0.19143412 0.16051914 0.10989599 -0.2341544 -0.21152985 0.3229551 -0.19998968 0.5506197 0.057815902 -0.034927502 -0.050141737 0.35172373 -0.35209566 0.17634489 0.12638351 -0.30007052 0.1458592 -0.26944208 -0.015458309 0.2682547 -0.16405731 0.15680473 -0.4575037 0.5354674 -0.3140425 0.4213182 -0.66835636 0.08642558 -0.13608664 -0.0570312 -0.06938205 0.088286184 -0.17560345 -0.10587992 -0.04758602 0.38761166 0.09779256 0.016743014 -0.043464124 -0.15744698 -0.2516507 0.029200284 -0.55904806 -0.018107299 -0.09995214 0.39098564 0.1287102 -0.064610496 -0.11356258 0.38142666 0.091409504 -0.076136746 0.02662799 -0.19684266 0.10344306 -0.37336633 0.23206182 -0.05900626
16 -0.37459272 -0.47012538 -0.31240278 -0.19785228 0.458287 0.53338605 0.11741768 -0.27950308 -0.33290908 -0.42255884 -0.10002104 -0.22171932 -0.39252406 -0.21215563 -0.1291609 -0.078151084 -0.21469648 0.3198036 -0.6110007 -0.1837565 -0.27555302 -0.6601221 -0.60459656 -0.36344543 -0.2500298 -0.08057929 -0.005775163 -0.060910217 -0.12711512 0.034210693 0.02498963 0.4009563 -0.23101965 -0.4405315 -0.36735535 -0.22780173 0.019173307 0.19767363 0.6248113 0.42748845 -0.6339384 -0.17235251 0.076715246 0.030551117 -0.031062517 -0.12380212 0.6552645 0.13921729 0.1641382 0.038908523 0.07059165 -0.022791503 0.303545 0.6715281 0.19473587 -0.7327932 0.39613664 -0.26141456 0.39363047 -0.3694016 -0.7042024 0.16193663 0.2524997 0.011001433 -0.47938484 0.038925033 0.31920624 -1.0024348 -0.78540707 -0.37063974 -0.08510293 -0.14599809 -0.13848205 -0.04551627 0.1607782 -0.017226301 -0.21889238 0.05168082 0.1311321 -0.17080906 -0.06386152 0.23613122 -0.0817474 -0.030752048 -0.025362113 -0.032050364 -0.26557142 -0.002347866 -0.16198245 0.26522136 -0.23386014 0.47682557 -0.18389823 0.5059426 0.005314201 0.30734193 -0.46803793 0.19558716 -0.17483306 0.0077907005 0.109673515 -0.0055632824 0.57314485 0.1472939 -0.17964871 0.21297435 0.029798908 -0.310003 0.23225704 -0.05285535 -0.13934164 0.012668341 0.3130593 -0.18995796 -0.66871 0.0538463 -0.2573502 -0.2406198 -0.32980943 0.3150468 0.082791746 0.13482024 0.42597094 0.27802256 -0.21270843 -0.15065657 -0.28799632 -0.2833846
164 -0.133504 -0.48731148 -0.21121876 -0.30332 0.20386846 -0.029353943 -0.26851422 0.33003432 -0.18361421 0.056733586 -0.18724725 -0.22047704 -0.13731338 -0.4300146 0.08108047 0.18755396 0.37463614 0.42288443 -0.02385345 0.14615177 0.038606178 -0.15139557 -0.07708638 0.033674106 -0.032253925 0.08712204 0.0818179 0.054923244 -0.16082047 0.032010473 -0.14348112 0.15353434 0.11036731 0.048098654 -0.15278336 -0.13277867 -0.30901048 0.18898962 0.3111818 0.06656453 -0.08038337 -0.023245627 -0.14913692 -0.121433325 0.38147435 0.14581013 0.5095055 0.23244227 0.5010712 0.35993135 0.10197422 0.039090473 0.22592731 0.18558624 -0.3642616 -0.29830885 0.05525904 0.465075 0.0033835927 0.09247089 -0.29568833 0.059394293 0.055809613 0.425903 -0.18337081 0.25121891 -0.044409193 -0.059856072 -0.32705233 -0.268724 0.023938483 -0.00078650867 -0.117068164 -0.16797575 -0.27057388 0.03206035 -0.11677867 0.042413067 -0.25210738 -0.13618672 0.17950918 -0.0527949 -0.11281617 0.16316848 -0.14630622 0.08111504 0.73559 0.028166562 0.059156273 -0.24326575 0.05120759 -0.25504842 0.057127006 0.24675007 0.019634686 -0.22052224 -0.30762604 -0.049486287 0.24767394 -0.2028695 -0.2763115 -0.2982492 -0.099101685 0.024158448 0.053513493 0.30121046 -0.3184758 0.21098222 -0.4317223 0.008350018 -0.0011237712 -0.19553295 -0.036242943 0.052356698 -0.020573886 -0.022727504 -0.3149549 0.065740906 -0.18064405 0.5208203 -0.19010918 -0.22624156 0.45859346 0.6168676 -0.4264812 -0.13159002 0.17964152 -0.46093893
317 -0.28568703 -0.31156224 -0.06920311 -0.37046003 0.14265653 0.098749444 -0.3203742 -0.016487448 0.16546233 -0.020477884 0.007722122 -0.18612838 -0.16576368 -0.37125838 -0.113216564 0.17327322 0.26739955 0.2605342 -0.29113713 -0.22920403 -0.13057643 0.25250322 0.14397441 0.22392121 -0.2909075 -0.118351035 -0.3233043 -0.06028916 -0.026042001 -0.054585043 -0.37194633 0.2649111 -0.35915264 0.12270535 -0.50297415 -0.30539525 -0.32506418 0.17395212 0.37862876 -0.18514605 -0.19245729 0.34219787 -0.5783604 -0.21868154 -0.011647805 0.07823697 0.46764603 0.24392702 0.5135414 0.30727974 -0.129842 0.093337715 -0.015278571 0.55377626 -0.19892009 -0.08607253 0.08567918 -0.62111795 0.10462685 -0.30575734 -0.007882308 0.23005252 0.25557926 -0.29295933 -0.1747326 -0.26260042 0.114300705 -0.776487 -0.4434254 -0.53778106 -0.078671716 0.23103553 -0.17791861 -0.08983923 -0.14308557 0.19240147 -0.09505723 -0.05736976 0.06401532 -0.029095296 0.084251955 0.36926648 -0.3555021 -0.16479698 -0.0012976021 0.09072293 -0.06823891 -0.25075096 0.008938083 0.18253623 0.23867178 0.36628872 -0.08894879 0.3257446 -0.03970743 0.02829399 0.07602528 -0.14610162 -0.3019837 0.34121916 0.41032362 -0.115049474 0.48943225 0.15891108 -0.118075415 0.05061269 -0.12444363 -0.10913195 0.07417874 -0.24620377 0.24600114 -0.021682912 0.1700921 -0.0523572 -0.07529867 0.010213481 -0.07914411 0.052588537 -0.22062628 0.23187852 -0.04148851 -0.19362958 0.28126767 0.07915308 -0.10323629 -0.27059337 0.26407635 -0.33918494
68 -0.332219 -0.727587 -0.2731024 0.3240388 -0.0120757725 0.2827146 -0.238105 -0.09576464 -0.16585629 0.13812006 -0.3502822 0.13629098 -0.38280317 0.11804134 0.28236225 -0.35349363 0.059026074 0.30331358 -0.24416915 0.049834143 -0.17617868 0.03735494 0.23919591 0.45117232 -0.19155002 -0.17517975 0.15521166 -0.17779253 -0.1178038 0.1469184 -0.26160604 -0.21127838 0.42375064 -0.005107728 -0.3041528 0.29916534 -0.59265244 0.07216713 0.32615864 0.134375 0.1746341 -0.36426067 0.06445385 0.24912196 0.026217567 -0.29291022 0.091204084 0.24508117 0.5612263 -0.54124 0.078160934 -0.054128952 -0.30021074 -0.035600815 0.081664346 0.07659792 0.116523065 -0.2850156 0.1449485 -0.12255697 0.019896278 0.36045882 0.3274394 0.43699914 -0.33203918 0.13852513 0.1666591 -0.16362382 -0.51443154 -0.3110362 -0.0621167 0.14695908 0.10808746 0.042773582 -0.027585432 0.00080033654 0.06184811 0.7659153 -0.011352995 0.22053161 0.3055734 0.11134987 -0.29827178 -0.027642729 -0.28869423 -0.18536125 -0.12114892 -0.3393222 -0.42253757 0.1426376 -0.3342642 0.07249272 0.19386902 0.058298647 -0.25735477 0.03946553 -0.7307458 -0.387429 -0.0405925 0.22647057 0.2627043 -0.15144533 0.1775584 0.10121237 0.17431782 0.16201492 -0.016491199 0.18099794 -0.39926183 0.07242228 0.038554337 -0.14694482 0.028073685 0.19227894 -0.13190046 0.011300286 0.20832045 -0.6569208 0.085379444 -0.3839537 -0.3146664 -0.40561882 0.20248477 -0.18159692 0.20916373 -0.040985458 0.13427442 -1.1033819
429 -0.047568854 -0.25926977 -0.06269741 0.1539367 0.22062786 0.31543097 0.027158923 -0.15946645 -0.05676613 -0.15538524 -0.29782096 0.24440251 -0.12300116 -0.0935298 0.057452332 0.30660462 0.09179296 0.09831864 -0.20215034 -0.12379542 -0.18949424 0.06527664 0.44712332 0.032418124 0.14983043 -0.13052969 -0.1885089 -0.3613856 0.19128498 0.031057592 -0.2851173 0.17141633 0.26432705 -0.091888085 -0.49360302 0.14615878 0.038991097 0.1121189 0.5115341 -0.26442048 -0.112085454 -0.14517125 -0.3796575 -0.12622978 -0.05394087 -0.36287183 0.20016828 0.20416443 0.4595784 0.3586479 0.20984213 0.4088763 -0.067980215 0.4826227 -0.17612126 -0.036319375 0.29650715 0.4361564 -0.1599654 -0.11388029 0.08813407 0.26603815 -0.025134252 0.04288173 -0.041602947 0.48025393 -0.0069622374 -0.22076382 -0.33328745 -0.41259015 -0.26883483 0.24704461 0.38052338 0.04836141 -0.06124165 -0.3445376 -0.0036062694 -0.02481525 0.03595453 -0.13397025 -0.057390597 0.21926185 0.16752838 -0.087999284 -0.21532935 0.040435407 0.4543215 -0.1355304 0.10186923 0.21171252 0.0796274 0.02504942 0.27149048 0.23813431 0.09067733 -0.233108 -0.28339845 -0.3912503 0.31431454 -0.043164004 0.021475438 -0.1836239 0.16731143 0.36402056 -0.03056107 0.32179493 -0.2092236 -0.06659701 0.15362175 0.061273262 -0.14224005 -0.116221845 -0.37368053 0.2316323 -0.17828928 0.013610314 0.017088853 -0.09454171 -0.30601195 0.15417638 0.18238766 -0.20159154 0.19905107 0.40076852 0.012960065 0.15513268 0.18560769 -0.20090947
171 0.05467141 0.02946748 -0.21870181 -0.5249031 0.2253531 -0.07011247 -0.24220905 -0.09452576 -0.36983645 0.2297134 -0.4098934 -0.027120685 -0.6006605 0.0045486605 0.19906715 0.28256166 0.2325831 -0.045708623 -0.32325768 -0.03638681 -0.013715026 -0.35015556 -0.24861449 0.37635967 -0.21160427 -0.072926074 0.1335624 0.0075249355 -0.31134027 0.044824816 -0.16674069 -0.33083376 0.02856559 0.21661101 -0.3611027 -0.27368775 0.02213968 0.43830034 0.00903888 0.09807888 0.043524142 -0.152542 -0.14954418 0.047610026 -0.32393968 -0.44368654 0.17640267 0.19802445 0.08750378 0.057572857 0.017845932 0.11812392 0.22147155 0.47430325 0.1823576 -0.34790626 0.4992634 -0.39340636 0.08485604 -0.015719356 -0.62156045 -0.24510053 0.5007998 -0.10496276 -0.21625483 0.052827813 0.15348686 -0.34265062 -0.27867764 -0.5708389 -0.11735594 0.36638293 0.016281983 -0.19387074 0.36755505 0.17000426 -0.35393503 0.19135879 0.3772271 0.1400992 -0.19905283 -0.09746345 -0.22767766 -0.12461065 -0.035833586 0.3283158 0.1316982 -0.6671954 -0.073394425 -0.2963256 0.3424729 -0.09848671 -0.056760393 0.071948044 0.108468 -0.15996903 -0.3797984 -0.65678096 -0.048191477 -0.23137988 0.13653526 0.20648845 0.24382158 0.10442461 0.2517452 0.2858176 0.3141501 0.35797843 -0.35497844 -0.09062884 -0.032272212 0.28971592 -0.20824632 -0.31923136 -0.025681727 0.24049172 0.11274003 0.15837273 -0.1267281 -0.3110589 0.063841626 -0.06401069 0.405281 0.007776802 0.16708295 0.00056446664 -0.21975692 -0.37169862
641 -0.3842011 -0.09952588 -0.5015749 -0.3555592 0.017510101 0.00068257266 -0.04851397 -0.007483581 0.4124841 -0.20630057 -0.45358825 -0.21252404 -0.29372033 -0.18327118 0.005619609 -0.05203615 -0.10776905 0.19744967 -0.5573239 0.02146826 0.2658057 0.17642884 -0.27727163 0.050542388 -0.5169652 0.072481275 -0.14209332 0.072660394 0.014088636 -0.2531103 -0.054166168 -0.009210789 -0.24999031 0.26789254 -0.22044864 -0.5584535 -0.28538167 0.10596892 0.28939286 -0.13108498 -0.02256921 0.30277932 0.20251946 0.32653543 -0.033610843 -0.25469851 0.47525266 0.5433544 0.35071886 0.21112303 0.38355073 0.26911008 -0.0799018 0.4177675 -0.05997403 -0.36277393 0.311983 -0.22004224 -0.08001522 -0.46098992 0.29126573 0.024015538 0.4749038 -0.051116522 0.075119145 0.15736552 0.04634849 -0.2928651 -0.5497406 -0.7223879 -0.49177566 0.03775229 0.13259429 0.20455305 -0.7164255 0.016180815 -0.24391146 0.0041361656 0.2386815 -0.041727442 -0.018815408 0.09802198 -0.44976613 0.18581186 -7.3018025e-05 0.4968814 0.30761373 -0.076266825 -0.16980268 0.3124878 -0.023076206 0.3647322 0.16049218 -0.1743556 -0.18725774 0.0685091 -0.4926156 0.17500761 -0.21803492 -0.17087269 0.10321937 0.07170797 0.09201575 -0.1062443 -0.06553521 -0.0174596 -0.18301782 0.09564616 -0.13617699 0.028925464 0.14165704 -0.20191218 -0.3066223 0.19004525 0.019797325 -0.1682822 -0.11869595 0.21664889 0.11759109 -0.053065803 -0.12905975 0.42844853 0.45492244 -0.45210326 -0.60592633 -0.5102429 0.590766 -0.036891118
478 -0.047395177 0.072212406 0.053728912 -0.08812259 0.19376364 0.06286264 -0.15684986 0.1572057 0.1328676 0.08495263 -0.24188016 -0.25698063 -0.15895791 -0.5188196 0.4263096 -0.13957754 0.37925994 0.2007709 -0.23317105 0.0035437515 0.49879584 0.4399973 -0.30588764 -0.09338366 0.12515987 0.20804234 0.049047835 0.3085415 0.23741892 0.11209887 -0.13239434 -0.16903351 -0.30700168 -0.2472775 -0.14917918 -0.12416983 -0.11575148 0.22067624 -0.024022121 -0.2755529 0.07814816 -0.22064829 0.31609926 -0.27193147 -0.11784961 -0.58951813 0.21639208 0.18537684 -0.1188783 0.20531195 -0.28836575 0.4215359 -0.13522302 0.26728016 0.048781954 -0.17485224 0.20298666 0.023826068 0.03682129 0.0914452 0.30393967 -0.23851629 0.08427295 -0.069221534 -0.47858936 -0.24359624 -0.17669402 -0.40359938 -0.39305156 -0.784778 -0.27658173 0.032512125 0.11399777 -0.34555295 -0.022261646 -0.08244785 -0.12470972 0.07686751 0.14135097 -0.03329203 -0.26514947 0.20765957 -0.1550595 -0.16424997 0.36678264 -0.092930906 0.0045957444 0.0060652616 -0.13488549 0.25991178 0.037496015 0.45816466 0.12994525 0.32508993 -0.20576169 0.014168516 -0.21706341 -0.11596715 -0.2417976 0.2558089 -0.16304237 0.42089242 0.16828525 0.312139 0.39929068 0.050857622 -0.15586151 0.048377726 0.050469436 0.059496112 -0.35229382 0.011749492 0.055140406 0.04758783 -0.16727033 0.2828424 -0.39316592 -0.07234645 -0.018160267 0.10052543 0.17793496 -0.4656754 0.13354734 0.22574866 0.0046244357 -0.2574799 0.21386424 -0.1801447
945 -0.041623503 -0.5931812 -0.6156436 0.2155691 0.1552501 -0.35394713 0.4630306 -0.012812719 -0.06275154 -0.13818745 -0.8378868 0.38696307 -0.3788745 -0.28792772 0.095114626 0.55541986 -0.74072045 0.0514709 0.06260475 0.9632208 -0.09184932 -0.47747612 -0.22072406 0.55561316 -0.10868503 0.24536262 0.22002374 -0.6094663 0.0008306843 0.18001547 -0.80811554 0.11360206 0.686629 -0.39035913 -0.5760149 0.23369679 -0.7225996 0.481221 0.5426713 0.25323087 -0.1638863 0.45002207 1.3633786 -0.52044636 -0.401453 -0.14731686 1.3127575 1.0497515 1.3070939 0.024944963 1.1376394 0.24115601 0.6201688 -0.27169585 -0.98977536 -1.3399019 0.71308714 -0.04305661 0.16395494 0.19450071 -0.43663844 -0.17789254 0.5458852 -0.14979796 -1.2541181 0.5293911 -0.31307372 -0.76725954 -0.1481081 -0.65073824 -0.37403858 0.16260754 -0.10585719 -0.2992356 0.5473603 -0.8933705 -0.29383677 -0.4309743 0.733462 1.0359583 0.13792811 0.655635 -0.9348568 -0.21478727 0.45795667 0.028737828 -0.698823 -0.7293746 -0.48719084 0.39450505 -0.9192922 0.03340207 0.612623 0.7401096 -0.5454965 0.64087355 -1.3999913 0.113713056 -1.2061864 0.67629063 -0.5095259 0.6156898 -0.4230554 -0.88113654 -0.13696343 -0.07597335 -0.26869303 0.20964012 0.5533523 -0.3852318 -0.6781099 0.2756743 0.24451861 -0.040423777 0.33997628 -0.2920907 -0.22596249 -0.87335074 -1.0336199 -0.16400003 -0.68639505 -0.07168756 0.630969 -0.7384295 0.13417104 -0.1827119 0.4327447 -1.0140697
419 0.010601873 -0.1975102 -0.028673254 -0.31646237 0.26048344 0.45580912 0.012192545 -0.0926024 -0.15431003 0.1677028 -0.4419445 0.014063508 -0.069581665 0.03946518 -0.17290044 -0.10237302 0.39081055 0.18345746 -0.33046192 -0.22776529 0.25815943 -0.09529646 0.004503393 -0.2364222 0.30492622 -0.34490386 -0.1486423 -0.504085 0.00837421 0.3681112 -0.36221105 -0.31099355 0.17598884 -0.3050131 -0.1149345 -0.23534124 -0.047943298 -0.08102998 0.13861662 -0.07041499 0.10638333 -0.2438373 0.07683724 -0.11707823 0.23088442 -0.11719075 -0.16402903 0.002222717 0.32483068 0.32475933 0.0042238743 0.3602957 -0.39294907 0.318221 -0.4081018 -0.27456075 -0.12105815 -0.056641944 0.050294276 -0.29733557 0.12448331 0.041078955 -0.4013175 0.26548117 -0.14997911 -0.019017564 -0.12823075 -0.26813775 -0.13604592 -0.2512459 -0.20166405 0.4288438 -0.0055433926 -0.15465079 -0.15620944 -0.076538205 -0.12416958 -0.010284219 0.056637306 0.45740113 -0.011279588 0.20968129 0.03572507 -0.036403228 -0.22650248 0.18577486 0.08935444 0.5268975 -0.016363297 0.23230532 0.09995844 0.3781253 -0.22199391 0.06550772 0.08428336 0.14605615 -0.31672743 0.08752081 -0.1871386 -0.1446793 0.28896776 -0.2304936 0.21720752 0.13518634 -0.042213354 0.4726495 0.104723014 0.35895082 -0.1825388 -0.24466987 -0.14464845 0.019490926 -0.47198337 -0.388489 -0.008087433 0.5557436 0.081544586 -0.35334435 -0.14613044 0.52320355 -0.37068415 -0.26284423 0.5997033 0.044234633 0.01156793 0.24076332 0.015301283 -0.42154813
216 -0.1465361 -0.3000805 -0.012270647 -0.15224184 0.07928187 0.27262583 0.13245071 -0.095420465 0.11683099 -0.06471918 -0.3121157 -0.3528959 -0.2847254 -0.06511013 0.4403677 -0.11252045 0.5350122 0.4052725 -0.12676567 -0.2817277 -0.07471307 -0.13487597 -0.05054866 0.17962189 -0.008474367 -0.18478638 -0.23219736 -0.035900697 -0.046925705 0.17940624 -0.4054559 -0.41809174 -0.05652845 -0.34457144 -0.13227913 0.061478063 -0.480775 -0.28117308 0.41688693 -0.30780974 0.24075927 -0.25576627 0.055040535 0.11468947 0.23543125 -0.2541923 0.3925498 0.29905304 0.38642392 0.116828054 0.21160758 0.044919707 -0.3115739 0.19371536 -0.13092794 0.08404426 -0.21394055 0.1348813 -0.0026803452 -0.4060132 -0.14663926 0.17651868 -0.077101566 0.27124813 -0.086759806 0.1548931 -0.11313677 -0.33576897 -0.26685005 -0.19781685 -0.11975125 0.13326737 0.057091426 0.1349136 -0.18554798 -0.07412041 -0.26386416 0.20556659 -0.056124605 0.22569185 -0.18805191 -0.062076353 0.09070319 -0.0053684297 -0.020826427 0.09922411 0.0608525 -0.2060316 -0.27034494 0.088087656 -0.03056492 0.2675684 -0.061141234 0.11141961 -0.16149917 -0.07423661 -0.44124094 -0.40443534 0.011612605 -0.014506314 0.25102928 -0.066678934 0.3608754 0.22634201 0.13370335 -0.20723021 -0.1460174 0.09097947 0.01828359 0.07932288 0.039733924 -0.07273589 -0.08422796 -0.51331145 -0.3196355 -0.008674588 -0.035296593 -0.4224033 -0.053369347 0.38869035 0.13240984 -0.3808483 0.5026333 0.25020432 -0.0029723349 0.18752542 0.026254853 -0.85209286
535 -0.06575398 -0.35398397 -0.14970654 -0.3523833 -0.077420466 0.43830985 0.24166082 0.04344583 -0.1557746 0.035718035 -0.1624194 -0.0131246885 0.019750187 -0.12009311 0.037341084 -0.14990154 0.38115725 0.6103579 -0.12954283 0.06904008 0.3784651 -0.2575238 -0.10158122 -0.13557771 0.053228565 -0.1769486 -0.055747457 -0.1549127 0.24111646 0.3468779 -0.28580037 0.01930075 0.08572602 -0.22983713 -0.6664014 -0.1059434 -0.09955807 -0.21883738 0.15295821 -0.13075037 -0.015586536 -0.0363437 0.0054863193 0.098500095 0.22143301 -0.26575643 0.24594143 0.39855763 0.3733465 0.10469621 0.1322583 0.25160995 -0.41154996 0.3181458 0.14481738 -0.3741261 0.032636374 0.21193455 -0.05619981 0.05884498 0.18247001 0.09299649 0.07115593 0.13330711 -0.04982603 0.29170048 -0.16528657 -0.16386446 -0.16890213 -0.08573479 -0.13915879 0.19192934 -0.014463023 0.077706814 -0.31439874 0.059682958 -0.16239057 9.332884e-05 0.17801012 0.19538932 -0.29292873 -0.086358346 -0.038637 -0.03900288 -0.31726533 0.122326955 0.3745739 0.018700682 0.04202502 -0.07992182 0.039044335 0.15819699 -0.13443567 0.2592787 0.1725509 0.07009706 -0.1182023 -0.17649019 -0.06507724 0.17636913 0.11044927 -0.21149898 0.14810976 0.13123581 0.4113744 -0.046143286 -0.23532614 0.27261424 -0.18211415 -0.06860363 -0.004385431 -0.2998031 -0.0057534967 -0.3538288 -0.087911814 0.030118886 -0.035643697 0.18457048 0.05305333 0.34197617 -0.21916358 -0.4614724 0.38407892 0.0012707887 0.12015025 0.07263378 -0.059072457 -0.25894994
579 -0.21711639 -0.19763395 -0.005526986 -0.16996211 0.32413158 0.33170593 -0.08218438 0.15709113 -0.07021205 0.040521245 -0.4888141 0.008886685 -0.014867896 0.028040819 0.11849443 0.29008383 0.5019517 0.059182536 -0.25626823 -0.20300016 0.03294838 -0.038696565 0.07357147 0.28834978 -0.040788826 0.1549479 0.21856497 0.17086343 -0.14348212 0.04013645 -0.3309746 0.19055071 -0.08130676 0.2737697 -0.23813981 -0.20086096 -0.245385 -0.057007425 0.18209264 -0.11074452 -0.07614845 -0.007799578 -0.18753046 -0.06501511 -0.06383434 -0.49671814 0.28905648 0.20206907 0.1214572 0.03728238 0.102950126 -0.107855365 -0.244225 0.45179287 0.1866084 -0.08238776 -0.10124569 -0.29793626 0.2011908 -0.053008754 -0.13640273 -0.23987363 0.37458834 -0.14127216 0.10032938 0.06354017 0.04969797 -0.5843634 -0.30892357 -0.41391727 -0.14104465 0.6244603 -0.1478014 -0.06028706 -0.07041604 -0.1255592 0.115253255 0.052431334 0.30071586 -0.2395159 -0.14937204 -0.08329963 -0.12606129 -0.38148716 -0.3337723 0.3702894 0.1490006 -0.39503762 0.14619738 0.10820655 0.09598345 -0.019700173 0.2916163 0.030039977 -0.087963544 -0.15627035 -0.35547405 -0.43851107 -0.2530493 -0.31216985 0.4452158 0.2804526 0.058806907 0.13927156 0.059871677 0.020937653 -0.04845785 -0.33250496 -0.10415651 -0.18786435 -0.06677567 -0.13584758 0.05379052 -0.07694768 -0.038634367 0.12362841 0.10689822 0.19312565 0.14704446 0.17178726 -0.09854938 -0.28811476 0.24684812 0.2876243 -0.038604718 0.39078152 -0.08365685 -0.5543205
85 0.0057404344 -0.15756698 0.06612548 -0.2933555 0.2604654 0.22078829 0.19252437 -0.1949211 0.041216638 0.07105978 -0.25325614 -0.102488264 0.0536182 -0.40469557 -0.34386134 -0.06446457 -0.08264384 -0.025792465 -0.08319373 0.18019013 0.033929944 -0.06852818 -0.7471109 -0.4032592 -0.34336942 0.16281629 0.38770327 -0.46928015 -0.49138874 -0.19911578 -0.64218724 0.3133291 0.2120028 -0.542704 -0.58382285 0.08742144 -0.24559465 0.024520209 0.32080606 0.3404571 -0.4889019 -0.14738601 -0.32824355 -0.02271563 0.16697307 -0.47024775 0.65204513 0.4998658 0.11076587 0.0025389895 -0.027805854 0.29285008 -0.20716305 0.21126187 -0.06708522 -0.6596932 -0.070083134 -0.22284812 0.42208096 -0.1572014 -0.1186615 0.019818746 -0.009162109 0.11771337 -0.2591321 0.08185984 0.008586695 -0.19573441 -0.80257386 0.13577007 -0.3618964 0.40728694 -0.14634784 -0.5754088 0.20054734 0.0757247 -0.11735192 0.28545555 0.29257828 -0.32117575 -0.40608782 0.19081609 0.041867215 0.22390857 -0.26830596 -0.17705286 0.04801124 -0.12377574 0.1615334 0.17926136 -0.29306635 0.108582094 0.18465787 0.31209865 0.20877373 0.8346468 -0.404183 0.22145982 -0.112977736 -0.1834324 -0.24990438 -0.1423931 -0.0017960035 0.23208675 -0.43622723 0.7478275 0.28390023 -0.1729511 0.21154778 -0.1201851 -0.34816092 -0.24428685 -0.1942126 0.27865875 -0.039782915 0.39870155 -0.20195687 -0.08684336 -0.3938176 0.30437943 -0.18637173 0.026850807 0.17240462 -0.03133883 0.010398069 -0.0037174933 -0.21906853 -0.5053617
